
double hiddenWeights [40][785] =
{
{ 0.93126,0.69959,-0.05702,0.09500,-0.69738,0.09720,-0.57847,0.69097,-0.19309,0.09130,-0.02875,0.13653,-0.69765,0.47949,-0.35344,0.67842,-0.58820,0.53332,-0.66439,0.63809,-0.36907,0.20651,-0.29567,0.10210,-0.24783,0.30113,-0.16647,0.02856,-0.54513,0.32126,-0.31295,0.02259,-0.33190,0.62563,-0.19930,0.09103,-0.34851,0.15097,-0.41482,0.41546,-0.36985,0.63042,-0.65809,0.29420,-0.60192,0.57112,-0.36936,0.35493,-0.55636,0.21512,-0.27114,0.55145,-0.37703,0.38247,-0.69397,0.16690,-0.16004,0.41667,-0.23143,0.37937,-0.46218,0.30445,-0.23035,0.37199,-0.22334,0.15245,-0.52856,0.69117,-0.66210,0.08026,-0.40345,0.06431,-0.27588,0.54846,-0.63687,0.08260,-0.67195,0.07700,-0.32621,0.28912,-0.32291,0.04297,-0.06763,0.40327,-0.34805,0.53363,-0.30817,0.10290,-0.51637,0.48350,-0.03115,0.69687,-0.53715,0.20742,-0.21638,0.29285,-0.13668,0.06275,-0.41607,0.11830,-0.08962,0.51121,-0.28310,0.32872,-0.14523,0.14497,-0.05942,0.53567,-0.52690,0.14724,-0.29362,0.47678,-0.23492,0.35894,-0.09358,0.63198,-0.08557,0.57847,-0.66951,0.06491,-0.44858,0.33645,-0.63882,0.03694,-0.41287,0.36757,-0.11753,0.11778,-0.23900,0.28113,-0.32062,0.56720,-0.25478,0.02584,-0.58954,0.27557,-0.03858,0.54557,-0.48436,0.02256,-0.62111,0.36296,-0.55020,0.29390,-0.14624,0.07614,-0.60390,0.36048,-0.44116,0.56994,-0.35922,0.11859,-0.33133,-0.05931,-0.30079,0.03187,-0.53237,0.26927,-0.62435,0.06692,-0.68585,0.06717,-0.32467,0.06724,-0.07645,0.13869,-0.33540,0.30272,-0.01383,0.33566,-0.14817,0.59575,-0.53599,0.29674,-0.20253,-0.01457,-0.41631,0.22951,-0.51054,0.45049,-0.77752,0.32359,-0.08917,0.50900,-0.58606,0.41761,-0.69032,0.47357,-0.71364,0.29115,0.01504,0.45826,-0.22920,0.36256,-0.15832,0.35991,-0.07920,0.21419,-0.10868,0.48719,-0.41084,-0.00754,-0.49730,0.18848,-0.63501,-0.06641,-0.39751,0.52061,-0.78166,0.02664,-0.56142,0.24936,-0.35538,0.28069,-0.45844,0.72292,-0.07202,0.05950,-0.36030,0.30557,-0.27624,0.47583,-0.30049,0.26580,-0.31058,0.21352,-0.34036,0.06307,-0.68175,0.28352,-0.51678,0.48962,-0.76340,0.45521,-0.74762,0.56924,-0.42444,-0.01106,-0.29331,0.18979,-0.06631,0.16966,-0.32136,0.51249,-0.21862,0.03919,-0.49773,0.09633,-0.37689,0.34674,-0.51271,0.02348,-0.62372,0.01616,-0.14400,0.44753,-0.64208,0.05528,-0.28452,0.09225,-0.68619,0.39323,-0.61153,0.13479,-0.29645,-0.04598,0.00362,0.12909,-0.19461,0.15105,-0.49235,0.26139,-0.13770,0.28842,-0.29906,0.74867,-0.16044,0.70406,0.03368,0.44083,-0.66708,0.24969,-0.39251,0.47799,-0.18089,0.43197,-0.32514,0.20410,-0.43214,0.07258,-0.20687,0.18323,-0.09851,0.45509,-0.40195,0.27713,-0.20545,0.46823,-0.57678,0.62836,-0.67338,0.79233,-0.13934,0.35452,-0.00148,0.59099,-0.19741,0.23862,-0.62390,0.32197,-0.50543,0.32496,-0.43496,0.58596,-0.29839,0.09180,-0.25110,0.05815,-0.52277,0.19886,-0.27201,0.12108,-0.34107,0.21783,-0.38289,0.48194,-0.30382,0.37145,-0.41245,0.08871,-0.46275,0.45780,-0.54196,0.44034,-0.49902,0.37758,-0.53806,0.40351,-0.34718,0.16152,-0.34758,0.30665,-0.33153,0.27969,-0.53814,0.41358,-0.54681,-0.04015,-0.43235,0.52921,-0.31819,0.10512,-0.67935,0.57420,-0.77536,0.50009,-0.44829,0.20971,-0.65073,-0.00570,-0.37724,0.36575,-0.51881,0.55996,-0.48940,0.04849,-0.36572,0.33474,-0.58765,0.60333,-0.28402,0.41373,-0.66585,0.23892,-0.63014,0.65732,0.05897,0.23032,-0.29312,0.06587,-0.24388,0.24954,-0.41500,0.49746,-0.27708,0.27446,-0.04190,0.58018,-0.37495,0.19296,-0.45126,0.44538,-0.15192,0.24046,-0.49230,0.02167,-0.53089,0.27631,-0.53964,0.30973,-0.36003,0.55861,-0.35169,0.31919,-0.24541,0.50124,-0.20253,0.26988,-0.25325,0.26068,-0.45605,0.60740,-0.42334,0.27939,-0.26593,-0.03639,-0.57488,0.54306,-0.56890,0.12443,-0.40410,0.03402,-0.11902,0.41881,-0.17228,0.45274,-0.36887,0.44519,-0.49620,0.30565,-0.47141,0.25905,-0.40219,0.19870,-0.37905,0.21318,-0.52814,0.39493,-0.20726,0.25336,-0.41994,0.20089,-0.55414,0.32317,-0.60802,0.48598,-0.62514,0.13788,-0.00411,0.52658,-0.47364,0.41923,-0.01855,0.33281,-0.04289,0.50039,-0.55712,0.33582,-0.45095,0.27995,-0.18937,0.26718,-0.50799,0.27142,-0.20005,0.13090,-0.33149,0.48579,-0.66824,0.16395,-0.65154,0.46556,-0.24341,0.09767,-0.34472,0.53779,-0.11351,0.48965,-0.39532,0.56156,-0.65503,0.20692,-0.22484,0.80719,-0.28703,0.51542,-0.32022,0.19561,-0.55158,0.26571,-0.29368,-0.05859,-0.08261,0.10411,-0.21352,0.25813,-0.61851,0.27031,-0.78908,0.51777,-0.40053,0.14129,-0.29874,0.63713,-0.19273,0.27238,-0.26787,0.14943,-0.42698,0.35257,-0.20624,0.44923,-0.12642,0.40728,-0.54838,0.41929,-0.16070,0.29330,-0.65564,0.37325,-0.18258,0.53697,-0.57808,0.49219,-0.42350,0.22731,-0.55898,-0.02719,-0.45848,0.43261,-0.57594,0.57419,-0.16518,0.01700,-0.09144,0.26574,-0.58355,0.41671,-0.33648,0.44415,-0.56837,0.87674,-0.25671,0.76327,-0.16699,0.55951,-0.50530,0.77451,-0.11763,0.37864,-0.09250,0.39313,-0.36184,0.33422,-0.08179,0.56617,-0.67707,0.06275,-0.22276,0.20247,-0.18439,0.17795,-0.39413,0.47257,-0.03269,0.20963,-0.14333,0.51226,-0.27954,0.29497,-0.26802,0.66308,-0.28746,0.07637,-0.55678,0.35930,-0.72034,-0.01810,-0.28966,0.12523,-0.55566,-0.01457,-0.04051,0.44632,-0.36396,0.49837,-0.16486,0.08087,-0.57386,0.66664,-0.02637,0.42618,-0.15736,0.54116,-0.47828,0.17326,-0.37403,0.46231,-0.60041,0.30565,-0.02364,0.59800,-0.54282,0.52301,-0.31740,0.53211,-0.38313,-0.02212,-0.14826,0.40155,-0.48236,0.43106,-0.32865,0.27352,-0.60510,0.04503,-0.25272,0.57279,-0.40104,0.01546,-0.15578,0.49426,-0.31859,0.14280,-0.55336,0.57553,-0.04778,0.25825,-0.38302,0.45520,-0.24985,0.06113,-0.12442,0.19090,-0.35107,0.21373,-0.47323,0.11632,-0.00564,0.21745,-0.38518,0.30155,-0.25039,0.29101,-0.09409,0.02503,-0.68056,0.17421,-0.48316,0.06730,-0.55285,0.37079,-0.69394,0.21900,-0.09222,0.54155,-0.61454,0.59871,-0.46896,0.43741,-0.58760,0.11769,-0.38757,0.12925,-0.28645,0.07874,-0.43343,0.41888,-0.45066,0.55916,-0.56218,0.25754,-0.43335,0.46956,-0.02085,0.50098,-0.44319,0.06466,-0.39097,0.05555,-0.34310,0.05667,-0.10842,0.34981,-0.56874,0.55483,-0.07108,0.11161,-0.70304,0.47397,-0.37156,0.43366,-0.28562,0.30774,-0.20273,0.01725,-0.39870,0.67928,-0.12040,0.06378,-0.34885,0.61979,-0.07555,0.02555,-0.18836,0.15529,-0.42163,0.45755,-0.24531,0.45784,-0.60327,0.57149,-0.71873,0.67432,-0.43600,0.18307,-0.36294,0.45956,-0.13683,0.61025,-0.43186,0.38060,-0.17257,0.18482,-0.07659,0.54736,-0.10984,0.18030,-0.03130,0.28930,-0.10668,0.20690,-0.53836,0.65700,-0.38060,0.07150,-0.49539,0.25398,-0.06575,0.50418,-0.17887,0.44199,-0.09184,0.00881,-0.44457,0.05637,-0.26334,0.59495,-0.53974,0.13915,-0.67820,0.45011,-0.04781,0.59920,-0.51975,0.13271,-0.28790,0.25408,-0.29171,0.66635,-0.08029,0.60390,-0.45665,0.08992,-0.03765,0.01310,-0.30505,0.20245,-0.51530,0.21229,-0.00343,0.23399,-0.00030,0.07425,-0.58754,0.65938,-0.50798,0.37624,-0.34760,0.63840,-0.05706,0.02830,-0.25897,0.59310,-0.28398},
{ 0.12391,0.21064,-0.24285,0.53602,-0.57516,0.48394,-0.26233,0.33532,-0.04920,0.19079,-0.53656,0.49166,-0.53684,0.29016,-0.69573,0.12917,-0.19043,0.15349,-0.25422,0.63371,-0.27639,0.11526,-0.22709,0.36215,-0.21695,0.00230,-0.17556,0.06405,-0.63616,0.17722,-0.05142,0.33885,-0.49997,0.21728,-0.59392,0.69516,-0.26366,0.50404,-0.13732,0.14046,-0.07097,0.04511,-0.26967,0.61448,-0.16801,0.27870,-0.02991,0.24504,-0.17473,0.44434,-0.38426,0.04446,-0.34431,0.02433,-0.11455,0.26854,-0.50049,0.45698,-0.01262,0.00670,-0.59772,0.11726,-0.43544,0.01249,-0.56497,0.38543,-0.03989,0.38012,-0.67363,0.34879,-0.23365,0.00212,-0.61532,0.01908,-0.57437,0.29971,-0.54338,0.25065,-0.01477,0.56532,-0.63746,0.04926,-0.02455,0.34524,-0.23024,0.03448,-0.64849,0.13127,-0.51904,0.04297,-0.04770,0.34434,-0.35940,0.09109,-0.08305,0.48249,-0.19715,0.70063,-0.06023,0.19758,-0.19175,0.25388,-0.62833,0.24272,-0.33555,0.09761,-0.24663,0.36283,-0.09235,0.49154,-0.37498,0.13797,-0.53078,0.03952,-0.60153,0.59764,-0.23432,0.07215,-0.25364,0.08361,-0.08231,0.13952,-0.44147,0.30518,-0.60081,0.67455,-0.33298,0.68304,-0.35730,0.54277,-0.51611,0.42480,-0.40542,0.18947,-0.36744,0.56014,-0.13948,0.42168,-0.65988,0.49738,-0.48080,0.52169,-0.59459,0.69926,-0.23243,0.17800,-0.39162,0.68593,-0.61398,0.62451,-0.00877,0.28605,-0.48089,0.63234,-0.07643,0.22694,-0.48063,0.27769,-0.43402,0.48831,-0.32247,0.58282,-0.16468,0.32423,-0.32055,0.49974,-0.31506,0.37346,-0.02771,0.12283,-0.12664,0.47523,-0.32241,0.15829,-0.52789,0.13149,-0.35362,0.33998,-0.10425,0.52738,-0.05087,0.04263,-0.12838,0.55367,-0.12834,0.24760,-0.60652,0.22559,-0.09399,0.59733,-0.34091,0.22502,-0.62795,0.19532,-0.21019,0.13048,-0.34285,0.55006,-0.07030,0.60872,-0.09536,0.06910,-0.62698,0.66275,-0.52991,0.18937,-0.51530,0.23010,-0.05211,0.52323,-0.17709,0.61881,-0.05916,0.62558,-0.54455,0.36126,-0.57705,0.33825,0.02508,0.51557,-0.37430,0.24621,-0.10221,0.35853,-0.49817,0.07477,-0.20688,0.20216,-0.53841,0.61618,-0.64155,0.53111,-0.02456,0.06408,-0.59003,0.52005,-0.56548,0.18914,-0.13561,0.14212,-0.11955,0.43312,-0.16931,0.72946,-0.32671,0.15940,-0.51283,0.59501,-0.54098,0.47281,-0.05395,0.67959,-0.30136,0.57543,-0.35324,0.16268,-0.31391,0.20712,-0.38850,0.51142,-0.51476,0.65310,-0.54442,0.17276,-0.44175,0.73537,-0.02777,0.76259,-0.48028,0.67424,-0.22503,0.57887,-0.57472,0.38193,-0.24128,0.68902,-0.49306,0.26529,-0.63601,0.38545,-0.14434,0.27726,-0.08721,0.19856,-0.28075,0.61177,-0.65212,0.70231,-0.48892,0.27931,-0.62058,0.63842,-0.05515,0.34610,-0.11034,0.44806,-0.44561,0.69670,-0.05811,0.14481,-0.38723,0.72678,-0.55341,0.36570,-0.14324,0.66067,-0.53034,0.48052,-0.43131,0.67073,-0.55614,0.64415,-0.02159,0.61646,-0.20311,0.14699,-0.11303,0.16640,-0.24730,0.66395,-0.36323,0.14296,-0.31352,0.51498,-0.24971,0.37621,-0.00978,0.62388,-0.06451,0.13623,-0.48684,0.45448,-0.45087,0.31691,-0.36264,0.10491,-0.44006,0.40201,-0.25556,0.21449,-0.41663,0.20256,-0.60398,0.41443,-0.32324,0.49961,-0.24987,0.47409,-0.35143,0.49160,0.00915,0.79316,-0.18212,0.49260,-0.46922,0.55760,-0.17202,0.69774,-0.59338,0.67877,-0.14659,0.18388,-0.38019,0.36522,-0.15031,0.60652,-0.39982,0.14489,-0.18452,0.03743,-0.09558,0.54610,-0.41386,0.32697,-0.40974,0.60392,-0.00483,0.57465,0.01331,0.33953,-0.30196,0.17912,-0.51864,0.59819,-0.18135,0.12482,-0.57448,0.42005,-0.36416,0.58149,-0.00978,0.21416,-0.09529,0.56871,-0.46519,0.24569,-0.65373,0.61589,-0.14858,0.31369,0.00665,0.72579,-0.36429,0.23646,0.02187,0.27538,-0.45114,0.88492,-0.08567,0.20554,-0.21946,0.65803,-0.20585,0.56308,-0.63330,0.04984,-0.05654,0.68056,-0.12358,0.41875,-0.41446,0.13988,-0.37665,0.61451,-0.54032,0.56749,-0.62012,0.11653,-0.27476,0.36048,-0.27804,0.79382,-0.18092,0.22609,-0.36302,0.24834,-0.14880,0.18991,-0.28263,0.56871,0.03403,0.33722,-0.48266,0.59507,-0.66918,0.05902,-0.35167,0.38535,-0.66512,0.41887,-0.68097,0.44925,-0.00157,0.40730,-0.12358,0.40074,-0.32856,0.39557,-0.34780,0.46976,-0.50504,0.59121,-0.40057,0.23159,0.03242,0.77688,-0.42613,0.18182,-0.30178,0.22300,-0.52508,0.65588,-0.20556,0.69002,-0.62913,0.34464,-0.05563,0.28969,-0.30958,0.69475,-0.35419,0.25437,-0.39574,0.41518,-0.26373,0.33807,-0.31085,0.41635,-0.12609,0.31952,-0.40632,0.81400,-0.13993,0.44916,-0.13784,0.48771,-0.08888,0.48434,-0.44158,0.32522,-0.26728,0.23511,-0.41715,0.01342,-0.19361,0.63114,-0.40132,0.47720,-0.27030,0.09703,-0.01716,0.22740,-0.36324,0.32246,-0.14270,0.58597,-0.03050,0.44682,-0.50376,0.53822,-0.14930,0.54533,0.00048,0.59040,-0.62831,0.38402,-0.55067,0.07222,-0.36992,0.19099,-0.30102,0.62477,-0.09795,0.34706,-0.00137,0.60997,-0.16229,0.27211,-0.25807,0.40581,-0.28064,0.45284,-0.32125,0.50689,-0.53597,0.30014,-0.45140,0.63214,0.05235,0.11496,-0.56132,0.15136,-0.23772,0.22616,-0.42659,0.55932,-0.08741,0.18347,-0.69865,0.22771,-0.68150,0.63633,-0.18013,0.67435,-0.20791,0.09867,-0.55667,0.46071,-0.08101,0.63830,0.03189,0.44990,0.06323,0.81134,-0.51341,0.28140,-0.05316,0.44679,-0.29478,0.49919,-0.64873,0.28016,-0.29508,0.68305,-0.44340,0.10039,-0.22736,0.40083,-0.58023,0.24510,-0.63544,0.66835,-0.69440,0.46743,-0.28213,0.44166,-0.10001,0.25019,-0.39515,0.63886,0.04304,0.77942,-0.28546,0.49723,-0.25632,0.59675,-0.34617,0.52918,-0.59556,0.15164,-0.19835,0.40856,-0.64120,0.67052,-0.12181,0.68065,-0.05529,0.28617,-0.01318,0.29844,-0.61149,0.63442,-0.20108,0.07592,-0.55454,0.34503,-0.58255,0.37275,-0.35132,0.37323,-0.58061,0.65839,-0.01033,0.46578,0.01973,0.65270,-0.53995,0.09453,-0.03726,0.36654,-0.34044,0.19020,-0.62556,0.32945,-0.34573,0.00929,-0.08890,0.26686,-0.68885,0.37141,-0.49739,0.19446,-0.11815,0.54383,0.03792,0.60037,-0.16192,0.29479,-0.20842,0.39796,-0.06377,0.31859,-0.19045,0.42239,-0.19932,0.24525,-0.05433,0.59892,-0.57783,0.21022,-0.67650,0.23481,-0.14282,0.11625,-0.10644,0.36618,-0.62465,0.02000,-0.07657,0.26076,-0.50225,0.44620,-0.48008,0.67002,-0.01347,0.07232,-0.29162,0.62641,-0.01484,0.66285,-0.64279,0.42394,-0.20725,0.28640,-0.54605,0.26868,-0.33656,0.04890,-0.15308,0.61272,-0.21170,0.58854,-0.63208,0.18650,-0.27133,0.25940,-0.48667,0.42720,-0.39675,0.18145,-0.26666,0.65877,-0.61245,0.31328,-0.28693,0.56821,-0.34391,0.38439,-0.12102,0.03291,-0.05342,0.45539,-0.38243,0.35646,-0.52504,0.46546,-0.48963,0.07203,-0.34897,0.60091,-0.53349,0.06797,-0.04957,0.07252,-0.22651,0.41369,-0.51350,0.03338,-0.28630,0.00855,-0.14724,0.18433,-0.45889,0.63804,-0.19980,0.13592,-0.36814,0.09059,-0.12354,0.12327,-0.46800,0.40332,-0.57263,0.51600,-0.12071,0.16556,-0.14187,0.23588,-0.36895,0.42029,-0.15751,0.52124,-0.02165,0.51512,-0.01952,0.47147,-0.01012,0.04550,-0.38667,0.02380,-0.31925,0.13091,-0.12334,0.27725,-0.54643,0.57764,-0.08548,0.24639,-0.61513,0.21964,-0.32694,0.66041,-0.30005,0.17855,-0.00072},
{ 0.16196,0.56229,-0.39279,0.60725,-0.10280,0.19456,-0.35390,0.03797,-0.50241,0.58873,-0.28112,0.49918,-0.24653,0.19831,-0.31460,0.16137,-0.00056,0.28874,-0.47156,0.10818,-0.29084,0.03480,-0.43353,0.69531,-0.33720,0.20390,-0.39100,0.69042,-0.64689,0.59338,-0.11329,0.13848,-0.61917,0.19870,-0.56914,0.60122,-0.21484,0.05560,-0.60143,0.17781,-0.09308,0.40389,-0.25780,0.25748,-0.39489,0.25921,-0.41653,0.54772,-0.33126,0.26367,-0.42568,0.52030,-0.26243,0.09908,-0.00613,0.18598,-0.23729,0.26070,-0.31381,0.41845,-0.05764,0.60662,-0.60824,0.54332,-0.12815,0.21140,-0.49336,-0.02544,-0.51557,0.21144,-0.22400,0.27624,-0.56711,-0.00934,-0.65595,0.54330,-0.37183,0.42302,-0.12681,0.30124,-0.43489,0.58690,-0.35543,0.52228,-0.03010,0.46897,-0.64410,0.55156,-0.63802,0.41763,-0.08244,0.53328,-0.61924,-0.03402,-0.58106,0.32983,-0.58718,0.51090,-0.56943,0.13593,-0.40409,0.37488,-0.67832,0.02212,-0.24244,0.54248,-0.75996,0.03356,-0.63298,0.33610,-0.62138,0.31406,-0.68217,0.62511,-0.63520,0.06393,-0.00860,0.64608,-0.10980,0.64863,-0.15361,0.36982,-0.65323,0.33442,-0.20640,0.22471,-0.38783,0.03631,-0.19046,0.09536,-0.57083,0.16902,-0.36176,0.21418,-0.28456,0.24283,-0.43559,0.16452,-0.05970,0.40762,-0.39638,0.28324,-0.41033,0.08699,-0.39714,0.33708,-0.14822,0.43374,-0.33410,0.38895,-0.11730,0.08078,-0.61906,-0.11454,-0.68502,0.09264,-0.46505,-0.05042,-0.63801,0.33143,-0.58692,-0.15369,-0.41250,0.17255,-0.43351,0.10658,-0.52280,0.06910,-0.39503,0.03503,-0.06900,0.03192,-0.52570,0.58180,0.08155,0.06405,-0.16669,0.27147,-0.50277,0.36908,-0.23542,0.23973,-0.07348,0.45892,-0.33041,0.08801,-0.22383,0.12107,-0.21684,0.07865,-0.56271,0.28957,-0.73417,0.36341,-0.35495,0.31410,-0.41404,0.06931,-0.08560,0.45374,-0.38940,0.33563,-0.04142,0.37851,-0.27194,0.18766,-0.32531,0.50332,-0.48835,0.60151,-0.29333,0.42686,-0.10436,0.26600,-0.58458,0.62662,0.02840,0.26507,-0.49917,0.34727,-0.29179,0.24054,-0.28895,0.41804,-0.34635,0.35712,-0.56218,0.42100,-0.52744,0.72659,-0.25290,0.71747,-0.15193,0.23829,-0.17927,0.14728,-0.38368,0.16470,-0.21453,0.03866,-0.49061,0.23646,-0.26845,0.06291,-0.41303,0.19674,-0.45828,0.49115,-0.67182,0.37670,-0.21773,0.44397,-0.64366,0.15876,-0.22928,0.22049,-0.50439,0.72142,-0.24482,0.31226,-0.03420,0.55697,-0.59244,0.09024,-0.67986,-0.03717,-0.20474,0.27283,-0.31896,0.36205,-0.39725,0.39856,-0.24487,0.55133,0.02885,0.60290,-0.48145,0.64081,-0.13279,0.41221,-0.22360,0.63113,-0.35915,0.31489,-0.07157,0.28638,-0.15910,0.20641,-0.20593,0.38665,-0.58967,0.13761,-0.76129,0.25650,-0.67983,-0.22695,-0.22854,0.78444,0.08844,0.34645,0.08239,0.54060,-0.15109,0.34811,-0.20824,0.46666,-0.50375,0.62530,-0.52855,0.67359,-0.22988,0.00964,-0.47611,0.18701,-0.66085,0.34345,-0.69166,-0.24501,-0.47278,-0.17834,-0.07897,0.38557,-0.37005,0.51183,-0.23358,0.57796,0.10622,0.33869,-0.28853,0.84542,-0.28546,0.45288,-0.35513,0.40560,-0.17522,0.67397,-0.66167,0.69648,-0.46593,0.60320,-0.34921,0.27457,-0.58743,0.27115,-0.66281,0.35653,-0.63306,0.48835,0.01108,0.30348,-0.07242,0.30279,0.21598,0.27746,0.01882,0.50688,-0.48291,0.06765,-0.13467,0.27468,-0.82308,0.01586,-0.56762,0.58603,-0.13040,0.37363,-0.57936,0.62046,-0.67959,0.39868,-0.46954,0.62074,-0.24115,0.16093,-0.07588,0.36173,-0.26218,0.72040,-0.10513,0.93470,-0.25878,0.78075,0.00626,0.16367,-0.61941,0.23497,-0.63161,0.05003,-0.20035,0.08772,-0.06085,0.28667,-0.50439,0.39891,-0.52799,0.48160,-0.48053,0.52062,-0.17690,0.72194,-0.41515,0.74603,0.09009,0.64255,0.12788,0.38355,-0.12168,0.62499,-0.26662,0.22482,-0.08854,0.33204,-0.42096,0.24385,-0.04590,0.28998,-0.79952,0.35670,-0.31906,0.41357,-0.10012,0.01149,-0.56262,0.46181,-0.30199,0.59997,-0.59292,0.27363,-0.14607,0.30336,-0.30082,0.52265,0.08362,0.95876,0.08663,0.54869,-0.06048,0.43471,-0.19786,0.34798,-0.39522,0.32729,-0.09525,0.37374,-0.61472,0.43776,-0.08963,0.47593,-0.04699,0.41358,-0.44123,0.40202,-0.20607,0.23272,-0.05786,0.09410,-0.58266,0.38466,-0.85911,0.37414,-0.16832,0.78340,-0.22941,0.33728,-0.24611,0.54462,-0.26105,0.37046,-0.19432,0.61700,-0.01757,0.24318,-0.52979,0.50165,-0.12962,0.63834,-0.10563,0.63452,-0.63548,0.13333,-0.18155,0.36181,-0.53483,0.35033,-0.75321,-0.25003,-1.06892,-0.41503,-0.69711,0.29155,-0.48751,0.44377,-0.05960,0.13727,-0.51841,0.34746,-0.17455,0.09231,-0.64636,0.39197,-0.46701,0.39335,-0.68294,0.22285,-0.06841,0.53231,-0.58080,0.35319,-0.11945,0.57153,-0.61402,0.07893,-0.54820,0.10645,-1.21333,-0.37302,-1.13865,-0.00656,-0.83855,0.08680,-0.13853,0.21969,-0.42093,-0.14909,-0.56435,0.63991,-0.15715,0.01693,-0.64431,0.01994,-0.51303,0.56039,-0.37027,0.30270,-0.59291,0.29886,0.13620,0.54049,-0.04281,0.48572,-0.72239,0.02643,-0.78057,-0.05007,-1.05480,0.01415,-0.70758,0.17494,-0.62598,0.35138,-0.10903,0.36664,-0.65756,0.31316,-0.28979,0.41708,-0.44891,0.49172,-0.12226,0.69522,-0.40548,0.59243,-0.13181,0.48988,0.10293,0.79209,-0.18608,0.22653,-0.43850,-0.04568,-0.70375,-0.09492,-0.82121,-0.27369,-0.62327,-0.20687,-0.55231,0.19991,-0.58624,0.68343,-0.08412,0.37058,-0.02725,0.08678,-0.76251,0.53156,-0.66427,0.39697,-0.58842,0.64672,-0.45352,0.50410,-0.06440,0.33614,-0.14557,0.00965,-0.43328,0.10416,-0.35134,0.45853,-0.21033,-0.24288,-0.59064,-0.00088,-0.55668,0.13814,-0.25198,0.46124,-0.64170,0.56686,-0.61329,0.11278,-0.44973,0.12417,-0.68456,0.61531,-0.07059,0.64734,-0.36788,0.49914,-0.14507,0.47831,0.11579,0.09701,-0.58716,0.57557,-0.51309,0.46630,-0.14585,0.36762,-0.46938,0.19569,-0.35349,0.35343,-0.65552,0.26600,-0.58342,0.09131,-0.05522,0.29625,-0.21802,0.64692,-0.12045,0.05062,-0.58007,0.31069,-0.53687,0.16846,-0.35528,0.70804,-0.17457,0.68298,0.02996,0.69049,-0.41880,0.37066,-0.46212,0.44355,-0.57729,0.46743,-0.58285,0.16183,-0.26990,0.15129,-0.46528,0.37422,-0.25075,0.40200,-0.29539,0.10586,-0.33340,0.31945,-0.03256,0.56688,-0.53853,0.07535,-0.39110,0.32612,-0.44386,0.80579,-0.19974,0.70178,-0.18068,0.69909,-0.44521,0.35095,-0.27116,0.34016,-0.31580,0.27987,-0.19635,0.04924,-0.67102,0.04404,-0.25280,0.50228,0.02961,0.20626,-0.27323,0.09332,-0.29402,0.31995,-0.64487,0.30403,-0.08340,0.08959,-0.11434,0.50415,-0.23851,0.74231,-0.20591,0.54991,-0.44966,0.25468,-0.42717,0.39955,-0.23353,0.09705,-0.66404,-0.03599,-0.07427,0.31707,-0.10078,0.62145,-0.21890,0.08957,-0.42039,0.31384,-0.27587,0.46037,-0.30892,0.10009,-0.17924,0.41312,-0.69326,0.07928,-0.27717,0.61373,-0.38377,0.21323,-0.52146,0.22560,-0.45166,0.17681,-0.19308,0.52295,-0.03999,0.09460,-0.27712,0.47620,-0.31206,0.44085,-0.48211,0.32573,-0.57519,0.14896,-0.33215,0.66531,-0.00789,0.34163,-0.40542,0.13374,-0.11568,0.40278,-0.49859,0.11266,-0.66226,0.54485,-0.58363,0.66298,-0.18153,0.35407,-0.16742,0.51474,-0.61217,0.18116,-0.38015,0.29909,-0.02210,0.46253,-0.19883,0.64457,-0.01881,0.36088,-0.54277},
{ -0.58688,0.07607,-0.30548,0.46418,-0.60449,0.48403,-0.35466,0.35284,-0.50096,0.01900,-0.06632,0.28258,-0.53719,0.58961,-0.00983,0.32485,-0.43502,0.53091,-0.10810,0.26795,-0.27839,0.01891,-0.06145,0.35769,-0.08163,0.62694,-0.59341,0.46559,-0.51471,0.05934,-0.54641,0.28701,-0.02972,0.34275,-0.34248,0.00836,-0.47724,0.15935,-0.45827,0.40667,-0.37977,0.27775,-0.53351,0.59829,-0.56589,0.01037,-0.47787,0.02131,-0.46666,0.36205,-0.60210,0.53959,-0.29451,0.09890,-0.44191,0.20086,-0.46128,0.18434,-0.00808,0.63544,-0.69546,0.62680,-0.31060,0.34145,-0.00082,0.23685,-0.32382,0.05951,-0.28240,0.27891,-0.43569,0.52948,-0.62937,0.53375,-0.51781,0.53142,-0.61526,0.04612,-0.26397,0.41753,-0.44089,0.40427,-0.64082,0.29432,-0.40281,0.37660,-0.13077,0.58884,-0.08346,0.68171,-0.31844,0.52442,-0.56136,0.06407,-0.30563,0.46282,-0.53489,0.29001,-0.66725,0.40666,-0.11253,0.42650,-0.06969,0.50330,-0.52593,0.03501,-0.34590,0.47272,-0.04883,0.24295,-0.00775,0.37746,-0.61649,0.65254,-0.37136,0.23565,-0.39263,0.53943,-0.38871,0.63457,-0.47210,0.45887,-0.31089,0.11238,-0.39110,0.35899,-0.20648,0.08936,-0.40385,0.46644,-0.61431,0.12152,-0.51366,0.15630,-0.51490,0.63395,-0.23246,0.03158,-0.25261,0.06978,-0.69888,0.36038,-0.56448,0.09562,-0.38871,0.63744,-0.51113,0.22215,-0.43141,0.38804,-0.21425,0.60248,-0.37621,0.61475,-0.38963,0.14709,-0.05004,0.46824,-0.37268,0.52636,-0.28078,0.26381,-0.52718,0.45698,-0.12032,0.42676,-0.55237,0.02384,-0.42618,0.53893,-0.42610,0.30914,-0.54807,0.62350,-0.06907,0.61529,-0.26474,0.69184,-0.25112,0.57085,-0.61078,0.53767,-0.16863,0.47824,0.03300,0.32911,-0.45112,0.19838,-0.34598,0.60801,-0.37378,0.15184,-0.36358,0.36708,-0.52863,0.18985,-0.57261,0.47050,-0.66875,0.30352,-0.47200,0.06113,-0.23707,0.42826,-0.55118,0.44695,-0.59426,0.09514,-0.36483,0.22581,-0.64745,0.64555,-0.29258,0.25769,-0.24873,0.17282,-0.03946,0.58229,-0.66881,0.52601,-0.57108,0.04747,-0.10013,0.34495,-0.60422,0.62772,-0.04067,0.26728,-0.24408,0.52479,-0.61697,0.25853,-0.34118,0.67527,-0.52639,0.50594,-0.07358,0.22468,-0.11971,0.78146,-0.19895,0.62888,-0.32473,0.15127,-0.21634,0.65391,-0.25756,0.38843,-0.60507,0.65649,-0.34109,0.66090,-0.56419,0.58515,-0.09852,0.48225,-0.38158,0.50468,-0.30463,0.36663,-0.03731,0.19292,0.04333,0.66848,-0.10793,0.51689,-0.46705,0.67941,0.07258,0.20717,-0.12523,0.48798,-0.30832,0.56366,-0.33261,0.55965,-0.66933,0.40350,-0.29662,0.63714,-0.51111,0.57699,-0.10581,0.66356,-0.62382,0.27161,-0.62279,0.37056,-0.53896,0.53455,-0.39667,0.04825,-0.36100,0.18454,0.05761,0.68006,-0.29212,0.66708,-0.22234,0.00764,-0.24903,-0.01142,-0.44028,0.08021,-0.23574,-0.00236,-0.71227,0.28169,-0.49626,0.62876,-0.19994,0.51103,-0.12523,0.18136,-0.64943,0.07308,-0.19809,0.48066,-0.27860,0.47781,0.03390,0.14222,-0.16691,0.31521,-0.40854,0.50002,-0.42801,0.25889,-0.43570,0.56688,-0.27193,0.51177,-0.14820,0.48051,-0.01076,0.36201,-0.45863,0.40741,-0.52744,0.02501,-0.15091,0.61008,-0.41528,0.37417,-0.42001,0.25192,-0.04654,0.18669,-0.21169,0.17988,-0.70983,0.40860,-0.52424,0.67766,-0.06958,0.32252,-0.13178,0.59673,-0.37453,0.60097,-0.34807,0.50045,-0.01632,0.53664,-0.42477,0.14727,-0.01724,0.52539,-0.19688,0.07910,-0.20483,0.29465,-0.22507,0.74489,-0.65735,0.41277,-0.55896,0.62555,-0.22413,0.68269,-0.46620,0.70827,-0.33497,0.35271,-0.28173,0.50811,-0.27794,0.22128,-0.53827,0.55587,-0.23120,0.05404,-0.61717,0.17620,-0.07514,0.34671,-0.52923,0.70084,0.00880,0.66006,-0.39738,0.77113,-0.31942,0.45642,-0.18756,0.33687,-0.48717,0.56332,-0.01677,0.39410,-0.26904,0.53258,-0.05171,0.25854,-0.45752,0.29615,-0.22826,0.32296,-0.15560,0.12251,-0.31293,0.13837,-0.38325,0.45816,-0.52086,0.63178,-0.06502,0.37464,-0.50591,0.61164,-0.44735,0.06555,-0.25234,0.71821,0.02051,0.69078,-0.13303,0.36149,-0.65672,0.38742,-0.31281,0.66021,-0.29064,0.22837,-0.03341,0.49611,-0.41677,0.45117,-0.50474,0.14177,-0.06911,0.45003,-0.03605,0.04889,-0.55274,0.66487,-0.31658,0.53371,-0.51697,0.66957,-0.34173,0.32359,-0.01429,0.67727,-0.28355,0.34848,-0.62743,0.58209,-0.02357,0.14238,-0.23593,0.48318,-0.48074,0.56219,-0.68284,0.32801,-0.31256,0.63442,-0.32815,0.39044,-0.40898,0.41739,-0.32605,0.64928,-0.16274,0.67526,-0.28125,0.73951,-0.60273,0.47451,-0.27105,0.46622,-0.05450,0.05764,-0.31713,0.73805,-0.35808,0.38399,-0.57164,0.64866,-0.21433,0.64014,-0.43214,0.29184,-0.44629,0.53600,-0.60938,0.22701,-0.32575,0.63616,-0.05368,0.05555,-0.20579,0.41476,-0.02621,0.33909,-0.11856,0.68122,-0.01495,0.12707,-0.42300,0.55678,-0.31994,0.25550,-0.25269,0.65991,0.04698,0.61882,-0.60894,0.27119,-0.67223,0.53032,-0.24851,0.49520,-0.52055,0.30764,-0.29888,0.17541,-0.10623,0.51137,-0.58817,0.21666,-0.60747,0.13640,-0.50866,0.16041,-0.47714,0.21714,-0.08600,0.58510,0.00048,0.20638,-0.09600,0.47897,-0.48286,0.51580,-0.13362,0.04380,-0.27327,0.05098,-0.49996,0.59562,-0.60914,0.09505,-0.46365,0.23321,-0.31114,0.09415,-0.56567,0.45595,-0.44455,0.30832,-0.42707,0.74623,-0.06151,0.40168,-0.60682,0.38619,-0.31720,0.46348,-0.61525,0.21396,-0.40026,0.59740,-0.67952,0.46144,-0.31497,0.33224,-0.21690,0.41810,-0.43272,0.24415,-0.61368,0.09623,-0.19522,0.69191,-0.19442,0.34469,-0.07317,0.25251,-0.43190,0.51199,-0.14422,0.70930,-0.60847,0.61309,-0.23074,0.48912,-0.01209,0.37104,0.03298,0.21893,-0.17369,0.42095,-0.22396,0.46374,-0.42296,0.11641,-0.68218,0.11043,-0.42183,0.15855,-0.04634,0.45471,-0.58691,0.26242,-0.10931,0.13999,-0.01818,0.25223,-0.54357,0.28512,-0.17727,0.66971,-0.20833,0.34893,-0.08150,0.67067,-0.65951,0.29247,-0.51189,0.29449,-0.19779,0.14927,-0.04105,0.49629,-0.68660,0.11690,-0.00477,0.02053,-0.60810,0.61992,-0.52975,0.59568,-0.40174,0.65721,-0.29365,0.17797,-0.11208,0.13230,-0.32628,0.41854,-0.46071,0.48700,-0.03782,0.17111,-0.25397,0.04505,-0.00118,0.41472,-0.41030,0.63183,-0.57792,0.68124,-0.48314,0.13958,-0.15225,0.32587,-0.50147,0.45059,-0.63278,0.41236,-0.16268,0.12773,-0.25350,0.21094,-0.05879,0.57216,-0.44335,0.60585,-0.40639,0.37633,-0.11348,0.06671,-0.39164,0.13802,-0.36723,0.61476,-0.05381,0.13325,-0.12487,0.11728,-0.59164,0.11218,-0.07758,0.47589,-0.17934,0.03657,-0.14627,0.64757,-0.06135,0.07205,-0.36679,0.40060,-0.46005,0.04191,-0.67696,0.09112,-0.33544,0.19247,-0.06656,0.51855,-0.38835,0.27343,-0.03572,0.55561,-0.10112,0.64888,-0.46236,0.20372,-0.14683,0.30511,-0.53171,0.27866,-0.45722,0.62890,-0.68530,0.67029,-0.42934,0.38362,-0.52795,0.10745,-0.69320,0.59323,-0.36848,0.22175,-0.10157,0.55565,-0.02648,0.49169,-0.34778,0.20040,-0.36706,0.13235,-0.56591,0.31345,-0.68552,0.15618,-0.68189,0.20832,-0.45197,0.61971,-0.20506,0.25982,-0.24513,0.40602,-0.45928,0.15716,-0.23388,0.36774,-0.38056,0.11719,-0.52854,0.10667,-0.09291,0.51155,-0.21212,0.66623,-0.19703,0.42347,-0.32092,0.19383,-0.64445,0.11602,-0.50413},
{ 0.35022,0.19997,-0.18104,0.45558,-0.26221,0.40148,-0.41104,0.06015,-0.08091,0.41640,-0.49119,0.30101,-0.15394,0.10405,-0.05464,0.53016,-0.46968,0.58612,-0.51857,0.63481,-0.58488,0.00460,-0.28853,0.43880,-0.37661,0.24212,-0.24272,0.55814,-0.02649,0.66439,-0.06585,0.69192,-0.00779,0.10043,-0.19449,0.33745,-0.35791,0.25369,-0.16213,0.57424,-0.50741,0.16382,-0.10121,0.48624,-0.43554,0.62752,-0.22033,0.02310,-0.31553,0.25416,-0.25210,0.04953,-0.58442,0.50221,-0.02486,0.58240,-0.31108,0.64084,-0.42964,0.39117,-0.69262,0.59158,-0.13436,0.28859,-0.68007,0.29042,-0.28033,0.49669,-0.41238,0.01627,-0.33660,0.52828,-0.56673,0.45047,-0.60899,0.31576,-0.57664,0.15286,-0.35158,0.07074,-0.53054,0.19539,-0.00046,0.14702,-0.61590,0.56667,-0.50634,0.20187,-0.59959,0.57554,-0.64870,0.65151,-0.70780,0.59624,-0.18410,-0.12554,-0.32551,0.08775,-0.11834,0.37653,-0.07397,0.35081,-0.17362,0.87479,0.21312,0.34211,0.14772,0.21059,-0.38500,0.53272,-0.63455,0.38351,-0.61908,0.06398,-0.05594,0.07576,-0.66757,0.52747,-0.04319,0.17167,-0.28153,0.45864,-0.48259,0.32856,-0.48349,0.00118,-0.66949,-0.19346,-0.56683,0.51354,0.00758,0.38400,-0.11889,0.47524,-0.37855,0.53669,-0.38756,0.65066,-0.47453,0.50537,-0.37409,0.44714,-0.51609,0.23044,-0.36584,0.19263,-0.04919,0.29870,-0.65234,0.10472,-0.76611,0.08138,-0.59209,-0.27512,-0.48546,-0.22208,-1.01894,-0.08279,-0.25471,0.35959,-0.38186,0.30522,-0.03115,0.36784,-0.00370,0.09250,-0.06627,0.00549,-0.64166,0.41376,-0.34124,0.02488,-0.32882,0.22996,-0.50303,0.36614,-0.33248,0.66033,0.04159,0.15527,-0.57380,0.45663,-0.67109,0.16400,-0.31905,0.44118,-0.56536,0.55804,-0.59289,0.18027,-0.27619,0.36088,-0.15571,0.70724,-0.17445,0.68338,-0.36591,0.62728,-0.11857,0.31572,-0.53526,0.24419,-0.07731,0.50937,-0.52616,0.64374,-0.48042,0.54552,-0.41214,0.41937,-0.39267,0.31208,-0.29646,0.37036,-0.20690,0.31464,-0.12474,0.27143,-0.44299,0.29266,-0.51389,0.66851,-0.15026,0.22534,-0.25934,0.30491,-0.61111,0.36574,-0.16694,0.40560,-0.35851,0.47829,-0.76220,0.18882,-0.72161,-0.02061,-0.29668,-0.29627,-0.23797,0.04149,-0.38210,0.14027,-0.23538,0.38746,-0.37124,0.29859,-0.43405,0.62361,-0.53596,0.65494,-0.20591,0.56849,-0.64507,0.61330,-0.48407,0.26055,-0.22502,0.04087,-0.66254,0.15584,-0.74042,0.54316,-0.63183,0.47262,-0.35719,-0.09790,-0.56530,-0.05030,-0.05430,0.01332,-0.66861,-0.16674,-0.90968,0.30158,-0.51643,0.63744,-0.22388,0.25685,0.08267,0.40474,-0.06521,0.19966,-0.65702,0.41094,-0.43306,0.54500,-0.62477,-0.13457,-0.45069,0.27565,-0.38219,0.22685,-0.17285,0.54477,-0.08024,0.43003,-0.58472,0.11051,-0.54121,0.14737,-0.95893,0.18812,-0.76325,-0.06997,-0.10870,0.32713,-0.36414,0.13899,-0.26217,0.50221,-0.22336,0.56241,-0.22518,0.32393,-0.53191,-0.04679,-0.60201,0.11915,-0.48817,0.57156,-0.24976,0.26176,0.01133,0.22068,-0.43031,0.46662,-0.51554,0.27602,-0.57716,-0.19420,-1.04930,0.05993,-0.58620,0.02067,-0.27451,0.00911,-0.31508,0.18945,-0.53830,0.06889,-0.20906,0.65834,-0.63569,0.37948,-0.26789,0.45135,-0.12684,0.54786,0.31169,0.99864,-0.33286,0.24777,-0.70171,0.60654,-0.20796,0.14202,-0.36991,-0.20647,-1.10507,-0.51275,-0.97307,-0.09669,-0.33661,0.50315,-0.60963,0.09867,-0.69238,0.39780,-0.54802,0.27432,0.00929,0.22850,-0.31773,0.68688,0.07592,0.69410,0.22554,0.41474,-0.25164,-0.13754,-0.37696,0.23021,-0.29324,0.18205,-0.43594,0.34418,-0.71261,-0.29939,-0.79761,0.01486,-0.73812,0.64020,-0.06191,0.45515,-0.50068,0.38346,-0.59677,0.29787,-0.48262,0.64665,0.00458,0.72386,0.03365,0.61806,0.31181,0.73835,-0.45265,-0.17771,-0.27127,0.50600,0.07680,0.51534,0.09574,0.51687,-0.12307,0.40715,-0.27524,0.39582,-0.41287,0.21639,-0.47225,0.12330,-0.15154,0.39183,-0.42052,0.11039,-0.79379,-0.07643,-0.48421,0.75977,0.16311,1.13888,0.30566,0.52085,-0.41541,-0.08792,-0.14454,0.40106,-0.02881,0.81879,-0.13683,0.42840,-0.55679,0.06909,-0.62642,0.10322,-0.59940,0.13042,-0.48678,0.66954,-0.12401,0.06268,-0.13219,0.54699,-0.72791,0.20639,-0.98146,0.17988,-0.11741,0.90714,0.11997,0.64799,-0.69811,-0.08194,0.07803,0.60814,0.20319,0.46838,-0.56924,0.31749,-0.40404,0.46792,-0.44229,0.02480,-0.53496,0.02042,-0.61372,0.04816,-0.20766,0.28387,-0.48709,0.34633,-0.61955,-0.22603,-0.85458,-0.34902,-0.47212,0.25379,-0.02511,0.02507,-0.18123,-0.04182,-0.39372,0.24468,0.12849,0.47893,-0.33633,0.57920,-0.48871,0.33399,-0.45130,0.34794,-0.74950,0.52876,-0.18536,0.26334,-0.23154,0.17954,-0.49855,0.15432,-0.19373,0.44164,-0.55303,-0.31444,-0.95579,-0.03891,-0.82810,-0.24303,-0.58357,0.02835,-0.08529,0.17507,-0.19964,0.38535,-0.37175,-0.07050,-0.36234,0.20984,-0.40735,-0.18458,-0.72539,0.52263,-0.16709,0.37043,-0.68853,0.60942,0.00828,0.11743,-0.70820,0.14647,-0.41569,-0.24520,-1.04059,-0.32593,-0.18612,0.17368,-0.84328,0.44484,-0.54616,0.40726,-0.41869,-0.15866,-0.56304,0.50180,-0.46808,0.11630,-0.47157,0.11845,-0.15607,0.12382,-0.17284,0.44010,-0.60238,0.50281,-0.68253,0.42076,-0.07154,-0.03327,-0.33243,0.15418,-0.34078,-0.13065,-0.58151,0.30876,-0.46843,0.60260,-0.24412,0.19368,-0.11507,0.39121,-0.56140,0.44067,-0.36624,0.27983,-0.61778,0.37268,-0.57102,0.08624,-0.37044,0.27351,-0.63089,0.56956,-0.71103,0.23593,-0.43761,0.23433,-0.65852,0.02827,-0.09488,0.44663,-0.16275,0.56756,-0.12011,0.41750,-0.60456,0.15068,-0.38299,0.03818,-0.49894,0.19921,-0.12016,0.35762,-0.31503,0.22256,-0.15693,0.01378,-0.15128,0.11326,-0.30138,0.03388,-0.36609,0.08672,-0.76533,0.25792,-0.81236,0.34000,-0.59378,0.28251,-0.40761,0.12848,-0.30357,-0.00294,-0.10106,0.19531,-0.68881,0.36282,-0.53992,0.28968,-0.61362,0.56286,-0.35398,0.62527,-0.66047,0.53699,-0.15855,0.62101,-0.30579,0.04093,-0.64984,0.49374,-0.15500,0.46881,-0.46294,0.63750,-0.53427,0.60936,-0.08728,0.39843,-0.19971,0.19174,-0.26409,0.35499,-0.47743,0.14251,-0.70226,0.18091,-0.20464,0.18515,-0.31612,0.12249,-0.41026,0.31350,-0.48345,0.50450,-0.07716,0.41109,-0.51790,0.32221,-0.32762,0.69383,-0.04779,0.23201,0.03251,0.67271,-0.09944,0.26879,-0.29067,0.16084,-0.64409,0.56716,-0.26936,0.17399,-0.09350,0.14098,-0.22939,0.51626,-0.25335,0.56536,-0.05384,0.19421,-0.16762,0.30671,-0.00746,0.14539,-0.13599,0.39045,-0.00298,0.37912,-0.11154,0.44628,-0.11123,0.35026,-0.16843,0.22883,-0.03547,0.18368,-0.53140,0.63324,-0.30378,0.18120,-0.32985,0.15944,-0.60894,0.05651,-0.10986,0.37012,-0.45931,0.05134,-0.55376,0.50609,-0.19482,0.39845,-0.59461,0.39509,-0.08474,0.37777,-0.11188,0.14251,-0.46324,0.19280,-0.08049,0.47067,-0.47173,0.24976,-0.46043,0.69537,-0.64954,0.25895,-0.23270,0.13460,-0.54973,0.00139,-0.17795,0.37497,-0.69411,0.40316,-0.60249,0.49481,-0.27028,0.32656,-0.49785,0.26326,-0.55527,0.06108,-0.30224,0.53154,-0.19142,0.00188,-0.03384,0.39369,-0.39648,0.27989,-0.16487,0.35541,-0.27971,0.66105,-0.51317,0.18777,-0.31708,0.03859,-0.42228,0.02172,-0.39723,0.29528,-0.50419},
{ -0.42469,0.68829,-0.63972,0.52108,-0.09042,0.62089,-0.38539,0.16573,-0.16515,0.10658,-0.65060,0.57264,-0.01813,0.27351,-0.03526,0.39055,-0.22188,0.17165,-0.25100,0.43232,-0.04538,0.32201,-0.29998,0.29004,-0.67966,0.41094,-0.40984,0.25951,-0.53317,0.34184,-0.48361,0.27118,-0.67101,0.66263,-0.49504,0.35800,-0.36353,0.31268,-0.30828,0.33433,-0.43758,0.40948,-0.30683,0.06145,-0.41713,0.06062,-0.00698,0.29786,-0.66268,0.58082,-0.55150,0.42914,-0.32203,0.01148,-0.47582,0.37100,-0.54707,0.07398,-0.16453,0.26939,-0.63429,0.17388,-0.18481,0.39204,-0.22091,0.02475,-0.03841,0.32996,-0.00947,0.17495,-0.43658,0.49080,0.14003,0.63523,-0.09615,0.25753,0.05391,0.11103,-0.26303,0.44080,-0.68301,0.09464,-0.66668,0.39497,-0.23489,0.55576,-0.63980,0.40355,-0.65548,0.20605,-0.28863,0.19337,-0.41254,0.60171,-0.12575,0.61917,-0.22110,0.53265,-0.41370,0.23519,0.03317,0.35536,-0.07964,0.56849,-0.01050,0.53376,-0.30454,0.16393,-0.15195,0.52487,-0.27939,0.29831,-0.03230,0.44911,-0.16427,0.06485,-0.25640,0.60396,-0.27940,0.28929,-0.40830,0.31423,-0.27382,0.10060,-0.58462,0.25620,-0.44956,0.80252,-0.13391,0.51540,-0.36151,0.09870,0.00102,0.63069,-0.50451,0.46748,-0.25003,0.36956,-0.28055,0.27166,-0.69770,0.56277,-0.05047,0.50716,-0.11583,0.46977,-0.59136,0.43491,-0.58928,0.00842,-0.84271,-0.05641,-0.72652,0.07700,-0.16706,0.73533,-0.44817,0.51362,-0.25058,0.44136,-0.27287,0.09329,-0.06117,0.33514,-0.12421,0.51649,-0.64143,0.10556,-0.16751,0.19601,-0.07276,0.28777,-0.27964,0.54614,-0.67908,0.04416,-0.50473,0.16002,-0.51244,0.00536,-0.89543,-0.04882,-0.33682,0.39684,-0.26397,0.42230,-0.37144,0.41952,-0.16536,0.39812,-0.32432,0.37103,-0.44350,0.38892,-0.70440,0.21497,-0.53058,0.69808,-0.56962,0.10851,-0.71900,0.25816,-0.34588,0.10635,-0.77896,0.15642,-0.88102,0.11559,-0.44432,0.32034,-0.30874,-0.03353,-0.26869,0.35272,-0.50804,0.15284,-0.09694,0.29920,-0.50752,0.44812,-0.31977,0.15627,-0.32705,0.16447,-0.10521,0.63545,-0.50385,0.57610,-0.56835,0.23653,-0.72692,0.12211,-0.42563,-0.12668,-0.45950,-0.25433,-0.61829,0.24947,-0.28659,0.13006,-0.06901,0.31518,-0.39649,0.61365,-0.10198,0.02428,-0.20547,-0.08619,-0.45918,0.33354,-0.77527,0.31624,-0.62630,0.34015,-0.65947,0.37415,-0.71312,0.52327,-0.27171,0.03312,-0.49726,-0.03279,-0.68066,0.44336,-0.83354,-0.01277,-0.51319,0.85485,-0.25077,0.36996,-0.13504,0.11703,-0.13491,0.52954,-0.69031,0.37730,-0.12926,0.51525,-0.60306,0.03385,-0.37987,0.11588,-0.13504,0.51547,-0.31860,0.44578,-0.49885,0.40657,0.06198,0.48578,-0.68555,-0.06504,-0.45275,0.17678,-0.31445,0.41523,-0.08864,0.45062,-0.69870,0.03543,-0.50906,0.07570,-0.24147,0.06825,-0.00723,0.12189,-0.63622,0.08765,-0.68291,0.41305,-0.01331,0.41435,-0.68148,0.03808,-0.28615,0.41474,-0.44212,0.43136,-0.51408,0.27789,-0.40216,0.65545,0.16483,0.50394,-0.27291,0.02004,-0.79147,0.46480,-0.66932,0.24453,-0.19556,0.54288,0.12077,0.76547,-0.33177,0.08186,-0.67804,0.54601,-0.49724,0.21215,-0.36633,0.31666,-0.28208,0.29360,0.22766,0.76154,-0.07777,0.58450,-0.64016,0.19607,-0.49667,0.48531,-0.47173,0.17545,-0.44825,0.32613,-0.18448,0.74994,-0.10756,1.17354,-0.07013,0.60440,-0.54546,0.26510,-0.23469,0.14471,-0.24483,0.54664,-0.30832,0.72011,-0.02335,0.64279,-0.22190,0.40331,-0.47568,0.03772,-0.51564,0.23001,-0.39666,0.19016,-0.20528,0.01366,-0.43427,0.02237,-0.24366,0.10326,-0.34523,0.50861,0.07447,0.33543,-0.71780,0.26979,-0.08739,0.03815,-0.03896,0.36989,-0.62588,0.07125,0.07728,0.29335,-0.46283,0.25471,-0.15920,0.03641,-0.31011,-0.17622,-0.38138,0.46436,-0.40438,0.23025,-0.43774,-0.06770,-0.29615,0.06984,-0.09224,0.73129,-0.28986,0.73004,-0.04462,-0.02049,-0.18413,0.56203,-0.35920,0.19921,-0.21997,0.48310,-0.20717,0.61037,0.12163,0.74069,-0.37080,0.27721,-0.06364,0.07333,-0.47828,0.79848,-0.27516,0.05011,-0.81862,0.09481,-0.75651,0.08564,-0.59310,0.58107,-0.13274,0.72974,-0.31266,0.42529,-0.10404,0.16609,-0.64638,0.31056,-0.29925,0.42958,-0.51306,0.43248,-0.17501,0.43655,0.38484,0.51697,0.03863,-0.00770,-0.70838,0.22171,-0.47618,0.22073,-0.91074,0.04275,-0.42395,0.09079,-0.48542,0.32544,-0.30668,0.51364,-0.70386,0.08378,-0.55759,0.30566,-0.64662,0.59387,-0.37283,0.22184,-0.25111,-0.02881,-0.33605,0.91319,0.32722,0.67901,-0.39573,0.20156,-0.54804,0.20158,-0.89715,-0.30899,-0.25873,0.08454,-0.06045,0.16037,-0.25159,0.02095,-0.33524,-0.07918,-0.32764,-0.01935,-0.66754,0.26578,-0.50112,0.62942,-0.73068,0.03957,-0.29045,0.37467,-0.52788,0.44471,0.30667,1.04613,0.16934,0.38268,-0.72031,0.08085,-0.63866,0.37043,-0.63498,0.23697,-0.52948,0.35661,-0.36420,0.60979,-0.75281,0.21102,-0.44564,0.30528,-0.62921,0.02302,-0.41429,0.70138,-0.50840,-0.06398,-0.47945,0.33796,-0.14792,0.18873,0.31835,1.11600,0.34937,0.56863,-0.08169,0.36210,0.05911,0.31244,-0.39478,0.51589,-0.59521,0.39139,-0.42919,0.53066,-0.18426,0.10683,-0.56794,0.23062,-0.54017,0.03968,-0.53480,0.61616,-0.78080,0.01389,-0.51742,0.35956,-0.19492,0.26496,0.03480,0.62004,0.22031,0.87535,0.10661,0.60484,-0.07149,0.18460,-0.12456,0.37340,-0.68911,0.30412,-0.44879,0.30594,-0.76287,-0.03387,-0.20542,0.66201,-0.51221,0.22054,-0.55461,0.01116,-0.12361,0.14912,-0.58688,0.54441,-0.11375,0.68606,-0.31107,0.90513,0.14531,1.00610,0.31243,0.41428,-0.05541,0.30282,-0.09660,0.29914,-0.71946,0.34222,-0.84227,-0.15077,-0.21327,0.30371,-0.44412,0.44550,-0.43947,0.40967,-0.66699,0.36532,-0.60772,0.04156,-0.41460,0.57757,-0.47372,0.15909,-0.17297,0.30843,-0.57588,0.20007,0.08310,0.31943,0.14722,0.31913,-0.34310,-0.03944,-0.44968,0.08354,-0.52748,0.14017,-0.54442,0.28384,-0.15859,0.38323,-0.08615,0.40628,-0.50194,0.35562,-0.53156,0.08435,-0.16406,0.68541,-0.17266,0.49849,-0.55689,0.15952,-0.09770,0.44176,-0.19838,0.19991,-0.23420,0.56162,-0.47774,0.26548,-0.83894,0.06210,-0.37634,0.55272,-0.35753,0.40125,-0.14837,0.65189,-0.06189,0.67332,-0.21895,0.65072,-0.38642,0.15205,-0.35130,0.59939,-0.53157,0.51803,-0.37490,0.54171,0.00821,0.48393,-0.23544,0.53317,-0.54589,0.40767,-0.43620,-0.09436,-0.23449,0.07123,-0.53631,0.25886,-0.33879,0.63356,-0.59313,0.19780,-0.43619,0.01108,-0.05171,0.42026,-0.14411,0.23308,-0.09137,0.50799,-0.48880,-0.01899,-0.19103,0.40508,-0.29067,0.11514,-0.60107,0.25184,-0.60353,0.21300,-0.14692,-0.03392,-0.71437,0.22249,-0.22591,0.63513,-0.00595,0.29105,-0.05995,0.27883,-0.54005,0.46271,-0.39676,0.11254,-0.08882,0.34957,-0.13706,0.63973,-0.63742,0.32594,-0.64512,0.31133,-0.05727,0.03724,-0.13421,0.21039,-0.24957,0.11497,-0.30855,0.26360,-0.65662,0.34321,-0.38955,0.05032,-0.10215,0.38045,-0.47234,0.62320,-0.10255,0.19338,-0.06653,0.23443,-0.39957,0.43484,-0.31834,0.21976,-0.38482,0.30943,-0.36384,0.52149,-0.67116,0.33740,-0.61449,0.58268,-0.12161,0.55215,-0.15872,0.54911,-0.12437,0.05904,-0.32917,0.21200,-0.03218,0.37581,-0.13588,0.32307,-0.60109},
{ -0.55646,0.20965,-0.55406,0.63551,-0.49223,0.31975,-0.12737,0.04759,-0.37564,0.13367,-0.28633,0.53117,-0.27243,0.69232,-0.02958,0.54274,-0.08116,0.04367,-0.35311,0.20255,-0.09799,0.51820,-0.63896,0.24243,-0.60136,0.53430,-0.31646,0.14221,-0.40519,0.45948,-0.00642,0.06471,-0.41627,0.53232,-0.66554,0.47093,-0.64762,0.52985,-0.18736,0.51738,-0.23059,0.70380,-0.06172,0.11098,-0.06288,0.48266,-0.00750,0.01100,-0.46155,0.24355,-0.51105,0.58447,-0.58282,0.59852,-0.39332,0.36472,-0.66046,0.42446,-0.22716,0.00079,-0.53895,0.47818,-0.68418,0.16406,-0.04596,0.11356,-0.67498,0.14924,-0.36944,0.13721,-0.59246,0.51978,-0.48127,0.15524,-0.60415,0.26295,-0.40728,0.37236,-0.42450,0.37930,-0.25172,0.65527,-0.64097,0.03780,-0.36050,0.49455,-0.08513,0.61988,-0.00668,0.20933,-0.50201,0.18958,-0.15732,0.00517,-0.67477,0.13066,-0.11262,0.71065,-0.65142,0.47393,-0.41572,0.31955,-0.14125,0.03281,-0.06625,0.21511,-0.48306,0.29010,-0.35815,0.11126,-0.08854,0.46113,-0.49768,0.17527,-0.08545,0.50346,-0.12584,0.26576,-0.04242,0.15365,-0.58709,0.49097,-0.32480,0.49046,-0.62136,0.51123,-0.38143,0.45031,0.14852,0.39306,-0.02939,0.79156,-0.27569,0.46896,-0.38844,-0.02984,-0.33179,0.19208,-0.23744,0.18653,-0.52165,0.28294,-0.32225,0.19839,-0.34427,0.05329,-0.04167,0.28560,-0.56445,0.06498,-0.33894,0.64251,-0.34564,0.72959,-0.36907,0.46455,0.39277,0.82322,-0.10600,0.79337,-0.10797,0.76479,-0.28143,0.52307,-0.22117,0.00579,-0.14029,0.51518,-0.31544,0.26184,-0.59122,0.01395,-0.54205,0.01973,-0.13092,0.06199,-0.66875,0.31250,-0.25549,0.52107,-0.42556,0.70069,-0.49344,0.35389,-0.04114,0.20744,-0.07005,0.39257,0.11682,0.32440,0.08398,0.33803,-0.06397,0.49347,-0.11138,0.36749,-0.29318,0.67147,-0.64027,0.39375,-0.50023,0.08910,-0.37108,0.39949,-0.34829,0.84574,-0.37890,0.62619,-0.23492,0.48976,-0.13735,0.41253,-0.04267,0.19040,-0.30841,0.34476,-0.12419,0.64189,0.04842,0.48111,-0.00891,0.78895,0.06144,0.48302,-0.07740,0.59331,-0.32599,0.42588,-0.48731,0.36429,0.03826,0.73379,-0.31935,0.52366,-0.09629,0.38017,-0.37508,0.46813,-0.41387,0.27398,-0.19726,0.46511,-0.15044,0.57671,-0.22957,0.47005,-0.11776,0.56384,-0.13219,0.67140,0.14823,0.39648,-0.33970,0.17627,-0.19280,0.53310,-0.47458,0.25081,-0.33294,0.36283,-0.32210,0.44146,0.12782,0.32067,-0.28949,0.00118,-0.43499,0.12434,-0.05915,0.32763,-0.56992,0.45821,-0.12011,0.58417,-0.23272,0.86620,0.39151,1.14885,0.26270,0.26459,-0.52842,0.50360,-0.36638,0.20313,-0.41780,0.64068,-0.50772,0.28177,-0.22051,0.35079,-0.54871,-0.04303,-0.64916,0.16233,-0.74766,0.28885,-0.32435,0.26232,-0.36120,0.07694,-0.29195,0.52132,0.04496,0.33315,0.23421,0.72350,-0.03659,0.18506,-0.08307,0.16265,-0.06275,0.07983,-0.59878,0.11906,-0.58954,0.20113,-0.71379,0.42192,-0.70975,-0.10028,-0.47231,0.32709,0.16180,0.32997,-0.42022,-0.36051,-0.63304,0.14301,-0.63471,0.16792,-0.64634,0.40467,-0.16806,0.97671,-0.35705,0.31775,-0.67582,0.39437,-0.07964,0.42739,-0.45067,0.29119,-0.66713,0.01633,-0.55161,0.24618,-0.36038,0.31576,-0.57508,0.62595,-0.03597,0.46003,-0.47299,-0.16352,-0.74683,0.01147,-0.94263,0.26200,-0.39360,-0.06790,0.03097,0.60898,-0.20087,0.05366,-0.32968,0.11510,-0.65556,0.02193,-0.59122,0.27915,-0.41804,0.22341,-0.83571,-0.10570,-0.55034,0.07582,0.10652,0.54658,-0.18679,0.63304,-0.73495,-0.18994,-0.74599,-0.16112,-1.04667,0.15745,-0.36522,0.06567,-0.26123,0.66754,-0.55831,0.40019,-0.65757,0.17553,-0.33992,0.31267,-0.49653,0.14110,-0.46891,-0.26388,-0.82239,0.47871,-0.03894,0.15643,-0.02713,0.86417,0.10067,0.16045,-0.87392,0.02194,-0.68194,0.00922,-1.07767,0.03132,-0.68925,-0.10436,-0.76401,0.43312,-0.63040,0.12251,-0.49247,0.63330,-0.26530,0.23281,-0.57649,0.17327,-0.86299,0.38496,-0.45068,0.26293,-0.45151,0.56519,-0.28263,0.50624,-0.32930,0.39367,-0.95274,-0.10484,-1.05741,-0.46540,-0.95696,-0.34075,-0.46638,0.39376,-0.61828,0.16564,-0.29466,0.30491,-0.56499,0.36296,-0.26662,0.25591,-0.26693,0.16137,-0.30776,-0.04699,-0.73451,-0.17540,-0.32646,0.58353,-0.20545,0.75191,-0.39102,0.03769,-0.99382,-0.11598,-0.56823,0.14972,-0.72271,-0.16909,-0.23364,0.53362,-0.53615,0.44041,-0.33991,0.67440,-0.28155,0.32209,-0.26870,0.17495,0.04801,0.57633,0.17351,0.66694,-0.57407,0.24889,-0.61710,0.29150,-0.10017,0.27556,-0.71765,-0.02389,-0.95216,0.36299,-0.57428,0.30637,-0.30117,0.09014,0.13606,0.46224,-0.38115,0.50430,-0.22608,0.69226,-0.61509,0.64066,-0.64137,0.21223,-0.36170,0.47794,-0.18983,0.66583,-0.11061,0.54639,-0.10238,0.42201,-0.42491,0.66966,-0.74014,-0.15950,-0.65916,0.19230,-0.09205,0.10366,0.00566,0.48962,-0.12238,1.13693,-0.35363,0.63407,0.03274,0.07767,-0.09658,0.37504,-0.44249,0.25414,-0.04031,0.31103,-0.32974,1.02715,0.55382,0.77318,0.30359,0.69110,0.02755,0.63133,-0.17096,0.30561,-0.04984,0.75339,-0.09942,0.94293,0.15215,0.99188,0.02749,0.72283,-0.26247,0.14835,-0.53867,0.13639,-0.65810,0.12978,-0.02137,0.44570,-0.45373,0.57835,-0.27020,0.83678,0.37803,0.82306,0.65891,1.01719,0.14959,0.99316,-0.05958,0.27098,-0.33674,0.30070,0.10920,0.54865,0.30640,0.84684,0.26352,1.00860,-0.18253,0.31532,-0.48225,0.18859,-0.18347,0.48548,-0.31166,0.40368,0.03680,0.58055,-0.23805,1.07184,0.17639,0.74578,0.27014,1.18811,0.13249,0.78495,0.21227,0.57645,-0.13321,0.39882,-0.20003,0.93701,0.22119,0.80421,0.36707,1.02932,-0.47779,0.11797,-0.52833,0.05696,-0.31044,0.52674,-0.10228,0.48667,-0.10728,0.64063,-0.11503,0.28178,0.13305,0.44827,-0.22040,0.84936,0.02042,1.07616,0.16861,0.85039,0.07463,0.39569,-0.11280,0.69649,0.21511,0.77744,-0.18901,0.60945,-0.44640,0.17247,-0.36607,0.16081,-0.41177,0.47011,-0.16597,0.62213,-0.01979,0.10796,-0.03207,0.04965,-0.21951,0.47927,-0.02807,0.52807,0.27559,0.68388,0.21857,1.02637,0.04475,0.61857,0.05303,0.67554,0.03866,0.31369,-0.09921,0.53180,-0.41964,0.58473,-0.54921,0.66887,-0.58670,0.44599,-0.17262,0.37035,-0.10008,0.06245,-0.36648,0.32119,-0.43461,0.31323,-0.03465,0.20467,0.20997,0.48764,0.11814,0.64345,0.49804,0.35299,0.05372,0.14099,-0.56492,0.09147,-0.81732,0.31109,-0.66185,0.55412,-0.53567,0.19459,-0.49604,0.56544,-0.14728,0.20270,-0.62784,0.38160,-0.82540,-0.11142,-0.63903,0.36107,-0.19138,0.56446,-0.33589,0.49740,-0.22027,0.34687,-0.16098,0.62048,-0.50968,0.14253,-0.23583,0.30525,-0.36259,0.17386,-0.05724,0.04664,-0.50509,0.10511,-0.54321,0.37344,-0.21924,0.01527,-0.48675,0.63081,-0.56141,0.27532,-0.35402,0.03867,-0.24951,0.47559,-0.67206,0.12546,-0.26345,0.25008,-0.28050,0.50418,-0.17708,0.52506,-0.56270,0.34485,-0.66708,0.48988,-0.02776,0.37802,-0.22430,0.34223,-0.66303,0.21929,-0.12152,0.40984,-0.21980,0.35513,-0.43161,0.59735,-0.29626,0.11295,-0.00999,0.68237,-0.45218,0.56432,-0.14237,0.16795,-0.31866,0.07814,-0.08424,0.50059,-0.16822,0.60039,-0.30852,0.44285,-0.61366,0.65633,-0.33986,0.66337,-0.29287},
{ -1.41237,0.38279,-0.51032,0.54787,-0.17730,0.00744,-0.41010,0.27159,-0.65268,0.60360,-0.38608,0.56983,-0.44394,0.67518,-0.31552,0.10649,-0.33961,0.06839,-0.09167,0.00884,-0.17502,0.18733,-0.55831,0.63567,-0.25091,0.18198,-0.25091,0.28108,-0.52185,0.38235,-0.18741,0.54094,-0.01432,0.53399,-0.00302,0.38861,-0.46605,0.50469,-0.27208,0.03955,-0.53656,0.07919,-0.36090,0.38035,-0.53455,0.10420,-0.60799,0.03845,-0.63040,0.04302,-0.39531,0.25686,-0.12762,0.64348,-0.64569,0.65213,-0.53135,0.50759,-0.11159,0.16613,-0.52178,0.15568,-0.12174,0.01501,-0.61990,0.62701,-0.33279,0.41706,-0.59480,0.54709,-0.19773,0.10783,-0.04029,0.57570,-0.34483,0.58242,-0.55614,0.66354,-0.34764,0.02643,-0.21502,0.53736,-0.18019,0.26647,-0.67297,0.03222,-0.35666,0.22107,-0.57769,0.36465,-0.56424,0.62738,-0.23587,0.14820,-0.39240,0.26117,-0.38925,0.44329,-0.25864,0.54209,-0.24380,0.35436,-0.43607,0.62650,-0.42296,0.57372,0.01851,0.09096,-0.50615,0.11986,-0.15722,0.60756,-0.02347,0.30325,-0.00781,0.43877,-0.27482,0.62629,-0.29235,0.32265,-0.00858,0.13401,0.06422,0.13759,-0.11015,0.58975,-0.08908,0.12637,-0.32817,0.19120,-0.34137,0.01234,-0.53087,0.68182,-0.53909,0.30572,-0.55434,0.05672,-0.38099,0.66492,-0.07027,0.59545,-0.52848,0.62005,-0.13600,0.23006,-0.25743,0.28798,-0.22656,0.48033,-0.40483,0.45096,-0.40676,0.17171,-0.17439,0.29594,-0.21030,0.21800,-0.51655,0.14956,-0.33187,0.39500,-0.67424,0.24057,-0.49528,0.03439,-0.16064,0.39070,-0.41651,0.48803,-0.35587,0.48895,-0.43418,0.15758,0.05837,0.70495,-0.46546,0.52942,-0.15605,0.28371,-0.32473,0.18744,-0.18221,0.35884,-0.48367,0.26005,-0.59418,0.03468,-0.74082,0.32082,-0.51974,0.50233,-0.72788,0.42378,-0.63200,0.66508,-0.01292,0.01262,-0.35271,0.22753,-0.33758,0.70168,0.02195,0.33673,-0.18811,0.46553,-0.22539,0.14474,-0.71516,0.27815,-0.53857,0.74487,-0.05082,0.11223,-0.33176,0.01801,-0.29763,0.02704,-0.50168,0.29814,-0.45290,0.03791,-0.60743,0.39530,-0.26466,0.44415,-0.23393,0.39812,-0.40725,0.13544,-0.58867,0.47497,-0.54751,-0.13302,-0.06430,0.08205,-0.43365,0.12108,-0.24567,0.30563,-0.44011,0.28190,-0.47565,0.06688,-0.53882,0.14508,-0.34927,0.37080,-0.75126,-0.18630,-0.72613,0.04074,-0.27347,0.52157,-0.68623,0.31956,-0.72686,0.26242,-0.42956,0.46315,-0.57231,-0.03523,-0.81865,-0.21607,-0.30628,0.06263,-0.67007,0.54065,-0.42061,-0.02225,-0.55835,0.03994,-0.37346,0.11294,-0.48703,-0.13943,-0.59366,-0.30337,-0.38561,0.09140,-0.01846,0.56676,-0.15534,0.28155,-0.71652,0.12971,-0.80835,-0.10932,-0.55259,-0.02753,-0.82518,0.17726,-0.30284,0.35544,-0.58351,-0.06952,-0.22692,0.44180,-0.63628,0.45158,-0.34175,0.10914,-0.42836,-0.01213,-0.74623,-0.17117,-0.66923,0.47053,-0.26735,0.45906,-0.09505,0.20897,-0.18795,0.30229,-0.24904,0.08824,-0.69226,0.17622,-0.86298,0.03462,-0.66382,0.29963,-0.73179,0.65774,-0.02811,0.80638,-0.31262,-0.00337,-0.09265,0.27823,-0.16775,0.19366,-0.36221,0.29113,-0.75514,0.46965,-0.20144,0.60903,-0.24620,0.37521,-0.34986,0.58940,-0.60800,0.16867,-0.52772,0.14986,-0.19017,0.34263,-0.63659,0.12603,0.10939,1.01216,0.17282,0.76516,-0.09769,0.73121,0.20821,0.43478,0.27332,0.44096,-0.22439,0.74479,-0.65612,0.06112,-0.45758,0.24606,-0.60333,0.15727,-0.17745,0.65249,-0.08522,0.45267,-0.48003,0.24041,-0.14594,0.13693,-0.04524,0.69493,0.30663,1.05182,0.25001,0.76295,0.33346,0.88314,0.02144,0.79987,-0.26690,0.55218,-0.10217,0.01897,-0.65637,0.04336,-0.63613,0.58389,-0.56336,0.68817,-0.29398,0.27531,-0.32081,0.47313,0.06867,0.31367,0.00144,0.39001,0.20560,1.00145,0.46335,0.98588,0.22104,0.87037,-0.09355,0.65334,-0.09105,0.58324,-0.24719,0.35417,-0.30212,0.09594,-0.63041,0.53482,-0.44172,0.68538,-0.27042,0.15645,-0.12606,0.16716,-0.06631,0.27493,-0.36536,0.66590,-0.36817,0.69356,0.09908,0.66400,0.72093,0.74380,-0.06501,0.47486,0.16541,0.76656,-0.04796,0.28669,-0.26862,0.13851,-0.46514,0.25921,-0.14207,0.66294,-0.13664,0.38119,-0.18516,0.06876,-0.17522,0.38717,-0.45970,0.72726,0.08570,0.67630,-0.10635,0.42118,0.19233,0.84590,0.32146,0.78283,0.15721,0.82354,-0.30167,0.04701,-0.64346,0.07096,-0.40659,0.07268,-0.50928,0.02995,-0.06991,0.20176,-0.69136,0.25922,-0.69035,0.06660,-0.28135,0.32804,-0.70542,0.33343,0.06062,0.93798,0.02016,0.94329,0.12106,0.62357,0.57877,0.90228,-0.28613,0.10764,-0.71338,0.31788,-0.45575,0.04664,-0.69701,0.56040,-0.29473,0.38976,-0.65926,0.17714,-0.40655,0.16042,-0.50552,0.48594,-0.40160,0.49771,-0.21457,-0.19867,-0.36789,0.90929,0.11270,0.69654,0.14880,0.61542,0.17876,0.59093,-0.62720,0.25915,-0.73821,0.15515,-0.19443,0.54473,-0.41748,0.02826,-0.33436,0.39448,-0.28023,0.01245,-0.62469,0.08004,-0.52541,0.59080,-0.35367,0.65358,-0.66308,0.08258,-0.79092,0.00187,-0.46831,0.20490,-0.71050,-0.01145,-0.70412,-0.02364,-0.35806,0.40824,-0.31329,0.31963,-0.15513,0.67551,-0.49339,0.37484,-0.88815,0.13858,0.00414,0.55305,-0.49769,0.68712,-0.44450,0.20483,-0.59890,0.18335,-0.44111,0.07626,-0.26214,-0.02757,-0.63891,-0.60583,-1.03096,-0.27088,-0.81354,0.39162,-0.54862,0.17259,-0.05420,0.63124,-0.26916,0.63670,-0.40994,0.20202,-0.44580,0.57404,-0.47615,0.56317,-0.43482,0.48214,-0.14137,0.35163,-0.22499,0.21529,-0.08983,0.42193,-0.57571,0.11654,-0.54462,-0.25027,-0.36891,0.10916,-0.57124,0.48154,-0.30631,0.56915,-0.13501,0.32169,-0.36882,0.45962,-0.38120,-0.19765,-0.73847,0.17311,-0.62671,0.20676,-0.59577,0.31494,-0.43952,0.64391,-0.53406,0.42673,-0.06221,0.15417,-0.33968,0.32238,-0.61321,-0.07430,-0.51884,0.25019,-0.77865,0.09587,-0.47803,0.28594,-0.39583,0.46499,-0.42473,0.21128,-0.52857,0.54101,-0.61106,0.39119,-0.07035,0.01800,-0.52110,0.40077,-0.35188,0.42020,-0.50920,0.38660,-0.13814,-0.01417,-0.44214,-0.01186,-0.67734,0.06963,-0.58885,0.20441,-0.48904,0.49225,-0.31618,0.19612,-0.52491,0.36806,-0.15251,0.30941,-0.18894,0.10609,-0.37543,0.07067,-0.00108,0.35198,-0.62763,0.22551,-0.27565,0.27464,-0.01603,0.36144,-0.24885,0.21902,-0.68813,0.49151,-0.05982,0.53718,-0.36643,0.26339,-0.39353,0.26692,-0.24686,0.28453,-0.36475,0.47880,-0.24587,0.37552,-0.45590,0.46116,0.01430,0.48703,-0.40642,0.41728,-0.01242,0.08224,-0.33344,0.63364,-0.36968,0.64198,-0.21855,0.60940,-0.55645,0.23362,-0.73650,0.33880,-0.67641,0.36671,-0.58034,0.00512,-0.84950,0.35432,-0.61309,0.34300,-0.31314,0.43691,-0.19585,0.53596,-0.44418,0.12994,-0.51973,0.57349,-0.39851,0.09908,-0.64896,0.37613,-0.58929,0.62976,-0.34259,0.37781,-0.08731,0.16409,-0.51151,0.23302,-0.64551,0.49878,-0.49739,0.16101,-0.52713,0.28780,-0.09243,0.12292,-0.27162,0.36306,-0.67437,0.47559,-0.64363,0.44076,-0.37823,0.29520,-0.61006,0.37872,-0.09692,0.08475,-0.65437,0.25985,-0.67249,0.31379,-0.11233,0.10175,-0.63560,0.61222,-0.24712,0.25717,-0.44085,0.51878,-0.68550,0.59060,-0.29175,0.57287,-0.46426,0.64955,-0.56592,0.55252,-0.01771,0.22972,-0.38401,0.13601,-0.41065},
{ 0.92613,0.41402,-0.35541,0.33515,-0.59059,0.66343,-0.62320,0.69431,-0.33893,0.42048,-0.54897,0.48195,-0.45119,0.69636,-0.68780,0.48348,-0.50015,0.46846,-0.44501,0.40352,-0.30856,0.44542,-0.38198,0.19274,-0.48701,0.05861,-0.12765,0.63509,-0.36110,0.04109,-0.46832,0.22870,-0.00351,0.17064,-0.68921,0.67394,-0.46818,0.06947,-0.02616,0.44385,-0.65722,0.48731,-0.17024,0.02831,-0.08646,0.18505,-0.28525,0.01454,-0.08940,0.27512,-0.69309,0.50701,-0.04196,0.59868,-0.24200,0.25098,-0.67189,0.07207,-0.25642,0.44579,-0.36793,0.53534,-0.53848,0.06131,-0.39226,0.32455,-0.26863,0.66036,-0.45050,0.37032,-0.42258,0.56861,-0.19118,0.44671,-0.38839,0.60636,-0.12301,0.40750,-0.39204,0.61078,-0.56449,0.31053,-0.66972,0.05115,-0.10330,0.08200,-0.55675,0.45423,-0.69456,0.24984,-0.50699,0.42947,0.00172,0.05922,-0.11722,0.67829,0.00697,0.57128,-0.31984,0.51800,0.05104,0.59323,-0.34581,0.80678,-0.27582,0.37943,-0.49787,0.24643,0.00102,0.53329,-0.45951,0.23955,-0.25920,0.28486,-0.39335,0.28867,-0.62068,0.62103,-0.59582,0.12580,-0.12398,0.48061,-0.43987,0.54276,-0.21516,0.81348,-0.29136,0.57767,-0.11491,0.52293,-0.34818,0.37311,-0.00539,0.78340,0.01383,0.52390,-0.61897,0.10727,-0.38563,0.60764,-0.47861,0.55574,-0.25202,0.04828,-0.47750,0.10302,-0.02411,0.65463,-0.48243,0.39879,0.08698,0.58273,-0.02510,0.35664,-0.34102,0.42950,-0.37225,0.39899,-0.22638,0.48031,-0.11681,0.24594,-0.12953,0.54541,-0.27541,0.43477,-0.03376,0.25087,-0.40811,0.66472,-0.67763,0.29451,-0.01665,0.70355,-0.28299,0.54892,-0.16385,0.28723,-0.60505,0.03654,-0.65204,0.06424,-0.23350,0.28408,-0.61654,-0.09459,-0.37518,-0.05987,-0.56024,0.24265,-0.75273,0.07162,-0.46413,0.45216,-0.21753,0.64148,-0.35699,0.06390,-0.27635,0.57580,-0.41813,0.60822,-0.43183,0.37134,-0.48428,0.03990,-0.61815,0.19701,-0.43634,0.39804,-0.84530,0.24704,-0.93298,-0.23333,-0.52179,0.02491,-0.79415,0.31489,-0.68370,0.00695,-0.77339,-0.02787,-0.29531,0.36315,-0.06838,0.02580,-0.58531,0.04438,-0.67704,0.50480,-0.15606,0.13692,-0.58461,-0.00145,-0.94815,0.03749,-0.93732,0.27083,-0.57968,0.29740,-0.60234,-0.25539,-0.53906,-0.14824,-0.99555,-0.21328,-0.96982,0.04648,-0.85657,-0.15040,-0.43854,0.63430,-0.28905,0.24278,-0.17885,-0.00922,-0.65652,0.11143,-0.52062,0.17969,-0.35181,0.24769,-0.76459,-0.21876,-0.91779,-0.09838,-0.77930,0.50491,-0.59354,-0.18140,-0.79908,-0.34180,-0.55501,-0.04936,-0.90373,-0.06524,-0.92298,0.05328,-0.55681,0.41119,-0.62400,0.26000,-0.45935,0.05117,-0.45348,-0.07910,-0.43709,-0.02938,-0.82906,-0.06303,-0.71837,0.24423,-0.48201,0.06746,-0.39169,0.29122,0.03957,0.10690,-0.69446,0.23316,-0.71647,0.34208,-0.60112,-0.16393,-0.35155,0.11751,-0.36761,0.17766,-0.39049,0.66726,-0.66123,0.51604,-0.15332,0.56869,-0.74172,0.24651,-0.54781,0.17695,-0.84206,0.23440,-0.52698,0.44611,-0.34638,0.49196,0.11577,0.51915,-0.27401,0.15747,-0.29962,0.14121,-0.57712,0.03688,-0.16358,0.22253,-0.44733,0.28685,-0.29703,0.37899,-0.36289,0.14538,-0.54812,0.65007,-0.16767,-0.04605,-0.66042,0.19118,-0.26959,0.47757,-0.02534,0.56640,-0.02184,0.59658,-0.10541,0.50399,-0.16131,0.06054,-0.48751,0.09455,-0.66916,-0.05687,-0.60036,0.68043,-0.49140,0.33820,-0.04390,0.02606,-0.39971,0.14000,-0.20539,0.21007,-0.42724,0.17189,-0.00655,0.16907,0.02374,0.67249,0.02888,0.68037,0.09059,0.95122,-0.00465,0.55655,-0.06819,0.13547,-0.20415,0.20170,-0.21889,0.32981,-0.40976,0.45395,-0.10000,0.43300,-0.60140,0.39383,-0.21809,0.04532,-0.34654,0.06654,-0.27539,0.40284,-0.03367,0.49961,-0.23706,0.08024,-0.43806,0.39887,-0.12042,0.12624,0.12084,0.28258,-0.56303,0.07270,-0.34290,0.30734,-0.16206,0.32696,-0.31156,0.74675,-0.37049,0.58645,-0.54574,0.45418,-0.65954,0.56098,-0.53408,0.33723,-0.50920,0.55953,-0.60463,0.07175,-0.20181,-0.17534,-0.77365,-0.16562,-0.21664,0.29617,-0.42865,0.29267,-0.07340,0.35815,-0.31172,0.47918,-0.18708,0.48176,-0.23480,0.58397,0.05239,0.30612,-0.03053,0.22301,-0.25894,0.09406,-0.39257,-0.02310,-0.18007,0.09649,-0.30664,0.01535,-0.46770,-0.00741,-0.01118,0.34881,-0.13886,0.77155,0.00363,0.01847,-0.34846,0.08521,-0.30765,0.65341,-0.01587,0.56487,-0.16402,0.36795,-0.28497,0.67000,-0.26294,0.23351,-0.41401,0.47910,-0.06169,0.41451,-0.23743,0.15449,-0.44517,0.26696,-0.48945,0.33915,-0.66366,0.63776,-0.22591,0.57167,-0.54010,0.07712,-0.46225,0.41295,-0.12402,0.12581,-0.33447,0.72132,0.06529,0.47151,-0.09563,0.32510,-0.00820,0.63463,-0.19735,0.25850,-0.53314,0.07687,-0.41462,0.14658,-0.08521,0.29723,0.14887,0.06612,0.28103,0.45305,-0.00575,0.71558,-0.42119,0.11079,-0.32414,0.35084,0.01894,0.44324,-0.37656,0.51114,-0.21561,0.20172,-0.43103,0.53889,-0.02788,0.69529,-0.59070,0.69758,0.12132,0.50339,-0.33449,-0.08030,-0.47716,0.45075,-0.07489,0.75538,-0.03663,0.74939,-0.34058,0.70625,-0.42443,0.41345,-0.31366,0.56254,-0.14533,0.47948,-0.16836,0.49114,-0.60092,0.28185,-0.44980,0.35616,-0.34925,0.39159,-0.67818,0.67536,0.02900,0.42632,-0.46084,0.32576,0.01571,0.69137,-0.13848,0.61059,0.29974,0.61888,0.00598,0.72839,-0.10032,0.44242,-0.50033,0.35413,0.19843,0.81856,-0.60457,0.53448,-0.38669,0.31259,-0.40750,0.13075,-0.57794,0.34680,-0.38279,0.68467,-0.38435,0.35644,-0.48808,0.44622,-0.15106,0.51056,-0.17352,0.53856,-0.09750,0.48549,-0.38692,0.29460,-0.33324,0.38980,0.02834,0.86190,0.04080,0.63008,-0.43507,0.32119,-0.70182,0.23115,-0.28938,0.38053,-0.64480,0.50724,-0.55132,0.22191,-0.51616,0.65050,-0.12495,0.12397,-0.49845,0.34160,-0.44251,0.00816,-0.63117,-0.14239,-0.53191,0.20289,-0.54260,0.38304,-0.33626,0.11222,-0.07808,0.16209,-0.20963,0.40360,-0.52429,0.19176,-0.22197,0.61776,-0.59742,0.11438,-0.22784,0.24392,-0.63073,0.30081,-0.54344,0.43143,-0.32614,0.31008,-0.28621,-0.19938,-0.95221,-0.02967,-1.22136,-0.30310,-0.77796,-0.01965,-0.64192,0.00227,-0.21953,0.32930,-0.33074,0.19231,-0.29292,0.22174,-0.56670,0.16587,-0.11150,0.00909,-0.18109,0.61512,-0.52355,0.52359,-0.14366,0.23964,-0.44690,0.04992,-0.61961,0.15020,-0.44099,0.23699,-0.47244,-0.01205,-0.94853,0.21053,-0.82882,0.52636,-0.24884,0.62104,-0.66720,0.08899,-0.66913,0.31254,-0.00430,0.42873,-0.38312,0.50582,-0.52088,0.22934,-0.52045,0.60970,-0.28886,0.43121,-0.58412,0.32696,-0.34402,0.55706,-0.13755,0.39049,-0.61052,0.14499,-0.61553,0.61083,-0.51568,0.11454,-0.36321,0.67993,-0.55121,0.64617,-0.41334,0.53088,-0.33987,0.26193,-0.58326,0.02439,-0.42216,0.66162,-0.28101,0.03062,-0.07077,0.14146,-0.24272,0.45158,-0.34742,0.46901,-0.62325,0.09305,-0.02520,0.05505,-0.47616,0.34152,-0.55939,0.60488,-0.04559,0.49710,-0.18569,0.24823,-0.66198,0.11836,-0.61716,0.05278,-0.12976,0.34986,-0.03695,0.11797,-0.31246,0.19244,-0.38042,0.63585,-0.46044,0.15996,-0.41030,0.18551,-0.06979,0.40994,-0.53004,0.22144,-0.49563,0.67081,-0.02490,0.52175,-0.11714,0.39746,-0.00102,0.39267,-0.67510,0.03211,-0.04351,0.46216,-0.35439},
{ -0.95621,0.20950,-0.02729,0.15506,-0.07570,0.39251,-0.14637,0.18829,-0.67229,0.39720,-0.56192,0.48063,-0.61676,0.26515,-0.30374,0.29112,-0.53122,0.45590,-0.11688,0.15723,-0.04976,0.53128,-0.05435,0.04228,-0.03513,0.36140,-0.08453,0.42582,-0.69212,0.57659,-0.67588,0.58502,-0.17181,0.09938,-0.06232,0.53324,-0.19798,0.43816,-0.56131,0.04500,-0.47668,0.20842,-0.62758,0.55092,-0.48625,0.44630,-0.07763,0.10444,-0.35994,0.03303,-0.65706,0.54847,-0.03684,0.59514,-0.26503,0.27195,-0.31175,0.04618,-0.60329,0.66226,-0.66055,0.54818,-0.10510,0.43791,-0.40007,0.50976,-0.54582,0.06351,-0.56849,0.09337,-0.42241,-0.00865,-0.52937,0.52452,-0.64391,0.33916,-0.39617,0.48539,-0.09853,0.43569,-0.42629,0.29323,-0.48886,0.60664,-0.27758,0.46643,-0.65300,0.31070,-0.67979,0.38907,-0.45714,0.52264,-0.62553,0.11871,-0.75148,0.42299,-0.64657,0.23148,-0.72076,0.43840,-0.48044,0.12634,-0.15109,0.49335,-0.61704,-0.02234,-0.30889,0.60618,-0.32350,0.55263,-0.27768,0.27836,-0.68367,0.61352,-0.48663,0.02625,-0.30841,0.67618,0.00487,0.59736,-0.29887,0.36313,-0.14445,0.15689,-0.49975,0.46608,-0.18446,0.54023,-0.38545,0.59457,-0.58405,0.42825,-0.24156,0.46119,-0.16424,0.35011,-0.10447,0.56879,-0.37561,0.22028,-0.14223,0.38613,-0.63342,0.35231,-0.69028,0.40113,-0.49733,0.23767,-0.06923,0.75638,-0.01156,0.37146,-0.13723,0.32330,-0.38827,0.10717,-0.46630,0.53384,-0.57042,0.40418,-0.34609,0.55349,-0.20935,0.03077,-0.73803,0.08690,-0.08913,0.36307,-0.61907,0.18603,-0.32407,0.28642,-0.37322,0.33576,-0.24851,0.43942,-0.55196,0.45450,-0.43282,0.21635,-0.61647,0.54723,-0.44431,-0.04741,-0.10445,0.31085,-0.22258,0.54408,-0.32682,0.39791,-0.52524,0.12618,-0.12691,0.50796,-0.21662,0.45922,-0.42448,0.30430,-0.60197,0.05739,-0.05510,0.65502,-0.24405,0.21228,0.11390,0.72233,-0.42618,0.76619,-0.20117,0.70367,-0.05716,0.33808,-0.59213,0.19494,-0.23450,0.69428,-0.27771,0.40774,-0.05173,0.36841,-0.25606,0.31531,-0.70782,0.60421,-0.58127,0.14825,-0.30774,0.04294,-0.16951,0.15297,0.05517,0.61003,0.05715,0.42060,-0.13353,0.51510,-0.28090,0.62064,-0.09204,0.24989,-0.63246,0.21219,-0.40632,1.01030,0.20546,0.54568,-0.16992,0.15511,-0.11969,0.19705,-0.47680,0.47929,-0.12956,0.55687,-0.44836,0.68878,-0.66570,0.43687,-0.35053,0.74212,-0.22373,0.30385,-0.13180,0.28259,-0.47792,0.30630,-0.42947,-0.26779,-0.22264,0.50307,0.19182,0.58715,0.15852,0.45269,-0.53733,0.60541,-0.40352,-0.05023,-0.48824,0.57745,-0.08783,0.60994,-0.38928,0.31670,-0.30408,0.68326,-0.26024,0.54684,-0.15546,0.37526,-0.13966,0.68491,-0.41863,0.14668,-0.79336,0.16798,-0.32625,0.53552,-0.09681,1.18895,-0.06212,0.48477,-0.13868,0.13953,-0.08171,0.22230,-0.55692,0.01966,-0.18784,0.11535,-0.04869,0.26280,-0.34166,0.72442,-0.39373,0.19077,-0.16143,-0.03538,-0.43982,0.30167,-0.42014,0.16964,-1.03154,0.26080,-0.06547,0.67993,0.28416,0.72806,0.01072,0.75626,-0.04537,0.08994,-0.60624,0.58172,-0.56220,0.48081,-0.03835,0.24755,-0.64416,0.41465,-0.44841,0.11628,-0.56823,0.37368,-0.56587,-0.03696,-0.38905,-0.05099,-0.66398,0.04997,-0.68958,0.51593,-0.14104,0.56565,-0.09208,0.51461,-0.06338,0.30468,-0.46374,0.14496,-0.22109,0.02135,-0.39200,0.48059,-0.41162,0.55438,-0.51242,0.52325,-0.14278,0.23862,-0.34224,0.01035,-0.30284,0.34186,-0.77492,0.16505,-0.65758,-0.01098,0.00089,0.50115,0.19574,0.79939,0.38215,0.90028,-0.35921,0.54020,-0.48343,0.32285,-0.50401,-0.10688,0.00448,0.67112,-0.13452,0.35356,-0.41620,0.54836,-0.40748,0.42804,-0.42490,0.08043,-0.68002,0.01622,-0.67973,0.19337,-0.52244,0.63907,0.27371,0.64264,-0.36255,0.78080,0.04282,0.73273,-0.41703,0.49592,-0.72422,-0.09358,-0.77919,0.49391,-0.34446,0.23503,-0.18178,0.08335,-0.59678,0.37629,-0.29293,0.41512,-0.47089,0.44956,-0.89842,0.04533,-0.40147,0.03206,-0.15841,0.39499,-0.02883,0.49446,0.22940,1.04615,0.02671,0.83730,-0.63569,0.28974,-0.63386,0.22602,-0.37039,0.04190,-0.08599,0.58960,-0.01716,0.38201,-0.61876,0.25310,-0.47629,0.73599,-0.34415,0.15346,-0.16831,0.51507,-0.70656,0.24082,-0.06475,0.94798,-0.07159,0.80802,0.12891,0.75233,0.01639,0.68389,-0.80234,0.31079,-0.67590,0.14058,-0.65463,0.13219,-0.40543,0.19854,-0.27136,0.37242,-0.56606,0.16001,-0.26174,0.03925,-0.27911,0.27840,-0.30325,0.46328,-0.09190,0.38709,-0.24203,1.22653,-0.05425,0.48415,0.22297,0.56059,-0.47983,0.14749,-0.19711,0.41944,-0.38430,0.47082,-0.77639,0.39321,-0.56915,0.41980,0.00296,0.26913,-0.09752,0.46346,-0.38267,0.02888,-0.28499,0.61738,-0.10401,0.14349,-0.15502,0.44673,0.03404,0.34604,0.14468,0.23906,-0.34009,-0.10472,-0.76028,0.16285,-0.35131,0.52995,-0.25116,0.15370,-0.06792,0.38597,-0.06009,0.04548,-0.50895,0.65955,-0.58521,0.21668,-0.00794,0.09717,-0.17499,0.50683,-0.63879,0.41216,-0.28420,0.10387,-0.39198,-0.00843,-0.69394,-0.14753,-0.64510,-0.21951,-0.32309,0.10106,-0.71413,0.42682,-0.19991,0.11692,-0.25432,0.08332,-0.28156,0.50217,-0.55171,0.49653,-0.53312,0.32543,-0.52757,0.46784,-0.11318,0.29439,0.02682,0.50540,-0.37310,0.08001,-0.35288,0.16978,-0.69557,-0.32421,-0.69896,-0.10774,-0.95939,0.28076,-0.79662,0.24558,-0.45635,0.08876,-0.27067,0.12296,-0.09431,0.16520,-0.53072,0.56669,-0.21146,0.63578,-0.66016,0.08903,-0.41564,0.67105,-0.15660,0.08872,-0.31102,0.14948,-0.76576,0.15029,-0.73636,0.16358,-0.76240,0.11786,-0.52912,0.02322,-0.11392,0.36891,-0.55932,0.38612,-0.41663,0.54391,-0.07428,0.41848,-0.65984,0.52927,-0.49858,0.59207,-0.18379,0.32466,-0.09134,0.50745,-0.38277,0.42467,-0.21103,0.29896,-0.26645,0.37673,-0.39627,-0.03099,-0.18689,-0.08252,-0.85177,0.45241,-0.42695,0.53349,0.03347,0.62888,-0.51437,0.15562,-0.65940,0.49371,-0.60436,0.45840,-0.07556,0.10528,-0.26779,0.27282,-0.26940,0.11830,-0.38993,0.13229,-0.19158,0.08062,-0.34029,0.36858,-0.23227,0.27454,-0.63259,0.15266,-0.27508,0.06316,-0.14989,0.24000,-0.18772,0.68756,-0.13210,0.02985,-0.33058,0.14736,-0.55504,0.39983,-0.65870,0.24398,-0.26112,0.68415,-0.39348,0.18018,-0.19054,0.63463,-0.05076,0.20724,-0.13488,0.25472,-0.04294,0.21278,0.01331,0.57113,-0.51468,0.66801,-0.45615,0.22603,-0.57436,0.60716,-0.47784,0.18465,-0.49812,0.56979,-0.37293,0.08670,-0.41989,0.39410,-0.11550,0.51495,-0.41377,0.60288,-0.15177,0.19064,-0.45487,0.19504,-0.46143,0.13399,-0.07204,0.44996,-0.15937,0.75576,0.08259,0.53965,-0.36309,0.19696,-0.28507,0.28962,-0.52994,0.05680,-0.47027,0.14339,-0.58746,0.57630,-0.60758,0.07665,-0.28144,0.29934,-0.14159,0.34879,-0.38131,0.11107,-0.57570,0.46693,-0.03919,0.03930,-0.47639,0.08086,-0.34482,0.12788,-0.34135,0.59685,-0.19372,0.21237,-0.06150,0.50538,-0.06308,0.32392,-0.16890,0.19078,-0.35641,0.24170,-0.13797,0.43553,-0.00625,0.10472,-0.21275,0.07755,-0.04162,0.27916,-0.48722,0.13726,-0.48366,0.47786,-0.23169,0.61028,-0.59192,0.66643,-0.03637,0.19591,-0.61751,0.23588,-0.27671,0.53700,-0.23982,0.69560,-0.20733,0.63077,-0.62345},
{ 0.67396,0.01511,-0.49422,0.10109,-0.07079,0.46310,-0.04327,0.69243,-0.21295,0.67710,-0.14220,0.11857,-0.60368,0.17516,-0.30390,0.19485,-0.17762,0.46938,-0.57982,0.34733,-0.34532,0.14427,-0.63973,0.61975,-0.17939,0.06611,-0.20866,0.63523,-0.63688,0.33099,-0.67329,0.43793,-0.54576,0.45261,-0.18110,0.05564,-0.69029,0.10355,-0.55110,0.48329,-0.50008,0.11400,-0.22209,0.52863,-0.30236,0.45418,-0.46940,0.48093,-0.18964,0.61100,-0.29626,0.66758,-0.07077,0.51456,-0.45941,0.38352,-0.28626,0.00963,-0.19392,0.64004,-0.25548,0.09183,-0.39695,0.33641,-0.24442,0.62882,-0.50735,0.62497,-0.09045,0.14675,-0.15571,0.28652,-0.44975,0.27116,-0.03961,0.10259,-0.06594,0.59817,-0.12691,0.04063,-0.41565,0.69577,-0.06236,0.17681,-0.21199,0.66294,-0.11361,0.59784,-0.02881,0.52226,-0.62018,0.52537,-0.21930,0.64787,-0.08082,0.50828,-0.56468,0.27631,-0.33493,0.51178,0.00082,0.57961,0.05809,0.40551,-0.07261,0.50905,-0.41189,0.45303,-0.42976,0.31234,-0.57017,0.34161,-0.47946,0.66252,-0.14865,0.09035,-0.55271,0.23575,-0.48933,0.03909,-0.54460,0.60276,0.02304,0.13782,-0.46650,0.44784,-0.33330,0.47012,-0.34176,0.65191,-0.23512,0.56578,0.09816,0.55054,-0.34942,0.61291,-0.20712,0.08352,-0.25327,0.67612,-0.28602,0.16003,-0.17781,0.19707,-0.08707,0.39887,-0.49106,0.51126,-0.26304,0.63484,-0.40288,0.36294,-0.13696,0.11145,-0.38905,-0.34067,-0.52277,0.14860,-0.34709,0.36347,-0.04749,0.53966,-0.33365,0.30525,0.14415,0.43475,-0.08871,0.00895,-0.63488,0.44132,-0.13328,0.37041,-0.07957,0.70094,-0.37345,0.52631,-0.53873,0.68661,0.05164,0.75886,0.02576,0.24396,-0.19790,0.22652,-0.24167,0.61712,-0.09729,0.53729,0.10056,0.81657,0.11694,0.60488,-0.18206,0.68391,-0.08775,0.35496,-0.50804,0.43505,-0.24644,0.21840,-0.24822,0.46209,-0.48958,0.67165,-0.40316,0.72152,-0.42201,0.56441,0.06137,0.54133,0.10171,0.69727,-0.00502,0.81314,0.29332,0.59354,-0.06855,0.60589,-0.07198,0.22406,-0.12663,0.27393,-0.59203,0.55889,-0.13904,0.16474,-0.65498,0.49294,0.05862,0.30176,-0.35058,0.22122,-0.00306,0.74794,-0.33489,0.54217,-0.37615,0.38412,-0.18122,0.51609,-0.26128,0.53584,0.15578,0.58930,-0.34494,0.64963,-0.65667,0.08063,-0.30385,0.07772,-0.06886,0.53693,-0.49120,0.32174,-0.42899,0.07188,-0.21168,0.70720,-0.24731,0.37608,-0.36958,0.58213,-0.13683,0.23355,-0.30046,0.13497,-0.81938,0.40102,-0.29182,0.33212,-0.49430,-0.21978,-0.97047,-0.01542,-0.68334,-0.07870,-0.42596,0.26181,-0.53082,0.54651,-0.13120,0.00650,-0.39337,0.26805,-0.39207,0.24993,-0.49662,0.36391,-0.11118,0.05553,-0.33094,-0.26294,-0.64465,-0.40481,-0.42680,-0.07869,-0.95105,0.29643,-0.42194,-0.24206,-0.84963,-0.15360,-0.30596,-0.28025,-0.72596,0.16487,-0.43147,0.29910,-0.06773,0.22796,-0.61358,0.62767,-0.09011,0.65112,-0.40263,0.53123,-0.37441,0.02541,-0.42034,-0.17246,-0.56236,0.40128,-0.73418,-0.10286,-0.33883,0.22456,-0.05972,0.54922,-0.31351,0.00621,-0.70712,-0.31066,-0.60255,0.23187,-0.26886,0.02917,-0.15869,0.00553,-0.26804,0.59115,-0.52396,0.19801,-0.36796,0.01138,-0.42821,0.31377,-0.26240,0.27158,-0.47469,0.25157,-0.44762,0.17080,-0.27088,0.76481,-0.19235,0.76298,-0.12416,0.13843,-0.94241,0.00221,-0.57522,0.30200,-0.68132,0.43505,-0.51008,0.35253,-0.09418,0.46876,-0.57898,0.72318,-0.05650,0.01120,-0.62640,0.38072,-0.17852,-0.00734,-0.40686,0.24101,-0.50363,-0.04692,-0.33042,0.04246,-0.11860,0.70725,-0.13483,0.79578,-0.06421,-0.04704,-0.91918,0.33898,-0.35538,0.39797,-0.24798,0.39815,-0.21220,0.65044,-0.20985,0.59164,-0.21164,0.38658,-0.76615,-0.03463,-0.51687,0.38788,-0.37809,0.19572,-0.67146,-0.06030,-0.46200,0.29192,-0.36764,0.67545,0.02212,0.70175,-0.09335,0.75602,-0.22904,0.27407,-0.31062,0.15605,-0.18564,0.54148,-0.40611,0.08857,-0.47699,0.24701,-0.70173,-0.04432,-1.03373,0.01483,-0.72884,0.36472,-0.27220,0.47987,-0.68941,0.16442,-0.63217,-0.01480,-0.45998,0.45155,-0.17239,0.82885,0.30293,0.69792,-0.67714,0.40939,-0.69504,0.31984,-0.18534,0.68834,-0.19642,0.23263,-0.18452,0.62976,-0.44882,-0.31479,-0.46247,-0.14305,-0.79131,0.04163,-0.26028,0.43043,-0.52739,0.04576,-0.64862,0.35855,0.05408,0.69526,0.05783,0.57754,-0.33765,0.22018,-0.18406,0.28562,-0.69409,0.17684,-0.39326,0.54478,-0.11471,0.35186,-0.05661,0.61198,-0.59017,0.27473,-0.95730,-0.39163,-0.82549,-0.33193,-0.99426,-0.19486,-0.76362,-0.20885,-0.48252,0.51671,0.03898,0.74799,0.07934,0.45556,0.18839,0.67124,-0.28010,0.10516,-0.13123,0.66220,-0.44298,0.48867,-0.34492,0.05041,0.02614,0.50101,-0.08473,-0.08726,-0.46774,0.23938,-0.98857,-0.04757,-1.04330,-0.41130,-0.70506,0.18677,-0.53797,0.42258,-0.22169,0.69881,-0.07901,0.33284,-0.37785,0.20042,-0.37223,0.12280,-0.36090,0.66091,-0.52365,0.55779,-0.41499,0.16328,-0.42770,0.51415,-0.37891,0.44765,-0.49025,0.31015,-0.92673,0.01396,-0.92812,0.07979,-0.90227,0.45277,-0.55527,0.64540,-0.07328,0.18112,-0.49471,0.36694,-0.26181,0.19590,-0.78727,-0.05241,-0.40396,0.36888,-0.47426,0.69881,-0.29838,0.22011,-0.27907,0.51967,0.02073,0.55302,-0.78678,0.58130,-0.54581,0.24393,-0.34370,0.16328,-0.43059,0.21288,-0.31723,0.53761,-0.13572,0.39591,0.07175,0.63165,-0.43361,0.09722,-0.11766,0.11503,-0.44597,0.07736,-0.42676,0.31491,-0.62397,0.36461,-0.19858,0.80464,-0.33089,0.50900,-0.47166,0.08660,-0.66672,0.59781,-0.56656,0.27848,-0.14552,0.85519,-0.08781,0.33010,-0.00365,0.17649,-0.55379,0.25915,-0.10174,0.40684,-0.59732,0.31008,-0.42070,0.23564,-0.53003,0.02465,-0.51740,0.60514,-0.57805,0.20598,-0.57622,0.38937,-0.49107,0.21732,-0.77240,0.04990,-0.06714,0.46730,-0.23000,0.55929,-0.37921,0.48021,-0.44100,0.28961,-0.29197,0.42131,-0.58099,0.18609,-0.26858,0.40834,-0.63803,0.28442,-0.67119,0.21995,-0.66398,0.08976,-0.50103,0.48013,-0.06465,0.33615,-0.13907,-0.04061,-0.22278,0.55391,-0.21147,0.07606,-0.22885,0.23278,-0.44899,0.42443,-0.55716,0.22839,-0.48635,-0.12201,-0.42351,-0.02786,-0.03825,0.47438,-0.12018,0.34514,-0.16217,0.47656,-0.06335,0.00728,-0.05361,0.10118,0.00739,0.80837,0.27129,0.82498,-0.24958,0.79366,-0.38697,0.49937,-0.08454,0.46702,-0.19737,0.51317,-0.45795,0.53201,-0.45818,0.04307,-0.44165,0.11085,-0.19803,0.46551,-0.68181,0.49654,-0.19797,0.10938,-0.19682,0.52062,-0.17700,0.32031,0.02016,0.79256,-0.02071,0.48599,0.10055,0.53387,-0.18457,0.68026,-0.30266,0.44887,-0.06639,0.42961,-0.13278,0.08735,-0.58509,0.59198,-0.25839,0.42618,-0.64934,0.01386,-0.62084,0.17776,-0.07583,0.41369,-0.46732,0.22097,-0.28822,0.03517,-0.36071,0.45944,-0.08154,0.53255,-0.34722,0.46743,-0.69084,0.67817,-0.67871,0.53744,-0.02831,0.51327,-0.48991,0.59439,-0.25335,0.57631,-0.14938,0.37085,-0.03007,0.66584,-0.61900,0.18338,-0.60120,0.59707,-0.39851,0.23661,-0.64413,0.34841,-0.23528,0.66893,-0.01531,0.35051,-0.46600,0.42846,-0.22855,0.26988,-0.58194,0.30494,-0.40197,0.19420,-0.57190,0.19189,-0.26573,0.04108,-0.23010,0.46835,-0.01315,0.53206,-0.46676,0.66997,-0.02341},
{ -0.18106,0.13946,-0.26102,0.08817,-0.63342,0.27454,-0.51010,0.32367,-0.21828,0.57698,-0.18992,0.05631,-0.62026,0.31534,-0.54795,0.41272,-0.47961,0.32957,-0.64015,0.03535,-0.52130,0.32640,-0.53636,0.03078,-0.07541,0.36806,-0.12584,0.37450,-0.57615,0.29183,-0.60489,0.32005,-0.25110,0.57757,-0.24520,0.68965,-0.25822,0.47194,-0.11172,0.62996,-0.55431,0.24964,-0.25708,0.21928,-0.17685,0.54857,-0.20362,0.16542,-0.61118,0.40207,-0.59436,0.62916,-0.58674,0.50406,-0.27539,0.09152,-0.35648,0.14049,-0.08653,0.34099,-0.08028,0.24051,-0.27731,0.05145,-0.61048,0.39033,-0.14564,0.58293,-0.50447,0.23536,-0.25805,0.09975,-0.64284,0.48036,-0.01677,0.35367,-0.13364,0.47882,-0.61785,0.48095,-0.54223,0.33099,-0.24874,0.14118,-0.53681,0.52427,-0.47473,0.20017,-0.67362,0.24991,-0.12588,0.32215,-0.09847,0.13814,-0.54493,0.23625,-0.58593,0.46626,-0.48323,0.45853,-0.78822,-0.11458,-0.36963,0.63078,-0.38463,0.40518,0.05011,0.38254,-0.45910,0.65387,-0.56590,0.67578,-0.07174,0.39120,-0.45080,0.52128,-0.51287,0.48895,-0.64721,0.39409,-0.67506,-0.00743,-0.36289,-0.11491,-0.87856,-0.22982,-0.48943,0.06685,-0.51894,0.27083,-0.40187,0.47033,-0.50940,0.30840,-0.06677,0.35788,-0.42741,0.34547,-0.23809,0.31099,-0.01602,0.34507,-0.09165,0.34575,-0.56098,0.56620,-0.57441,0.25994,-0.67442,0.09182,-0.60601,-0.10610,-0.66283,0.12682,-1.09813,0.31130,-0.74104,0.23055,-0.27704,0.11928,-0.25686,0.83140,0.11833,0.44446,0.24723,0.65666,-0.43182,0.26865,-0.34116,0.42344,-0.60427,0.30243,-0.63376,0.25765,-0.24242,0.26051,-0.37170,0.31570,-0.17102,-0.03250,-0.36686,-0.09952,-1.08876,0.10790,-0.68538,-0.02586,-0.69373,0.09670,-0.18349,0.36515,-0.28729,0.92360,0.32772,0.57431,-0.12382,0.25808,-0.55373,0.63942,-0.44015,0.60152,-0.56629,0.50908,-0.46810,0.00460,-0.48358,0.69212,-0.65185,0.27377,-0.81193,-0.32613,-0.82966,-0.15334,-0.98151,-0.07058,-0.65983,0.40334,-0.71299,-0.00787,-0.30369,0.57481,0.21320,0.84494,-0.16335,0.74252,-0.11900,0.69648,-0.66628,0.25904,-0.54482,0.52324,-0.31323,0.62106,-0.13275,0.45922,-0.11168,0.32817,-0.39203,0.44890,-0.33885,-0.63261,-0.88678,-0.14357,-0.69783,-0.21460,-0.51151,0.18754,-0.38760,0.74023,0.37432,0.97727,0.01670,0.41598,-0.23230,0.34379,-0.17309,0.08054,-0.14968,0.13588,-0.35139,0.23288,-0.12620,0.48925,-0.16454,0.68089,-0.07250,0.55867,-0.81868,-0.58547,-1.51681,-0.51050,-0.82511,-0.03826,-1.08771,0.07684,-0.52099,0.12705,-0.31530,0.94908,-0.09465,0.12245,-0.08549,0.12838,-0.24208,0.26216,-0.09112,0.21888,-0.52139,0.39939,0.27457,1.00819,0.34661,0.90747,0.19531,1.07801,0.07932,-0.18515,-1.05355,-0.30906,-0.88512,-0.39687,-0.44253,-0.00629,-0.81043,0.37466,-0.39202,0.50051,-0.26583,0.77096,-0.10489,0.21624,-0.69607,0.00562,-0.22471,0.23157,-0.16484,0.68663,-0.02062,0.87594,0.13128,0.75298,0.14794,1.29774,0.34767,0.66160,-0.28668,-0.02819,-0.77399,0.04502,-0.91953,-0.54879,-0.55452,0.26821,-0.07925,0.26755,-0.30313,0.42278,-0.00375,0.67469,-0.16496,0.47068,-0.48113,0.56520,-0.50420,0.54815,-0.12960,0.59672,-0.04988,0.80424,0.39910,0.91343,0.53881,0.61337,0.08779,0.31675,-0.58826,0.10108,-0.76679,0.15651,-0.38587,0.12318,-0.59372,0.40236,0.01650,0.67161,-0.05455,0.23969,-0.01612,0.50822,-0.25482,0.39275,-0.43673,0.73326,-0.13683,0.28675,-0.33476,0.29238,0.06069,0.95798,0.07064,0.50106,-0.18924,0.29607,-0.63914,0.30292,-0.59281,0.54950,0.02465,0.43768,-0.22884,0.62342,-0.04945,0.18555,-0.24527,0.46302,-0.23908,0.25123,-0.45935,0.30832,-0.26509,0.52289,-0.33114,0.34393,-0.24100,0.72195,-0.02528,0.55847,-0.19723,0.90149,-0.21154,0.28446,-0.30508,0.00161,-0.68980,0.05550,-0.28706,0.80601,-0.05753,0.38349,-0.13491,0.51389,-0.22713,0.64679,-0.00279,0.67468,-0.10006,0.15773,-0.11813,0.02274,-0.14266,0.32732,-0.21939,0.46322,-0.06916,0.75966,0.19840,0.83593,-0.19872,-0.10119,-0.91496,0.37193,-0.24557,0.20271,-0.28228,0.44664,-0.29224,0.12974,-0.28632,0.24165,-0.24711,0.02549,-0.65909,0.56580,-0.26218,-0.15169,-0.55059,0.17726,-0.38399,0.67230,-0.38990,0.34635,0.07261,0.66435,0.11837,0.67045,-0.11116,0.42740,-0.35841,0.07176,0.09934,0.62296,-0.22309,0.26746,-0.06872,0.29074,-0.35194,0.34170,-0.14773,0.56850,-0.41597,0.40886,-0.50642,0.10986,-0.45715,0.03509,-0.33103,0.49506,-0.47266,0.42424,0.07729,0.81397,-0.12918,1.03485,-0.11900,0.39340,0.05270,0.23052,-0.15800,0.84155,-0.44334,0.13099,-0.51665,0.59015,-0.57572,0.48495,-0.10968,0.07150,-0.51714,0.17501,-0.26870,0.41318,-0.62175,0.45207,-0.63843,0.47122,-0.32727,0.74360,-0.24000,0.79231,-0.23472,0.24639,0.07196,0.42532,-0.29000,0.52573,-0.34365,0.57884,-0.60148,0.24732,-0.10881,0.04794,-0.31494,0.15323,-0.58310,0.17783,-0.49764,0.56101,-0.40816,0.09286,-0.66743,0.04749,-0.49057,0.46607,-0.22788,0.33896,-0.41510,0.42548,-0.43287,0.18741,-0.34900,0.60731,-0.13380,0.09922,-0.42328,0.35929,-0.43503,-0.02242,-0.40728,0.19476,-0.47161,0.67789,-0.68829,0.22705,-0.38603,0.30903,-0.46123,-0.15805,-0.65391,0.46264,-0.27011,0.36909,-0.31057,0.28101,-0.08908,0.81697,-0.56707,0.37986,-0.09082,0.58518,0.07831,0.63862,-0.73996,0.18377,-0.43503,0.19668,-0.68882,0.56662,-0.50629,0.53289,-0.14071,0.44625,-0.19545,0.49006,-0.27033,0.32758,-0.52170,0.03570,-0.14513,0.15885,-0.15751,0.65992,-0.30613,0.29411,0.17703,0.24287,0.11500,0.31575,-0.15814,0.64229,-0.54575,0.46448,-0.53000,0.09900,-0.13924,0.60612,-0.16238,0.29091,-0.46185,0.02876,-0.20348,0.45317,-0.51887,0.00680,-0.49403,0.48311,-0.55050,-0.00290,-0.42537,0.05146,-0.41694,0.45531,-0.21449,0.69376,-0.38179,0.49232,-0.06787,0.76018,-0.43563,0.24768,-0.32262,0.17668,-0.28706,0.04574,-0.67262,0.43273,-0.14751,0.55285,-0.65650,0.33481,-0.59960,0.35119,-0.19288,0.51717,-0.24804,0.27617,-0.31382,0.44482,-0.52735,0.27224,-0.20195,0.35956,-0.23707,0.76928,0.27332,0.54813,-0.20887,0.25007,-0.38854,0.27884,-0.40960,0.10433,-0.41871,0.15733,-0.10674,0.56677,-0.14078,0.06958,-0.32316,0.51080,-0.61690,0.39620,-0.75585,0.01652,-0.47834,0.35149,-0.43579,0.31178,-0.68836,0.62578,-0.34487,0.05091,-0.10608,0.30339,0.01350,0.69040,-0.60840,0.51426,-0.69431,0.31023,-0.39854,0.69085,-0.16317,0.42246,-0.10381,0.30863,-0.16979,0.35458,-0.50591,-0.02767,-0.84935,-0.15744,-0.78391,0.01231,-0.79616,0.02932,-0.66785,0.03890,-0.80344,-0.04287,-0.75404,-0.09326,-0.71982,0.33245,-0.55109,0.58714,-0.58231,0.64890,-0.11054,0.03053,-0.66528,0.34045,-0.17402,0.09115,-0.36870,0.32665,-0.68794,0.30090,-0.49307,0.37530,-0.64808,0.24459,-0.48373,0.28949,-0.52805,0.39712,-0.52036,0.61974,-0.65901,0.59876,-0.22288,0.17309,-0.57045,0.43443,-0.38157,0.42946,-0.28170,0.48311,-0.35294,0.02227,-0.40827,0.31151,-0.16872,0.67843,-0.04321,0.34444,-0.03228,0.67087,-0.45042,0.36837,-0.35193,0.66091,-0.25659,0.44169,-0.03192,0.28534,-0.07858,0.44957,-0.06341,0.25868,-0.68237,0.49436,-0.45299,0.25505,-0.59216,0.53407,-0.06815},
{ 0.58232,0.68142,-0.57584,0.69510,-0.28472,0.09710,-0.21687,0.10001,-0.09807,0.44741,-0.18805,0.06134,-0.59315,0.29016,-0.29643,0.28271,-0.09152,0.66280,-0.61113,0.19879,-0.69437,0.50929,-0.00636,0.56124,-0.30447,0.26289,-0.02815,0.67334,-0.64975,0.37415,-0.23072,0.42754,-0.17884,0.63374,-0.07524,0.69789,-0.51964,0.14034,-0.06845,0.29177,-0.10439,0.35949,-0.44135,0.27329,-0.54555,0.37015,-0.29864,0.30984,-0.04658,0.34274,-0.17157,0.50008,-0.01849,0.59772,-0.26200,0.41115,-0.41951,0.29676,-0.13946,0.36565,-0.25645,0.14760,-0.10568,0.03590,-0.25693,0.56620,-0.32909,0.08659,-0.56930,0.27182,-0.54355,0.27159,-0.61402,0.50076,-0.19672,0.09787,-0.08983,0.38496,-0.09578,0.20669,-0.50415,0.68516,-0.64936,0.08485,-0.24341,0.18237,-0.43061,0.02509,-0.34786,0.40286,-0.03058,0.65786,-0.36560,0.56068,-0.39907,0.68985,-0.36457,0.48852,-0.67168,0.34150,-0.12738,0.08562,-0.25023,0.32979,-0.44352,0.22185,-0.45999,0.22942,-0.68607,0.04829,-0.63668,0.44849,-0.40354,0.07777,-0.22520,0.08337,-0.57876,0.04041,-0.05346,0.26099,-0.65525,0.35479,-0.51768,0.09396,-0.14480,0.55982,-0.24605,0.49825,-0.41703,0.67988,-0.17387,0.06942,-0.36115,0.54635,-0.07472,0.50567,-0.16175,0.61062,-0.43666,0.58482,-0.38917,0.57687,-0.38973,0.23145,-0.66133,0.05488,-0.02315,0.57426,-0.20529,0.59889,-0.42153,0.59780,-0.19612,0.27674,-0.19161,0.55051,-0.62400,0.27230,-0.60537,0.15822,-0.53475,-0.03878,-0.31900,-0.10383,-0.38613,0.52969,-0.17422,0.18500,-0.30620,0.37635,-0.14015,0.45409,-0.66574,0.48989,-0.56022,0.30043,-0.58883,0.07454,-0.05516,0.15907,-0.23612,0.20066,-0.41346,0.25742,-0.61179,-0.15198,-0.74043,-0.20097,-0.60811,0.07012,-0.83189,0.21807,-0.28331,0.34162,-0.44318,0.62994,-0.12013,0.49041,-0.09932,0.43917,-0.59835,0.42582,-0.24014,0.74461,-0.28107,0.38882,0.00186,0.18505,0.04578,0.87607,-0.51408,0.53251,-0.26147,-0.12653,-0.60074,0.21746,-0.33056,0.02935,-0.49735,0.48059,-0.36840,0.46090,-0.35434,0.45410,-0.30644,0.11402,-0.04158,0.65427,0.00652,0.32228,-0.22764,0.52526,-0.11219,0.55341,-0.01334,0.33578,-0.13191,0.54096,-0.03335,0.17864,-0.24152,0.31871,-0.12497,0.37375,-0.38851,0.69081,0.19417,0.70057,0.02726,0.15837,-0.23216,0.26440,-0.64824,0.46004,-0.22440,0.57545,-0.36107,0.40123,-0.41453,0.38514,-0.30835,0.22892,-0.03986,0.43399,0.01563,0.28341,0.19287,1.03462,0.21213,0.63853,-0.14275,0.39326,0.07255,0.57084,-0.23624,0.23077,-0.13041,0.67226,0.10140,0.66914,-0.49049,0.12343,-0.08128,0.45605,-0.45318,0.54388,-0.17634,0.41160,-0.56597,0.54535,-0.38984,0.37552,-0.00318,0.78611,0.16436,0.95027,0.20185,0.78663,-0.02765,0.70059,0.02367,0.55488,-0.00801,0.32123,-0.43645,0.30404,-0.04413,0.11390,-0.13826,0.49558,-0.19233,0.37688,-0.31727,0.08703,-0.33088,0.07200,-0.52128,0.34625,-0.73632,-0.18321,-0.63500,0.17962,-0.27953,0.74018,-0.16671,0.77047,-0.36978,0.46105,-0.56370,0.13024,-0.61821,0.16980,-0.77849,0.30440,-0.29768,0.63180,-0.09783,0.48149,-0.05394,0.66697,-0.36805,0.43080,-0.30613,0.24054,-0.68680,-0.06744,-0.98342,-0.20636,-1.23571,-0.36476,-0.75827,0.18290,-0.35731,-0.14178,-0.69575,0.24567,-0.75074,-0.08608,-0.88385,-0.14708,-0.52934,0.30865,-0.14911,0.44864,-0.23168,0.54029,-0.45493,0.10102,-0.69081,0.31746,-0.82097,-0.08231,-0.89805,-0.45982,-1.12880,-0.33396,-0.93089,-0.21418,-0.78591,-0.40800,-0.89427,-0.09655,-0.56051,-0.20162,-0.47643,0.27986,-0.61039,0.43199,-0.66848,0.31501,-0.12633,0.59754,-0.16070,0.10421,-0.10762,0.30706,-0.34124,0.14236,-0.72409,-0.26080,-0.96645,-0.04489,-0.51663,-0.36841,-0.99518,-0.22187,-0.41225,0.34752,-0.45137,-0.05812,-0.63749,-0.03958,-0.45512,0.01332,-0.12341,0.31232,-0.80329,-0.11857,-0.38269,0.49925,-0.34110,0.14606,-0.41968,0.47461,-0.53695,0.15162,-0.53092,-0.23549,-0.90517,0.14914,-0.68212,0.05948,-0.39688,0.45037,-0.35421,0.21496,-0.71124,0.21128,-0.42703,0.42767,-0.56773,0.09175,-0.61930,0.24517,-0.50863,0.57095,0.07300,0.59034,-0.28818,0.49629,-0.34209,0.43321,-0.38421,0.24707,-0.85671,0.00994,-0.72060,0.52445,-0.38364,0.08749,-0.38542,0.50535,-0.22812,0.74376,-0.51343,0.21346,-0.56627,-0.10148,-0.42740,0.31384,-0.28834,0.38567,-0.17925,0.33776,0.09807,0.24032,-0.59789,0.34143,-0.52473,0.31218,-0.42574,0.27877,-0.47215,0.35757,-0.55752,0.26267,-0.50152,0.74562,-0.10995,0.21433,-0.03246,0.43048,-0.17062,-0.23119,-0.64283,0.08079,-0.58410,0.14273,-0.18786,0.56005,-0.47872,0.37838,-0.00594,0.07246,-0.09975,0.32548,-0.64122,0.54162,-0.74105,0.04861,-0.21706,0.45939,-0.01197,0.58453,-0.13200,0.47725,0.16702,0.85542,0.13988,0.80005,-0.31635,0.17395,-0.74763,0.31808,-0.80518,-0.14256,-0.31837,0.45791,-0.48041,0.42605,0.06167,0.37352,-0.32314,0.25430,-0.58078,0.26869,-0.38428,0.48373,-0.19653,0.55824,-0.48518,0.74036,0.04668,0.58167,-0.37926,0.26319,-0.05027,0.66255,-0.16385,0.33958,-0.38374,-0.11597,-0.25660,0.41312,-0.59041,0.37438,-0.42547,0.82124,-0.19284,0.21598,-0.25646,0.43842,-0.26564,0.42359,-0.21557,0.66937,0.01879,0.42898,-0.00816,0.33816,-0.36512,0.66966,-0.07915,0.45850,-0.09521,0.00683,-0.25566,0.15195,-0.47989,0.16082,-0.36501,0.33673,-0.75113,0.56367,-0.31835,0.44685,-0.59580,0.06942,-0.03269,0.44988,-0.29867,0.32725,-0.41512,0.11746,-0.56540,0.16111,-0.30166,0.21355,0.05984,0.17757,-0.12224,0.14112,-0.35436,0.41359,-0.44430,0.08671,-0.03945,0.18576,-0.66409,0.27500,-0.04745,0.17488,-0.10111,0.65198,-0.58817,0.39717,-0.29612,0.63147,-0.34791,0.28562,-0.12447,0.33612,-0.17145,0.44979,-0.19185,0.19915,0.16046,0.31571,-0.64257,0.39703,-0.81035,0.45384,-0.45000,0.51260,-0.35664,0.48449,-0.08359,0.02426,0.00000,0.20556,-0.16413,0.44321,-0.07352,0.05659,-0.55853,0.17377,-0.09997,0.11816,-0.52495,0.61781,-0.26264,0.43135,-0.51845,0.07781,-0.12454,0.40100,-0.56028,0.30499,-0.27814,-0.10103,-0.14627,0.21982,-0.27315,0.65817,-0.48662,0.38568,-0.21952,0.56210,-0.59249,0.39513,-0.45313,0.13083,-0.09200,0.67166,-0.31993,0.27865,-0.17942,0.45534,-0.06101,0.22798,-0.16661,0.32711,-0.22255,0.31501,-0.59962,0.14230,-0.36387,0.36132,-0.48117,0.07095,-0.25646,0.13667,-0.58499,0.30780,-0.32376,0.53723,-0.61831,0.51529,-0.11987,0.08426,-0.61374,0.67894,-0.30038,0.00251,-0.65357,0.43156,-0.35985,0.73112,-0.18990,0.63564,-0.25593,0.12693,-0.12861,0.16066,-0.14847,0.09822,-0.14952,0.47417,-0.62418,0.41081,-0.25541,0.46004,-0.12714,0.00164,-0.13348,0.55381,-0.67970,0.48204,-0.46250,0.40280,-0.15848,0.00685,-0.29071,0.67492,-0.59244,0.41652,-0.46705,0.56555,-0.62956,0.45246,-0.35665,0.16778,-0.34134,0.35264,-0.68589,0.13731,-0.53076,0.43565,-0.68906,0.31428,-0.59257,0.44467,-0.40132,0.51813,-0.14862,0.23932,-0.66997,0.06805,-0.64247,0.43890,-0.63897,0.45232,-0.14231,0.53115,-0.55810,0.03416,-0.08696,0.68788,-0.69674,0.43193,-0.42995,0.07598,-0.21798,0.55016,-0.29238,0.64746,-0.42833,0.10059,-0.17889,0.02586,-0.62526,0.32058,-0.03523,0.66339,-0.67578},
{ -0.54410,0.57766,-0.43494,0.01117,-0.13066,0.10292,-0.10946,0.09169,-0.25037,0.24955,-0.44762,0.21416,-0.01210,0.42976,-0.21831,0.32707,-0.37953,0.38584,-0.00162,0.54413,-0.37939,0.14076,-0.50816,0.62772,-0.36289,0.03783,-0.25928,0.18241,-0.53263,0.35724,-0.23626,0.46362,-0.35362,0.32906,-0.42511,0.13989,-0.14770,0.20897,-0.25570,0.41743,-0.08704,0.53732,-0.37491,0.56397,-0.03036,0.45717,-0.40437,0.59451,-0.29696,0.31648,-0.10429,0.26195,-0.36360,0.27000,-0.54367,0.40431,-0.38330,0.64133,-0.16977,0.04239,-0.60774,0.65318,-0.46352,0.27147,-0.61440,0.57059,-0.11034,0.46877,-0.27334,0.22231,-0.27981,0.41460,-0.23871,0.75105,-0.29017,0.53487,-0.20259,0.18837,-0.12022,0.34122,-0.41638,0.57763,-0.10599,0.45199,-0.18833,0.50556,-0.31901,0.29736,-0.48331,0.31080,-0.60045,0.53560,-0.03958,0.37016,-0.38096,0.33827,0.04699,0.38781,0.26367,0.31880,0.29941,0.90333,-0.24632,0.82594,0.14905,0.12315,-0.24275,0.60554,-0.37925,0.09536,-0.27427,0.66646,-0.16733,0.45471,-0.36949,0.29290,-0.31281,0.59182,-0.33614,0.14904,0.08381,0.82002,-0.02548,0.90977,0.15716,0.49312,-0.06527,0.69670,-0.22427,0.51524,-0.11287,0.46446,-0.55163,-0.08881,-0.43707,0.11829,-0.36731,0.59182,-0.16280,0.00106,-0.31218,0.09020,-0.46218,0.00943,-0.38131,0.48780,-0.25379,0.44364,-0.18603,0.71661,0.09040,0.65450,-0.18289,0.60245,-0.40443,0.45645,0.00701,0.46174,-0.50446,-0.01124,-0.24365,0.08846,-0.79773,0.22098,-0.36880,0.39431,-0.48302,0.14445,-0.01121,0.69188,-0.01079,0.06893,-0.24968,0.84287,0.15995,1.08728,0.30804,0.54000,-0.12912,0.13998,-0.36605,0.45233,-0.63717,0.22644,-0.33005,0.60231,-0.62784,0.33636,-0.75658,-0.05092,-0.73922,0.20094,-0.76578,0.22788,-0.13750,0.56987,-0.45873,0.40032,-0.62241,0.70142,-0.30268,0.58351,0.45812,0.60605,-0.07313,0.35261,-0.11327,0.51041,-0.53108,0.43596,-0.26750,0.09562,-0.27234,0.31631,-0.01202,0.02735,-0.46390,0.51611,-0.68835,-0.33732,-1.04617,0.09572,-0.46862,0.35384,-0.39959,0.27779,-0.31843,0.23286,-0.37316,0.49851,-0.15958,0.79832,0.06477,0.46954,-0.34598,0.53291,-0.26325,0.42421,0.14241,0.48389,0.26359,0.12376,-0.21022,0.50651,-0.37068,0.37807,-0.32880,-0.17617,-1.17213,-0.10466,-0.43639,0.50577,-0.52199,0.24061,-0.23757,0.57288,0.07716,0.34291,0.13401,0.39297,-0.01232,0.32267,-0.67082,0.05310,-0.56610,0.01385,-0.16339,0.89642,0.26338,0.29374,-0.16073,0.35944,-0.08227,0.50473,-0.55782,0.01570,-1.09809,-0.10985,-0.35782,0.22897,-0.66478,0.10148,-0.33851,0.32715,-0.41187,0.72943,-0.55204,-0.09200,-0.52721,-0.04809,-0.66410,-0.38780,-1.27899,-0.67898,-0.79223,0.82569,0.10931,0.45726,-0.16595,0.09220,-0.20119,0.70156,-0.36632,-0.26157,-0.69607,0.13772,-0.37338,0.65324,-0.36338,0.54198,-0.68821,0.34775,0.08683,0.28090,-1.00557,-0.35270,-1.26024,-0.21642,-0.88253,-0.29508,-0.92271,-0.57707,-0.63517,0.69262,0.13939,0.33206,-0.34029,0.03733,0.03857,0.38617,-0.17428,0.33411,-0.69965,0.38343,-0.08703,0.42466,-0.29144,0.43272,-0.67940,0.19633,-0.22595,0.56278,-0.64264,-0.28460,-0.98682,-0.42339,-1.06513,-0.13978,-0.74583,-0.13207,-1.07305,0.14906,-0.20607,0.58642,-0.26072,0.25020,-0.81912,-0.01792,-0.37907,0.15579,-0.30782,0.40645,-0.18716,0.53593,-0.48890,0.01608,-0.06463,0.29922,-0.10950,0.43511,-0.78923,-0.54677,-0.95443,-0.06786,-0.92903,0.11676,-0.72580,-0.07405,-0.52342,0.55512,-0.28292,0.51030,-0.30799,0.02015,-0.69120,0.09287,-0.40577,0.10635,-0.24201,0.42410,-0.18983,0.42969,-0.10704,0.66608,-0.23329,0.27392,-0.32050,-0.14791,-0.75345,-0.10497,-1.01989,0.06179,-0.44705,-0.07197,-0.81065,0.25176,-0.06035,0.32513,-0.04872,-0.02715,-0.39943,0.23238,-0.00061,0.22776,0.04749,0.46979,-0.15590,0.14428,-0.63253,0.41810,-0.20014,0.59709,-0.31966,0.12028,-0.09227,0.40335,-0.65590,-0.19450,-0.62160,0.02970,-0.65965,0.19225,-0.58019,0.27949,-0.20093,0.83602,-0.25277,0.30863,-0.22568,0.30601,0.17125,0.88061,-0.28750,0.87939,-0.24635,0.44307,-0.29899,0.04919,-0.61546,0.65842,-0.14673,0.60692,-0.10036,0.28516,-0.08706,0.14166,-0.47803,0.40283,-0.38235,-0.07419,-0.09937,0.65737,0.37990,0.53259,-0.34520,0.03629,-0.27090,0.51388,-0.22325,0.76858,0.10928,0.68327,-0.16396,0.90697,-0.47902,0.74875,-0.09093,0.20424,-0.56452,0.45182,-0.27369,0.62184,-0.14038,0.14362,-0.28580,0.31653,-0.38331,0.33295,-0.35663,0.19452,0.01124,0.30324,-0.15490,0.42808,-0.39370,0.33139,-0.24423,0.50364,0.19609,0.83747,0.23246,0.26738,-0.30193,0.61793,-0.64177,0.45600,-0.57871,0.27284,-0.52761,0.58250,-0.47490,-0.04637,-0.83594,0.36079,-0.61442,0.56867,-0.21987,0.41956,-0.00861,0.49383,-0.18904,0.65264,-0.26847,0.91811,-0.02604,0.55789,-0.11366,0.53267,0.00430,0.70228,-0.50364,0.65296,-0.03936,0.29932,-0.52413,0.61963,-0.36958,0.77444,-0.57626,0.44060,-0.58498,0.05973,-0.56098,0.09965,-0.33231,0.22667,-0.39932,0.33365,-0.51835,0.70414,-0.00125,0.72187,-0.00854,0.39733,0.07449,0.95488,-0.29229,0.17471,-0.20741,0.69870,-0.36942,0.35392,-0.40222,0.71982,0.19963,0.62001,-0.26585,0.35699,-0.54252,0.65364,-0.21758,0.09296,-0.41945,0.19209,-0.17290,0.77362,0.35212,0.21088,-0.12488,1.03429,-0.20746,0.59687,-0.32542,0.55610,-0.53013,0.31752,-0.34765,0.38023,-0.33304,0.12544,-0.55225,0.19015,-0.20499,0.39131,-0.11380,0.49236,-0.05388,0.39005,-0.45159,-0.08593,-0.22176,0.14757,-0.49817,0.44424,0.36491,0.73066,-0.24762,0.40873,-0.48272,0.35271,-0.68648,0.38788,-0.47958,0.59842,-0.27399,0.11182,-0.50916,0.67233,-0.52894,0.53041,-0.58942,0.63886,-0.11048,0.70662,-0.19175,0.29997,-0.40935,0.20004,-0.29799,-0.09729,-0.44277,0.24308,-0.25589,0.36112,-0.42714,0.64093,-0.43609,0.25943,-0.39489,-0.12084,-0.55634,0.10822,-0.24654,0.62345,-0.54950,0.41659,-0.16921,0.59133,-0.04404,0.64009,-0.21229,1.02854,0.20923,0.53371,-0.06578,0.38734,-0.40532,0.21939,-0.58203,0.15204,-0.29738,0.28109,-0.52159,0.25382,-0.69128,0.16555,-0.77637,0.07284,-0.36751,0.48489,-0.31987,0.16892,-0.61876,0.33842,-0.26593,0.68342,-0.20426,0.43848,-0.38621,0.70114,0.23485,0.78263,-0.48089,0.67459,-0.13188,0.37867,-0.11734,0.51784,-0.29311,0.28767,-0.57520,0.13579,-0.78293,-0.33762,-0.53971,0.22607,-0.62892,0.45453,-0.65338,0.35111,-0.55587,0.28558,-0.46979,0.45135,-0.47384,0.09170,-0.09424,0.74074,-0.01406,0.21800,0.13663,0.65270,0.13637,0.73513,-0.46700,0.47008,-0.30353,0.05816,-0.59726,-0.02546,-0.71462,0.06196,-0.58499,0.39499,-0.36008,0.44005,-0.42169,0.53352,-0.53617,0.29521,-0.62303,0.01576,-0.28831,0.14321,-0.36934,0.60660,-0.25364,0.69995,-0.51406,0.34869,-0.02865,0.59680,-0.05528,0.16390,-0.15885,0.04982,-0.18272,0.05112,-0.24153,0.07057,-0.18901,0.14400,-0.35361,0.04405,-0.52395,0.06686,-0.22502,0.47208,-0.47119,0.16632,-0.16182,0.27488,-0.67723,0.16776,-0.69276,0.10425,-0.05600,0.46495,-0.26405,0.63435,-0.47361,0.22654,-0.17788,0.65125,-0.34064,0.58427,-0.26617,0.43554,-0.24756,0.60411,-0.48716,0.57015,-0.22764,0.47259,-0.57624},
