
double hiddenWeights [70][785] =
{
{ 0.49146,0.23186,-0.03282,0.08792,-0.64598,0.00699,-0.57618,0.04806,-0.56348,0.17222,-0.63497,0.38469,-0.27683,0.47108,-0.35464,0.53432,-0.45270,0.29149,-0.50932,0.57857,-0.27832,0.27191,-0.38307,0.31297,-0.26116,0.38514,-0.16710,0.08540,-0.38149,0.35943,-0.60742,0.07984,-0.64001,0.41929,-0.18533,0.67450,-0.32940,0.25614,-0.64272,0.25464,-0.05420,0.01438,-0.63913,0.11175,-0.03785,0.29993,-0.50809,0.48972,-0.19187,0.27088,-0.27728,0.37735,-0.04590,0.28547,-0.12315,0.53697,-0.40039,0.17986,-0.26161,0.26216,-0.34838,0.24636,-0.57434,0.67917,-0.63516,0.34189,-0.37554,0.13102,-0.59142,0.13034,-0.66441,0.51356,-0.12453,0.56151,-0.46303,0.57937,-0.69457,0.57760,-0.50205,0.20928,-0.37030,0.68340,-0.68231,0.30604,-0.64728,0.15790,-0.18493,0.16121,-0.51579,0.25449,-0.63325,0.49177,-0.35958,0.38653,-0.10899,0.35530,-0.41330,0.19213,-0.03518,0.20308,-0.51142,0.45752,-0.62868,0.35829,-0.53489,0.33754,-0.44186,0.15734,-0.34683,0.57935,-0.14179,0.32257,-0.35295,0.19165,-0.32800,0.17535,-0.55022,0.04588,-0.58029,0.03386,-0.08975,0.40400,-0.24288,0.49929,-0.44648,0.61705,-0.14063,0.40650,-0.19349,0.05025,0.02363,0.21349,-0.50049,0.04171,-0.54496,0.38445,-0.68036,0.10041,-0.28901,0.09911,-0.67404,0.16241,-0.26898,0.08524,-0.43768,0.66099,-0.40501,0.39498,-0.25636,0.14969,-0.10363,0.18402,-0.34404,0.59159,-0.68452,0.38570,-0.45412,0.62420,-0.15089,0.54398,-0.49618,0.36613,-0.61003,0.19402,-0.35272,0.63805,-0.63981,0.56058,-0.02115,0.05087,-0.19010,0.15533,-0.08747,0.25689,-0.48106,0.62776,-0.54798,0.63655,-0.57684,0.55765,-0.43329,0.12010,-0.32080,0.62715,0.08164,0.87030,-0.26699,0.48577,0.07199,0.25882,-0.75638,0.32557,-0.78735,0.31414,-0.60496,0.69114,-0.17141,0.04432,-0.45355,0.54860,-0.56201,0.44629,-0.06184,0.08865,-0.62944,0.10424,-0.11423,0.34274,-0.15575,0.48667,-0.00260,0.65648,0.01665,0.62968,-0.14739,0.63595,-0.20520,0.70018,0.02605,0.48856,-0.31101,0.54758,-0.67272,0.55312,-0.58244,0.67752,-0.06249,0.47962,-0.17271,0.12703,-0.32346,0.37740,-0.31961,0.56331,-0.42101,0.09714,-0.19611,0.38782,-0.55964,0.83768,0.13854,0.89635,0.25438,0.53960,0.23222,0.37564,-0.19397,0.08602,-0.13148,0.62434,-0.36613,0.40813,-0.09987,0.38731,-0.31503,0.15378,-0.49544,0.41735,-0.22479,0.69181,-0.61535,0.15721,-0.43115,0.25903,-0.27234,0.46500,-0.73385,0.83478,-0.00157,0.42273,0.01343,0.41636,-0.18920,0.11604,-0.18899,0.55807,-0.61021,0.42248,-0.54649,0.06744,-0.58676,0.66476,-0.62339,0.42898,-0.58112,0.50238,-0.63732,0.19316,-0.27163,0.03863,-0.47005,-0.11685,-0.87523,-0.32233,-0.57665,0.47728,0.10327,0.58054,-0.25184,0.37315,-0.28206,0.58555,-0.24486,0.54302,-0.07827,0.34802,-0.06589,0.30230,-0.66385,0.57077,-0.39396,0.27077,-0.46655,0.61148,-0.31609,0.25584,-0.72128,0.18289,-0.33129,-0.05519,-0.60658,-0.03660,-0.13286,0.75402,-0.50308,0.60936,-0.27595,0.42256,-0.24866,0.23938,-0.04512,0.17163,-0.70282,0.37304,-0.01475,0.44115,-0.39691,0.53767,-0.59424,0.28810,-0.15899,0.56603,-0.04072,0.38859,-0.59143,0.00188,-0.21079,-0.35224,-0.67367,-0.17550,0.08561,0.83400,-0.00117,0.12097,-0.53609,0.54906,-0.32029,0.31380,-0.59925,0.14142,-0.76894,0.56181,0.01780,0.70675,-0.54815,0.65447,-0.64006,0.26086,-0.06002,0.32513,-0.16112,0.15452,-0.37646,0.23415,-0.71910,-0.14967,-0.59378,0.20238,0.04047,0.58372,-0.41837,0.33166,-0.28566,0.33344,-0.22214,0.27548,-0.29731,0.09037,-0.78858,0.01279,-0.36988,0.13292,-0.67387,0.00943,-0.37690,0.08896,-0.33543,0.16086,-0.76693,0.14571,-0.37384,0.17078,-0.96928,-0.01946,0.00138,0.64483,0.22841,0.67548,-0.30763,0.62957,-0.44042,0.83323,-0.58971,0.38733,-0.11572,0.28324,-0.79223,0.08248,-0.21961,0.50085,-0.58942,0.13600,-0.06281,0.20144,-0.21536,0.34690,-0.28812,-0.20975,-0.60797,0.16590,-0.78784,0.66214,-0.29027,0.79446,0.10253,0.49457,-0.77523,0.68309,-0.38758,0.35338,-0.12043,0.17743,-0.50046,-0.16613,-0.41314,0.52788,-0.29191,0.04088,-0.01716,0.26788,-0.31434,0.68108,-0.17480,0.50748,-0.14832,0.03484,-0.43695,-0.03046,-0.61987,0.55626,0.20902,0.77579,0.05336,0.33195,-0.58124,0.43611,0.25798,0.43621,-0.37943,0.50036,-0.42652,0.11840,-0.63510,0.08925,-0.52820,0.39517,-0.31719,0.41419,-0.49227,0.17014,-0.01498,0.73809,-0.57271,0.55086,-0.61308,0.38943,-0.18053,0.55070,-0.02298,0.75833,0.02449,0.24285,-0.51133,0.12609,-0.12671,0.43876,-0.52954,0.15500,-0.57698,0.38750,-0.15837,0.29547,0.04318,0.58241,-0.29792,0.52220,-0.59094,0.07635,-0.26703,0.66271,-0.43299,0.33573,-0.31412,0.56092,-0.30685,0.36361,-0.02869,0.76418,-0.42358,0.00766,-0.85158,0.29058,-0.08075,0.23626,-0.40561,0.23415,-0.39280,0.45761,-0.03879,0.37852,0.01727,0.38654,-0.07999,0.54639,-0.63269,0.48162,-0.25906,0.80018,-0.37909,0.25433,-0.03474,0.40779,-0.10807,0.37977,-0.23423,0.68183,-0.41071,-0.13902,-0.90878,0.07319,-0.56409,0.27453,-0.28143,0.39772,-0.15009,0.53177,-0.45185,0.22696,-0.43490,0.58147,-0.51926,0.39328,-0.51887,0.51542,-0.12887,0.19049,0.06290,0.61540,-0.31305,0.62403,-0.36712,0.29353,-0.06446,0.60261,-0.48311,0.30980,-0.87766,0.15902,-0.80450,0.23824,-0.80838,0.62548,-0.17844,0.55766,-0.36038,0.54726,-0.35708,0.03072,-0.34786,0.24895,-0.13245,0.23295,-0.29304,0.13397,-0.24258,0.25207,-0.34772,0.79550,-0.06895,0.60661,-0.56820,0.08300,-0.24550,-0.08131,-0.52916,0.16727,-0.45668,-0.03876,-0.47131,0.26526,-0.49662,0.86261,-0.09344,0.57711,-0.12460,0.40365,-0.34922,0.47395,-0.44473,0.67682,-0.57521,0.33467,0.00524,0.52265,-0.35552,0.64136,-0.40628,0.65930,-0.35426,0.61652,-0.56787,0.43338,-0.55560,0.30747,-0.88619,0.23426,-0.16516,0.59696,-0.48802,0.59340,-0.38876,0.08386,-0.53727,0.00527,-0.50253,0.50037,-0.62550,0.13100,-0.37966,0.45510,-0.18405,0.41601,-0.00689,0.66960,-0.31128,0.47040,-0.25134,0.16809,-0.11660,0.34123,-0.55966,0.02390,-0.39604,0.41534,-0.60570,0.66872,-0.57601,0.17226,-0.47211,0.14125,-0.20851,0.38636,-0.31030,0.21944,-0.51241,0.60902,-0.26862,0.67443,-0.62830,0.01720,-0.10295,0.48666,-0.46642,0.45330,-0.43652,0.62723,-0.17458,0.08170,-0.56286,0.55857,-0.38103,0.57286,-0.57563,0.08926,-0.45324,0.47189,-0.56258,0.36868,-0.12172,0.45847,-0.06669,0.10233,-0.68209,0.03966,-0.24860,0.58378,-0.34857,0.22775,-0.45458,0.21575,-0.38232,0.56504,-0.44063,0.26983,0.05929,0.59631,0.05059,0.67446,0.09479,0.24875,-0.14457,0.13470,-0.14054,0.69625,-0.04208,0.46202,-0.11321,0.17607,-0.28678,0.40202,-0.28333,0.45608,-0.29424,0.56228,-0.26903,0.30021,-0.01584,0.26003,-0.20557,0.53636,-0.68589,0.20096,-0.06706,0.00042,-0.02818,0.47005,-0.65332,0.17265,-0.21172,0.33958,-0.28635,0.17676,-0.03915,0.05850,-0.42781,0.55841,-0.34955,0.51161,-0.45396,0.46566,-0.30607,0.57283,-0.51546,0.21161,-0.51588,0.16110,-0.69978,0.45403,-0.13708,0.19773,-0.38584,0.65987,-0.41364,0.40953,-0.52201,0.40065,-0.45269,0.05984,-0.54864,0.56776,-0.58479,0.60100,-0.05390,0.14878,-0.18018},
{ -0.02443,0.47901,-0.08411,0.38017,-0.68234,0.01443,-0.37959,0.04993,-0.50291,0.52826,-0.43103,0.08007,-0.27136,0.29368,-0.06396,0.33196,-0.49439,0.17682,-0.36559,0.51834,-0.21918,0.39840,-0.49240,0.34027,-0.58361,0.28059,-0.03728,0.00695,-0.64303,0.08046,-0.51960,0.41414,-0.32529,0.15220,-0.28150,0.41888,-0.37980,0.25754,-0.64997,0.66949,-0.15293,0.20730,-0.54652,0.29002,-0.08846,0.53591,-0.44420,0.37286,-0.67425,0.08437,-0.64299,0.02741,-0.35981,0.29981,-0.30794,0.37142,-0.56217,0.46546,-0.54800,0.26247,-0.67436,0.60051,-0.23207,0.46851,-0.16875,0.02950,-0.60811,0.62796,-0.10768,0.30725,-0.43095,0.26225,-0.47652,0.14820,-0.24940,0.67537,-0.52139,0.22838,0.02029,0.23765,-0.37675,0.08229,-0.61920,0.66391,-0.36401,0.65509,-0.56951,0.01395,-0.59787,0.02320,-0.30734,0.16739,-0.49942,0.27839,-0.38414,0.54445,-0.38704,0.44727,-0.47021,0.19906,0.04218,0.40431,-0.01297,0.43752,-0.56896,0.21772,-0.59010,0.69104,-0.39711,0.44228,-0.62613,0.62732,-0.50182,0.52125,-0.20883,0.69122,-0.55634,0.26230,-0.05500,0.15693,-0.67902,0.48284,-0.78612,0.41834,-0.36856,0.06207,-0.36750,0.04125,-0.48499,0.46502,-0.02316,0.23481,-0.35716,0.63945,-0.36009,0.25629,-0.33396,0.30087,-0.55064,0.09384,-0.02236,0.41723,-0.50958,0.05924,-0.69220,0.51765,-0.08293,0.01537,-0.40279,-0.04558,-0.64280,0.27892,-0.21105,0.25447,-0.77441,0.25480,-0.30174,0.15400,-0.35014,-0.02782,0.01202,0.33353,-0.49402,0.46929,-0.43237,0.46989,-0.60808,0.63555,-0.14246,0.65523,-0.08630,0.02226,-0.56221,0.37805,-0.34242,0.50839,-0.39677,0.19208,-0.32640,-0.10869,-0.68417,0.27470,-0.59519,0.16662,-0.39390,0.20875,-0.37348,0.59543,-0.40944,0.12962,-0.28451,0.33040,-0.47290,0.73645,-0.25258,0.58066,-0.52176,0.37441,-0.18894,0.33261,-0.27482,0.15811,-0.66933,0.20467,-0.56408,0.37672,-0.47554,0.10581,-0.13251,0.14103,-0.55344,0.44832,-0.40032,0.14020,-0.60923,0.14933,-0.54533,0.37321,-0.61613,0.26080,-0.23315,0.38917,-0.09912,0.35504,-0.41940,0.57895,-0.04590,0.66600,-0.01919,0.47579,-0.64539,0.44088,-0.23918,0.52564,-0.57067,0.34421,-0.53783,0.34856,-0.07363,0.00128,-0.30739,0.02888,-0.59405,-0.09355,-0.85850,0.37234,-0.74554,0.33345,-0.34227,0.35643,-0.32047,0.47371,-0.34647,0.55897,-0.10874,0.45342,-0.57646,-0.03634,-0.18148,0.03204,-0.20142,0.60589,0.07190,0.33338,-0.48796,0.46997,-0.50492,0.28367,-0.27880,0.20170,-0.88810,0.09378,-0.80290,-0.13601,-0.33233,0.10997,-0.23687,0.01596,-0.60478,0.04606,-0.18187,0.00963,-0.16321,0.31216,-0.65426,0.25786,-0.68531,0.66722,-0.15194,0.24887,0.00254,0.78481,-0.33822,0.62524,-0.36502,-0.03287,-0.94452,-0.14140,-0.78524,0.27002,-0.29182,0.17659,-0.30556,0.34773,-0.63736,0.32948,-0.50338,0.49931,-0.66634,0.22166,-0.06691,0.54755,-0.46364,0.41394,-0.47466,0.19746,0.01510,0.98530,0.05655,0.52436,-0.37939,0.10440,-0.21312,0.21094,-0.64898,0.47124,-0.72262,-0.21471,-0.69801,0.06031,-0.60466,0.44109,-0.51512,0.59515,-0.08384,0.25403,-0.69307,0.05084,-0.59093,0.64334,-0.06324,0.63759,-0.20417,0.44732,0.14359,0.39858,-0.02321,0.70464,-0.14094,0.58313,-0.50691,-0.04582,-0.32162,0.39114,-0.27727,0.60034,-0.46907,0.06566,-0.45853,0.28869,-0.28942,0.46457,-0.28008,0.44348,-0.65470,0.55514,-0.01037,0.21824,-0.19914,0.51523,0.07860,0.32224,0.04720,0.65260,-0.34171,0.67580,-0.24308,0.08908,-0.48561,0.55065,-0.35978,0.08768,-0.42631,0.47649,0.00366,0.51916,-0.38857,0.39792,-0.69951,0.34992,-0.30152,0.43308,-0.35991,0.10756,-0.18303,0.67228,-0.29654,0.28064,-0.19657,0.46893,-0.19925,0.75348,-0.38364,0.48792,-0.14731,0.21160,-0.56835,0.18728,-0.50651,0.18727,-0.12267,0.24711,-0.16654,0.36418,-0.28462,0.64734,-0.13986,0.44118,-0.22977,0.52593,-0.43772,0.55510,-0.47326,0.43548,-0.06176,0.08015,-0.24196,0.19750,-0.31532,0.58397,-0.53178,-0.00588,-0.26812,0.22526,-0.71106,0.46415,-0.29784,0.20929,-0.26993,0.14193,-0.33588,0.26205,-0.08416,0.31830,-0.63052,0.08768,-0.16363,0.25772,-0.67764,0.48704,-0.64252,0.57666,-0.48517,0.17455,-0.14541,0.05335,-0.56481,0.47494,-0.57633,0.50734,-0.38393,-0.05154,-0.16739,0.76208,-0.16796,0.29757,-0.28906,0.12099,-0.42287,0.53586,-0.74572,0.24914,-0.53947,0.37226,-0.46982,0.30041,-0.56056,0.09197,-0.17260,0.59353,-0.72598,0.36528,-0.78678,-0.06030,-0.09226,0.04402,-0.04666,0.58306,-0.06119,0.45256,-0.15552,0.70067,0.06324,0.37578,-0.66539,0.17234,-0.39073,0.13854,-0.67526,-0.07216,-0.24553,0.38019,-0.42794,0.62278,-0.27044,0.51571,-0.63600,0.23925,-0.24655,0.12092,-0.26999,-0.18283,-0.16964,0.57866,-0.20929,0.51757,-0.14777,0.42016,-0.00962,0.69453,0.08418,0.63186,-0.44895,0.26653,-0.36146,0.34675,-0.79585,0.19609,-0.51663,0.21889,-0.71062,0.57799,-0.36801,0.02560,-0.43578,0.32522,-0.56628,0.09857,-0.21153,0.43320,-0.45759,0.10997,-0.73557,0.42601,-0.35621,0.13079,-0.48573,0.83200,-0.24560,0.07882,-0.60106,0.08829,-0.18038,0.54173,-0.70243,0.13022,-0.35651,0.48447,-0.68804,0.35764,-0.20077,0.19314,-0.21003,0.49708,-0.47923,0.60146,-0.17892,0.43159,-0.54646,0.29142,-0.36437,-0.12185,-0.38770,0.45608,-0.59573,0.20354,-0.33078,0.30824,-0.23062,0.51697,-0.35500,-0.01546,-0.57456,-0.00545,-0.54299,0.36717,-0.22459,0.10487,-0.57621,0.29198,-0.16782,0.01174,-0.37466,0.08860,-0.23927,0.02546,-0.29147,0.34115,-0.57834,0.01170,-0.20250,0.50088,0.02812,0.58741,-0.34785,0.62215,-0.38744,0.44050,-0.61556,0.19232,-0.57684,0.53053,-0.27591,0.19446,-0.45411,0.54304,-0.62041,0.69184,-0.56434,0.00018,-0.43609,0.64651,-0.77645,0.58072,-0.37315,-0.00015,-0.64056,-0.10193,-0.26292,0.15806,-0.64729,0.63155,-0.32561,0.50189,-0.26643,0.40100,-0.47831,0.43236,-0.32575,0.16712,-0.46034,0.67381,-0.59483,0.18699,-0.24156,0.67870,-0.34346,0.29270,-0.36051,0.22627,-0.11199,0.11489,-0.08226,0.14470,-0.28744,0.23562,-0.56132,0.34054,-0.54716,0.54694,-0.50514,0.38200,-0.28907,0.28486,-0.06133,0.41816,-0.09508,0.09204,-0.27805,0.58962,-0.48316,0.21207,-0.00051,0.15037,-0.22008,0.08111,-0.51416,0.09162,-0.07996,0.46927,-0.10215,0.62718,-0.37137,0.26925,-0.07311,0.16764,-0.45561,0.59996,-0.26187,0.48468,-0.47787,0.35212,-0.14463,0.62688,-0.20417,0.41398,-0.34121,0.56537,-0.64366,0.63284,-0.47070,0.41735,-0.48336,0.33471,-0.37470,0.66590,-0.04584,0.27468,-0.24717,0.58910,-0.51422,0.58930,-0.16963,0.49039,-0.52738,0.16942,-0.17423,0.23238,-0.46158,0.08834,-0.35529,0.19816,-0.12151,0.39693,-0.63240,0.35210,-0.68483,0.58438,-0.66526,0.58982,-0.42548,0.57011,-0.18208,0.48828,-0.34643,0.54247,-0.48097,0.00720,-0.53317,0.27022,-0.06815,0.25131,-0.01779,0.05636,-0.17778,0.34493,-0.50900,0.00072,-0.14710,0.65691,-0.22784,0.24279,-0.34386,0.10916,-0.61308,0.08265,-0.27997,0.00330,-0.10562,0.00357,-0.44889,0.62873,-0.60771,0.05365,-0.09789,0.19109,-0.06925,0.52226,-0.39928,0.53243,-0.48493,0.13981,-0.53298,0.52309,-0.23447,0.36995,-0.35400,0.42786,-0.66825,0.47479,-0.57456,0.15982,-0.26866,0.29546,-0.03331},
{ 0.44095,0.17892,-0.63716,0.19197,-0.11664,0.42560,-0.50005,0.06180,-0.62522,0.41085,-0.38654,0.59736,-0.34928,0.12971,-0.53186,0.55364,-0.53710,0.62522,-0.35082,0.20486,-0.48009,0.04863,-0.45742,0.43875,-0.22605,0.31261,-0.58972,0.04978,-0.18228,0.30846,-0.12752,0.59279,-0.59335,0.27854,-0.46391,0.34856,-0.68337,0.61671,-0.02907,0.15375,-0.29670,0.04875,-0.65630,0.07615,-0.57555,0.70573,-0.53249,0.07557,-0.57441,0.01983,-0.25002,0.61513,-0.59839,0.26019,-0.12248,0.54274,-0.21340,0.56869,-0.15454,0.38783,-0.48218,0.23452,-0.47765,0.53420,-0.65108,0.42295,-0.48345,0.35761,-0.00676,0.19349,0.02329,0.41634,-0.15556,0.40303,-0.53657,0.09415,-0.18845,0.33800,-0.61847,0.69175,-0.35830,0.45326,-0.62771,0.20675,-0.67481,0.07525,-0.57017,0.58037,-0.51544,0.33071,-0.45748,0.15773,-0.56841,0.06151,-0.48860,0.12358,-0.53168,0.53419,0.05486,0.12538,-0.15780,0.34775,-0.41828,0.64113,-0.16018,0.41036,-0.37367,0.71272,-0.62708,0.68401,-0.26153,0.49480,-0.03598,0.56866,-0.28634,0.07879,-0.05915,0.29874,-0.51019,0.29824,-0.49198,0.08944,-0.29302,0.64650,0.00839,0.77994,-0.19983,0.78447,-0.14369,0.66335,-0.26394,0.55557,-0.19911,0.63861,-0.26030,0.21998,-0.58131,0.29245,-0.48592,0.61696,-0.57713,0.63163,-0.30886,0.59265,-0.56901,0.06298,-0.25715,0.28359,-0.12163,0.11186,-0.47848,0.62067,-0.31794,0.40833,-0.33841,0.63213,-0.32768,0.24883,-0.17018,0.28840,-0.08295,0.15617,-0.36081,0.34346,-0.71784,-0.01348,-0.42231,0.52446,-0.61805,0.36265,-0.18108,0.48377,-0.40331,-0.01333,-0.46547,0.56818,-0.36006,0.44777,-0.58670,0.66296,-0.69361,0.27830,-0.35219,0.47559,-0.52212,0.22517,-0.05774,0.01176,-0.44420,0.57917,-0.45384,0.56514,-0.32303,0.44080,-0.43127,0.42467,-0.07143,0.53257,-0.13174,0.53091,-0.20213,0.67878,-0.39390,0.14344,-0.19090,0.10468,-0.05756,0.53480,-0.13333,0.23117,-0.53365,0.18949,-0.35590,0.26367,-0.71036,0.04688,-0.22228,0.42391,-0.39660,0.18978,-0.36641,0.57366,-0.11547,0.61736,-0.44808,0.24220,-0.41336,0.60695,-0.21291,0.61616,-0.21201,0.25593,-0.11234,0.39920,-0.42988,0.18202,-0.57670,0.12386,-0.43120,0.02777,-0.44475,-0.08439,-0.33385,0.24756,-0.41899,0.22636,-0.55795,-0.03859,-0.48825,0.47342,-0.71668,0.16817,-0.02660,0.61690,-0.04912,0.37161,-0.39024,0.35971,-0.00983,0.72796,-0.14601,0.69476,-0.37383,0.37662,-0.21046,0.24021,-0.31845,0.51980,-0.20660,0.54611,-0.73993,0.17172,-0.33498,-0.00110,-0.34307,0.21167,-0.42121,0.54231,-0.14972,0.57254,-0.32406,0.44412,0.00144,0.17155,-0.06042,0.62936,-0.35241,0.72101,-0.44513,0.45777,0.02360,0.11619,-0.38979,0.19855,-0.71005,0.59256,-0.59475,0.28082,-0.77151,-0.13714,-0.40496,0.53290,-0.54801,0.72423,-0.34830,0.41831,-0.10226,0.58156,-0.51504,0.10026,0.00130,0.02166,-0.31717,0.67607,-0.30860,0.44112,-0.27337,0.40924,-0.47918,-0.26430,-0.58720,0.14474,-0.48940,0.65002,-0.13486,0.44824,-0.53814,0.14133,-0.58072,0.18210,-0.46770,0.72237,-0.35084,0.47929,-0.31042,0.52545,-0.66215,0.03635,-0.28504,0.34758,-0.55833,0.02854,-0.61639,0.04927,-0.66897,0.46667,-0.61674,-0.07782,-0.77388,-0.24097,-0.56771,0.44445,-0.47594,0.26046,-0.80741,0.28096,-0.42724,0.08872,-0.19721,0.26165,-0.07530,0.36537,-0.02062,0.04189,-0.01344,0.68441,-0.55768,0.33667,-0.69113,0.40021,-0.60392,-0.17559,-0.87452,-0.20288,-0.81994,0.03043,-0.95769,0.32835,-0.28855,0.75039,-0.16067,0.56802,-0.27554,0.35795,-0.28012,0.58551,-0.03600,0.24644,-0.13881,0.67579,-0.57200,0.12145,-0.36912,0.17798,-0.04987,0.58364,-0.56946,0.41821,-0.74148,-0.10586,-0.70517,0.03863,-0.64015,0.24318,-0.25301,0.34160,-0.26640,0.49227,0.16050,0.15321,-0.48812,0.01129,-0.67514,0.43698,-0.46687,0.05974,-0.62635,0.20165,-0.19273,0.01015,-0.63935,0.65091,-0.32726,0.35618,-0.66548,0.47516,-0.68822,0.31883,-0.68917,0.23646,-0.62957,0.15847,-0.09036,0.53874,-0.14660,0.83699,-0.27330,-0.02014,-0.28979,0.24654,0.01993,0.62188,-0.08657,0.65597,-0.31554,0.62081,0.01666,0.32061,-0.66482,0.23755,-0.13517,0.53395,-0.67098,0.14260,-0.51143,0.14143,-0.62314,0.46694,-0.21186,0.32493,-0.08567,0.38652,0.26977,0.51372,-0.22892,0.36325,-0.47992,0.10761,-0.53215,0.29671,-0.34114,0.01398,-0.23965,0.22537,-0.52997,0.29875,-0.17647,0.26230,-0.63689,0.64966,-0.07506,0.23880,-0.50909,0.58522,-0.64493,0.32909,-0.03297,0.49423,-0.17137,0.94974,-0.09133,0.56826,-0.53997,0.21974,-0.32005,0.10109,-0.30849,0.00545,-0.19258,0.58610,-0.46130,0.28621,-0.00119,0.41117,-0.65176,0.35818,-0.21250,0.01871,-0.53305,0.19369,-0.14855,0.09037,-0.37035,0.43918,0.05978,0.46664,-0.15453,1.16791,0.42269,0.16874,-0.65253,-0.03122,-0.25743,0.11388,-0.30967,0.03727,-0.08809,0.47433,0.06339,0.78828,-0.59505,0.42964,-0.06544,0.50861,-0.46201,0.31654,-0.41792,0.49922,-0.00346,0.28731,-0.21359,0.77935,0.19801,0.73713,-0.00805,0.48442,-0.07976,0.76765,-0.14066,0.41295,-0.15621,0.45101,-0.61514,0.54481,-0.39344,0.48664,-0.54904,0.30707,-0.04441,0.54475,-0.24708,0.34116,-0.19610,0.00415,-0.24619,0.08265,-0.08356,0.79197,0.01703,0.68192,-0.17175,0.78458,-0.17228,0.89755,-0.29535,0.72721,-0.35214,0.42548,-0.18422,0.34742,-0.63247,0.30800,-0.62335,0.62306,-0.08184,0.38263,-0.27334,0.30712,-0.38149,0.25133,-0.34705,0.18526,-0.21517,0.36527,-0.69219,0.57483,-0.42114,0.20472,-0.16809,0.52585,-0.22307,0.31879,-0.25908,0.36972,-0.34529,0.61958,-0.51603,0.45890,-0.26341,0.64205,-0.46254,0.34448,-0.41450,0.49721,-0.22959,0.14627,-0.06785,0.12154,-0.12748,0.58344,-0.40963,0.61163,-0.20022,0.25413,-0.36126,0.55915,-0.57791,0.08010,-0.29111,0.61426,-0.07177,0.75691,-0.45379,0.40139,-0.36162,0.13876,-0.50986,0.01367,-0.55541,0.44436,-0.30634,0.31640,-0.54710,0.54559,-0.39978,0.52576,-0.42560,0.44960,-0.52458,0.44316,-0.15942,0.46708,-0.56094,-0.08174,-0.56946,-0.04465,-0.51787,0.43872,-0.66564,0.56365,-0.08224,0.39234,-0.28920,0.17642,-0.33055,0.13486,-0.20943,0.56393,-0.43375,0.11992,-0.42832,0.26318,-0.41486,0.62274,-0.66317,0.56091,-0.48014,0.49823,-0.37702,0.48604,-0.27597,0.17547,-0.23706,0.10699,-0.62706,0.59092,-0.41437,0.31323,-0.08367,0.32735,-0.46162,0.16147,0.00421,0.10565,-0.23327,0.24185,-0.52905,0.63898,-0.64055,0.63783,-0.28108,0.51667,-0.17010,0.15396,-0.24597,0.36510,-0.63965,0.30435,-0.12792,0.37706,-0.42447,0.61314,-0.15378,0.31547,-0.40633,0.65115,-0.64973,0.34173,-0.60616,0.38372,-0.61789,0.22910,-0.08071,0.65089,-0.08910,0.38821,-0.68009,0.01091,-0.68474,0.44778,-0.07001,0.63436,-0.67213,0.50885,-0.25800,0.40358,-0.58817,0.02783,-0.06226,0.67486,-0.23675,0.27635,-0.19406,0.27031,-0.12984,0.30109,-0.04130,0.48133,-0.52466,0.08220,-0.35911,0.12647,-0.39690,0.42786,-0.68654,0.52599,-0.02196,0.14172,-0.53258,0.21550,-0.05776,0.64889,-0.52290,0.64058,-0.28292,0.68494,-0.25923,0.08124,-0.38026,0.02269,-0.61850,0.17412,-0.48636,0.43285,-0.52658,0.14693,-0.55638,0.39502,-0.27878,0.27261,-0.19002,0.32714,-0.47273,0.15936,-0.19440},
{ -0.35136,0.36028,-0.19530,0.07871,-0.63437,0.13174,-0.05627,0.65074,-0.24369,0.00960,-0.29095,0.51369,-0.48133,0.44640,-0.47259,0.42717,-0.40751,0.25259,-0.48199,0.46462,-0.35192,0.48077,-0.28285,0.22960,-0.44048,0.01461,-0.51394,0.57068,-0.01308,0.07261,-0.19068,0.11055,-0.16577,0.15665,-0.08046,0.66095,-0.38881,0.67729,-0.60076,0.08098,-0.15481,0.32416,-0.03813,0.53903,-0.25911,0.11903,-0.15975,0.32150,-0.16325,0.55141,-0.19010,0.05270,-0.23297,0.47344,-0.21955,0.35048,-0.65984,0.58509,-0.66554,0.48990,-0.32640,0.55748,-0.08553,0.67620,-0.43812,0.68956,-0.44779,0.10233,-0.33129,0.36540,-0.52266,0.48706,-0.17041,0.45179,-0.24117,0.28528,-0.48022,0.29695,-0.42068,0.60370,-0.02535,0.54477,-0.57830,0.51723,-0.45057,0.19061,-0.37723,0.28644,-0.29234,0.37661,-0.68915,0.08671,-0.70054,0.08710,-0.11465,0.00838,-0.44266,0.61211,-0.37800,0.32138,-0.58570,0.42825,-0.62788,0.47017,-0.54770,0.54093,-0.04371,0.47370,-0.60947,0.48293,-0.34809,0.53711,-0.23435,0.48776,-0.11263,0.19035,-0.31919,0.35458,-0.06755,0.54376,-0.66723,0.53620,-0.15580,-0.01632,-0.49735,0.07388,-0.42901,0.65468,-0.12927,0.48208,-0.54698,0.28661,-0.00861,0.58223,-0.15696,0.62851,-0.21120,0.62379,-0.03861,0.34353,-0.14200,0.48572,-0.01241,0.66846,-0.26599,0.16503,-0.16094,0.60802,-0.25068,0.48391,-0.31724,-0.00577,-0.40662,0.40423,-0.42468,0.24197,-0.68806,0.40010,-0.35443,0.12652,-0.38308,0.29862,0.03670,0.11586,-0.31181,0.45976,-0.46961,0.26513,-0.13375,0.33468,-0.41452,0.49087,-0.64711,0.24086,-0.62720,0.47838,-0.32715,0.17223,-0.46534,0.08875,-0.32134,0.40723,-0.20067,0.16333,-0.76700,0.27442,-0.43217,0.42442,-0.00919,0.12601,-0.12629,0.64680,-0.34840,0.25655,-0.31014,0.08780,-0.05397,0.67335,-0.59982,0.13543,-0.34987,0.07087,-0.14583,0.06299,-0.60847,0.10908,-0.22435,-0.01821,-0.41601,0.30207,-0.69984,0.31366,-0.53841,-0.00170,-0.25193,0.18799,-0.17089,0.58080,-0.36362,0.44562,-0.13439,0.06878,-0.30385,0.34128,-0.65937,0.62460,-0.49465,0.26760,-0.00625,0.21181,-0.23338,0.02996,-0.41106,0.31378,-0.60843,0.31733,-0.41532,-0.15211,-0.76183,0.21904,-0.37425,0.52541,-0.43987,0.23831,-0.22266,0.17626,-0.22212,0.46237,-0.05718,0.43960,-0.14625,0.41516,-0.50481,0.27495,-0.31561,0.20302,-0.34613,0.56186,-0.34640,0.07209,-0.62572,0.14090,-0.88295,0.26653,-0.41077,0.18307,-0.69327,0.06007,-0.18207,0.69605,0.10161,0.48705,-0.20003,0.64932,-0.48218,0.50940,-0.40068,0.60781,-0.55790,0.32182,-0.56776,0.32827,-0.60179,0.17474,-0.24561,0.41387,-0.57066,-0.15560,-0.87426,0.19564,-0.25445,0.05103,-0.56406,-0.06357,-0.68235,0.18498,0.04686,0.36318,-0.34285,0.55492,-0.02674,0.49656,-0.73041,0.02197,-0.17469,0.44200,-0.68423,0.11128,-0.14667,0.69058,-0.53755,0.17747,-0.04516,0.64552,-0.77222,0.04149,-0.26572,0.13789,-0.53311,0.20914,-0.52337,0.02355,-0.08732,0.60679,0.06745,0.86601,-0.22163,0.43618,-0.64293,0.29866,-0.57799,-0.00221,-0.48814,0.08208,-0.15705,0.18360,-0.26211,0.01367,-0.17601,0.48743,-0.23073,0.29867,-0.41920,-0.09315,-0.64270,0.27077,0.05125,0.19938,-0.07351,0.62561,-0.41412,0.76065,0.04709,0.82740,-0.52910,0.26908,-0.25820,-0.02549,-0.43929,0.20397,-0.58600,0.34985,-0.16814,0.25832,-0.69432,0.01519,-0.55633,0.05692,-0.66383,0.66517,-0.41602,0.46583,-0.33326,0.59008,-0.09911,0.70924,-0.61638,0.50748,-0.45744,0.72430,0.10554,0.16442,-0.42392,0.57754,-0.44528,0.53457,-0.48175,-0.06685,-0.37225,0.32223,-0.38440,0.06551,-0.42930,0.43662,-0.03727,0.34497,-0.50766,0.70265,-0.06322,0.12785,-0.28417,0.44651,-0.65836,0.11118,-0.18020,0.40313,-0.38619,0.35895,-0.54672,0.34952,-0.40955,0.05930,-0.38494,0.59253,-0.10709,0.27260,-0.39651,0.42514,-0.70595,0.12041,-0.55833,0.21898,-0.39824,0.62154,-0.36185,0.29363,-0.54881,0.18396,-0.40657,-0.04392,-0.79189,0.27158,-0.61925,0.18122,-0.25377,0.32101,-0.43042,0.14319,-0.70453,0.35119,-0.13845,0.65184,-0.66305,0.53848,-0.42787,0.58285,-0.69368,0.58413,-0.47549,0.65878,-0.59487,0.25082,-0.31888,0.11785,-0.22621,0.37818,-0.31226,0.29934,-0.35355,0.11907,-0.83194,0.06028,-0.30572,0.64053,-0.44709,0.38474,-0.54809,0.19621,-0.23890,0.41975,-0.24134,0.24396,-0.45485,0.51985,-0.07844,0.41120,-0.07357,0.20786,-0.56474,0.46825,-0.12118,0.50567,-0.29880,-0.12671,-0.71306,-0.04639,-1.01341,0.10438,-0.73572,0.35566,-0.14426,0.12066,-0.54138,-0.05469,-0.72995,0.07594,-0.32531,0.31692,-0.38619,0.22569,-0.41745,0.32018,-0.59182,0.20516,-0.07712,0.54474,-0.23339,0.38088,-0.24592,0.62313,-0.59896,0.31878,-0.77970,0.15424,-0.51147,-0.11322,-0.53968,0.12603,-0.16094,0.09913,-0.30877,0.34785,-0.51703,0.14134,-0.10035,0.24860,-0.29742,0.08977,-0.44393,0.04262,-0.49001,0.32817,-0.09441,0.53084,-0.27417,0.64792,-0.58367,0.07646,-0.09008,0.39709,-0.46709,0.04487,-0.80608,0.19819,-0.58736,-0.08637,-0.30461,0.61098,-0.21014,0.07848,-0.49844,-0.04082,-0.27901,0.49038,-0.59351,0.49573,-0.72504,0.48863,-0.48320,0.58896,-0.08129,0.53393,-0.45026,0.05897,-0.34493,0.23413,-0.05118,0.44090,-0.13670,0.59304,-0.19769,0.36428,-0.11467,0.11881,-0.62594,-0.07779,-0.46568,-0.05328,-0.67085,0.47509,-0.59440,-0.01573,-0.49164,0.45356,-0.36389,0.46369,-0.09455,0.09129,-0.56657,0.23283,-0.25575,0.01309,-0.25663,0.45954,-0.44661,0.72535,-0.16666,0.54651,-0.24720,0.10625,-0.26136,0.17121,-0.68433,0.40236,-0.68739,0.49463,-0.83344,-0.03073,-0.76383,0.42653,-0.21073,0.28018,-0.42304,0.55195,-0.46890,0.18435,-0.29554,0.63998,-0.02354,0.27854,-0.22761,0.66383,-0.28383,0.78064,-0.49004,0.40437,-0.52454,0.73800,-0.64925,0.27917,-0.17195,0.52855,-0.66508,0.53665,-0.65347,0.34471,-0.49560,0.52848,-0.15736,0.45316,-0.41116,0.66530,-0.29430,0.24450,-0.33370,0.11601,-0.22452,0.48383,-0.48556,0.52620,-0.05679,0.26593,-0.14385,0.69006,0.09318,0.28452,-0.23393,0.52856,-0.46956,0.42029,-0.46427,0.05747,-0.50516,0.43059,-0.14857,0.06692,-0.26918,0.18863,-0.57157,0.55644,-0.67352,0.10311,-0.44926,0.44153,-0.01552,0.47146,-0.69372,0.05120,-0.57154,0.44812,-0.62047,0.65070,-0.56521,0.62798,-0.49351,0.11732,-0.28826,0.15522,-0.20359,0.12744,-0.42633,0.53752,-0.41575,0.40956,-0.33436,0.63014,-0.68408,0.62854,-0.37476,0.09788,-0.38600,0.58871,-0.67046,0.60404,-0.52583,0.38776,-0.60187,0.10761,-0.24616,0.27140,-0.13520,0.23221,-0.66683,0.37775,-0.56773,0.27782,-0.79349,0.31748,-0.11973,0.24734,-0.28217,0.36530,-0.44289,0.53251,-0.66432,0.61770,-0.64350,0.26295,-0.29153,0.43322,-0.42904,0.17003,-0.26794,0.10204,-0.67001,0.63565,-0.01532,0.61040,-0.57287,0.37000,-0.48213,0.60430,-0.17860,0.16255,-0.64149,0.06925,-0.45359,0.42888,-0.34461,0.03829,-0.30075,0.62232,-0.69717,0.06080,-0.60813,0.13690,-0.02043,0.38570,-0.48769,0.29738,-0.02328,0.04352,-0.62539,0.38019,-0.26457,0.22492,-0.21424,0.62406,-0.52881,0.45927,-0.11635,0.35639,-0.01491,0.04117,-0.40898,0.50965,-0.50193,0.18862,-0.45630,0.54295,-0.17135,0.10424,-0.52086,0.65156,-0.02883},
{ -0.12964,0.54179,-0.26348,0.03650,-0.26449,0.28392,-0.61662,0.06130,-0.52647,0.34302,-0.69542,0.04838,-0.38675,0.64550,-0.18346,0.16798,-0.37502,0.04545,-0.13605,0.41790,-0.57439,0.15129,-0.28362,0.41864,-0.41917,0.15367,-0.42684,0.30848,-0.41879,0.12942,-0.25214,0.69358,-0.53601,0.47427,-0.11203,0.26942,-0.37295,0.05694,-0.49419,0.23718,-0.04711,0.09890,-0.13304,0.01638,-0.08270,0.25399,-0.35937,0.52973,-0.29340,0.58334,-0.27403,0.66897,-0.33944,0.32952,-0.49717,0.04757,-0.16981,0.03723,-0.56411,0.24924,-0.18091,0.17787,-0.33860,0.32474,-0.42578,0.53077,-0.40752,0.51356,-0.14315,0.46483,-0.25288,0.24015,-0.38855,0.26407,-0.63268,0.49820,-0.60026,0.14139,-0.69450,0.50610,-0.29003,0.69451,-0.45213,0.44052,-0.69840,0.43626,-0.48548,0.30443,-0.31242,0.46336,-0.03445,0.50351,-0.45036,0.54126,-0.56427,0.27682,-0.79738,0.48326,-0.87018,0.28079,-0.98058,0.34864,-0.77865,0.06772,-0.56397,0.48422,-0.40119,0.48237,-0.07591,0.61667,-0.47175,0.15868,-0.44525,0.29239,-0.13660,0.48240,-0.63786,0.14487,-0.57662,-0.03972,-0.51178,0.17503,-0.38967,0.01162,-0.38167,0.15426,-0.30577,0.16683,-0.72900,0.62364,-0.22410,0.55406,-0.05318,0.70538,-0.28726,0.62092,-0.11976,0.06409,-0.37077,0.44109,-0.31243,0.55687,-0.38367,0.68402,-0.39684,0.36074,-0.36624,0.20017,-0.42138,0.26353,-0.85770,0.40507,-0.30177,0.04539,-0.54893,0.28928,-0.63640,0.44338,-0.43869,0.55088,0.05173,0.14545,-0.01171,0.70742,-0.44423,0.38177,-0.16350,0.27180,-0.68147,0.66937,-0.44100,0.44233,-0.05374,0.12529,-0.50329,-0.24771,-0.63713,-0.03412,-0.56362,0.03961,-0.55244,0.12523,-0.64698,0.16070,-0.46125,0.47031,-0.14445,0.23516,-0.07428,0.57669,-0.35743,0.62781,0.01781,0.80251,-0.15361,0.31760,-0.19291,0.31770,-0.04300,0.25876,-0.11187,0.24334,-0.59438,0.08243,-0.53939,0.36642,-0.41967,0.06363,-0.39745,0.17295,-0.49489,0.68805,-0.18433,0.15206,-0.13307,0.70089,-0.27435,0.52046,-0.43283,0.48086,-0.26754,0.44561,-0.48269,0.05542,-0.69766,0.02687,-0.53564,0.50275,-0.56208,0.34527,-0.95253,0.11165,-0.77250,0.27851,-0.61594,0.23997,-0.65753,0.26509,-0.13339,0.36418,-0.37291,0.16961,-0.40412,0.48700,-0.45731,0.34691,-0.52775,0.63743,-0.26383,0.74906,0.08093,0.69770,-0.61812,0.47360,-0.29447,0.17552,-0.50880,0.28880,-0.95488,-0.04531,-0.45924,0.56479,-0.21945,0.82825,0.16231,0.31045,-0.27803,-0.10126,-0.41933,0.37822,-0.21137,0.42245,-0.34422,0.41155,-0.62698,0.26631,-0.23440,0.77163,0.05924,0.27846,-0.02646,0.50980,-0.35160,0.36051,-0.10529,0.32722,-0.79357,0.20527,-0.19167,0.50482,-0.29364,0.75215,-0.08440,0.82363,-0.37514,0.39277,-0.73421,-0.19046,-0.92294,-0.04674,-0.65904,-0.25236,-0.47833,0.43428,-0.50606,0.77227,-0.06214,0.19156,-0.33229,0.46816,-0.67016,0.45542,-0.64688,-0.02302,-0.27978,0.28182,-0.25988,0.36826,-0.03855,0.71847,0.08867,0.60666,-0.38621,0.32027,-0.38900,-0.06461,-0.55776,-0.15042,-0.35946,0.20634,-0.40667,0.27845,-0.13895,0.45410,0.00851,0.15409,-0.56536,0.10396,-0.43248,0.67047,-0.73753,0.02687,0.00336,0.24372,-0.24671,0.67032,-0.08006,0.72797,-0.32410,0.62366,0.22006,0.34634,-0.62308,0.32791,-0.22648,-0.02922,-0.71174,0.44938,-0.55725,0.58065,-0.23059,0.06350,-0.39944,0.28336,-0.48632,0.29649,-0.45600,0.53091,-0.46729,0.52955,-0.62557,0.36949,0.08559,0.33719,-0.05983,0.51179,-0.00944,0.70645,0.17648,0.32691,-0.65174,0.04125,-0.63187,0.41657,-0.45997,0.55686,-0.53437,0.35546,-0.13335,-0.04292,-0.13989,0.61041,-0.67604,0.08800,-0.36994,0.30974,-0.34651,0.02421,-0.01947,0.75100,-0.37012,0.49274,-0.42194,0.87059,0.19441,0.63094,0.01342,0.28584,-0.46489,0.30618,-0.38348,0.15947,-0.61897,0.01472,-0.70524,0.00922,-0.51023,0.62988,-0.33102,0.62391,-0.33153,0.47061,-0.50901,0.20271,-0.55964,0.16374,-0.06520,0.15793,-0.33287,0.68363,-0.20299,0.85971,-0.05954,0.44325,-0.29686,-0.13722,-0.49019,0.63224,-0.66705,0.21923,-0.50631,0.01747,-0.63405,0.33908,-0.31934,0.39435,-0.39906,0.57519,-0.37025,0.49658,-0.30888,0.65868,-0.49434,0.47611,-0.09792,0.28592,-0.36627,0.40494,0.13474,0.58232,0.11823,0.67735,-0.24618,0.42957,-0.51534,0.77721,-0.38503,0.04648,-0.38650,0.15654,-0.84781,0.06833,-0.64215,0.42017,-0.47802,0.16601,-0.08540,0.37190,-0.27493,0.44049,-0.22840,0.40872,-0.13439,0.69419,-0.09670,0.42103,0.17781,0.50297,-0.02642,0.02866,-0.31878,0.31344,0.09776,0.29777,-0.15342,0.03771,-0.80671,0.08101,-0.65039,0.31958,-0.24661,0.33670,-0.31312,0.24273,-0.59250,0.08015,-0.34745,0.00498,-0.49846,0.50929,-0.20816,0.48209,0.01313,0.45272,0.12520,0.86828,-0.39347,0.50050,-0.40468,0.61129,-0.47852,0.30878,-0.71537,0.26749,-0.54012,0.38543,-0.50528,0.11287,-0.43771,0.74163,-0.59097,0.12501,-0.46973,0.11377,-0.43190,0.27431,-0.67888,0.42987,-0.23339,0.66083,0.05638,0.33209,0.02649,0.37551,-0.09794,-0.06851,-0.57092,0.20903,-0.16020,0.50856,-0.30815,0.34976,-0.73559,0.14370,-0.69491,0.70817,-0.25660,0.53047,-0.35313,0.03018,-0.46554,0.31460,-0.43369,0.15526,-0.51793,0.27312,-0.31437,0.54854,-0.54740,0.21620,-0.25078,0.80846,-0.16680,0.12165,-0.28350,0.09090,-0.95023,-0.10376,-0.64005,0.25366,-0.53584,0.52064,-0.49404,0.09248,-0.46143,0.63918,-0.61319,0.43678,-0.58147,0.64116,-0.58884,0.19433,-0.59326,0.03475,-0.65560,0.75262,-0.52471,0.75308,-0.24891,0.39889,-0.29082,0.26163,-0.29714,0.35692,-0.51446,-0.06962,-0.19755,0.46358,-0.19931,0.17494,-0.17494,0.39205,-0.25902,0.40880,-0.37781,0.40853,-0.57486,0.34940,-0.52590,0.43693,-0.48519,0.53171,-0.74172,0.11571,-0.72704,0.56246,-0.46013,0.43469,-0.20844,0.42502,-0.29659,0.58269,-0.22281,0.28843,-0.61160,0.71309,-0.41835,0.00009,-0.01153,0.26714,-0.14887,0.36456,-0.67267,0.67914,-0.05254,0.32300,-0.16368,0.00603,-0.05316,0.34487,-0.83308,0.25737,-0.49929,0.18094,-0.31634,0.33940,-0.34763,0.39368,-0.33138,0.83829,-0.36471,0.68549,-0.54141,0.60744,-0.34478,0.17354,-0.14317,0.45199,-0.59275,0.19332,-0.17507,0.04891,-0.39512,0.50445,-0.63888,0.41548,-0.22195,-0.03855,-0.27767,-0.01878,-0.85222,0.43889,-0.11768,0.25650,-0.40971,0.51501,-0.20792,0.04240,-0.48755,0.51775,-0.57352,0.41541,-0.25583,0.33323,-0.40758,0.41055,-0.17489,0.65237,-0.37381,0.22771,-0.29093,0.23518,-0.49075,0.65209,-0.19433,0.20199,-0.31578,0.43186,-0.32563,-0.00228,-0.57506,0.15492,-0.86636,0.07382,-0.34469,-0.04070,-0.40302,0.23608,-0.57221,0.27779,-0.15334,0.33389,-0.53951,0.29717,-0.33971,0.25073,-0.05372,0.52710,-0.40516,0.66971,-0.55579,0.34149,-0.13313,0.30447,-0.30620,0.68458,-0.54432,0.01131,-0.41459,0.29465,-0.38186,0.25195,-0.29591,0.55268,-0.67415,0.17563,-0.56728,0.29517,-0.06614,0.66029,-0.43376,0.35097,-0.47069,0.15915,-0.12812,0.03061,-0.62728,0.06711,-0.20142,0.09766,-0.55272,0.63697,-0.52137,0.69099,-0.40869,0.37590,-0.26412,0.31758,-0.69002,0.27017,-0.59602,0.23266,-0.13422,0.51199,-0.63446,0.35283,-0.35455,0.56790,-0.20868,0.30629,-0.06703,0.26384,-0.55575,0.33836,-0.07301},
{ 0.02301,0.31143,-0.34976,0.47585,-0.08536,0.26534,-0.56211,0.22433,-0.11851,0.31351,-0.26122,0.58808,-0.53957,0.67756,-0.29888,0.05492,-0.59150,0.57366,-0.47703,0.36079,-0.42637,0.16908,-0.42023,0.52436,-0.66775,0.49871,-0.08264,0.12877,-0.48531,0.13972,-0.50407,0.55880,-0.59052,0.33865,-0.06254,0.16604,-0.48079,0.57321,-0.26690,0.52318,-0.43517,0.13230,-0.00759,0.48166,-0.22268,0.31416,-0.53067,0.20481,-0.26631,0.54662,-0.40145,0.31791,-0.36575,0.17134,-0.63885,0.61694,-0.50214,0.21770,-0.00457,0.58385,-0.13608,0.33860,-0.54474,0.62625,-0.50978,0.64636,-0.42442,0.53613,-0.09810,0.30345,-0.64705,0.32191,-0.57404,0.19773,-0.41251,0.46372,-0.16295,0.37831,-0.53797,0.18124,-0.12802,0.06229,-0.28752,0.47450,-0.59118,0.14438,-0.46711,0.22830,-0.36585,0.17908,-0.46994,0.10908,-0.51081,0.38285,-0.61419,0.62995,0.03608,0.08651,0.03281,0.60626,-0.37643,0.24527,-0.44152,0.61943,-0.48399,0.62248,-0.40958,0.60640,-0.66085,0.28325,-0.35159,0.01689,-0.37525,0.52643,-0.40252,0.36128,-0.68894,0.27620,-0.33376,0.07678,-0.04058,0.34783,-0.26167,0.40141,-0.06914,0.27596,-0.35534,0.26169,-0.23513,0.49679,-0.10882,0.34289,-0.23788,0.43410,-0.61310,0.37917,-0.70189,0.45992,-0.53104,0.23411,-0.35065,0.62434,-0.25429,0.28366,0.00064,0.15446,-0.64503,0.74426,-0.22963,0.31669,-0.30732,0.41479,-0.28191,0.40642,-0.63843,0.16190,-0.44122,0.44977,-0.21849,0.52131,-0.58641,0.22626,-0.57890,0.39114,-0.05881,0.18952,-0.20992,0.20952,-0.50637,0.51456,-0.40185,0.60884,-0.36011,0.30738,0.05096,0.80621,0.02393,0.37535,-0.04567,0.33408,-0.15033,0.43751,-0.38431,0.25993,-0.53724,0.12904,-0.37665,0.30897,-0.16683,0.22312,-0.58017,0.14016,-0.29242,0.43557,-0.00648,0.15151,-0.41366,0.16124,-0.29993,0.65898,-0.18031,0.65596,-0.10941,0.38314,-0.03692,0.71091,-0.49049,0.13684,-0.54186,-0.11942,-0.41800,-0.17109,-0.76156,-0.05667,-0.15746,-0.10100,-0.15411,0.66141,-0.37078,0.25843,-0.01028,0.39002,-0.01137,0.68949,-0.64829,0.30923,-0.30734,0.34939,-0.23132,0.64668,-0.35243,0.58149,-0.44667,-0.06100,-0.21379,0.11367,-0.32123,0.20847,-0.66806,0.03899,-0.48132,0.17529,-0.75403,-0.09618,-0.36464,0.39084,-0.40503,0.22528,-0.17513,0.29976,-0.18770,0.61100,-0.53536,0.34051,-0.22631,0.16955,-0.07763,0.41191,-0.53113,0.50589,-0.61725,0.25012,-0.75888,-0.03225,-0.48568,0.30741,-0.47090,0.19859,-0.45621,0.01997,-0.06188,0.14870,-0.02067,0.34991,-0.01218,0.35032,-0.59244,0.30006,-0.56185,0.10622,-0.64697,0.25447,-0.59327,0.48782,-0.34954,0.61532,-0.67058,0.37764,-0.96096,0.13240,-1.04303,-0.15230,-0.55204,-0.23504,-1.06337,0.15388,-0.41497,0.25387,-0.01389,0.60322,-0.10259,0.30647,-0.47828,0.06277,-0.59533,0.18162,-0.50529,0.65114,-0.51097,0.51461,-0.52903,0.60896,-0.66095,0.30535,-0.59079,0.08760,-1.08649,-0.02080,-0.83196,-0.06670,-0.67305,0.06269,-0.55419,-0.22154,-0.56319,0.53624,-0.14691,0.33755,-0.63558,-0.10976,-0.53919,0.10608,-0.49941,0.33108,-0.15895,0.06334,-0.22524,0.31156,-0.38005,0.56360,-0.12624,0.23910,-0.66549,0.28727,-0.85735,0.06469,-0.64961,0.50229,0.02992,0.25883,-0.37226,0.13808,-0.56377,0.11220,-0.52900,-0.03233,-0.42358,-0.25136,-0.94479,-0.24316,-0.59580,0.10841,-0.26202,0.44240,-0.52356,0.44348,-0.71160,0.30114,-0.67819,0.56813,-0.46881,-0.12273,-0.51900,0.20046,-0.56475,0.34882,-0.04729,0.53644,-0.47903,0.13506,-0.36266,0.07606,-0.52680,0.18795,-0.46465,0.25328,-0.74658,0.30235,-0.86471,0.40506,-0.62140,0.65264,-0.18694,0.55364,-0.69509,0.62743,-0.61198,0.59159,-0.25429,0.03003,-0.25264,0.32110,-0.01169,0.46778,-0.08034,1.04880,-0.03978,0.05596,-0.56354,0.06954,-0.49479,0.41445,-0.47518,0.31148,-0.69322,0.14357,-0.09498,0.38954,-0.31107,0.12039,-0.69656,0.30506,-0.21524,0.34537,-0.29687,0.46042,-0.48682,0.35883,0.07674,0.75035,0.08323,0.18890,0.09066,0.79607,0.12544,0.30363,0.04355,0.71950,-0.09350,0.76143,-0.24831,0.10200,-0.32352,0.57396,-0.62951,0.51279,-0.20709,0.43715,-0.42151,0.03015,-0.63510,0.12161,-0.18952,0.18101,-0.34641,0.53331,-0.22522,0.66822,-0.32558,0.18106,-0.21566,0.67133,0.12840,0.35473,-0.20703,0.46171,-0.01281,0.49656,0.00811,0.62213,0.06334,0.74897,-0.49233,0.49829,0.00483,0.71826,-0.46223,0.32269,-0.59199,0.05802,-0.42747,0.24375,-0.33364,0.53196,0.04832,0.38130,-0.41094,0.53574,-0.54629,0.64295,-0.31639,0.31334,-0.18086,0.70766,-0.21774,0.41758,0.00036,0.63065,0.20919,0.30231,-0.38362,0.21583,-0.45577,0.29272,-0.69241,0.10955,-0.50922,0.35345,-0.33361,0.43329,-0.34281,0.71846,-0.53766,0.33299,-0.23934,-0.00913,-0.53260,0.39808,-0.45502,0.29209,0.13762,0.70612,-0.22813,0.61502,0.08374,0.30332,-0.23411,0.30979,-0.09823,0.81441,-0.05356,0.68395,-0.56364,0.58949,-0.52956,0.11108,-0.43974,0.84167,-0.40070,0.89631,-0.35146,-0.00186,-0.85398,0.02678,-0.57518,0.28222,-0.55866,0.57725,0.02549,0.58755,-0.15611,0.51939,-0.11325,0.69615,-0.21649,0.52236,-0.04864,0.16474,-0.08052,0.29869,-0.31461,0.40740,-0.51206,0.61070,-0.35383,0.78753,0.11882,0.76048,-0.37549,0.43747,-0.36075,0.08072,-0.51339,0.36942,-0.66176,0.37469,-0.10074,0.67377,-0.42787,0.36832,-0.40095,0.11984,-0.39623,0.73626,-0.25288,0.55653,0.00759,0.37405,-0.66256,0.35869,-0.27660,0.31029,-0.28877,0.71230,-0.02464,0.45187,-0.43140,0.45985,-0.57539,0.27262,-0.89516,0.04419,-0.72874,-0.22348,-0.38037,0.03550,-0.10241,0.53990,-0.05820,0.70706,-0.02694,0.60165,-0.32983,0.40641,-0.14489,0.04618,-0.22618,0.39982,-0.60019,0.14130,-0.14227,0.73971,-0.06726,0.62980,-0.04062,-0.02465,-0.47524,0.06258,-0.36696,0.24860,-0.58907,-0.10155,-0.44581,-0.17013,-0.37581,0.27160,-0.59974,0.51606,-0.06773,0.42911,-0.24326,0.60485,-0.60762,0.59427,-0.56529,0.37725,-0.56470,0.25240,-0.31673,0.27186,-0.52168,0.16683,-0.35966,0.22165,-0.24879,0.23364,-0.38493,-0.13441,-0.33249,0.15856,-0.31622,0.29842,-0.23023,0.35563,-0.68871,0.69575,-0.17374,0.48201,-0.30567,0.20745,-0.30076,0.40209,-0.47990,0.25124,-0.20644,0.44087,-0.42216,0.64867,0.01704,0.53829,-0.01372,0.42059,-0.28787,0.31252,-0.64032,0.29583,-0.18062,0.56258,-0.40467,0.23659,-0.58965,0.42587,-0.29364,0.15013,-0.14856,0.02524,-0.66838,0.36941,-0.19906,0.69988,-0.08501,0.05946,-0.46128,0.17276,-0.56986,0.25319,-0.08731,0.40485,-0.52019,0.24578,-0.47889,0.64441,-0.42438,0.50930,-0.26183,0.43507,-0.71116,0.26207,-0.44526,-0.10139,-0.82529,0.35798,-0.38559,0.22797,-0.45951,0.10142,-0.03089,0.43808,-0.29017,0.64777,-0.58730,0.05839,-0.61476,0.22979,-0.10029,0.65758,-0.32220,0.69524,-0.45181,0.68226,-0.10405,0.19727,-0.24186,0.07748,-0.15728,0.14413,-0.42470,0.06563,-0.60961,0.53679,-0.26554,0.38015,-0.21938,0.20181,-0.25124,0.26829,-0.48319,0.27276,-0.04440,0.68083,-0.53591,0.18321,-0.60528,0.47202,-0.10411,0.49128,-0.48534,0.62716,-0.11429,0.01836,-0.54631,0.64118,-0.53478,0.69021,-0.69515,0.38046,-0.51755,0.33016,-0.11006,0.36106,-0.01614,0.28354,-0.58102,0.20419,-0.48160},
{ -0.13865,0.41467,-0.12976,0.33374,-0.04803,0.12437,-0.06838,0.61159,-0.25587,0.35216,-0.30644,0.51694,-0.50375,0.00136,-0.68366,0.61991,-0.03224,0.02255,-0.23105,0.30576,-0.27125,0.51556,-0.36224,0.22684,-0.36130,0.55417,-0.43418,0.43602,-0.58638,0.06967,-0.47368,0.00202,-0.27759,0.61257,-0.58441,0.68022,-0.64372,0.45992,-0.42160,0.51864,-0.14331,0.12073,-0.60170,0.06453,-0.50433,0.24911,-0.02916,0.69870,-0.56503,0.62797,-0.29020,0.53115,-0.58543,0.03501,-0.40148,0.36246,-0.51825,0.11423,-0.52089,0.45822,-0.64300,0.05280,-0.45881,0.52832,-0.58553,0.11010,-0.12638,0.40259,-0.25031,0.53704,-0.12637,0.21344,-0.28181,0.53512,-0.46444,0.35261,-0.12844,0.40226,-0.53986,0.09481,-0.49650,0.39090,-0.59095,0.42807,-0.01769,0.48709,-0.66710,0.04360,-0.66381,0.62261,-0.54833,0.37356,-0.42794,0.05174,-0.33271,0.54642,-0.58708,0.37605,-0.29655,0.19757,-0.41855,0.08691,-0.01937,0.63601,-0.14365,0.63015,-0.62554,0.18876,-0.66182,0.27594,-0.29780,0.17033,-0.62495,0.01938,-0.27275,0.56760,-0.08108,0.43906,-0.11936,0.64518,-0.46912,0.65052,-0.09922,0.03288,-0.35159,0.10071,-0.68613,0.46986,-0.12694,0.36354,0.00230,0.22416,-0.10244,0.37111,-0.30815,0.30765,-0.50591,0.10252,-0.20241,0.12877,-0.54007,0.62231,-0.50091,0.61408,-0.04426,0.35408,-0.13149,0.38038,-0.29107,0.50977,-0.65660,0.42900,-0.16171,0.83634,-0.42379,0.71731,0.00096,0.66139,-0.28897,0.80770,-0.28930,0.75185,0.00716,0.07078,-0.11035,0.51031,-0.44596,0.40034,-0.07137,0.54792,-0.33868,0.48770,-0.28640,0.65828,-0.64507,0.57612,-0.23066,0.62709,-0.06312,0.68986,-0.21893,0.78433,-0.10214,0.52325,-0.53568,0.53598,-0.01848,0.53961,-0.00583,0.42615,-0.37089,0.40768,-0.11247,0.60932,-0.41974,0.37595,-0.63855,0.31585,-0.41842,0.66813,-0.53063,0.65789,-0.07552,0.47795,-0.23063,0.47652,-0.09389,0.49457,-0.28455,0.47296,-0.52459,0.31540,-0.39438,0.30132,-0.04061,0.47242,-0.27634,0.47799,-0.34735,0.57756,-0.59918,0.45428,-0.08816,0.19513,-0.27537,0.11512,-0.60892,0.50341,-0.68058,0.37434,-0.30150,0.09333,0.10369,0.30454,-0.30574,0.39713,-0.36343,0.07979,-0.06404,0.21862,-0.34854,0.55111,-0.19984,0.38923,-0.48614,0.30510,-0.59477,0.29773,-0.08710,0.38184,-0.57980,0.15012,-0.27179,0.09997,-0.22278,0.44192,-0.27855,0.27938,-0.09328,0.29217,-0.51645,0.26434,-0.69738,0.12792,-0.40054,0.19344,-0.73116,0.05514,-0.28985,0.18985,-0.05739,0.27819,-0.36965,0.15227,-0.25891,0.31984,-0.21744,0.60937,-0.50718,0.31349,-0.28057,0.47621,-0.42734,0.38011,-0.35671,0.19725,-0.24832,0.68835,-0.58433,0.16725,-0.55569,0.07405,-0.64544,0.21340,-0.15719,0.41416,-0.46065,0.16760,-0.12324,0.43429,-0.18327,0.49552,-0.62716,0.27176,0.05385,0.05081,-0.33065,0.31393,-0.07408,0.52241,-0.69376,0.14890,-0.26788,0.03363,-0.44043,0.64553,0.10214,0.48444,-0.32100,0.30987,-0.53132,0.31569,0.02673,0.17503,-0.15104,0.28183,-0.22256,0.33520,-0.12703,0.59943,-0.37334,0.59733,0.18303,0.59942,-0.00409,0.58299,-0.48582,0.46898,-0.02268,0.42896,-0.64122,0.16259,-0.23753,0.14093,-0.27632,0.52586,-0.43166,0.48450,-0.30917,0.26950,-0.32844,0.22933,-0.16263,0.32083,-0.02405,0.34037,-0.31123,0.71921,0.13281,0.88886,-0.02482,0.42312,-0.63779,0.15148,-0.55552,0.08751,-0.01514,0.23221,-0.03122,0.33958,-0.46906,0.51337,-0.09461,0.05320,-0.59684,0.49376,-0.22726,0.28393,-0.43507,0.36647,-0.26477,-0.00167,-0.26128,0.52183,-0.40489,0.29841,-0.29193,0.78879,-0.32516,0.44663,-0.03790,0.27771,-0.39331,0.03030,-0.65394,0.43546,-0.10565,0.13827,-0.36059,0.20082,-0.66626,0.40097,-0.32510,0.11045,-0.41229,0.35217,-0.28955,0.19873,-0.84358,0.23381,-0.46811,0.41002,-0.14489,0.28369,-0.38599,0.12179,0.10700,0.34362,-0.03990,0.35507,-0.37307,0.48732,-0.07156,0.22743,-0.58053,0.37529,-0.83657,-0.28556,-0.44341,-0.03894,-0.62822,0.06072,-0.47162,0.29971,-0.42463,0.18981,-0.59508,0.00033,-0.75778,-0.04925,-0.33135,0.33648,-0.22297,0.44659,-0.60104,0.10280,-0.43770,0.64776,-0.40132,0.57246,-0.28443,0.48029,-0.26287,0.11422,-0.20721,0.37162,-0.69356,0.25291,-0.22090,0.42886,-0.34432,0.21713,-0.59521,0.09978,-0.46494,0.11607,-0.45377,-0.16658,-0.75606,0.35673,-0.23058,0.55456,-0.24139,0.69049,-0.39730,0.16623,-0.39085,0.55940,-0.08783,0.21314,-0.13079,0.43301,-0.30049,0.50060,-0.36580,0.14251,-0.64270,0.61999,-0.05195,0.19318,-0.37087,-0.10747,-0.79107,-0.04989,-0.55969,0.23504,-0.86699,-0.14591,-0.74959,0.42460,-0.54942,0.31009,-0.33421,0.41104,-0.34735,0.19290,-0.49550,0.17011,-0.28389,0.36050,-0.24977,0.10055,-0.34610,0.49989,-0.02812,0.70765,-0.15562,0.45302,-0.53585,0.01022,-0.33548,0.47726,-0.39541,0.34760,-0.85151,0.46588,-0.12463,0.27332,-0.07457,0.08128,-0.62730,0.01149,-0.59982,0.57769,-0.25192,0.03461,-0.54097,0.31421,-0.41721,0.41835,-0.48552,0.65627,-0.48660,0.92700,-0.36508,0.50124,-0.21833,0.45969,-0.44156,-0.16927,-0.52547,-0.04577,-0.45746,0.37013,-0.47509,0.55645,-0.40146,0.20731,-0.12899,0.61252,-0.44806,0.24726,-0.47764,0.20015,-0.52158,-0.00037,-0.54495,0.18421,-0.37606,0.58042,-0.45578,0.40815,0.19634,0.29318,-0.50797,0.25489,-0.80444,0.06550,-0.69692,0.23466,-0.26552,0.44080,-0.63431,0.59100,-0.23969,0.10128,-0.39800,0.59421,-0.53106,0.00784,-0.32186,0.17060,-0.64160,-0.03254,-0.05077,0.36438,-0.09904,0.44671,-0.34935,0.69237,-0.22745,0.72662,-0.16269,0.50675,-0.62311,0.07143,-0.44303,0.19634,-0.28752,0.22106,-0.09100,0.01503,-0.48434,0.06279,-0.46074,0.21707,-0.68116,0.48867,-0.06782,0.32158,-0.36438,0.15429,-0.42887,0.38585,0.03760,0.64183,-0.02102,0.33770,0.09366,0.72235,-0.28032,0.80391,0.12325,0.69889,0.03934,0.19660,-0.13057,0.25643,-0.57027,0.52691,-0.26259,0.05900,-0.59866,0.56531,-0.17539,0.02303,-0.63776,0.48326,-0.59349,0.29183,-0.54766,0.55334,-0.38015,0.56057,-0.18298,0.74417,-0.32907,0.55392,-0.05974,0.91899,-0.37323,0.64549,0.14928,0.47505,-0.50092,0.07734,-0.67368,0.35136,-0.64082,0.66339,-0.17500,0.55170,-0.14998,0.01481,-0.41672,0.39695,-0.41300,0.57042,-0.54363,0.00323,-0.43315,0.49420,-0.38406,0.37332,-0.12657,0.75077,0.08666,0.46448,-0.04462,0.77234,-0.17844,0.24935,-0.30020,0.14402,-0.11146,0.48268,-0.30216,0.34576,-0.31439,0.05463,-0.39520,0.57554,-0.58392,0.00189,-0.29118,0.17937,-0.56909,0.54685,-0.51916,0.36794,-0.48191,0.41058,-0.57543,0.03466,-0.35661,0.54443,-0.17911,0.62655,-0.67182,0.25584,-0.10821,-0.01717,-0.64935,0.19516,-0.65369,0.13711,-0.02112,0.00965,-0.48799,0.51189,-0.35215,0.00812,-0.68584,0.69120,-0.46733,0.46871,-0.47744,0.19497,-0.09304,0.64651,-0.46889,0.11576,-0.30617,0.09137,-0.51405,0.22139,-0.34814,0.59619,-0.29810,0.22529,-0.19062,0.62680,-0.33712,0.18371,-0.62035,0.46412,-0.41425,0.04478,-0.10711,0.54245,-0.07358,0.41809,-0.30709,0.17145,-0.32204,0.08120,-0.48556,0.23971,-0.29025,0.60174,-0.52196,0.11253,-0.67556,0.06101,-0.56796,0.54675,-0.33651,0.49239,-0.22485,0.41692,-0.21554,0.14859,-0.46884,0.62053,-0.68527},
{ -0.28287,0.12246,-0.24834,0.41697,-0.23660,0.57493,-0.12283,0.02862,-0.14311,0.12016,-0.03234,0.34455,-0.38550,0.56902,-0.14999,0.14007,-0.14479,0.33734,-0.44217,0.41758,-0.11248,0.53402,-0.58142,0.55233,-0.31613,0.11965,-0.57451,0.62426,-0.38092,0.66193,-0.63414,0.47786,-0.26348,0.03785,-0.60737,0.02803,-0.11731,0.47666,-0.58456,0.07702,-0.47134,0.59827,-0.29548,0.45277,-0.39057,0.34189,-0.05260,0.18867,-0.02145,0.25972,-0.50527,0.64387,-0.64072,0.50197,-0.16217,0.48773,-0.29931,0.31074,-0.52478,0.63015,-0.61478,0.51985,-0.67186,0.36831,-0.29696,0.15258,-0.16855,0.63674,-0.54107,0.42725,-0.62070,0.66274,-0.28834,0.04956,-0.53278,0.62301,-0.40428,0.48233,-0.25811,0.59576,-0.63701,0.22241,-0.19424,0.55646,-0.49699,0.55877,-0.10120,0.55414,-0.65333,0.36813,-0.68450,0.58172,-0.30924,0.64903,-0.13158,0.23180,-0.23115,0.36100,-0.06839,0.38230,-0.44361,0.41012,-0.43597,0.15390,-0.43618,0.18681,-0.34345,0.05586,-0.48606,0.10895,-0.54805,0.06052,-0.62050,0.07014,-0.67408,0.37977,-0.51912,0.62623,-0.65320,0.36149,-0.13821,0.42499,-0.05552,0.27645,-0.30137,0.13289,-0.51883,0.67740,-0.61881,0.40958,-0.53400,0.32228,-0.24410,0.03396,-0.17646,0.49424,-0.43879,0.44359,-0.21371,0.05404,-0.58652,0.16521,-0.53246,0.27472,-0.01757,0.47730,-0.63570,0.40685,-0.50178,0.36006,-0.07034,0.04497,-0.30778,0.63259,-0.64679,0.26610,-0.25085,0.18726,-0.05570,0.51548,-0.29610,0.46169,-0.25432,0.07834,-0.35539,0.63949,-0.37712,0.26068,-0.21193,0.04581,-0.62073,0.57569,-0.29294,0.50819,-0.40157,0.63847,-0.67366,0.26069,-0.15954,0.57369,-0.25160,0.11969,0.10441,0.57556,-0.12352,0.34967,-0.09661,0.42610,-0.17605,0.63201,0.01826,0.44659,-0.29337,0.07492,-0.32908,0.46777,-0.31248,0.28157,-0.48160,0.20395,-0.51053,0.44236,-0.30592,0.42650,-0.24884,0.49381,-0.35431,0.74230,-0.43779,0.61431,0.09648,0.65174,-0.07162,0.51820,-0.14301,0.48346,-0.19101,0.14167,-0.30530,0.57099,-0.00992,0.38225,-0.54383,0.28704,-0.16731,0.52373,-0.16131,0.08455,-0.20161,0.19638,-0.32486,0.00186,-0.26219,0.51680,-0.41018,0.61114,-0.61728,0.46528,-0.47541,0.33327,-0.39136,0.57330,-0.20446,0.48750,-0.42176,0.26469,-0.55342,0.45822,-0.13802,0.25701,-0.08587,0.40323,-0.37263,0.63841,-0.48552,0.30286,-0.68968,0.54981,-0.46475,0.39324,-0.39937,0.04082,-0.57480,0.52870,-0.43998,0.55052,-0.09777,0.47104,-0.28932,0.69765,-0.35663,0.17980,-0.49102,0.14253,-0.34789,0.10860,-0.58302,0.73559,-0.64384,0.35222,0.00024,0.49648,-0.10661,0.54255,-0.52837,0.08297,-0.31758,0.24726,-0.26968,0.50425,-0.45600,0.18217,-0.87426,-0.00473,-0.68042,0.30721,-0.45272,0.67356,-0.46300,0.26584,-0.72666,0.22609,-0.48512,-0.00157,-0.51179,0.42641,-0.15042,0.48224,-0.18000,0.17723,-0.46919,0.01768,-0.21635,0.21227,-0.65355,-0.10960,-0.72936,0.29702,-0.85578,-0.35160,-0.49145,-0.11827,-0.44934,0.17760,-0.28413,0.62968,-0.23710,0.19825,-0.25821,0.00853,-0.45592,0.66466,-0.50562,0.38074,-0.65600,0.13588,-0.48356,0.12867,-0.18037,0.46111,-0.56158,0.28100,-0.62609,0.22198,-0.47571,0.43149,-0.85101,0.08211,-0.23379,0.12060,-0.02812,0.36798,-0.00975,0.30325,-0.19835,0.15270,-0.33359,0.29996,-0.52418,0.34605,-0.40831,0.35895,-0.42097,0.33126,-0.33926,0.19043,-0.14023,0.44585,-0.30449,0.64474,-0.27302,0.22890,-0.66369,0.44836,-0.59237,0.42398,-0.09485,0.86324,0.13083,1.03238,-0.00449,0.68376,-0.41795,0.19992,-0.21226,0.19585,-0.30973,0.26670,-0.02544,0.28014,-0.10259,0.65386,-0.45616,0.16386,-0.27485,0.09493,-0.31489,0.51167,-0.24561,0.43980,-0.42240,0.07769,-0.40620,0.54010,-0.38508,0.53544,0.32911,1.06868,-0.16223,0.27275,-0.64182,0.12552,-0.21248,0.32142,-0.25435,0.51097,-0.09994,0.51268,-0.13840,0.32288,-0.63029,0.10546,-0.05959,0.36224,-0.64612,0.22713,0.04658,0.37736,-0.08469,0.36611,0.08397,0.80389,0.32885,0.62468,0.42872,0.49482,-0.06298,0.47644,-0.43123,0.16371,-0.18575,0.59440,-0.14037,0.32584,-0.33791,0.52948,-0.22290,0.30560,-0.08434,0.22417,-0.04375,0.30661,-0.03663,0.59671,-0.46672,0.20425,-0.36399,0.46046,-0.26477,0.66729,0.06707,1.01998,0.28081,0.59243,-0.09041,0.23675,-0.08269,0.63067,-0.26039,0.59635,-0.49171,0.43646,-0.25370,0.08106,-0.63719,0.26711,-0.02089,0.42494,-0.55252,0.09026,-0.63842,0.55301,-0.15734,0.68536,-0.06570,0.73802,0.08808,0.68865,0.21518,0.99358,0.12024,0.63036,-0.03037,0.50508,-0.30440,0.22408,-0.39210,0.60888,-0.55344,0.44785,-0.13262,0.13683,-0.44257,0.48863,-0.54628,0.52299,-0.41123,0.40148,-0.03258,0.07888,-0.58489,0.41110,-0.42195,0.39032,-0.25812,0.77680,-0.51887,0.25425,-0.24727,0.41033,-0.11955,0.34065,0.03077,0.39256,-0.20869,0.07976,-0.13183,0.24441,-0.32414,0.51047,-0.02495,0.27154,-0.46881,0.45513,-0.41906,0.44752,-0.13230,0.27546,-0.26936,0.67868,-0.32551,0.33611,-0.31029,0.29826,-0.42957,0.23543,-0.06204,0.38370,-0.57020,0.37985,-0.08399,0.01088,-0.13898,0.45798,-0.52280,0.39270,-0.30418,0.48863,-0.69454,0.34199,-0.10714,0.21942,-0.18537,0.61979,-0.63561,0.34433,-0.53934,0.29098,0.06516,0.33815,-0.26164,0.21506,-0.01026,-0.03585,-0.05578,0.65872,-0.35557,0.11482,-0.67411,0.07137,-0.37548,0.67406,0.00740,0.15390,-0.40831,0.06612,-0.28044,0.18364,-0.67452,0.20921,-0.04820,0.46828,0.01286,0.57406,-0.41171,0.28095,0.17227,0.64513,-0.17235,0.19553,-0.67377,0.08164,-0.45656,0.48916,-0.39643,0.49567,-0.39627,0.07511,-0.10456,0.04772,0.04890,0.28589,-0.26592,0.54700,-0.62323,0.58521,-0.03992,0.41712,-0.65683,0.34493,-0.34423,0.43067,-0.28822,0.64974,-0.42756,0.29416,-0.51864,0.68162,-0.57712,0.40927,-0.05293,0.42967,-0.15013,0.61185,-0.50273,-0.00606,-0.51128,0.59509,-0.26414,0.60539,-0.51018,0.66511,-0.32608,0.24864,-0.03835,0.52730,-0.33637,0.18089,-0.13782,0.15678,-0.06954,0.37976,-0.57591,0.16100,-0.05441,0.45609,-0.28872,0.34263,-0.45305,0.17660,-0.62708,0.43412,-0.67695,0.40127,-0.37736,0.19686,-0.21497,0.64942,-0.65119,0.17576,-0.42592,0.32458,-0.43525,0.26256,-0.02612,0.05294,-0.29096,0.45400,-0.35140,0.21950,-0.26498,0.10556,-0.51485,0.13982,-0.05743,0.15973,-0.50344,0.36225,-0.39563,0.50060,-0.14129,0.35006,-0.30168,0.36243,-0.15621,0.14875,-0.57786,0.10020,-0.25386,0.00361,-0.47869,0.30909,-0.22396,0.16608,-0.46290,0.33821,-0.06747,0.24862,-0.43190,0.03106,-0.17581,0.05041,-0.22192,0.04232,-0.15037,0.33300,-0.24157,-0.05716,-0.72339,0.57056,-0.30525,0.18193,-0.52474,0.45213,-0.31303,0.44786,-0.12222,0.29187,-0.55760,0.60850,-0.12376,0.28127,-0.16725,0.54841,-0.18412,0.43272,-0.37444,0.14632,-0.17312,0.43605,-0.40730,0.16700,-0.45720,0.20442,-0.02559,0.27326,-0.01762,0.10092,-0.09771,0.69686,-0.36080,0.64684,-0.50173,0.29772,-0.14444,0.07411,-0.20089,0.23418,-0.51573,0.43299,-0.03207,0.69595,-0.46995,0.26742,-0.53847,0.38213,-0.67425,0.52389,-0.43624,0.11877,-0.48299,0.34511,-0.69955,0.13379,-0.18578,0.40544,-0.44884,0.48488,-0.67978,0.30328,-0.56096,0.42185,-0.41755,0.29177,-0.25144},
{ -0.32047,0.00791,-0.69386,0.37673,-0.22683,0.11074,-0.54557,0.17867,-0.56032,0.13673,-0.54752,0.03088,-0.31233,0.06718,-0.53282,0.68871,-0.66097,0.62234,-0.32630,0.33779,-0.25879,0.36369,-0.06056,0.67343,-0.69728,0.40629,-0.08641,0.42510,-0.38340,0.36436,-0.19814,0.21700,-0.08449,0.48302,-0.27791,0.09593,-0.44517,0.12375,-0.23554,0.19356,-0.40056,0.37485,-0.63029,0.36815,-0.49006,0.16412,-0.18522,0.38998,-0.06848,0.34356,-0.30648,0.49347,-0.25818,0.49280,-0.05557,0.17543,-0.67103,0.23255,-0.30989,0.29795,-0.53127,0.24633,-0.24559,0.20928,-0.45968,0.54217,-0.62034,0.49635,-0.61989,0.53414,-0.33351,0.15992,-0.69668,0.30766,-0.19009,-0.00346,-0.55509,0.04677,-0.22484,0.55805,-0.32735,0.63043,-0.34243,0.28213,-0.58876,0.08402,-0.15707,0.09992,-0.05344,0.56616,-0.41454,0.32052,-0.56329,0.48186,-0.17825,0.69476,-0.62015,0.02198,-0.45752,0.49430,-0.37797,0.20198,-0.67883,0.23357,-0.60395,0.05927,-0.44043,0.64092,-0.52354,0.47851,-0.20904,0.14221,-0.40935,0.36218,-0.03232,0.01845,-0.39054,0.14912,-0.27279,0.13350,-0.45839,0.47149,-0.31728,0.51453,-0.42900,0.45416,-0.63895,0.55177,-0.47336,0.04480,-0.36663,0.14081,-0.12185,0.54665,-0.75468,0.27543,-0.20161,0.26149,-0.59976,0.61489,-0.60916,0.36965,-0.26836,0.30554,-0.60411,0.61828,-0.12330,0.53980,-0.46452,0.49332,-0.25177,0.20027,-0.23385,0.20398,-0.24651,-0.15462,-0.20802,0.27956,-0.18558,0.40348,-0.11179,0.31612,-0.14967,0.05192,-0.38098,0.45059,-0.47501,0.27422,-0.55727,0.33114,-0.40175,0.27651,-0.04130,0.63814,-0.54004,0.47148,-0.30013,0.20100,-0.11582,0.23358,-0.69111,0.48424,-0.67798,0.17022,-0.72322,0.33768,-0.73217,0.36402,-0.23235,0.59833,-0.00303,0.70504,0.03583,0.05273,-0.61710,0.36518,-0.04117,0.62045,-0.61095,0.08753,-0.44361,0.12734,-0.47318,0.72234,-0.66367,0.11952,-0.05950,0.55862,-0.36805,0.10316,-0.54908,0.04491,-1.01054,0.03127,-0.16601,0.64223,-0.01658,0.34764,-0.22800,0.46920,-0.36468,0.03635,-0.24184,0.19868,-0.15988,0.12726,-0.00908,0.04464,-0.52800,0.07648,-0.14794,0.60545,0.11187,0.51660,-0.45522,0.60339,-0.32710,0.28829,-0.28079,-0.11926,-0.64340,0.28591,-0.36289,0.59566,0.22190,0.59474,-0.03606,0.83015,0.11046,0.49945,-0.12277,0.34285,-0.08757,0.28706,-0.12408,0.65405,-0.15746,0.37198,-0.25365,0.50838,-0.20288,0.76447,0.00389,0.74008,-0.03905,0.16287,-0.55851,-0.10291,-0.24882,0.65826,0.25636,0.86201,-0.11887,0.44365,-0.08907,0.24788,-0.30805,0.20524,-0.44417,0.67587,-0.01581,0.33887,-0.62356,0.17884,-0.33969,0.64153,-0.35279,0.01852,-0.14874,0.14800,-0.45240,0.07348,-0.80082,-0.03578,-0.59819,0.47517,-0.33206,0.88668,-0.30946,0.64915,-0.30111,0.81625,0.00966,0.40129,-0.40065,0.44266,-0.16349,0.03306,-0.51491,0.00712,-0.42421,0.22697,-0.61384,0.23180,-0.51790,-0.21643,-0.31443,-0.21483,-0.58603,-0.11234,-0.86365,0.08773,-0.51028,0.40060,-0.35277,0.72276,-0.34170,0.61675,-0.26198,0.08684,-0.56519,0.29357,-0.22104,0.66106,-0.19424,0.53160,-0.35382,0.51145,-0.61262,0.35651,-0.06023,0.33401,-0.99672,-0.29216,-1.06477,-0.34697,-0.87548,0.10106,-0.51997,0.11089,-0.06572,0.22878,-0.23334,0.07585,-0.61874,0.44882,-0.39289,0.12595,-0.13260,0.30137,-0.50605,0.36214,-0.16997,0.52191,-0.29377,0.43651,-0.35980,0.15450,-0.48840,0.23639,-1.01373,-0.42833,-0.77554,0.40369,-0.86328,0.08629,0.10808,0.60871,0.11091,0.30901,-0.36492,0.42877,-0.47349,0.45365,-0.51609,0.68393,-0.32761,-0.02190,-0.24158,0.44999,-0.67346,0.52318,-0.34256,0.31698,-0.09852,0.33815,-0.07347,0.28068,-0.57847,-0.30901,-0.53383,-0.04343,-0.17760,0.44896,0.30836,0.75379,0.08881,0.50614,-0.41771,0.18505,0.09759,0.11743,-0.15851,0.08343,-0.52266,0.44446,-0.47665,0.43983,-0.42549,0.43982,-0.57482,0.48599,-0.35015,0.67759,-0.10081,0.31908,-0.35878,0.35949,-0.70665,0.47488,-0.18070,0.34222,-0.11365,0.74182,0.30014,0.49234,-0.09261,0.08277,-0.45961,0.03082,-0.53908,0.34516,-0.52445,0.01157,-0.64884,0.34583,-0.14377,0.39832,-0.27527,0.00945,-0.61814,0.43504,-0.67321,0.29007,-0.28937,0.54285,-0.51088,0.47145,-0.38071,0.42678,-0.66961,0.76304,0.03269,0.40336,-0.21632,0.70696,-0.20167,0.39194,-0.20773,0.00958,-0.18746,0.38506,-0.47173,0.30029,-0.20401,0.45539,-0.22511,0.61723,-0.48387,0.40229,-0.62179,0.21938,-0.53085,0.24040,-0.59022,0.60469,-0.03956,0.31045,-0.03814,0.75534,-0.16365,0.42610,0.06203,0.29870,-0.37696,0.20352,-0.13754,0.07870,-0.55883,0.14959,0.00954,0.75700,-0.35448,0.11106,-0.40996,0.44354,-0.38038,0.36067,-0.21914,0.65590,-0.11117,0.43167,-0.15836,0.10777,-0.45360,0.69895,-0.11220,0.51433,-0.01252,0.60882,-0.50951,0.28472,-0.27928,0.15343,-0.30994,0.05558,-0.36459,0.49747,-0.41999,0.86016,-0.43101,0.52279,-0.44948,0.17990,-0.19720,0.04776,-0.48016,0.64249,-0.02684,0.50874,-0.06763,0.50034,0.05068,0.28383,-0.18821,0.76392,-0.18170,0.21705,-0.37748,0.20280,-0.55338,0.07575,-0.73071,0.17992,-0.66320,0.29730,-0.44398,0.76459,-0.14938,0.52952,-0.24359,0.24288,-0.40017,0.69596,-0.07754,0.21194,-0.58038,0.61644,-0.02519,0.62942,-0.10521,0.50400,0.00564,0.57621,-0.52345,0.30618,-0.30003,-0.09670,-0.69006,0.49912,-0.17147,-0.00864,-0.25619,0.51049,0.20053,0.51525,-0.06341,0.60904,-0.46345,0.62624,-0.66689,0.55542,-0.50209,0.53300,0.06261,0.51199,-0.15567,0.56174,-0.41049,0.67788,0.09679,0.58008,-0.42512,0.07669,-0.24152,-0.01080,-0.46645,0.04636,-0.62548,0.38076,-0.46423,0.42085,-0.03247,0.17176,-0.51693,0.00899,-0.25314,0.62652,-0.46019,0.27944,-0.53694,0.52401,-0.25320,0.60023,-0.28754,0.88709,0.18627,0.51434,-0.16101,0.50090,-0.29410,0.30115,-0.68970,0.29281,-0.29099,0.06337,-0.09749,0.62444,-0.10596,0.35581,-0.15852,0.08102,-0.63942,0.37339,-0.37280,0.53177,-0.57297,0.07346,-0.32726,0.52957,-0.29858,0.59326,-0.38336,0.39600,0.06389,0.22506,-0.26349,-0.00246,-0.22526,0.58056,-0.53114,0.56499,-0.75814,0.54492,-0.11834,0.04115,-0.56362,0.39186,-0.55799,0.38594,-0.19338,0.63997,-0.32581,0.46742,-0.48200,0.61189,-0.03894,0.32139,-0.34494,0.19493,-0.23981,0.16943,-0.21884,0.13140,-0.42694,0.54240,-0.27242,0.21059,-0.54088,0.49134,-0.25769,0.25474,-0.18864,0.12070,-0.65634,0.19541,-0.13679,0.45436,-0.68416,0.35219,-0.03923,0.61261,-0.59291,0.49070,-0.22219,0.12285,-0.10901,0.66868,-0.15247,0.08071,-0.72074,0.21733,-0.80958,0.02691,-0.16526,0.65529,-0.36774,0.44551,-0.70102,0.00795,-0.83446,-0.04622,-0.63804,0.15979,-0.28570,0.05009,-0.51712,0.09658,-0.00176,0.12834,-0.36702,0.08827,-0.24224,0.09305,-0.08287,0.54385,-0.65621,0.48847,-0.16788,0.59322,-0.21267,0.08331,-0.15297,0.60671,-0.05044,0.04567,-0.31770,0.01120,-0.68320,0.45761,-0.16965,0.14513,-0.46405,0.64621,-0.29282,0.39529,-0.57043,0.65344,-0.12950,0.17098,-0.14987,0.27339,-0.68770,0.52481,-0.45879,0.43194,-0.61476,0.28300,-0.63094,0.62265,-0.55137,0.20590,-0.43049,0.67624,-0.44835,0.67697,-0.66662,0.31490,-0.58472,0.14229,-0.30814,0.29406,-0.26499,0.21837,-0.11166},
{ 0.26285,0.43323,-0.52293,0.46833,-0.49167,0.66527,-0.03839,0.45470,-0.22370,0.65407,-0.19564,0.16108,-0.37160,0.09803,-0.11983,0.53454,-0.13676,0.44138,-0.33409,0.38633,-0.59720,0.46467,-0.50523,0.34059,-0.32665,0.58656,-0.22617,0.15953,-0.15081,0.04767,-0.35677,0.09130,-0.01538,0.26206,-0.05269,0.02608,-0.05994,0.64929,-0.06898,-0.00034,-0.11735,0.13072,-0.12111,0.29205,-0.50726,0.58598,-0.67660,0.32501,-0.22555,0.17840,-0.44960,0.29765,-0.13937,0.69554,-0.67208,0.39140,-0.33857,0.66556,-0.13679,0.21524,-0.67889,0.27274,-0.17848,0.62904,-0.57158,0.46314,-0.37906,0.16782,-0.35549,0.45868,-0.41978,0.21073,-0.56381,0.27513,-0.66713,0.06870,-0.68875,0.63134,-0.50769,0.52816,-0.14240,0.09567,-0.12328,0.17286,-0.27805,0.02358,-0.05073,0.07339,-0.10007,0.42127,-0.27135,0.27875,-0.07539,0.43959,-0.03010,0.53959,-0.19080,0.40423,-0.37419,0.70763,-0.51697,0.48042,-0.14324,0.06773,-0.25844,0.47348,-0.39231,0.61014,-0.31011,0.68005,-0.28221,0.11290,-0.69722,0.16123,-0.04603,0.10878,-0.45492,0.68188,-0.35168,0.59624,-0.58356,0.77076,-0.01863,0.68462,0.08706,0.65585,-0.19974,0.58642,-0.03873,0.35648,-0.40537,0.17091,-0.60788,0.30147,-0.64877,0.28799,-0.20742,0.43680,-0.03471,0.14782,-0.29578,0.22326,-0.34629,0.31194,-0.15834,0.43556,-0.35432,0.66183,-0.15603,0.53875,0.26964,0.62943,-0.05827,0.26524,0.10587,0.46937,-0.13852,0.32437,-0.13721,0.53827,-0.36538,0.35790,-0.35361,0.07299,-0.14364,0.36667,-0.14629,0.31550,-0.67737,0.51418,-0.27553,0.38798,-0.10161,0.01446,-0.69787,0.52188,-0.48360,0.31761,-0.25538,0.78885,-0.54180,0.41619,-0.09991,-0.05589,-0.09615,0.60518,-0.32968,0.33064,-0.35230,-0.05251,-0.64944,0.43826,-0.62003,0.52799,-0.16013,0.51530,-0.01745,0.60420,-0.19806,0.05344,-0.45972,0.02994,0.01445,0.38019,-0.03151,0.79440,-0.36447,0.34535,-0.49689,0.15024,-0.66469,0.42223,-0.55926,0.08591,-0.33116,0.03461,-0.62084,0.29330,-0.52532,0.20855,-0.20662,-0.02196,-0.12246,0.01062,-0.19660,0.23253,-0.20969,0.44868,-0.68068,0.47965,-0.28579,0.55283,-0.11024,0.49756,0.03210,0.40009,-0.14030,0.37732,-0.14680,0.11945,-0.36735,0.30803,-0.49557,0.56741,-0.00912,0.35426,-0.32946,0.45604,-0.48342,0.49348,-0.65217,0.62490,-0.45925,0.23612,-0.65469,0.59903,-0.53999,0.33261,-0.50924,0.59508,-0.25911,0.53552,0.08129,0.62947,-0.22030,0.44590,-0.40550,0.56118,-0.05855,0.29441,-0.09813,0.35010,-0.36335,0.33973,-0.48910,0.31682,-0.54469,0.38791,-0.08663,0.32487,-0.41916,0.60618,-0.31561,0.49733,-0.28097,0.30515,-0.33674,0.31070,-0.19315,0.26842,-0.27864,0.27129,-0.37086,0.12025,-0.58024,0.37373,-0.20294,0.33262,-0.31617,0.22324,-0.22125,0.06568,-0.47868,0.10253,-0.61457,-0.03990,-0.06182,0.61537,-0.46472,0.29437,-0.09754,0.11969,-0.66870,0.64137,-0.05619,0.39326,-0.37210,0.59979,-0.51193,0.10635,-0.98460,-0.02582,-0.97951,-0.40626,-0.83388,0.00721,-0.17678,0.53996,-0.29180,0.02604,-0.19724,-0.01622,-0.47444,-0.05970,-0.46938,0.64237,-0.52913,0.05320,-0.37231,0.59887,-0.36741,0.04930,-0.24386,0.61187,-0.53904,0.00938,-0.65415,-0.45109,-0.74323,-0.32106,-1.03304,-0.56259,-0.48048,0.15292,-0.33516,0.44251,-0.48550,0.24146,-0.56327,0.12340,-0.65297,0.25176,-0.08783,0.32864,-0.64359,0.34310,-0.63318,0.66292,-0.10351,0.11701,-0.60410,0.23985,0.09585,0.61590,-0.48663,0.16992,-1.02642,0.09130,-0.79148,-0.06532,-0.76004,-0.20031,-0.77617,0.34015,-0.47870,0.44107,-0.31184,0.29290,-0.03169,0.68695,-0.34833,0.54269,-0.60413,0.09746,-0.03634,0.20367,-0.45845,0.16536,-0.57522,0.25561,-0.07659,0.71971,-0.47736,0.26764,-0.79842,0.25935,-0.30305,-0.09501,-0.58551,0.49485,-0.70559,-0.07082,-0.22456,0.62305,-0.21826,0.64811,0.03151,0.57944,-0.44689,0.35485,-0.69862,0.24651,-0.49671,0.50031,-0.05222,0.52141,0.01122,0.41569,0.40782,0.78375,-0.43820,0.50170,-0.70978,0.26283,-0.33455,0.03131,-0.42207,0.29420,-0.48273,0.35013,-0.41470,0.44137,-0.33311,0.87240,-0.12352,0.37268,-0.53835,0.62320,-0.14423,0.57992,-0.26727,-0.01372,-0.23153,0.59323,-0.30061,0.38900,0.19784,1.02509,0.17150,0.36667,-0.42739,0.61807,-0.31081,0.19146,-0.34549,0.50072,-0.52121,0.32788,-0.62816,0.35579,0.16919,0.69805,0.03954,0.49255,0.13445,0.42958,-0.20098,0.66542,-0.52759,0.18747,-0.55226,0.33157,-0.18398,0.31235,0.16990,0.95854,0.09244,0.61551,0.16935,0.79744,-0.26544,0.15205,-0.32880,0.69520,-0.51478,-0.14306,-0.72852,0.52422,0.15602,0.76168,0.18303,0.81787,-0.26751,0.13721,-0.47465,0.53803,-0.47288,0.14890,-0.18787,0.46292,-0.22898,0.61718,-0.37189,0.45774,-0.01020,0.62439,-0.20769,0.69041,-0.30357,0.29344,-0.44332,-0.03019,-0.24326,0.28538,-0.58092,0.40138,0.00961,0.85781,0.34861,0.69428,-0.15752,0.46910,-0.40961,0.27460,-0.10373,0.22027,-0.21981,0.57347,-0.27950,0.44832,-0.43696,0.78169,-0.11693,0.84586,-0.32136,0.19449,0.10001,0.54052,-0.52455,0.23281,-0.44314,0.32529,-0.41563,0.61972,0.05004,0.77570,0.16240,0.26204,-0.60434,0.69037,-0.66365,0.52887,-0.08692,0.65239,-0.09519,0.59770,-0.09791,0.46626,-0.25764,0.56020,-0.16494,0.28167,0.02940,0.29196,-0.42572,0.39102,0.00397,0.60430,-0.38910,0.27713,-0.38947,0.90450,-0.19131,0.66761,-0.17773,0.62728,-0.62309,0.13583,-0.23723,0.65378,-0.41451,0.61767,-0.63172,0.37718,-0.29944,0.03172,-0.78568,0.34471,-0.49981,0.41328,0.05769,0.69699,-0.11417,0.29428,-0.63701,0.73354,-0.55738,0.31845,-0.02188,0.39239,0.04046,0.33968,-0.45593,0.40136,-0.08727,0.10993,-0.46287,0.33890,-0.20722,0.20272,-0.30702,0.29090,-0.23246,0.13835,-0.35866,0.39731,-0.19391,0.38591,-0.39487,0.48318,-0.52688,0.44618,-0.07989,0.36517,-0.32406,0.51749,0.01404,0.59284,0.13194,0.85569,-0.34335,0.72709,-0.43936,0.49126,-0.66510,0.64199,-0.04753,0.06780,-0.43754,0.10577,-0.63631,0.35842,-0.64326,0.37585,-0.65790,0.54063,-0.57330,0.11742,-0.55838,0.06652,-0.79152,0.21740,-0.39986,0.61501,0.07485,0.22893,0.10179,0.59483,-0.33895,0.29412,-0.46733,0.13820,-0.42848,0.55391,-0.19827,0.33086,-0.15595,0.04124,-0.09364,0.43097,-0.35768,-0.02147,-0.53729,-0.06460,-0.28974,0.08928,-0.66133,0.44405,-0.30129,0.51549,-0.23320,0.53874,-0.08883,0.18179,-0.39549,0.13363,-0.28614,0.33373,-0.05572,0.36951,-0.60520,0.60637,-0.62601,0.34537,-0.67871,0.26864,-0.41102,0.42286,-0.31256,0.51620,-0.19254,0.09882,-0.63837,0.29441,-0.47721,0.43517,-0.17077,0.33692,-0.51315,0.26458,-0.58683,0.26081,-0.29252,0.12631,-0.24820,0.12028,-0.56685,0.04456,-0.60007,0.47479,-0.50330,0.22142,-0.15776,0.53188,-0.24089,0.61209,-0.24240,0.64180,-0.46612,0.43130,-0.27754,0.46592,-0.50542,0.14961,-0.14801,0.51925,-0.14933,0.25806,-0.06769,0.24192,-0.38550,0.64024,-0.05178,0.21958,-0.13994,0.64627,-0.61750,0.09066,-0.50620,0.65581,-0.63248,0.65278,-0.24152,0.62262,-0.15651,0.58772,-0.08189,0.15152,-0.68225,0.49189,-0.18105,0.66798,-0.15832,0.10324,-0.63803,0.00314,-0.26754,0.39317,-0.67594,0.30167,-0.13873,0.63558,-0.25861,0.08047,-0.04638},
{ 0.52250,0.52291,-0.02775,0.21135,-0.29034,0.66680,-0.68290,0.28199,-0.39152,0.21006,-0.37370,0.41543,-0.36394,0.13023,-0.48985,0.61016,-0.13467,0.32062,-0.03310,0.53011,-0.69564,0.14152,-0.59290,0.36284,-0.52314,0.48283,-0.44827,0.05336,-0.11173,0.48497,-0.03230,0.40123,-0.32400,0.24270,-0.21366,0.65893,-0.34111,0.12086,-0.40964,0.60127,-0.68529,0.17737,-0.23025,0.02926,-0.50216,0.23322,-0.50067,0.58443,-0.39702,0.41903,-0.57439,0.38929,-0.50333,0.20569,-0.35099,0.14046,-0.35133,0.36389,-0.06512,0.38750,-0.67567,0.42779,-0.55469,0.40588,-0.65983,0.41941,-0.36153,0.28874,-0.03192,0.54584,-0.09168,0.61179,-0.67479,0.61121,-0.65242,0.58481,-0.08686,0.33961,-0.15943,0.28075,-0.27643,0.39132,-0.24701,0.27184,-0.65609,0.56609,-0.56158,0.44209,-0.48339,0.02038,-0.69772,0.17754,-0.56809,0.28423,-0.54146,0.26066,-0.37420,-0.03370,-0.76509,0.40336,-0.62124,0.42905,-0.53994,0.57797,-0.61361,0.11841,-0.42611,0.28194,-0.49239,0.13087,-0.12002,0.50662,-0.11385,0.43573,-0.67754,0.45431,-0.68006,0.58536,-0.12647,0.11673,-0.24475,0.04506,-0.25394,0.15655,-0.58887,0.04508,-0.60682,0.28510,-0.60310,-0.17632,-0.28968,0.00899,-0.57126,0.43559,-0.26401,0.56529,0.06308,0.58908,-0.37355,0.46722,-0.12870,0.31821,-0.22463,0.20209,-0.55489,0.01326,-0.38731,0.61131,-0.17832,0.02657,-0.34800,0.13913,-0.61948,0.19610,-0.25666,0.40780,-0.57858,-0.11119,-0.39217,-0.11444,-0.12157,0.45129,-0.25467,0.80998,-0.27413,0.51951,-0.33734,0.33353,-0.27053,0.64414,-0.50114,0.24467,-0.50549,0.18360,-0.71206,0.51574,-0.21462,0.27080,-0.79646,-0.06958,-0.70656,0.33234,-1.00545,0.17764,-0.65160,0.02838,-0.45888,0.43619,-0.39954,0.39479,-0.18795,0.54352,-0.11097,0.67537,-0.26923,0.64655,-0.12269,0.05520,-0.09582,0.13382,-0.44980,0.02898,-0.65563,0.00538,-0.61380,0.28968,-0.52425,0.43199,-0.69972,0.23877,-0.55921,-0.11306,-0.25903,0.02825,-0.59744,0.48508,-0.38871,0.70542,-0.36343,0.70016,-0.20099,0.64598,-0.27149,0.21156,-0.31809,0.24166,-0.33625,0.49606,-0.15196,0.30828,-0.17092,0.49753,-0.30689,0.58021,-0.24270,0.31533,-0.65549,0.59607,0.06138,0.49869,0.05205,0.22532,-0.20337,0.66812,-0.15596,0.52356,-0.27805,0.73322,-0.49516,0.80150,-0.16140,0.11947,-0.33930,0.17094,-0.06656,0.55152,-0.56405,0.09900,-0.56830,0.00113,-0.27046,0.29570,-0.25293,0.12937,-0.33521,0.40208,-0.47161,0.28484,0.10000,0.64237,-0.15938,0.06574,-0.65261,0.07563,-0.00576,0.14765,-0.42561,0.63629,0.01294,0.29647,-0.15906,0.13218,-0.44442,0.25390,-0.47405,0.61467,-0.14857,0.04890,-0.33490,0.38101,-0.27665,0.53193,-0.06760,0.53537,0.11286,0.38897,0.14176,0.80922,-0.63803,0.32832,-0.49985,0.33173,-0.45886,0.37867,-0.36743,0.74610,-0.51525,0.36514,-0.16370,0.49227,-0.54059,0.42420,-0.07558,0.58407,-0.32490,0.54292,-0.48847,0.37434,-0.56802,0.49605,-0.31155,0.23156,-0.28866,0.44950,0.02165,0.53611,-0.33747,0.32810,-0.49925,-0.05005,-0.26008,0.13223,-0.55678,0.37922,-0.02477,0.25063,-0.01889,0.53019,-0.57146,0.40363,-0.67562,0.49434,-0.27267,0.08600,-0.41153,0.15124,-0.22667,0.23631,-0.43495,0.59355,-0.54872,0.30668,-0.15927,0.15739,-0.31043,0.07124,-0.98390,-0.20426,-0.29473,0.30663,-0.55557,0.12802,-0.21481,0.39419,-0.19199,0.62932,-0.05866,0.66655,-0.57711,0.41699,-0.48749,0.56661,-0.43407,0.29734,-0.58416,0.63071,-0.07112,0.05631,-0.27966,0.41272,-0.02331,0.43711,-0.56139,0.06497,-0.27681,0.03181,-0.73080,-0.11809,-0.82571,0.24600,-0.43240,0.34649,-0.10189,0.25518,-0.34871,0.46528,-0.01533,0.28141,-0.58297,0.59033,-0.03438,0.45942,-0.69442,0.39890,-0.27878,-0.07617,-0.49353,0.43967,-0.32360,0.40425,-0.10083,-0.06457,-0.24083,-0.08191,-0.48520,-0.00535,-0.79485,-0.00638,-0.68507,0.41742,-0.38472,0.62039,-0.15500,0.40960,-0.21040,0.16148,-0.73668,0.61361,-0.63053,0.06853,-0.11491,0.11012,-0.85418,0.36952,-0.12220,0.48327,-0.07163,0.36533,-0.65934,0.30218,-0.61935,0.20834,-0.41111,0.40010,-0.61399,0.45873,-0.63038,0.04047,-0.41783,0.03474,-0.43029,0.49148,-0.10210,0.61741,-0.35569,0.14318,-0.49926,0.08803,-0.66348,0.29510,-0.77537,0.31034,-0.16173,0.46469,-0.30982,0.18705,-0.48607,0.13607,-0.82147,0.34544,-0.65419,-0.04212,-0.44866,0.45530,-0.49534,0.15419,-0.61580,0.17918,-0.03717,0.11265,-0.52926,0.47291,-0.18798,0.37025,-0.37909,0.38199,-0.33403,0.26632,-0.16789,0.49757,0.04679,0.79518,-0.54089,0.04001,-0.63544,0.34781,-0.47910,0.11649,-0.73174,0.14101,-0.66888,-0.03360,-0.57580,0.00937,-0.02653,0.67948,-0.29497,0.08227,-0.10546,0.22736,-0.70274,0.33807,-0.70577,0.37859,-0.64183,0.44938,-0.56608,0.50993,-0.34496,0.18671,-0.26777,0.56427,-0.08149,0.18021,-0.62882,0.16845,-0.29249,-0.09617,-0.41847,0.13927,-0.41539,0.52638,-0.44635,0.45493,-0.65133,0.43047,-0.44861,0.10878,-0.47399,0.35911,-0.24904,0.19132,-0.27906,0.47436,-0.53031,0.65781,-0.01810,0.69606,-0.13180,0.42193,-0.47385,0.67284,-0.47106,0.17898,-0.30339,-0.16500,-0.76538,0.52121,-0.34890,0.39044,-0.18737,0.46069,-0.06788,0.26591,-0.48084,0.36828,-0.30439,0.04380,-0.58725,0.08424,-0.07639,0.13896,-0.44061,0.57554,-0.60382,0.19082,-0.09753,0.04745,-0.49640,0.51839,-0.61483,-0.16812,-0.90832,0.28309,-0.36480,0.17159,-0.36772,0.53719,-0.29828,0.51899,-0.27876,0.48227,-0.26882,0.46531,-0.65451,0.29755,-0.18469,0.24609,-0.33181,0.38099,-0.44092,-0.11807,-0.25828,0.61086,-0.02301,0.55516,-0.44511,0.28022,-0.23751,0.06434,-0.81345,-0.06374,-0.49084,0.55623,-0.31448,0.11338,-0.14763,0.49578,-0.17325,0.65285,-0.05286,0.53960,-0.63623,0.46842,-0.19871,0.09055,-0.49689,0.11230,-0.59488,0.24826,-0.15483,0.07850,-0.27363,0.40591,-0.34296,0.72455,-0.64155,0.13817,-0.40739,0.12475,-0.29348,0.66567,-0.58398,0.58990,-0.61572,0.38769,-0.33081,0.57660,-0.26432,0.13201,-0.20092,0.55905,-0.18398,0.16211,-0.48682,0.04875,-0.43028,0.40662,-0.13530,0.17422,-0.15388,0.68786,-0.16515,0.17984,-0.51901,0.08143,-0.20611,-0.05246,-0.44831,0.23675,-0.04196,0.37534,-0.42113,0.31438,-0.19593,0.16068,-0.44681,0.51204,-0.48716,0.61829,-0.13955,-0.10031,-0.14997,0.16104,-0.84281,-0.15132,-0.19883,0.57580,0.04488,0.74996,-0.00395,0.45792,-0.10107,0.08618,-0.67318,0.53333,-0.24139,0.12334,-0.54711,0.06548,-0.17064,0.68148,-0.25171,0.36047,-0.65339,0.21589,-0.47459,0.39517,-0.60413,0.46969,-0.22209,-0.15160,-0.43014,0.49602,-0.26061,0.51452,-0.60738,0.10733,-0.51293,0.09138,-0.38681,0.16509,-0.23925,0.63012,-0.17749,0.29738,-0.09824,0.53353,-0.05980,0.55596,-0.48951,0.08463,-0.67935,0.08300,-0.62220,0.08702,-0.16914,0.11476,-0.20242,0.05211,-0.03245,0.06028,-0.26804,0.41722,-0.38135,0.21780,-0.20152,0.40121,-0.08576,0.11405,-0.20761,0.43640,-0.02633,0.20695,-0.52874,0.04729,-0.29064,0.19213,-0.67860,0.11310,-0.39366,0.62590,-0.58100,0.53254,-0.20720,0.57748,-0.15826,0.55212,-0.35317,0.42623,-0.47190,0.21617,-0.16964,0.67767,-0.57108,0.40576,-0.28076,0.65505,-0.46934,0.61156,-0.45383,0.35821,-0.36516,0.34933,-0.32394},
{ -0.83815,0.59860,-0.28126,0.00190,-0.49694,0.40823,-0.44792,0.38790,-0.40801,0.24270,-0.08963,0.04041,-0.23631,0.55534,-0.18708,0.58835,-0.65445,0.31228,-0.51306,0.35621,-0.45420,0.18499,-0.34415,0.10855,-0.17591,0.49932,-0.47011,0.19453,-0.39913,0.03669,-0.02550,0.24726,-0.46178,0.25763,-0.50456,0.28908,-0.68047,0.37710,-0.68819,0.22842,-0.13005,0.14083,-0.58823,0.61562,-0.59297,0.65159,-0.55528,0.35616,-0.62134,0.67915,-0.14465,0.60893,-0.58323,0.17578,-0.36168,0.59587,-0.57237,0.47299,-0.32963,0.32937,-0.18343,0.30748,-0.57886,0.01054,-0.20711,0.32036,-0.52473,0.12741,-0.18745,0.21979,-0.18096,0.40650,-0.03505,0.36544,-0.22273,0.39774,-0.37443,0.47639,-0.13823,0.20771,-0.25455,0.39042,-0.56631,0.29787,-0.53897,0.42109,-0.22761,0.61255,-0.16902,0.67314,-0.00045,0.35464,-0.52087,0.62733,-0.67252,0.62135,-0.64654,0.44189,-0.24201,0.16480,-0.07903,0.56309,-0.50248,0.51600,-0.25443,0.61196,-0.11558,0.07982,-0.47892,0.34794,-0.31458,0.34001,-0.58216,0.44363,-0.33174,0.68326,-0.36176,0.11534,-0.61893,0.14957,-0.25877,0.28316,-0.27142,0.31357,-0.09910,0.29015,0.00020,0.29154,0.12597,0.15939,0.10724,0.42824,-0.40384,0.67987,-0.64481,0.24006,-0.07817,0.18036,-0.10538,0.15628,-0.69918,0.45735,-0.04188,0.33955,-0.64159,0.14726,-0.06527,0.18586,-0.34343,0.10782,-0.40085,0.21228,-0.28506,0.59499,-0.36706,0.19820,0.08749,0.24049,0.18854,0.38485,-0.08892,0.17981,-0.08279,0.38569,-0.06901,0.28931,-0.54506,0.55089,-0.19220,0.68074,-0.39714,0.68882,-0.31747,0.51007,-0.57102,0.01793,-0.26282,0.46605,-0.57383,0.74470,-0.44021,0.46234,-0.30172,0.64444,0.08422,0.50592,-0.33758,0.38308,-0.05410,0.41852,-0.60332,0.11426,-0.57577,0.49615,-0.05372,0.56282,-0.15840,0.46107,-0.63153,0.18602,-0.35059,0.05912,-0.12174,0.55318,-0.61299,0.29817,-0.18831,0.10575,-0.25267,0.50000,-0.18984,0.42072,-0.29992,0.70523,-0.00404,0.67892,-0.01281,0.19376,-0.46720,0.49759,-0.58269,0.12589,-0.28053,0.14301,-0.43782,0.32662,-0.62494,0.62882,-0.50859,0.04028,-0.17485,0.37479,-0.54526,0.08947,-0.38322,0.69044,-0.39565,0.41899,-0.34289,0.51495,-0.48566,0.22087,-0.37124,0.01638,-0.32951,0.60979,-0.43164,0.48709,0.01818,0.52791,-0.55410,0.08706,-0.25781,0.64574,-0.24790,0.56747,-0.13896,0.53336,-0.02345,0.53438,-0.18368,0.71865,-0.04744,0.12860,-0.33709,0.39996,-0.44500,0.23469,-0.24701,0.43293,-0.67837,0.17273,-0.35048,0.61049,-0.15407,0.67869,-0.11413,0.73941,-0.40412,0.65207,-0.42299,0.34238,-0.70211,0.50533,-0.15163,0.34361,-0.20508,0.50483,0.04453,0.10372,-0.07985,0.44068,-0.09055,0.64035,-0.56877,-0.02896,-0.16607,0.35626,-0.24312,0.14750,0.06872,0.75342,-0.10795,0.71709,-0.50805,0.22664,-0.67769,0.01760,-0.51472,0.60194,-0.58256,0.36257,-0.52419,0.41350,0.01404,0.45696,-0.36918,0.76136,-0.46128,0.31193,-0.48005,0.26608,-0.05717,0.15134,-0.15781,0.63086,-0.03308,0.22042,-0.48076,0.63162,-0.35785,0.35279,-0.38302,0.78747,-0.22145,0.67392,-0.49153,0.68897,-0.26015,0.43315,-0.20077,0.28939,-0.26637,0.41179,0.20116,0.48320,-0.45739,0.67746,-0.10839,0.55958,-0.01865,0.68876,0.16633,0.45831,-0.12755,0.44158,-0.16580,0.36232,-0.46136,0.56474,-0.17029,0.61899,-0.53570,0.69125,-0.34936,0.56840,-0.15357,0.57641,-0.22192,0.41878,-0.15495,0.26307,0.06416,0.81984,-0.63430,0.36171,-0.17242,0.54273,0.10580,0.78947,0.00410,0.42115,0.09517,0.37284,-0.50057,0.55081,-0.38471,0.12911,-0.50157,0.02670,-0.17010,0.45062,-0.04881,0.32612,-0.42357,0.21393,-0.39326,0.51476,-0.08098,0.54470,-0.03890,0.13625,-0.58242,0.18296,-0.46145,0.47795,-0.14254,0.30951,-0.55970,0.40041,-0.49761,0.48673,-0.37217,0.55770,-0.16439,0.05780,-0.61137,0.56143,-0.60366,0.56832,-0.02432,0.69071,-0.55377,0.65228,-0.33465,0.47672,-0.27675,0.15940,-0.61912,0.41646,-0.62806,0.23634,-0.51093,0.55458,-0.25598,0.40418,-0.49462,-0.21313,-0.72283,0.01372,-0.66367,0.43657,-0.42760,0.12854,-0.53996,0.09126,-0.31220,0.40555,-0.00794,0.44317,-0.41877,0.70096,-0.29928,0.57006,-0.21341,0.48441,-0.70890,0.21030,-0.55908,0.23490,-0.45736,0.64369,-0.09894,-0.05859,-0.64065,-0.10279,-0.11457,0.09834,-0.36084,0.39963,-0.26395,0.35546,-0.25715,0.53535,-0.64767,0.04510,-0.39703,0.58212,-0.44944,0.55569,-0.29555,0.09729,-0.51301,0.11097,-0.19616,0.20346,-0.79882,-0.05596,-0.28829,0.36671,-0.87208,-0.18765,-0.86587,0.20424,-0.37769,0.70201,-0.35461,0.62450,-0.65800,0.04758,-0.26714,0.05800,-0.61718,0.68779,-0.57520,0.04468,-0.42435,0.32261,-0.50899,0.77286,-0.23902,0.76272,-0.25384,0.44470,-0.67856,0.14275,-0.58936,0.03119,-1.00594,0.33252,-0.23040,-0.07723,-0.42324,0.26287,-0.23592,0.30510,-0.42079,0.17526,-0.38728,0.60304,-0.67070,0.34920,-0.58370,0.18926,-0.08400,0.14654,0.05725,0.24904,-0.29808,0.47922,-0.48816,0.64263,-0.42037,0.60275,-0.66764,-0.27390,-0.81292,0.07089,-0.69952,0.60987,-0.08595,0.79707,-0.41109,0.09289,-0.40763,0.30575,-0.57482,0.26418,-0.25032,0.54492,-0.41531,0.53234,-0.39769,0.59898,-0.04677,0.50917,-0.22689,0.47835,-0.13891,0.40541,-0.46772,0.30301,-0.90737,0.00794,-0.80128,0.40164,-0.48462,0.29319,-0.40376,0.72116,-0.58189,0.47355,-0.61176,0.36570,-0.24562,0.48976,-0.04724,0.07027,-0.05369,0.51907,-0.53579,0.20641,-0.16515,0.23334,0.03544,0.47254,-0.41669,0.22150,-0.12807,0.23324,-0.75557,0.02257,-0.34062,-0.04172,-0.31327,0.18128,-0.03130,0.71474,-0.09878,0.66105,-0.26107,0.03911,-0.73303,0.46593,-0.65466,0.54075,-0.24518,0.49200,-0.50742,0.10317,-0.38590,0.74596,-0.31700,0.38293,-0.02727,0.25430,-0.65246,0.48718,-0.37484,0.22825,-0.01743,0.41702,-0.50213,0.55960,-0.17040,0.68569,-0.06469,0.53662,-0.13518,0.48846,-0.57247,0.46177,-0.29492,0.23048,-0.39889,0.32432,-0.63244,0.61953,-0.11364,0.03827,-0.44444,0.05577,-0.58661,0.17132,-0.12098,0.66437,-0.08929,0.38806,-0.11235,0.75595,-0.44895,0.54563,0.00171,0.74555,-0.06023,0.30090,-0.50348,0.17098,-0.56288,0.19791,-0.46351,0.15852,-0.30644,0.50890,-0.43552,0.54557,-0.46592,0.55843,-0.44532,0.66891,-0.45921,0.28997,0.01355,0.76771,0.28074,0.61757,-0.22228,0.45389,0.13677,0.41616,-0.23787,0.29470,-0.24838,0.16150,-0.12236,0.19428,-0.66076,0.55217,-0.27424,0.45611,-0.45560,0.03548,-0.60199,0.57479,-0.66661,0.56732,-0.06218,0.52230,-0.15004,0.21404,-0.23419,0.15241,0.06773,0.23662,-0.17157,0.18850,-0.43741,0.08457,0.03368,0.70437,-0.62621,0.26084,-0.17119,0.61266,-0.23411,0.49222,-0.19066,0.52994,-0.51784,0.25450,-0.41758,0.05161,-0.17257,0.20990,-0.50920,0.61238,-0.22079,0.07559,-0.01815,0.61727,-0.40099,0.57003,-0.31314,0.36430,-0.64635,0.59881,-0.37888,0.01866,-0.10257,0.49260,-0.29817,0.69047,-0.08660,0.21152,-0.39733,0.55776,-0.54799,0.17720,-0.40345,0.60302,-0.30954,0.10309,-0.09616,0.55999,-0.23722,0.43810,-0.48039,0.12632,-0.67690,0.23330,-0.43557,0.02039,-0.43850,0.33607,-0.69306,0.27995,-0.42320,0.10495,-0.64918,0.48624,-0.44829,0.25256,-0.61152,0.35163,-0.39546},
{ 1.02923,0.57321,-0.62228,0.57843,-0.11133,0.64412,-0.21652,0.39470,-0.53024,0.01396,-0.09064,0.15631,-0.00907,0.46064,-0.22777,0.06993,-0.43618,0.43756,-0.55071,0.34541,-0.12969,0.59322,-0.09608,0.69642,-0.65609,0.55434,-0.54967,0.42963,-0.24110,0.54238,-0.38394,0.27223,-0.22270,0.01886,-0.50426,0.15905,-0.53011,0.37790,-0.53109,0.07783,-0.07578,0.58253,-0.08531,0.59366,-0.41585,0.02942,-0.16675,0.39865,-0.60748,0.00313,-0.30661,0.38641,-0.11271,0.50390,-0.43069,0.64485,-0.57260,0.09993,-0.28251,0.02430,-0.39183,0.55744,-0.31695,0.52395,-0.11997,0.62212,-0.58280,0.19954,-0.31303,0.11127,-0.29940,0.56279,-0.70610,0.57543,-0.65005,0.14497,-0.58321,-0.02429,-0.12282,0.26610,-0.13736,0.25583,-0.52008,0.66372,-0.65629,0.31940,-0.56543,0.02050,-0.07609,0.64720,-0.05031,0.05642,-0.55582,0.56821,-0.58224,0.18726,0.02002,0.12709,-0.02872,0.13314,-0.30840,0.00221,-0.13488,0.13816,-0.26365,0.46338,-0.55655,0.30296,-0.24614,0.27498,-0.67754,0.61713,-0.30622,0.30279,-0.62086,0.58777,-0.25944,0.09107,-0.25425,0.59722,-0.62485,0.28210,-0.41619,0.21715,0.06555,0.31638,-0.05562,0.14351,-0.11556,0.66596,-0.44936,0.16798,-0.40375,0.58925,-0.47046,0.46158,-0.54049,0.06508,-0.26488,0.35311,-0.22598,0.33444,-0.58599,0.49036,-0.09101,0.35413,-0.62876,0.15794,-0.44428,0.68009,-0.44156,0.32802,-0.33773,0.43478,-0.39261,0.37120,-0.05870,0.65457,-0.43802,0.53322,-0.09343,0.23533,-0.04723,0.34170,-0.25940,0.16446,-0.04478,0.21179,-0.43476,0.13452,-0.62340,0.49182,-0.15499,0.22220,-0.06523,0.37660,-0.23915,0.35405,-0.45432,0.40401,-0.38479,0.69432,0.23685,0.42193,-0.11007,0.34852,0.02039,0.27414,0.09331,0.19355,-0.04412,0.56490,-0.58538,0.69418,-0.22785,0.35560,-0.02380,0.34123,-0.00695,0.57185,-0.67351,0.56666,-0.56202,0.10607,-0.30878,-0.11610,-0.15157,0.63691,-0.18808,0.67921,-0.32163,0.23594,-0.09671,0.50169,-0.41416,0.45308,0.13285,0.43757,-0.11245,0.69694,-0.09572,0.36820,0.01210,0.29735,-0.39571,0.47011,-0.42196,0.58433,-0.13263,0.16601,-0.15281,0.28445,-0.24094,0.49027,-0.37775,0.66772,-0.32052,0.53164,-0.09680,0.22724,-0.17191,0.41856,-0.64238,0.21836,-0.39804,0.18446,-0.16354,0.09259,-0.37779,0.08095,-0.29688,0.06734,-0.57588,0.66529,-0.12132,0.23559,-0.48164,0.09720,-0.19520,0.16647,-0.07086,0.16805,-0.24410,0.55578,-0.33955,0.60973,-0.24507,0.40093,-0.64638,0.02628,-0.61348,0.16798,-0.44653,0.38048,-0.46416,0.00318,-0.20715,0.45412,-0.25398,0.18020,-0.27316,0.26572,-0.21281,0.64588,-0.40498,0.11407,-0.23228,0.59615,-0.18299,0.67070,0.00447,0.04586,-0.31271,0.19637,-0.56148,-0.17766,-0.56919,-0.13233,-0.88973,0.34473,-0.70766,0.30090,-0.57568,0.42878,-0.40009,-0.03671,-0.55795,0.47880,-0.53264,0.19131,-0.22498,0.07767,-0.11707,0.54699,-0.31382,0.62816,-0.70467,-0.00654,-0.70832,0.31729,-0.62514,-0.26602,-0.97699,-0.28181,-0.44253,0.08679,-0.63334,0.17620,-0.79613,0.25888,-0.76001,0.38164,-0.69317,0.53027,-0.50263,0.50345,-0.00474,0.55902,-0.17794,0.00514,-0.56246,0.68934,-0.24967,-0.09795,-0.82524,0.16150,-0.65725,-0.28436,-0.75213,-0.32282,-1.00758,0.19355,-0.63688,-0.21920,-0.85252,-0.13570,-0.14794,0.41406,-0.58513,0.04296,-0.25281,-0.06311,-0.30194,0.60011,-0.61139,0.67285,-0.05989,0.01777,-0.43674,0.67811,-0.43058,0.29383,-0.27539,0.15964,-0.83174,0.02736,-0.93000,0.12652,-0.55408,0.13244,-0.56767,0.07419,-0.65794,0.00537,-0.55311,0.66867,-0.58028,-0.01440,-0.25285,-0.04023,-0.52693,0.07584,-0.16598,0.66417,-0.63061,0.25535,-0.34972,0.30104,-0.41524,0.60874,-0.00418,0.24755,-0.29310,0.02086,-0.61748,-0.08734,-0.15947,-0.14307,-0.76148,0.05135,-0.93142,0.02219,-0.25939,0.00301,-0.78736,0.20254,-0.86594,0.28027,-0.33197,0.30250,-0.05339,0.30253,-0.56734,0.03966,-0.53403,0.36715,-0.33142,0.26549,-0.12464,0.69630,-0.30406,0.01627,-0.71689,-0.14533,-0.66100,0.16577,-0.88649,0.11539,-0.55614,-0.05218,-0.32873,0.36337,-0.22830,-0.06725,-0.26428,0.33435,0.02512,0.72577,-0.16910,0.11928,-0.38541,0.38199,-0.35533,0.15072,-0.04674,0.26668,-0.55963,0.07777,-0.85629,0.04964,-0.59043,0.07678,-0.28184,0.24394,-0.92442,-0.04420,-0.69331,0.34518,-0.48976,-0.01424,-0.67982,0.46864,-0.71791,0.35360,-0.08874,0.67394,-0.40118,0.67922,-0.68836,0.29551,-0.28118,0.47730,0.13382,0.49912,-0.71775,0.32704,-0.74023,0.53063,-0.30862,0.41240,-0.15016,0.29599,-0.52594,0.35604,-0.53731,0.23663,-0.18046,0.52328,-0.17157,0.25889,-0.21557,0.64180,-0.09736,0.53615,-0.51881,0.46503,-0.21266,0.51096,-0.38913,0.41940,-0.11419,0.62474,-0.23540,0.43141,-0.48998,0.32893,-0.48965,0.15890,-0.42841,0.11694,-0.42543,0.61608,-0.27064,0.39495,-0.03267,0.19668,-0.03157,0.53094,-0.16344,0.70795,-0.34374,0.26921,-0.53147,0.50310,-0.27092,0.53305,-0.11081,0.30897,-0.47000,0.66779,-0.08132,0.33981,-0.29330,0.27199,-0.45638,0.66671,-0.54303,0.27777,-0.44964,0.36360,-0.26589,0.37171,0.08019,0.52350,-0.51397,0.74889,-0.31794,0.26088,-0.24347,0.22666,-0.26824,0.06594,-0.17823,0.27462,-0.63946,0.28323,0.08604,0.64351,-0.30375,0.67176,-0.12764,0.34532,-0.31572,0.10170,-0.12744,0.18974,-0.05868,0.53077,0.02074,0.69544,0.09501,0.17861,-0.01173,0.65506,-0.01405,0.46712,-0.38852,0.04180,-0.05904,0.13279,-0.21643,0.24275,-0.19228,0.41381,-0.52699,0.46816,-0.49072,0.56914,0.06078,0.59943,-0.05718,0.32553,-0.34455,0.49124,-0.38783,0.61170,0.14712,0.43225,0.07931,0.50285,-0.33003,0.34909,-0.01080,0.44531,0.01678,0.31157,-0.42165,0.51041,-0.67324,0.22770,-0.11904,0.42288,-0.46305,0.42049,-0.42941,0.64001,0.03088,0.35306,-0.00201,0.52836,-0.51130,0.41916,-0.14282,0.52499,0.15206,0.68436,-0.29461,0.62308,-0.24053,0.49594,0.07421,0.60994,-0.43688,0.36910,-0.23153,0.64708,-0.33159,0.36174,-0.26230,0.56370,-0.23587,0.08261,-0.15536,0.29686,-0.37418,0.27008,-0.23231,0.63054,-0.41669,0.20839,-0.35862,0.49619,-0.24127,0.58570,-0.02110,0.50443,0.12803,0.25494,-0.00134,0.57944,-0.31205,0.05169,-0.61132,0.53146,-0.19059,0.12562,-0.03016,0.03892,-0.49123,-0.01751,-0.26878,0.34300,-0.48965,0.35141,-0.33813,0.09807,-0.00822,0.14202,-0.45000,0.07255,-0.48515,0.00433,-0.34008,0.20194,0.03401,0.21028,-0.08841,0.24668,-0.37591,0.31045,-0.06306,0.08331,-0.25529,0.41868,-0.36022,0.17277,-0.70462,0.29171,-0.55044,0.43238,-0.47322,0.19863,-0.33483,-0.01523,-0.29324,0.12494,-0.32312,0.00932,-0.24414,-0.04792,-0.20651,0.59095,-0.23043,0.43725,-0.66843,0.26563,-0.51607,0.59715,-0.37073,0.09377,-0.28536,0.30161,-0.47399,0.37720,-0.33255,0.32327,-0.52757,0.61635,-0.43810,0.47734,-0.03181,0.59531,-0.22667,0.28256,-0.20148,0.32874,-0.02192,0.21090,-0.49748,0.26420,-0.24810,0.63746,-0.33078,0.64102,-0.59324,0.50018,-0.15549,0.27009,-0.57795,0.48767,-0.03034,0.24872,-0.58544,0.31597,-0.23584,0.30196,-0.12498,0.50701,-0.18726,0.05944,-0.16159,0.51420,-0.65401,0.58684,-0.08742,0.61463,-0.15575,0.33366,-0.03988,0.34568,-0.58751,0.13699,-0.05000,0.38331,-0.26033},
{ 0.19202,0.31308,-0.10366,0.63262,-0.15247,0.48950,-0.57705,0.61052,-0.33412,0.12370,-0.02864,0.46137,-0.41747,0.29874,-0.59697,0.41866,-0.56622,0.12401,-0.34167,0.40107,-0.41743,0.29251,-0.03629,0.30138,-0.11235,0.40415,-0.46366,0.37294,-0.26716,0.41029,-0.67054,0.38982,-0.44295,0.22822,-0.37077,0.53144,-0.63725,0.27976,-0.10174,0.57806,-0.65541,0.08445,-0.32951,0.25661,-0.12323,0.46368,-0.52251,0.30598,-0.44693,0.28962,-0.61571,0.18961,-0.46158,0.16287,-0.43422,0.40863,-0.18067,0.55114,-0.69159,0.67738,-0.62423,0.51162,-0.53939,0.64285,-0.61372,0.54807,-0.26354,0.53294,-0.46948,0.69603,-0.12447,0.60578,-0.52780,0.64953,-0.31843,0.30797,-0.43901,0.65223,-0.56926,0.04673,-0.68689,0.66413,-0.57401,0.29599,-0.50008,0.62498,-0.59238,0.04091,-0.22892,0.55533,-0.19230,0.24092,-0.23201,0.59937,-0.10877,0.46305,-0.57390,0.65131,-0.28710,0.76692,-0.05820,0.18882,-0.37605,0.19181,-0.08035,0.18357,-0.53314,0.48302,-0.07451,0.67214,-0.41927,0.20778,-0.61474,0.56792,-0.47442,0.65880,-0.17058,0.08149,-0.51004,0.38174,-0.04452,0.54701,0.05613,0.55472,-0.01060,0.49306,0.14483,0.66568,-0.31914,0.25707,-0.64888,0.52798,-0.12456,0.06936,-0.60348,0.53154,-0.35706,0.40285,-0.56581,0.29440,-0.31916,0.17935,-0.08564,0.17582,-0.47971,0.62449,-0.37545,0.33252,-0.17109,0.32722,-0.28345,0.75840,0.13822,0.45422,-0.22741,0.44484,-0.30888,0.41070,-0.09015,0.01147,-0.37121,0.13650,-0.30268,0.04869,-0.06340,0.42898,-0.10427,0.47469,-0.12157,0.09514,-0.20088,0.12108,-0.29833,0.21348,-0.22764,0.51990,-0.44062,0.13285,-0.03373,0.42642,-0.31210,0.38299,-0.34110,0.26390,-0.30743,0.34274,-0.26972,0.01054,-0.26310,0.55010,-0.55929,0.07176,-0.31571,0.07264,-0.17224,0.41113,-0.31696,0.04811,-0.45084,0.69614,-0.24873,0.48145,-0.61411,0.21417,-0.15383,0.52211,-0.43160,0.14962,-0.36622,0.38630,0.01764,0.70152,-0.38047,0.44399,-0.36082,-0.03482,-0.66134,-0.03900,-0.58147,-0.09325,-0.32228,0.60295,0.10040,0.25826,-0.47249,0.69430,-0.13859,0.33033,-0.39523,0.44304,-0.25498,0.27282,-0.31978,0.19988,-0.15305,0.03579,-0.04815,0.03827,-0.10909,0.58820,-0.23913,0.48141,-0.18991,0.16848,-0.65917,0.20630,-0.62933,0.11914,-0.36345,0.58063,-0.29788,0.41545,-0.16918,0.35317,-0.19457,0.45624,-0.50238,0.19860,-0.62196,0.58726,-0.34944,0.18101,-0.35111,0.47050,-0.03251,0.44867,-0.52646,0.68261,-0.14120,0.54670,-0.42788,0.00055,-0.85332,-0.06053,-0.60734,-0.17417,-0.76512,0.67325,-0.27581,0.74663,-0.61775,0.53953,-0.16094,0.52996,-0.13617,0.18931,-0.16714,0.09620,-0.25082,0.25804,-0.47835,0.13914,-0.16871,-0.06345,-0.43488,1.09661,0.22749,0.87013,-0.64629,0.05517,-0.52755,-0.10946,-0.80207,0.40482,-0.27548,0.83228,-0.10268,0.76789,-0.14359,0.27228,-0.16196,0.05984,-0.56904,0.14802,-0.57236,0.64376,-0.47701,0.31894,-0.45739,0.14944,-0.58589,0.58719,0.23978,1.09096,0.50615,0.74921,-0.84356,0.15571,-0.66908,-0.17777,-1.03157,-0.39319,-0.58848,-0.03190,-0.46266,0.48894,-0.30917,0.50825,-0.55152,0.49424,-0.27612,0.23588,-0.15165,0.10362,-0.23436,0.05736,-0.43199,0.29293,-0.48126,0.05098,-0.22026,1.26596,-0.13444,0.18012,-0.53488,0.21278,-0.71331,0.11482,-0.58153,0.17965,-0.75363,-0.09897,-0.48790,0.22117,-0.62751,0.36944,-0.20827,0.34838,-0.44435,0.60905,-0.10619,0.11918,-0.38708,0.62128,0.00488,0.21848,-0.51949,0.50565,0.33059,1.00052,0.27973,0.10264,-0.91246,0.00779,-0.43819,0.56677,-0.30635,-0.20538,-1.02771,-0.16178,-0.38532,0.10698,-0.32893,0.58122,-0.05558,0.66138,-0.23920,0.39194,-0.64876,0.10267,-0.26929,0.37754,-0.37737,0.47899,-0.63716,0.44879,-0.05320,0.70717,-0.50147,0.53006,-0.87602,0.00388,-0.56068,0.00365,-0.57023,0.33371,-0.37962,0.10939,-0.10655,0.55499,-0.27739,0.15892,-0.24726,0.02135,-0.24270,0.18463,-0.63645,0.16747,-0.15463,0.32618,-0.40045,0.36176,-0.34054,0.84061,0.04013,0.34744,-0.10919,0.10033,-0.49924,0.54110,-0.39567,0.23949,-0.08550,0.00811,-0.68694,0.25810,-0.56618,0.18367,-0.09007,0.25143,-0.53925,0.52173,-0.40516,0.36341,-0.51231,0.30126,-0.53971,0.40420,-0.58384,0.51035,-0.25524,0.93052,0.20170,0.26604,-0.11294,0.51291,-0.46671,0.16025,-0.12880,0.02113,-0.61923,0.49298,-0.28716,0.30055,-0.10828,0.45552,-0.36526,0.28865,-0.33035,0.70180,-0.42773,0.43514,-0.28007,0.09139,-0.53607,0.38627,-0.68160,0.22474,-0.29012,0.42120,0.08977,0.55397,-0.41011,0.31768,-0.70506,0.13755,-0.24561,0.19123,-0.32363,0.16549,0.04606,0.54514,-0.60820,0.06276,-0.13975,0.48378,-0.28080,0.28739,0.04709,0.69562,-0.13101,0.61355,-0.41052,0.01920,-0.25573,0.23784,-0.16884,0.81356,-0.34443,0.28318,-0.35393,0.37836,-0.03816,0.60300,-0.26169,0.55644,0.05800,0.15610,-0.43201,0.15649,-0.36626,0.18447,-0.08396,0.41475,-0.09246,0.49479,-0.58635,0.21206,-0.25460,0.40167,-0.19973,0.15894,-0.53156,0.41960,-0.33189,0.71692,-0.19070,0.48201,-0.08343,0.44419,-0.04471,0.36080,-0.28026,0.77869,0.10366,0.28804,-0.09100,0.67109,-0.05999,0.61244,-0.30608,0.33442,-0.31683,0.58782,-0.12435,0.51601,-0.14282,0.34725,-0.62046,0.17035,-0.15344,0.46470,-0.10102,0.30627,-0.41505,0.67600,-0.30820,0.74593,0.04321,0.69639,-0.04900,0.33003,0.09279,0.50492,0.00773,0.72974,-0.04814,0.43333,-0.33968,0.00041,-0.58363,0.43884,-0.00754,0.58635,-0.52835,0.13978,-0.34099,0.12777,-0.70008,0.41357,-0.40066,0.44205,-0.07946,0.19575,-0.44523,0.25982,-0.16011,0.33649,-0.04227,0.20950,0.01409,0.17396,-0.11750,0.45377,-0.27380,0.42584,-0.45906,0.69076,-0.17350,0.51065,-0.30866,0.11075,-0.61249,-0.01466,-0.24695,0.28214,-0.35789,0.34898,-0.32297,-0.20215,-0.46468,0.43098,-0.22786,0.58425,-0.30403,0.83175,-0.41891,0.74340,-0.07594,0.63347,-0.02474,0.40603,-0.22808,0.49950,-0.12345,0.08688,-0.02728,0.65361,-0.17242,0.41819,-0.44646,0.41682,-0.22071,0.43939,-0.40282,0.45730,-0.49519,0.34197,-0.56155,0.39947,-0.55382,0.40209,-0.30884,0.23562,-0.03316,0.29157,-0.55220,0.45916,-0.57199,0.43896,-0.26364,0.51451,-0.29206,0.21883,-0.08343,0.08256,-0.19590,0.64872,-0.58506,0.21033,-0.71434,0.58232,-0.13167,0.26794,-0.24231,0.40242,-0.29557,0.42989,-0.01453,0.29586,-0.24885,0.36176,0.06114,0.21141,-0.22983,0.55031,-0.44509,0.29646,-0.09781,0.49509,-0.67528,0.27711,-0.24028,0.11660,-0.52332,0.22247,-0.31911,-0.00101,-0.23036,0.21381,0.04155,0.30940,0.01545,0.39547,-0.10693,0.26135,-0.23650,0.56349,-0.00859,0.41561,0.03005,0.46398,-0.03879,0.34455,-0.67077,0.54798,-0.06769,0.18726,-0.04667,0.33930,-0.46407,0.25354,-0.29761,0.35844,-0.11900,0.07698,-0.25020,0.24720,-0.11689,0.39223,-0.26916,0.31449,-0.61254,0.07773,-0.21314,0.34656,-0.01595,0.01935,-0.44836,0.10172,-0.23157,0.06598,-0.15129,0.26516,-0.40515,0.50406,-0.34012,0.17480,-0.69030,0.10640,-0.53796,0.34294,-0.66160,0.09152,-0.19823,0.32803,-0.66687,0.32254,-0.04608,0.18906,-0.29282,0.49488,-0.02824,0.05785,-0.69002,0.29391,-0.47120,0.43024,-0.04488,0.47536,-0.30630,0.21093,-0.24392,0.36632,-0.27142},
