



double hiddenWeights [20][725] =
{
{ -0.14902,0.56884,-0.55494,0.13284,-0.34390,0.00503,-0.59250,0.02950,-0.27920,0.34917,-0.47930,0.63481,-0.50395,0.64227,-0.44694,0.31296,-0.35027,0.61655,-0.28257,0.42543,-0.32993,0.46597,-0.00097,0.11887,-0.69373,0.31098,-0.37979,0.52571,-0.20436,0.45179,-0.29190,0.29649,-0.43720,0.16126,-0.54683,0.19897,-0.03620,0.04948,-0.59090,0.18060,-0.33050,0.16800,-0.13946,0.61337,-0.62297,0.39684,-0.46072,0.09392,-0.07962,0.13933,-0.04564,0.53850,-0.51237,0.42857,-0.03677,0.58708,-0.52048,0.48837,-0.60324,0.57922,-0.08082,0.25138,-0.57956,0.47513,-0.33579,0.43403,-0.68497,0.28090,-0.35304,0.36753,-0.72733,0.15600,-0.32931,0.10106,-0.46079,0.16681,-0.26898,0.41398,-0.29566,0.62547,-0.39012,0.25545,-0.33629,0.27076,-0.65760,0.02277,-0.44916,0.16785,-0.06746,0.33196,-0.65589,0.06437,-0.53922,0.12223,-0.29587,-0.43154,-0.82057,-0.19615,-0.81222,-0.05357,-0.46537,0.64606,0.00268,0.31634,-0.68273,-0.33017,-0.41529,-0.12043,-0.71607,0.58468,-0.51298,0.04315,-0.18695,0.54159,-0.45817,0.44049,-0.36795,0.63303,-0.37823,0.54217,-0.34321,0.18042,-0.70990,-0.21881,-0.57869,-0.19126,-0.78612,0.10834,-0.70851,0.15348,-0.05073,0.86575,0.27604,0.48322,-0.43712,0.00325,-0.66374,0.45306,-0.34154,0.39480,-0.41934,0.39564,-0.21017,0.05210,-0.50721,0.13074,-0.63270,0.48759,-0.32057,0.26757,-0.03197,0.50789,-0.30787,-0.11253,-0.68608,-0.56779,-1.34414,0.43805,0.09618,0.48721,-0.00979,0.42893,-0.43442,0.55057,-0.58968,0.33453,-0.53727,0.05464,-0.42881,0.41788,-0.17235,0.15645,-0.33814,0.11561,-0.54094,0.64689,0.26597,0.83486,0.00018,0.81448,0.04063,0.21854,-0.69456,-1.18238,-1.08720,0.35505,-0.01849,0.28116,0.24363,0.51251,0.15927,0.88533,-0.09428,-0.04751,-0.28034,0.13101,-0.40602,0.18427,-0.61456,0.20508,-0.28163,0.42599,0.30846,0.56547,0.19427,0.64151,0.14982,0.25933,-0.23705,0.18497,-0.91565,-1.14289,-1.40015,-0.20748,0.22423,0.76106,0.54542,0.72883,0.41905,0.72949,-0.33959,-0.00540,-0.36267,0.11008,-0.51588,0.35635,-0.16122,0.62175,-0.38937,0.34140,-0.09621,0.39905,0.53876,0.13454,-0.17386,0.27433,-0.18539,-0.06392,-1.67651,-1.78927,-2.09127,-0.44283,0.19717,0.98664,0.29284,0.96474,-0.09985,0.49619,-0.85463,-0.39157,-0.92499,0.49744,-0.21973,0.22683,-0.35451,0.14785,0.20173,0.55898,-0.57707,-0.08914,-0.27744,-0.28909,-0.71944,-0.88773,-1.29918,-0.38530,-1.84324,-2.32535,-1.06153,1.67977,-0.08435,0.59752,-0.70700,0.35956,-0.10380,-0.19678,-1.12188,-0.23741,-0.93770,0.25986,-0.13011,0.48369,-0.22825,0.25280,-0.10052,0.55186,-0.71915,-0.61121,-1.35037,-0.98184,-1.34060,-1.04504,-1.61862,-1.01390,-2.47774,-1.31150,0.38734,1.62834,0.53309,0.28536,-0.04307,0.12795,-0.63647,0.41245,-0.70505,0.09878,-0.90547,0.46099,-0.49681,0.08048,-0.30325,0.28223,-0.55026,0.01794,-0.87470,-0.69729,-1.78670,-1.25135,-1.65434,-0.79965,-0.98738,-0.48449,-1.78219,0.40881,1.09584,1.43194,0.67831,0.69585,0.02252,0.27671,-0.24545,0.61949,-0.61658,0.23534,-0.30775,0.32913,-0.29267,0.52462,-0.06649,0.44443,-0.25473,-0.15511,-1.51958,-0.36570,-1.15971,-0.67664,-0.99606,-0.11455,-0.23120,-0.03486,-0.53253,0.22711,0.35602,1.48088,0.25360,0.43605,-0.57820,-0.06221,-0.21978,0.45708,-0.65319,0.57625,-0.44985,0.38314,-0.62553,0.24585,-0.34120,0.50099,-0.69220,-0.16743,-0.58134,-0.33946,-0.27278,0.31081,-0.44160,0.65135,0.49751,0.78900,0.11082,-0.11927,-0.22802,0.73840,-0.10928,0.08325,-0.51648,0.52920,0.21780,0.18140,-0.85182,0.09645,-0.14723,0.31117,-0.17804,0.12755,-0.34152,0.10644,-0.31672,0.70623,-0.16188,0.62474,0.50483,0.82138,0.47094,0.79574,0.66337,1.67174,-0.19580,-0.04134,-0.29222,0.50790,0.58867,0.61271,0.89720,1.02246,0.17854,0.27489,-0.50388,0.32172,-0.04093,0.26956,-0.25647,0.03350,-0.16519,0.51186,-0.30346,0.31446,0.31417,1.52516,0.50607,1.29536,-0.15130,-0.24533,-0.31465,1.11977,0.33425,0.84304,0.03360,0.96716,0.45668,1.35421,1.06568,1.49105,1.08037,1.00357,-0.11500,0.24049,-0.44170,0.31020,-0.20127,0.50051,-0.19975,0.50682,0.05941,0.78371,0.09887,0.99348,0.51581,0.42357,-0.48724,-0.57610,-0.16658,1.18038,0.55333,1.26404,0.57169,0.54279,1.20174,1.75378,0.99928,1.50200,0.65343,0.38119,-0.11721,0.17848,-0.63955,0.07203,-0.19553,0.18076,-0.09771,0.47272,0.03735,0.79552,0.04141,0.37486,-0.15911,0.22086,-0.30319,-0.16558,-0.41414,0.33938,-0.12980,1.21657,1.21161,0.87558,0.77183,0.39320,-0.25120,-0.02022,-0.57926,0.37695,-0.73710,0.37769,-0.87132,0.59173,-0.67785,0.47639,-0.48387,0.26209,-0.34363,0.88186,0.10816,0.27299,-1.23411,-0.60133,-0.87209,-0.43622,-1.16571,0.42498,-0.27885,0.53811,-0.43528,-0.05524,-0.14760,-0.45288,-1.55625,-0.63466,-0.70365,-0.07549,-0.52224,0.08944,-0.57712,0.08209,-0.38032,0.64176,-0.52673,0.42078,0.27663,1.14539,0.48932,0.11188,-0.79683,-0.81476,-1.39566,-1.07057,-1.75470,-1.42841,-1.53293,-0.35604,-0.99479,0.24754,-0.26693,-0.01289,-0.85697,0.05861,-0.68475,-0.47698,-0.68710,0.27877,-0.47034,0.68258,-0.56983,0.45477,0.00196,0.62198,-0.07364,0.63197,0.05899,0.43325,-0.68374,-0.35766,-1.00842,-0.20115,-0.98575,-0.76345,-1.24486,-0.66859,-0.25732,-0.00617,-0.30680,0.59118,-0.47628,0.17466,-0.60952,-0.25706,-0.54456,0.06047,-0.63328,0.03263,-0.60961,0.11965,-0.61459,0.26231,0.27568,1.18899,0.41906,0.90844,-0.11522,0.07337,-0.48928,0.00918,-0.07712,0.51947,0.00924,0.40995,-0.44622,0.29775,-0.43965,-0.09072,-0.14546,0.38245,-0.29369,-0.07211,-0.82572,0.06751,-0.12337,0.46418,-0.69340,0.34395,-0.22017,0.28804,-0.26316,0.69424,-0.07666,0.52269,0.18358,0.26458,-0.66786,0.49526,0.03814,0.21562,-0.23622,0.12390,-0.44300,0.08046,-0.21273,0.47188,0.09919,0.13515,-0.66163,-0.29870,-0.33164,0.06230,-0.64042,0.12818,-0.36036,0.14686,-0.00765,0.54138,0.05027,0.87325,0.32376,0.76035,0.29465,0.59186,-0.13207,0.47205,0.02615,-0.11368,-0.61430,-0.41962,-0.62228,0.71493,-0.33465,0.43222,-0.95739,0.00630,-1.04406,0.24991,-0.46651,0.28124,-0.18715,0.08822,-0.36918,0.68441,-0.47764,0.01929,-0.27049,0.43383,-0.13412,1.14545,-0.14803,0.20149,-0.70548,0.35981,-0.30602,0.32905,-0.73345,0.05818,-0.46724,0.06751,-0.56892,-0.26405,-1.19514,-0.21720,-0.72801,0.35950,-0.10940,0.07960,-0.08284,0.03506,-0.57975,0.51466,-0.06746,0.51925,-0.17889,0.49406,-0.54791,0.66111,-0.43309,0.16325,-0.24054,0.10614,-1.00083,-0.18348,-1.20955,0.09772,-0.75925,-0.53791,-1.63206,-0.66867,-1.09326,-0.62371,-0.87719,0.44691,-0.17813},
{ 0.73124,0.61496,-0.18834,0.66425,-0.40551,0.20200,-0.66512,0.40584,-0.16861,0.31108,-0.07197,0.67951,-0.68054,0.52255,-0.49214,0.68607,-0.29678,0.42205,-0.26111,0.17101,-0.59037,0.57256,-0.12878,0.68056,-0.23654,0.17458,-0.38335,0.14050,-0.28571,0.56454,-0.45900,0.34087,-0.15022,0.53983,-0.19371,0.02773,-0.27482,0.29878,-0.52833,0.50364,-0.57498,-0.00302,-0.53612,0.66900,-0.03948,0.20076,-0.10334,0.52858,-0.35941,0.44323,-0.14506,0.24502,-0.31180,0.52588,-0.23408,0.19647,-0.11676,0.33067,-0.34476,0.41396,-0.12057,0.09358,-0.60391,0.56431,-0.43045,0.05405,-0.68854,0.22695,-0.20313,-0.01094,-0.89611,0.10848,-0.86301,0.00279,-0.34492,0.34196,-0.10652,0.63954,-0.14508,0.54754,-0.40146,0.52721,-0.62954,0.18280,-0.66955,0.58417,-0.56758,0.44437,-0.25951,0.39611,-0.47233,0.22337,-0.39707,0.48909,-0.13996,0.45657,-0.99845,-0.24974,-0.61716,-0.55298,-0.33272,0.28060,-0.65534,0.20412,-0.40598,-0.03413,-0.55057,0.29673,-0.27109,0.25382,-0.64779,0.46364,-0.69433,0.56359,-0.49161,0.45318,0.00970,0.26057,0.02749,0.21167,-0.37675,0.33461,-0.20812,0.58241,-0.08768,0.35680,-0.52138,0.51101,-0.07729,0.58160,0.07322,0.92657,-0.31683,0.26261,-0.25852,0.12586,-0.50893,0.59905,-0.34707,0.19912,-0.60774,0.68328,-0.36033,0.33586,-0.54180,0.45893,0.07082,0.29378,-0.11052,0.30294,0.37647,1.28746,-0.32041,0.08673,-1.12139,-0.24714,-0.74484,0.58369,-0.21953,0.29215,-0.07345,0.71569,0.14751,0.73186,-0.22838,0.38741,0.00628,0.37091,-0.14522,0.48190,-0.36466,0.17084,-0.30107,0.67083,-0.23020,0.84509,-0.34543,0.73622,0.39818,1.25412,0.19169,0.00622,-0.79072,0.09486,-0.49057,0.84764,0.18976,0.71829,-0.21967,0.75170,-0.09816,1.03921,0.23237,0.56395,0.03094,0.41583,-0.49879,0.09281,-0.23312,0.32921,-0.07184,0.39286,0.40392,0.91106,-0.31990,0.77725,0.05668,0.84125,-0.20193,0.30315,-0.66648,0.00742,-0.22929,0.63560,0.40005,0.51930,0.00624,0.48318,-0.11279,0.50849,-0.44541,1.00153,0.10259,0.44130,-0.06062,0.41232,-0.64461,0.60905,-0.25476,0.90204,0.25868,0.92240,0.11064,0.66121,0.54179,0.67346,-0.26681,-0.07498,-0.51224,0.07107,-0.94138,-0.03083,0.04204,0.57580,0.11513,0.75639,-0.39452,0.45881,-0.68259,0.72656,0.54922,0.45881,-0.16269,0.61087,-0.61089,0.42176,-0.45229,0.77737,0.34475,0.41553,0.02509,0.65499,-0.34953,-0.28465,-0.70999,-0.31599,-0.26966,0.16907,-0.20205,0.09675,-0.36635,0.30059,-0.84278,0.64826,-0.00442,0.66289,-0.17481,1.22877,0.18298,0.30952,-0.51392,0.51169,-0.44000,0.38243,-0.38543,0.94326,-0.14734,0.44725,-0.03035,0.58243,-0.31855,0.23732,-0.44261,-0.08972,0.14680,0.07167,0.31568,0.56518,-0.42135,0.00077,-0.94154,0.78817,0.02656,0.27073,-0.48032,0.66372,0.30964,0.36082,-0.18705,0.07600,-0.61136,0.26041,0.20526,0.35971,-0.02113,0.69896,0.38304,0.77047,-0.06954,0.79829,0.08909,1.00998,0.50146,1.15415,0.67695,1.60788,0.61051,0.08904,-0.60586,-0.54580,-1.27283,-1.22989,-1.02626,-0.11577,-0.11884,0.21304,-0.60486,0.27406,-0.14356,0.60758,-0.21688,0.28404,-0.04675,0.48014,0.06246,1.07545,0.24232,1.17386,1.00153,1.12162,0.16655,1.04066,0.46397,1.02981,0.56916,0.62144,-0.28942,-0.32642,-1.34976,-1.32201,-1.03376,0.13948,-0.36177,0.05416,-0.41861,0.54212,-0.28662,0.22685,-0.39740,0.47740,-0.37690,0.13089,-0.21766,0.40782,-0.25150,0.59118,0.35320,1.14699,0.12125,0.79282,-0.45043,0.88401,0.88429,0.86116,-0.33347,-0.29425,-0.71392,-0.71674,-1.38098,-0.17104,-0.61372,0.51839,-0.62622,0.10156,-0.28541,0.56031,-0.30216,0.16557,-0.70336,-0.34222,-0.50060,0.17069,-0.24654,1.06825,-0.13969,1.45906,0.00652,0.94470,-0.09365,0.76413,0.35934,0.86267,0.07469,0.41190,-0.03452,0.67018,-0.52228,0.28740,-0.58253,0.02741,-0.05046,0.26570,-0.32367,0.31937,-0.55316,-0.08595,-1.44816,-0.48710,-1.22515,-0.94795,-0.64559,0.36329,0.35217,1.24223,0.01546,-0.30963,-0.40642,0.56350,0.65508,1.05765,0.53818,1.24898,0.18791,0.81021,-0.04667,0.48139,-0.22348,0.42174,-0.24757,0.09036,-0.45917,0.57521,-0.31911,0.30887,-1.39100,-1.73609,-1.79141,-1.87162,-2.11852,-0.89889,-0.60405,0.83553,0.36463,0.33444,-0.91407,0.02002,-0.12575,0.40845,-0.39971,-0.09243,0.08027,0.58855,-0.05002,0.57404,-0.57422,0.11002,-0.44396,0.01533,-0.12830,0.33803,0.00126,-0.01995,-1.34485,-1.12304,-1.90611,-2.17482,-3.41865,-2.49139,-2.59748,-1.00658,-1.05126,0.01696,-0.00212,0.82702,0.01825,0.24869,0.18463,-0.18622,0.11765,0.63082,0.06573,-0.16591,-0.75991,0.07592,-0.28699,0.08624,-0.40857,0.35241,0.50649,0.70989,-0.82536,-0.58885,-1.50504,-1.36386,-2.85946,-2.37320,-3.24470,-2.28644,-2.11963,-0.33452,-0.47880,0.58101,0.15240,0.65949,-0.35133,0.03638,-0.33499,0.60706,-0.52013,-0.15066,-0.21517,0.45733,-0.07127,0.04989,-0.63025,0.40787,0.18388,0.78232,-0.15443,0.15097,-0.80126,0.36947,-0.61538,-0.82492,-2.10458,-1.68038,-1.48934,-0.19586,-0.57127,-0.24575,-0.67424,0.43415,0.06343,0.38366,-0.47686,0.26181,-0.28576,0.32184,-0.64628,0.33036,-0.68785,0.21330,-0.26844,0.25277,0.14996,0.95232,-0.32995,0.14069,-0.50168,0.51802,0.01877,0.38960,-0.96262,-0.78508,-0.85364,-0.58941,-0.75491,-0.31523,-0.15871,0.04441,-0.38039,0.34336,-0.04556,0.22305,-0.76732,0.08646,-0.73191,0.50745,-0.02656,0.69055,-0.00752,0.22019,-0.19130,0.42480,-0.25471,0.26066,-0.54041,0.63257,0.05338,0.06474,-0.45246,0.28028,-0.26714,0.24712,0.07726,0.47975,0.12974,0.56401,-0.06470,0.45955,-0.16167,0.10394,-0.31744,0.39201,-0.12168,0.09002,-0.44006,0.60765,-0.38452,0.28993,-0.05967,0.39417,-0.12695,0.03875,-0.96214,-0.20905,-0.58813,0.19040,-0.41598,0.53852,-0.48758,0.67796,-0.27063,0.92316,0.16879,0.84939,-0.03381,0.34681,-0.71229,0.21623,-0.93927,0.35547,-0.54000,0.04720,-0.02399,0.01027,-0.42550,0.25505,-0.50595,0.38884,0.07917,0.29587,-0.17662,0.12957,-0.35668,0.37480,-0.98073,-0.14659,-0.41904,0.37574,-0.19485,0.16307,0.03172,0.80709,-0.38460,-0.24785,-1.22829,0.01644,-0.36782,0.01530,-0.05614,0.15811,-0.39788,0.12931,-0.57572,0.06679,-0.03993,0.81485,0.42036,1.10591,0.75720,0.43291,-0.04591,0.97176,0.27471,0.22841,-0.61881,0.49023,-1.07557,0.42383,0.08415,0.45531,-0.51629,0.37308,-0.29861,0.38967,-0.23443,0.57009,-0.02339,0.17511,-0.05247,0.63430,-0.36289,0.07012,-0.16272,0.78062,-0.12143,0.98213,0.21100,1.46477,0.44652,1.10528,0.75377,1.37629,0.60614,1.19278,0.01198,0.45484,-0.61297,0.65261,-0.36065,0.32429,-0.14400,0.47370,-0.60715},
{ 0.02630,0.60139,-0.30584,0.12081,-0.46512,0.35910,-0.69864,0.18498,-0.22165,0.58701,-0.11249,0.58640,-0.32437,0.09204,-0.42392,0.67095,-0.20265,0.47977,-0.11881,0.48898,-0.35328,0.24221,-0.36143,0.63963,-0.28814,0.13076,-0.44171,0.37824,-0.30616,0.66296,-0.52617,0.30711,-0.45889,0.59723,-0.32231,0.48309,-0.03316,0.28972,-0.20097,0.48849,-0.65114,0.31853,-0.26478,-0.02044,-0.03039,0.38126,-0.45894,0.07047,-0.56485,0.12470,-0.63542,0.47050,-0.08593,0.61800,-0.18057,0.27056,-0.13511,0.67749,-0.32195,0.69127,-0.28960,0.28546,-0.00524,0.29109,-0.12226,0.48588,-0.49931,0.11099,-0.67535,0.46530,-0.79222,0.30863,-0.18059,0.12793,-0.65912,-0.17066,-0.27919,0.15748,-0.48221,-0.14735,-0.12388,0.04092,-0.15784,0.06869,-0.15199,0.15389,-0.65244,0.13120,-0.68262,0.26089,-0.41823,0.21843,-0.14048,0.76314,-0.42301,0.63060,-0.04727,0.44808,0.04649,0.75375,-0.42588,0.23354,-0.79041,-0.47081,-0.88093,-0.57880,-0.92303,0.08690,-0.66108,0.20915,-0.57132,0.53560,-0.58798,0.31176,-0.28621,0.64902,-0.19627,0.55403,-0.59164,0.37252,-0.30692,0.72757,-0.05606,0.94019,0.34917,1.38456,0.42488,0.69753,0.50765,0.67297,-0.34855,0.24629,-0.35138,-0.45049,-0.66797,-0.00822,-0.65384,0.45234,-0.40235,0.00882,-0.09841,0.38363,-0.59230,0.13706,-0.18295,0.22455,-0.04258,0.48648,-0.16413,0.64376,0.33433,0.92125,0.66358,1.00003,0.23593,0.49532,0.08791,0.88738,0.36550,0.59710,-0.25833,0.66790,-0.15434,0.38049,-0.53310,0.00403,-0.31501,0.59236,-0.62947,0.10965,-0.46248,0.50710,-0.08144,0.86538,-0.09435,0.61503,-0.13110,-0.11124,-0.16902,0.35573,-0.03020,0.52886,-0.34326,0.21902,0.10712,0.29221,-0.27837,0.51952,0.05923,0.60288,-0.25729,0.31815,-0.47045,0.30633,-0.45124,0.22844,-0.33740,0.34669,-0.00816,0.07585,-0.46292,0.49694,-0.33106,0.58969,-0.48636,-0.25336,-0.44580,-0.54397,-0.00339,-0.13926,-0.43515,0.54592,-0.36690,0.43340,-0.36455,0.53366,0.10004,0.77419,-0.14053,0.62149,-0.04113,0.80433,0.53960,0.21145,-0.48216,0.58024,-0.15918,0.25477,-0.61054,0.67535,-0.15671,0.46596,-0.60755,-0.40883,-0.58266,0.12869,0.09529,0.28544,0.20445,1.05068,0.19188,-0.02946,-0.65027,0.18475,-0.23843,0.44195,0.20325,0.90151,-0.03102,1.06395,0.61286,0.31915,-0.01114,0.57072,-0.60664,0.14868,-0.32429,0.19736,-0.01345,0.63349,-0.64929,0.40908,-0.17204,0.47411,0.09117,0.60135,-0.02288,0.51950,-0.62290,0.26538,-0.41779,0.25395,-0.12277,0.65980,0.18665,1.07485,0.12271,0.74747,-0.03423,0.81612,0.04243,0.14132,-0.31345,0.33384,-0.57201,0.35013,0.13149,0.58812,-0.23765,0.20972,-0.10671,0.09999,-0.85818,0.11484,-0.73843,0.52899,-0.44427,0.28127,-0.40780,0.37006,-0.53412,0.23905,-0.55845,-0.09441,-0.45430,0.60001,-0.05927,0.32618,-0.32323,0.37431,-0.03969,0.54871,-0.33727,0.43509,-0.47117,0.14288,-1.04449,-0.74238,-0.97296,-0.65548,-1.12175,-0.23935,-0.86851,0.48670,-0.40253,0.07366,-0.56176,0.68551,-0.23047,-0.07585,-0.88622,-0.80138,-1.49754,-0.15412,-0.36301,0.62827,-0.27369,0.31902,-0.03146,0.41707,-0.43081,0.07455,-1.09871,-0.92809,-1.67052,-0.89854,-1.54223,-0.78888,-1.28913,-1.18407,-0.75243,1.26226,0.34351,-0.64220,-0.97450,0.20790,-0.68838,0.01399,-0.71848,-0.79187,-1.71037,0.00973,-0.61408,0.69056,-0.07424,0.55394,-0.02581,0.54274,-0.36645,0.02441,-0.95963,-1.47002,-1.79477,-0.87531,-1.27736,-0.39867,-1.19843,-0.27718,0.91768,1.51490,-0.21048,-0.36873,-0.73362,0.06472,-0.45120,-0.34851,-0.91640,-0.83824,-1.38047,-0.60757,-0.36592,0.37396,-0.62994,0.10587,-0.45536,0.49949,-0.70994,-0.09516,-1.65453,-1.06763,-1.42008,-0.27928,-0.32147,-0.63403,-1.42624,0.77906,1.26602,1.72501,-0.25923,0.15360,-0.93417,-0.13793,-0.96452,-0.35259,-1.17719,-0.77676,-1.75105,-0.10570,-0.57221,0.33500,-0.38845,0.13868,-0.44681,0.71157,-0.14137,0.21009,-1.13216,-0.17950,-1.23314,-0.17148,-0.23671,-0.30868,-1.05516,0.45747,0.98533,1.07865,-0.28558,-0.06685,-1.32040,-0.38747,-1.00540,-0.87179,-0.91438,-0.59274,-0.74645,-0.02371,0.14276,0.62145,-0.20956,0.17156,-0.12145,0.41794,0.02227,0.92277,-0.15013,0.16502,-0.64751,-0.26442,-0.70452,-0.43630,-1.09894,-0.28723,0.51519,0.84439,-0.13713,0.19892,-0.48368,-0.07524,-0.44964,0.38032,0.16559,0.12670,-0.07828,0.58331,0.19741,0.67665,-0.11617,0.06581,-0.00165,0.41693,-0.09723,1.37503,0.43398,1.22216,0.16897,0.59816,-0.08137,-0.14050,-0.93214,-0.03383,-0.27582,0.82337,0.08122,0.14110,0.06564,0.21402,-0.20362,0.40793,-0.08147,0.81299,0.38359,1.29598,0.33720,0.48228,0.01736,0.19841,-0.46475,0.57000,0.02490,1.42785,0.56464,1.59127,0.26997,-0.01830,-0.27674,0.25898,-0.50095,0.56461,-0.30327,0.27949,0.06005,0.79658,0.08114,0.81701,-0.40270,0.42812,-0.09880,0.77211,0.74085,1.74830,0.49141,0.58916,-0.29850,0.57528,-0.41829,0.67751,-0.13741,1.19443,0.96032,1.55392,0.36305,0.89140,-0.05789,0.52906,-0.26020,-0.03944,-0.16715,-0.33221,-0.18244,0.58684,0.33932,0.64134,-0.36428,0.23685,0.02826,1.03614,0.60357,1.25026,-0.15438,0.29527,-0.13282,0.64930,-0.52381,0.64927,-0.24315,0.64011,0.44047,1.04219,0.16368,1.08963,-0.00483,0.13508,-0.35968,-0.10036,-0.71183,-0.44014,-0.67301,0.20040,-0.31932,1.02103,0.05517,0.38264,0.47305,1.47762,0.38873,1.05228,-0.45547,0.07961,-0.55256,0.64719,-0.56087,0.39980,-0.25104,0.94234,0.48397,1.16991,0.83170,0.74543,0.37651,0.18392,-0.05145,0.10376,-0.33727,0.02003,-0.73162,0.07506,-0.34029,0.03656,-0.51685,0.49698,0.20336,0.83245,0.30083,0.82011,-0.38705,0.31424,-0.65650,0.35933,-0.07457,0.38884,-0.49465,0.46281,-0.30524,0.59357,0.09356,0.52120,0.14867,0.20695,-0.14419,0.30619,-0.51457,0.26096,-1.20000,-0.30244,-0.41223,0.72285,-0.25364,0.72966,0.14107,0.97039,0.09900,0.44830,-0.42139,0.14347,-0.60831,0.28068,-0.01268,0.35228,-0.60585,0.39794,-0.25586,0.84042,-0.20235,0.53113,-0.77248,-0.14702,-0.91066,-0.29460,-0.94346,-0.33138,-0.46625,0.14424,-0.19861,0.22908,0.19277,0.88470,-0.22181,0.43612,-0.48842,0.51680,0.00089,0.14894,-0.66053,0.25285,-0.69331,0.24012,-0.13700,0.59452,-0.25502,0.47400,-0.38516,-0.01677,-1.22641,-0.55379,-1.07273,-0.04777,-0.66343,-0.20296,-0.57847,0.04521,-0.80608,0.11184,-0.11202,-0.11000,-0.20162,-0.08867,-0.65060,0.10255,-0.63325,0.42589,-0.37280,0.64000,-0.33535,0.59043,-0.39855,0.01080,-0.34530,-0.15435,-0.68961,0.01189,-0.91890,0.23438,-0.30401,0.40096,-0.19127,0.47592,-0.77976,-0.04227,-0.11571,0.18701,-0.57736,0.48942,-0.60006,0.23222,-0.38539},
{ 0.06887,0.20149,-0.53970,0.20192,-0.10572,0.28697,-0.12474,0.02434,-0.35332,0.13654,-0.18322,0.00107,-0.42878,0.63545,-0.13957,0.08994,-0.27812,0.51687,-0.68306,0.19467,-0.01488,0.20845,-0.68690,0.29550,-0.02580,0.36124,-0.19568,0.14295,-0.08301,0.03199,-0.09911,0.40060,-0.35881,0.66123,-0.01157,0.57433,-0.37453,0.33802,-0.58911,0.64881,-0.28937,0.58353,-0.27799,0.35059,-0.23703,0.11763,-0.61687,0.48278,-0.56678,0.13462,-0.69319,0.35404,-0.15527,0.10774,-0.56999,0.37715,-0.30110,0.31998,-0.43420,0.08781,-0.19158,0.54885,-0.68432,0.40985,-0.29677,0.52590,-0.54312,0.44665,-0.21945,0.37098,-0.56735,0.40510,-0.07854,0.13288,-0.28041,0.60786,0.13997,0.47156,-0.12496,-0.00068,-0.39013,0.59865,-0.37174,0.47103,-0.35995,0.27408,-0.47031,0.05915,-0.20439,0.41595,-0.53667,0.38535,-0.52166,0.09588,-0.35016,0.29251,-0.09022,0.49929,-0.34239,0.67022,-0.37607,0.83435,-0.05580,0.47097,-0.29013,0.76299,-0.23410,-0.03369,-0.34330,0.37903,-0.24775,0.24017,-0.21275,0.02840,-0.53962,0.24657,-0.15856,0.47978,-0.67073,0.39958,-0.58521,0.45335,-0.47603,0.65432,-0.14826,0.13012,-0.26885,0.67015,-0.06165,0.58654,0.18126,0.79530,-0.01356,0.77680,-0.15635,0.21609,-0.05532,0.03805,-0.01135,0.63074,-0.03194,0.20971,-0.14419,0.69888,-0.52892,0.15336,-0.18002,0.71391,0.07020,0.63746,0.08918,0.51658,-0.43471,0.15939,0.32099,0.44014,0.14479,1.05817,0.08658,0.88630,0.12056,0.75457,-0.15556,0.48938,-0.25936,0.45626,-0.64014,0.05272,-0.39787,0.51680,-0.28345,0.46969,-0.48885,0.23912,-0.42252,0.02961,-0.27368,0.15500,-0.10909,0.33524,-0.42003,0.41026,-0.17270,0.68448,-0.09692,0.73896,0.27494,0.97310,0.42943,0.67358,0.21271,0.30571,-0.71695,0.16783,-0.00611,0.69330,-0.42648,0.55017,-0.40965,0.15280,-0.53038,0.45518,-0.47501,0.56387,-0.30979,0.46735,-0.32028,0.65147,-0.18903,0.44866,-0.06057,0.42516,-0.12847,0.96497,-0.13160,0.64343,-0.26061,0.38146,-0.80661,0.08050,-0.49224,0.31778,-0.60271,0.38331,-0.21886,0.42766,-0.11374,0.36990,-0.20425,0.37884,-0.44641,0.60127,0.12638,0.45160,-0.03174,0.52830,0.06897,0.85298,0.09292,0.63578,-0.52624,0.06970,-0.37505,0.21707,-0.81891,-0.04147,-1.19205,-0.02019,-1.17863,-0.23624,-0.53519,0.53403,-0.68761,0.47455,-0.11748,0.34364,-0.27547,0.63526,-0.11864,0.17130,-0.34513,0.51523,0.08490,0.69382,-0.38485,0.86696,-0.26695,0.63401,-0.14404,0.08595,-0.50873,-0.20625,-0.54350,-0.36670,-1.35901,-0.71013,-1.20999,-0.62602,-1.32758,-0.17245,-0.15463,0.68900,-0.67843,0.18196,-0.57806,0.63083,-0.44569,0.45653,0.11021,0.56505,-0.48737,0.91865,-0.33570,0.67267,-0.16718,0.42077,-0.74087,0.15110,-0.71692,-0.23338,-0.84565,-0.00990,-0.89596,-0.38389,-1.26617,-0.45763,-1.33984,0.41468,-0.17000,0.08347,-0.01766,0.51486,-0.45368,0.11237,-0.53744,0.45361,-0.01217,0.79570,0.13935,0.81813,-0.21994,0.56861,0.04313,0.33006,-0.06665,0.68957,-0.07481,0.74840,0.23922,0.57133,-0.13988,0.61501,0.02747,0.55324,-0.66118,-0.07874,-0.38832,0.29319,-0.32114,0.48932,-0.48498,0.30447,-0.31172,0.51111,-0.21745,0.27014,-0.28841,0.44125,0.14091,0.31399,-0.61941,0.64231,-0.08120,0.88159,0.53842,1.05737,0.95481,1.10171,0.20941,0.81962,-0.08221,0.70615,-0.10541,0.47910,-0.24901,0.32670,-0.49631,0.20597,-0.45178,0.50376,-0.69697,0.57667,-0.40066,0.00263,-0.30239,0.44493,-0.90774,0.20484,-0.15501,0.83174,0.01979,0.99974,0.53088,1.04657,0.27347,0.76853,0.67114,1.27351,-0.05528,0.81774,-0.27821,0.49473,-0.02722,0.08066,-0.51254,0.31860,-0.19811,0.29450,-0.06620,0.48884,-0.23546,0.46501,-0.60421,0.32889,-0.32602,0.50070,-0.20118,0.82386,0.14019,0.16793,0.17087,0.84189,0.51272,0.93486,0.19106,0.90987,0.25303,0.30100,-0.36032,0.55391,-0.54443,0.22185,-0.45695,0.33206,-0.22169,0.13629,0.00767,0.23538,0.07648,0.52487,-0.39686,0.22196,-0.39559,0.20997,-0.14654,0.49553,-0.33314,0.32564,-0.51828,0.73116,0.27563,1.22436,0.25722,0.79461,0.21324,0.39931,-0.04615,0.06065,-0.47389,0.41769,-0.39774,0.49809,-0.53567,0.50805,-0.09882,0.92629,0.29249,0.63462,-0.37106,0.49401,-0.59538,0.02548,-0.01606,0.27639,-0.59593,0.10836,-1.02224,0.10558,0.42033,0.92562,-0.09871,0.75688,-0.24656,0.64335,-0.34526,0.32738,-0.45067,0.05291,-0.21328,0.18930,-0.57326,0.42001,-0.42120,-0.07460,-0.12732,0.51761,0.09208,0.73182,-0.26373,-0.01429,-0.62984,0.45513,0.12288,0.13547,-0.62888,0.12071,0.06582,1.09767,0.09335,0.97002,-0.02361,0.72566,-0.10187,0.09987,-0.66177,0.01731,-0.20856,0.34092,-0.25332,0.17600,-0.62525,-0.29640,-0.39820,0.56197,-0.06126,0.85702,-0.21584,0.28799,-0.37508,0.51136,-0.41027,0.27249,-0.17660,0.75718,-0.26484,0.79645,-0.06004,0.44456,-0.16365,0.53797,-0.44160,0.70780,-0.45578,0.04550,-0.39964,0.42535,-0.27049,-0.10885,0.07883,0.15676,-1.00905,0.05096,-0.80673,0.20041,-0.20052,0.39257,-0.10141,0.54258,-0.29217,0.60130,-0.18651,0.28455,-0.05491,0.40523,-0.13366,0.67786,-0.39655,0.39910,-0.44403,0.62676,-0.67911,0.21299,-0.62133,0.60869,-0.35697,0.65290,-0.47988,0.23914,-0.42543,0.29278,-0.41345,0.14311,-0.75809,0.21043,0.07775,0.74318,-0.01179,0.19760,-0.27009,0.19921,-0.17829,0.69348,0.08790,0.26675,-0.60620,0.64789,-0.09537,0.25946,-0.22285,0.68596,-0.64617,0.35116,-0.13905,0.29292,0.05132,0.78353,-0.22504,0.62108,0.02691,0.66847,-0.17714,0.94684,0.40281,0.92759,-0.08142,0.67606,-0.39238,0.45792,-0.07347,-0.04023,-0.12814,0.20807,-0.54523,0.28399,-0.17492,0.09576,-0.56381,0.07551,-0.66922,0.02215,-0.40688,0.70144,0.04692,0.70207,-0.15256,0.27019,-0.32517,0.43655,0.24515,0.71691,0.05816,0.38349,-0.35871,0.33876,-0.14226,0.45636,-0.58589,0.62555,-0.50090,0.37300,-0.06317,0.10374,-0.42752,0.51126,-0.45395,0.31258,-0.00586,0.48582,-0.09486,0.53216,-0.26957,0.76369,0.12003,0.53115,-0.06993,0.15695,-0.12083,0.00452,-0.49956,0.45267,-0.44696,0.46949,-0.15890,0.42742,-0.10500,0.24214,-0.01750,0.45180,-0.58645,0.43168,-0.56899,0.34858,-0.61646,0.18629,-0.61286,0.55304,-0.48052,0.07829,-0.45132,0.27888,0.02324,0.43371,-0.26922,0.53323,-0.28779,0.02495,-0.28415,-0.00721,-0.70497,0.72651,-0.44581,0.15076,-0.09229,0.40212,-0.18432,0.31235,-0.43717,0.10998,-0.39435,0.23548,-0.39952,0.33150,-0.19577,0.26035,-0.65058,0.41668,-0.11222,0.29623,-0.52451,0.37218,-0.07231,0.48700,-0.00486,0.36672,-0.29289,0.38139,0.10493,0.38419,-0.40728,0.56297,-0.40277,0.04062,-0.38620,0.19638,-0.24193},
{ -1.49801,0.39989,-0.29945,0.59285,-0.15505,0.47094,-0.26366,0.27736,-0.33562,0.12917,-0.21407,0.56338,-0.56010,0.68700,-0.19857,0.68150,-0.22536,0.57303,-0.33175,0.14219,-0.04358,0.26120,-0.36699,0.30228,-0.53228,0.09828,-0.50669,0.36965,-0.20089,0.29187,-0.58076,0.09982,-0.44219,0.02325,-0.21758,0.56535,-0.09478,0.40506,-0.18352,0.05694,-0.00454,0.26578,-0.48483,0.33542,-0.48118,0.32400,-0.17798,0.69060,-0.31864,0.59358,-0.47946,0.25282,-0.20498,0.51800,-0.10957,0.56498,-0.08811,0.37041,-0.38378,0.46870,-0.33848,0.66787,-0.66973,0.52884,-0.30886,0.42021,-0.05842,0.49235,0.26182,0.93638,0.09512,0.71865,-0.01214,0.83232,0.22812,0.67037,-0.16298,0.19589,-0.50291,0.26064,-0.30793,0.53384,-0.24461,0.12857,-0.64967,0.40303,-0.58885,0.17106,-0.03576,0.08340,-0.21079,0.70242,-0.30361,0.84051,-0.25072,1.06352,0.08633,0.93689,0.82370,1.24215,0.62362,1.11259,0.25823,0.84801,0.24230,0.85750,-0.42829,0.32288,-0.45660,0.30298,-0.55263,0.11509,-0.47945,0.42063,-0.29708,0.62080,-0.00677,0.05654,0.07368,0.83341,-0.26002,1.17830,0.17489,0.84753,0.50447,1.24020,0.21782,1.31501,0.41494,0.88795,-0.29038,0.36921,-0.68488,0.31204,-0.50198,0.23377,-0.63176,0.27855,-0.60416,0.30008,-0.64742,0.42631,-0.40999,0.62827,-0.56542,0.34105,0.11730,0.66701,-0.08254,1.17889,0.38418,0.92971,-0.27096,0.74246,0.03094,1.15566,0.43772,1.01105,-0.33673,0.38478,-0.78708,0.17684,-0.80003,-0.22169,-0.77609,0.70044,-0.16753,0.26648,-0.07255,0.29992,-0.67922,0.20563,0.05857,0.67254,-0.33854,0.67071,0.15068,0.76708,-0.21863,0.50497,0.38761,0.83038,-0.49494,0.62938,-0.13985,0.54051,-0.55943,-0.02978,-1.03783,0.26979,-0.71903,-0.09203,-0.93683,-0.12457,-0.75528,0.60196,-0.24210,0.63427,-0.04513,0.62603,-0.07394,0.63889,-0.25563,0.70325,-0.18967,0.38571,-0.29191,-0.25473,-0.60891,0.42081,-0.91923,-0.17525,-0.70602,-0.57076,-0.81628,-0.21139,-0.52986,-0.16374,-0.32869,0.03811,-1.17926,0.17085,-0.57135,0.50425,-0.61044,0.48688,-0.14340,0.55946,-0.16253,0.49357,0.28145,0.51252,-0.27370,0.21188,-0.47443,0.22403,-0.55713,0.51690,-0.43010,0.14329,-0.34239,-0.19372,-1.06415,-0.46240,-0.12811,0.16958,-0.33148,0.09533,-1.24665,0.32316,-0.33625,0.48463,-0.00840,0.27580,-0.32231,0.43984,-0.00866,0.99354,-0.03444,0.43568,-0.40007,0.21205,-0.51063,-0.16473,-1.11988,-0.20440,-1.08711,0.51347,0.01151,-0.23061,-0.84500,-0.25379,-0.80955,0.08851,-0.50315,0.73021,-0.87695,0.25662,-0.25574,0.40252,-0.37126,0.43732,-0.01710,0.70637,-0.45780,0.27532,-0.15837,0.43367,-0.37068,-0.11133,-0.87845,-0.35425,-0.63091,-0.25090,-0.81718,0.47572,-0.76856,-0.37853,-0.70603,0.20077,0.08889,0.42479,0.03572,0.58319,-0.70917,0.16988,-0.78529,0.40147,-0.43182,0.41893,-0.39919,0.07536,-0.29110,-0.13090,-0.39399,-0.24984,-0.71701,-0.93111,-0.84459,-0.55928,-1.00116,-0.60192,-0.23481,0.85097,-0.50868,-0.65468,-0.86656,0.05600,-0.29058,0.37835,-0.31373,0.22051,-0.06705,0.58707,-0.52424,0.57213,-0.51777,0.19051,-0.06811,0.53014,-0.26363,-0.19581,-0.91432,-0.41100,-1.16911,-0.45975,-0.57110,-0.49630,-0.98829,-0.42271,0.38019,1.78328,-0.09510,0.16679,-0.52966,0.18738,-0.42492,0.28359,-0.42734,0.25298,0.11322,0.73885,-0.18959,0.22885,-0.63844,0.48443,-0.08619,0.68956,-0.06564,0.08220,-0.99094,-0.88528,-1.34600,-0.82763,-0.96687,-0.34938,-0.77168,0.37652,0.65561,1.82025,0.03868,0.07181,-0.43724,-0.00835,-0.71864,0.34078,-0.49593,0.33283,-0.43597,0.76945,-0.23807,0.52532,-0.21756,0.22606,-0.46653,0.22010,-0.40144,-0.31128,-1.25138,-0.85603,-1.43267,-0.46525,-0.79022,-0.05513,-0.19638,0.41624,0.77397,1.86634,0.24698,0.07991,-1.13759,0.81599,-0.34307,0.24995,-0.60089,0.19512,-0.29981,0.47079,-0.10655,0.12308,-0.18271,0.68844,-0.28006,0.23504,-0.58785,0.09116,-0.55096,0.13272,-0.96817,-0.02264,-0.64532,0.64438,0.02436,0.45323,0.69448,1.26708,0.28977,-0.06207,-0.80566,-0.22270,-0.02732,0.80182,-0.50204,0.71082,-0.33710,0.58144,-0.11440,0.19307,-0.23827,0.25010,-0.51278,0.08356,-0.54950,0.22842,-0.58744,0.23332,-0.75263,0.02066,-0.02386,0.58980,-0.19049,0.05667,0.36313,1.20192,-0.40608,0.26200,-0.53784,-0.04960,0.32596,0.75165,-0.04265,0.78978,-0.35375,0.36652,-0.19728,0.15306,-0.07691,0.14625,-0.30520,0.51176,0.22468,0.61929,-0.54216,0.46268,0.16946,0.69276,0.08460,0.63216,-0.26046,0.32837,-0.73464,0.78391,-0.18997,0.08508,-0.05577,0.62914,-0.45905,0.72510,0.34069,0.94325,-0.08130,1.08390,-0.03342,0.45210,-0.32122,0.13667,-0.34168,0.65819,-0.35237,0.94619,-0.42794,0.56769,0.11486,1.54665,0.60207,0.79477,-0.12078,0.49784,-0.19537,0.87847,0.13277,0.56902,-0.26030,0.79372,-0.07493,0.71775,0.57586,0.94344,0.14592,0.90162,-0.35290,0.45079,-0.22134,0.37835,-0.06916,0.08774,-0.36970,0.79340,0.40287,0.83909,0.07902,0.98310,0.86414,1.25088,0.67238,1.00352,0.07328,0.41486,-0.26068,0.30675,0.42007,0.83129,0.35067,1.05811,0.62803,1.15831,0.35884,0.70830,-0.21990,0.71440,-0.51546,0.15527,-0.65979,0.31109,0.19318,1.14087,0.39985,1.14582,0.57300,1.30265,0.65636,1.14374,0.09920,1.50469,-0.01834,0.22597,0.11363,0.31236,-0.19655,1.34804,0.96189,1.47218,0.18972,0.53440,0.03687,0.78850,-0.49182,0.44310,-0.39451,0.37699,-0.33607,0.33147,0.12798,1.17705,0.19844,1.00766,0.32575,0.80432,-0.00403,1.45975,-0.03320,0.58830,-0.14261,0.43099,-0.49356,0.61955,0.32176,1.39508,0.60405,0.38320,-0.23569,0.29316,-0.21078,0.31183,-0.11661,0.48966,-0.40353,0.42985,-0.37845,0.32130,0.16927,1.02643,-0.22668,1.37127,0.13067,0.20109,-0.50895,0.39414,-0.57907,0.64963,-0.70009,0.37132,0.00683,0.61944,0.07331,0.93187,-0.33212,0.24076,-0.19862,0.01449,-0.39081,0.31549,-0.04057,0.68654,-0.03288,0.31425,-0.17697,0.04283,-0.31234,0.32557,-0.32758,0.95314,0.23033,0.40601,-0.39316,0.43142,-0.30703,0.20375,0.20154,0.10544,0.27417,0.35201,-0.01102,0.99089,-0.15896,0.51793,-0.61029,0.56121,-0.70032,0.64240,-0.21226,0.42043,-0.04432,0.13811,-0.08984,0.00398,-0.04216,0.24802,-0.05026,0.15621,0.03388,0.36413,0.27583,0.92059,-0.14868,0.52251,0.10107,0.85123,-0.10790,-0.03617,-0.40017,0.18624,-0.76161,0.05767,-0.51882,0.38283,-0.32253,0.27090,-0.45964,0.22010,-0.40371,0.09748,-0.35413,0.43618,-0.34161,-0.04801,-0.29153,0.32196,-0.85220,0.29636,-0.49838,0.62037,-0.47253,0.37132,-0.17464,0.53248,-0.35780,0.31648,-0.46056,-0.07047,-0.39204,0.47538,-0.19379,0.00105,-0.39097},
{ -0.40413,0.40597,-0.17331,0.07399,-0.37315,0.24066,-0.25088,0.45131,-0.02897,0.35809,-0.55998,0.12664,-0.46699,0.38392,-0.55032,0.41515,-0.60275,0.05160,-0.57658,0.49545,-0.44708,0.26891,-0.34991,0.28002,-0.24252,0.60043,-0.15815,0.11287,-0.68642,0.00847,-0.25102,0.01962,-0.11866,0.64002,-0.67113,0.55567,-0.44001,0.49057,-0.42628,0.02298,-0.64860,0.07309,-0.64661,0.61079,-0.66859,0.46384,-0.14617,0.64612,-0.16363,0.36866,-0.55366,0.18241,-0.27321,0.46895,-0.28216,0.52078,-0.59179,0.61374,-0.59959,0.16505,-0.57163,0.59096,-0.00738,0.10481,-0.41893,0.43584,-0.65750,0.25131,-0.32428,0.06030,-0.22875,0.42754,-0.54523,0.07433,-0.46068,0.37649,-0.08237,0.14131,-0.60908,0.62947,-0.21981,0.51574,-0.63694,0.65421,-0.46840,0.20892,-0.16852,0.12728,-0.64601,0.51723,-0.41655,0.25885,-0.12210,0.39498,-0.45352,0.03131,-0.30131,0.67336,-0.11496,0.20270,-0.23957,0.38028,-0.31761,0.67539,-0.04461,0.61620,-0.29693,0.63880,-0.49838,0.07875,-0.57071,0.32315,-0.52354,0.18677,-0.26561,0.18448,-0.46061,0.48355,-0.43451,0.46443,-0.58073,0.61919,-0.33507,0.40042,0.05218,0.92066,0.44475,0.99538,0.12515,0.76236,-0.03479,0.62126,0.00666,0.45318,-0.73079,0.52846,-0.22482,0.14024,-0.26558,0.17965,-0.08394,0.26517,-0.57562,0.36325,-0.11162,0.08138,-0.04176,0.05326,-0.44494,0.26409,0.16299,0.44101,-0.26253,0.52242,0.10008,1.05639,0.65056,1.89610,0.82678,0.64611,0.07555,0.49879,0.02110,0.33337,-0.51908,0.09367,-0.36868,0.03659,-0.64760,0.69288,-0.11788,0.05527,-0.04504,0.42709,-0.21314,0.74207,-0.29827,0.03101,-0.40694,-0.44230,-1.30738,-0.57134,-1.85573,-0.79470,-0.84429,-0.40068,-1.10222,-0.38534,-0.54642,-0.23637,-0.57513,1.07860,0.31546,0.48518,-0.09466,0.42127,-0.68341,0.18182,-0.29272,0.56317,-0.07013,0.23854,-0.28805,0.60267,-0.01803,0.08881,-0.73659,-1.07368,-1.36659,-1.88778,-1.84782,-1.73811,-3.06205,-3.04190,-1.88032,-0.72970,-1.10375,0.01425,-0.69319,0.91158,0.38366,0.85609,-0.21660,0.72760,-0.54025,0.42933,-0.61195,0.55663,-0.25574,0.49307,0.13005,0.87267,-0.02590,-0.09795,-1.11695,-0.43755,-1.38278,-0.76671,-1.70654,-2.09224,-2.23773,-0.89486,-0.49026,0.19917,-0.22131,0.26384,-0.28991,0.74390,0.44105,0.85975,-0.05213,0.39837,-0.52463,0.55663,-0.44141,0.04036,-0.30443,0.33128,0.25336,0.31456,-0.21425,-0.17808,-0.66240,-1.01705,-0.82308,-0.52223,-1.50800,-1.61240,-1.11027,0.12093,-0.08234,0.25085,-0.30488,-0.01393,-0.22333,0.80923,0.34435,0.75771,-0.01532,0.66575,-0.32590,0.51446,-0.16621,0.18563,-0.92981,-0.03534,-0.32605,-0.16099,-0.08026,0.03316,-0.49189,-0.61584,-1.23674,-0.52098,-1.07485,-0.26943,-0.62289,-0.29108,-0.42741,0.23940,-0.12470,-0.04367,-0.41921,0.82001,-0.12550,0.80722,-0.08080,0.33908,-0.01336,0.33548,-0.55850,0.07945,-0.22681,0.05001,-0.54608,0.17467,-0.05361,0.29349,-0.43282,0.02484,-1.24061,0.33610,-0.05160,0.48496,-0.78156,-0.21739,-1.14440,-0.52358,-0.69526,-0.43052,-0.21240,0.87635,-0.00242,1.01385,-0.13719,0.17248,-0.07609,0.05565,-0.24234,0.29849,-0.61473,-0.34571,-0.96194,0.24135,-0.31037,0.18608,-0.02227,0.93092,0.85428,2.01602,0.70124,0.00262,-0.51459,-0.21651,-1.24963,-0.88848,-1.03856,-0.03321,-0.28323,0.54397,0.06881,0.73505,-0.10980,0.16946,-0.30231,0.24484,-0.16866,0.22041,-0.45826,-0.11702,-0.80779,0.91438,0.37759,0.38873,0.51099,1.60724,1.51810,2.11698,0.62594,-0.13445,-0.69495,-0.08098,-0.48092,-0.47703,-1.12914,-0.21241,-0.10816,0.78479,0.60643,0.99220,-0.21051,0.15406,-0.31566,0.29190,-0.34092,0.51641,-0.09945,0.43767,0.28776,0.87784,0.36093,-0.36710,0.33525,1.51502,0.99988,1.01665,0.32437,0.46693,-0.07733,0.51385,-0.07846,-0.37162,-0.22868,0.03043,0.03633,1.28496,0.40260,0.62139,-0.06852,0.63379,-0.41818,0.32385,-0.49327,0.02501,-0.57937,0.52759,0.51868,0.86276,0.15882,0.58334,0.10975,0.52608,0.28672,1.31320,0.84550,1.32811,0.14310,0.35511,-0.86542,0.17326,-0.11221,0.04521,0.01707,0.92033,0.32827,1.03137,-0.20129,0.14760,-0.33713,0.05736,-0.22904,0.62921,-0.54792,0.72592,-0.04309,0.88743,0.13471,0.16242,-0.24464,0.36115,-0.65750,0.70924,0.37641,1.43777,0.63398,1.16979,-0.36521,0.41990,-0.10361,0.52284,-0.10873,1.17149,0.69053,1.42593,-0.37405,0.21294,-0.03471,0.39790,-0.34107,0.06070,-0.28211,0.65200,0.18433,1.15218,-0.22840,0.71675,0.41768,1.29996,0.26725,0.44547,0.68021,1.86627,0.20996,1.03139,0.30955,0.77370,-0.63322,0.67898,-0.14781,0.86597,0.26452,1.21190,-0.65953,0.13029,-0.16138,0.54128,-0.14090,-0.02966,-0.41942,0.13143,-0.11511,1.07807,0.14613,0.91326,1.09616,1.02808,0.22365,1.90427,1.02694,0.72549,0.16416,1.18526,-0.33830,0.32912,-0.73717,0.57056,-0.10913,0.60671,-0.14080,0.95033,-0.24056,0.45245,-0.15695,0.59034,-0.09103,0.26333,-0.42270,0.35283,-0.29913,0.74443,0.68508,1.66004,1.32314,1.97937,1.08462,1.61772,0.96287,1.38170,0.29846,1.02130,-0.46091,0.50065,-0.63540,0.46964,0.02991,0.83529,-0.01282,0.19230,-0.33435,0.49767,-0.67071,0.55569,-0.04627,0.40121,-0.71983,0.12789,0.13200,0.90865,0.45661,1.77262,0.93553,2.07820,0.94886,1.96328,0.56963,1.21330,0.56074,0.59184,-0.24002,0.86903,0.18865,0.32859,-0.10217,0.51822,-0.16829,0.38926,-0.07407,0.51517,-0.26375,0.52992,-0.21457,0.69946,-0.24093,0.07437,-0.08166,0.99534,0.54199,1.26877,0.47926,0.76141,-0.14731,0.47136,0.04932,0.66256,0.75947,0.79123,0.33355,0.94230,0.31980,0.89281,-0.18829,0.57750,-0.02183,0.42614,-0.50833,0.44877,-0.53138,0.32110,-0.50571,0.10557,-0.62551,0.47227,-0.07740,0.62420,-0.09057,-0.00819,-0.98133,0.37688,-0.49202,0.19337,-0.50770,0.25043,0.58641,0.79206,0.63530,0.91738,0.43945,0.68951,-0.16622,0.12907,-0.70454,0.24539,-0.23820,0.43417,-0.28098,0.23082,-0.63608,0.21535,-0.54501,0.09767,-0.84825,0.02633,-0.82929,-0.19813,-0.50613,-0.17904,-0.05295,0.68848,-0.36109,0.45678,-0.05350,0.79742,0.02741,0.54809,-0.39286,0.82989,-0.37015,0.37234,-0.46228,0.45114,-0.20707,0.14942,-0.29361,0.45751,-0.64787,0.23498,-0.28172,0.32547,-0.65172,-0.44643,-1.50706,-0.78932,-1.36381,0.00002,-0.71658,0.17318,-1.09314,0.05246,-0.97393,0.08894,-0.47356,0.41743,-0.11010,0.30301,-0.32018,-0.01641,-0.21911,0.47983,-0.35071,0.21515,-0.53874,0.08910,-0.26440,0.10779,-0.69531,0.25537,-0.92330,-0.16950,-1.02094,-0.70788,-2.01967,-1.31036,-1.83665,-1.47700,-1.72923,-0.39685,-1.79459,-0.82486,-1.51806,-1.05407,-1.49852,-0.39289,-0.57632,-0.03202,-0.61987},
{ 1.77276,0.51834,-0.24861,0.04103,-0.04173,0.62717,-0.22859,0.30145,-0.51092,0.13463,-0.29373,0.24534,-0.37236,0.26502,-0.40319,0.63297,-0.38120,0.43329,-0.19882,0.50230,-0.17751,0.66958,-0.38413,0.66456,-0.12356,0.54727,-0.63290,0.62614,-0.41044,0.50730,-0.20980,0.14528,-0.18100,0.56211,-0.10374,0.29182,-0.58816,0.36051,-0.48096,0.25958,-0.42101,0.50563,-0.50730,0.13953,-0.47449,0.68261,-0.34878,0.31999,-0.25739,0.44906,-0.63214,0.26547,-0.34827,0.14435,-0.57654,0.47888,-0.01550,0.16130,-0.62805,0.40351,-0.25250,0.43276,-0.30315,0.66814,-0.53656,0.38788,-0.42643,0.31196,0.13697,0.68023,0.22791,0.67245,-0.03561,0.65558,-0.35629,0.56104,-0.45699,0.31883,-0.26219,0.55929,-0.50418,0.67112,-0.18228,0.60980,-0.21621,0.14220,-0.23534,0.32081,-0.15461,0.07220,-0.45584,0.19491,-0.10041,0.24877,0.06753,0.56878,0.22736,1.12426,1.02305,1.47150,0.81023,1.19075,0.09632,0.99832,-0.07616,0.86241,-0.27646,0.60021,0.03185,0.47238,-0.18769,0.66865,-0.19769,0.29227,-0.20962,0.62437,-0.51549,0.56882,-0.42536,0.17758,-0.07792,0.73991,-0.40835,0.36996,-0.32460,0.43329,0.07436,0.09777,-0.21933,0.63741,0.45708,0.86027,-0.13328,0.83999,-0.11518,0.33631,0.11780,0.68397,-0.26002,0.50903,-0.18495,0.46533,-0.37104,0.53898,-0.02679,0.09624,-0.14118,0.06732,-0.33368,0.62232,-0.48076,0.65320,-0.34778,-0.11548,-0.36952,0.38255,0.37458,0.63183,-0.69861,0.33634,-0.34787,0.45679,-0.57115,0.45470,-0.22169,0.28006,-0.50107,0.24780,-0.11488,0.55346,-0.40340,0.63986,-0.10355,0.07681,-0.62186,0.14553,-0.05364,-0.17485,-0.83415,0.29261,-0.41765,0.29565,-0.64852,0.95158,-0.07229,0.78568,-0.11102,0.19479,-0.40067,0.07839,0.20350,0.27178,-0.34392,0.47893,-0.01955,0.28283,-0.28073,0.13196,-0.29214,0.69915,-0.37815,0.58567,0.12496,0.67867,-0.06840,0.05311,-0.35312,0.70270,-0.15250,0.15438,-0.48671,1.16547,0.60108,0.92644,0.11143,0.21215,-0.19617,0.21147,-0.00277,0.07722,-0.74668,0.63320,0.04575,0.73016,-0.11021,0.34456,-0.49563,0.61961,-0.06182,0.42243,-0.37518,0.21659,-0.14791,0.62055,-0.09354,0.29986,-0.95233,-0.21352,-0.16096,0.76043,0.00151,0.81808,-0.52746,0.04923,-0.49389,0.16456,-0.33922,0.03235,-0.99317,0.53609,-0.04612,0.08365,-0.11140,0.20494,-0.36280,0.45360,-0.42436,0.54368,-0.70685,0.02480,-0.30404,0.18464,-0.71535,-0.35077,-0.57777,-0.05828,0.14683,1.23222,0.04970,0.22001,-1.21599,-0.73465,-1.50838,-0.33994,-0.74535,0.07323,-0.42136,0.60998,-0.12950,0.30007,-0.57167,0.15722,-0.62657,0.37691,-0.24987,0.36478,-0.26116,0.03465,-0.50969,0.01419,-1.06752,-0.40631,-0.62203,0.17772,0.28942,1.33456,-0.95685,-1.17571,-1.35091,-1.21561,-1.72640,-0.45231,-0.59160,-0.38988,-0.49394,0.46788,-0.42514,0.66601,-0.11151,0.13068,-0.38418,0.13283,-0.29618,0.27158,-0.54527,-0.07716,-0.86957,-0.24573,-0.81670,0.12098,-0.36994,-0.04477,0.31543,-0.07913,-1.73559,-0.62427,-0.70176,-0.81060,-1.68098,-0.70105,-0.66830,-0.27584,-0.25926,0.40859,-0.33437,0.32742,-0.39692,0.00161,-0.52854,0.34007,-0.47029,0.09112,-0.26841,0.88340,-0.24897,0.54316,-0.39124,0.24652,0.50120,1.08201,-0.23245,-0.48284,-1.50901,-0.93858,-0.96542,-0.48275,-1.67151,-0.48977,-0.90731,0.23178,0.31101,0.93230,-0.40749,0.14226,-0.36895,0.14107,-0.24501,0.29521,-0.53717,0.45717,0.04726,0.79584,0.58419,0.58280,0.06553,0.95048,0.34711,0.98633,-0.61855,0.05900,-0.96098,-0.93087,-1.45615,-0.41508,-0.85581,-0.24989,-0.38361,0.49684,0.13152,1.00273,-0.55192,0.51755,-0.44791,0.69131,-0.20739,0.39400,-0.29798,0.20439,-0.27354,0.72348,0.07547,1.00146,-0.33293,0.86274,-0.20279,-0.02098,-1.10166,-0.31394,-0.96923,-0.87754,-1.34825,-0.41356,-0.56583,0.38420,0.58054,1.33301,1.04408,1.27966,-0.56909,0.05871,-0.46243,0.50795,-0.18907,0.47883,-0.41596,0.05582,-0.74848,0.52174,-0.47499,-0.26470,-0.18888,0.56631,-0.34530,0.18682,-0.88993,-0.05670,-0.96827,-0.77924,-1.23510,-0.72479,-0.57328,1.51606,1.30304,1.01871,0.63236,0.91766,-0.46851,0.30340,-0.14815,0.45438,-0.35624,0.23810,-0.27642,0.57347,-1.03271,0.32719,-0.44766,-0.21271,-0.90346,0.09707,-0.16620,0.04159,-1.07851,-0.14383,-1.54116,-1.08513,-0.96212,-0.20763,0.90433,1.52305,0.54858,1.30685,0.07514,0.83602,-0.72131,0.44239,-0.69485,0.09120,-0.53233,0.25329,-0.24156,0.44757,-0.33721,0.18251,-0.66900,-0.55057,-1.31424,-0.06622,-1.12018,-1.28036,-1.83538,-1.36874,-1.73485,-0.99832,-0.29962,1.42813,1.60222,1.61005,0.29068,1.11923,0.40985,0.64290,-0.85280,0.00930,-0.59824,0.38620,-0.64633,0.58966,-0.05912,0.79330,-0.37887,0.35002,-0.20528,0.00326,-0.91848,-0.11753,-1.18632,-1.33382,-2.28832,-1.22658,-0.72019,0.65483,1.69852,2.57764,0.94948,1.11571,0.30849,0.80173,-0.02884,-0.01959,-0.57228,0.17060,-0.42622,0.45852,-0.07869,0.19694,-0.49358,0.91316,-0.04802,0.41237,-0.78927,-0.27801,-1.33718,-0.16095,-0.05195,0.15360,0.18928,0.98709,0.70402,1.38533,1.05534,1.26325,0.19326,0.85565,0.45216,0.83108,-0.43015,0.38429,-0.37260,0.40018,-0.58648,0.06934,-0.59186,0.27464,-0.49664,0.51448,-0.09255,0.37158,-0.68079,0.19534,0.06042,0.56526,0.55455,1.69957,1.43304,1.75649,1.13379,0.66633,0.26293,1.14509,-0.03476,0.40610,-0.42112,0.57599,-0.51682,-0.20633,-0.47086,0.49682,-0.19623,0.51701,-0.11453,0.09849,-0.19499,0.38078,-0.00537,0.30387,0.05567,0.48428,-0.05056,0.65364,0.22103,1.10619,0.99981,0.91133,0.15103,0.31031,-0.16273,0.55189,-0.07852,0.41079,-0.57890,0.17042,-0.67769,0.03141,-0.19923,0.41900,-0.28150,0.52364,-0.23598,0.66295,-0.47098,0.77821,0.06633,0.42119,-0.11096,0.41221,0.30687,0.92090,0.07478,0.99365,0.04605,0.34878,-0.16845,0.99018,-0.06808,0.18729,-0.21169,0.77051,-0.52236,-0.00164,-0.24355,0.42375,-0.68838,0.20887,-0.44717,0.45436,-0.19088,0.05016,-0.51998,0.51872,-0.15336,0.96740,0.10012,0.18826,0.24374,1.29871,0.57433,0.86545,0.06010,0.51843,-0.47510,0.81133,-0.29556,-0.07902,-1.08726,0.16367,-0.86446,-0.01671,-0.50770,0.36215,-0.30188,0.26473,-0.05160,0.63586,-0.66265,0.20171,-0.64625,0.14434,-0.10588,0.72384,0.62102,0.85340,0.05087,0.90436,0.81053,0.90740,0.41629,0.95852,0.26525,0.59235,0.30564,-0.15871,-1.05131,0.06997,-1.00898,0.18583,-0.43189,0.28225,-0.20465,0.03453,-0.68939,0.25060,-0.56368,0.63369,-0.35125,0.42094,-0.41665,0.84282,0.31646,0.83787,0.19327,0.86735,-0.22322,0.87538,0.11169,0.24546,-0.14085,0.31053,-0.21386,0.58286,-0.19840,0.34814,-0.32251,0.58106,-0.11131},
{ 0.26760,0.06306,-0.03984,0.42865,-0.60883,0.08670,-0.53601,0.35449,-0.15239,0.58574,-0.41515,0.47124,-0.26430,0.53631,-0.24087,0.02004,-0.03494,0.10277,-0.40155,0.10986,-0.43406,0.61254,-0.03627,0.57855,-0.05181,0.67101,-0.03164,0.39018,-0.07816,0.47785,-0.12534,0.32220,-0.02456,0.44498,-0.68204,0.59156,-0.45253,0.16196,-0.61694,0.36065,-0.54514,0.03388,-0.43159,0.54229,-0.07765,0.28580,-0.45807,0.18422,-0.19780,0.38946,-0.30090,0.29978,-0.54221,0.46969,-0.12293,0.32320,-0.66285,0.69125,-0.60928,0.64611,-0.09015,0.32899,-0.65290,0.30457,-0.48368,0.55387,-0.30905,0.34175,-0.61382,0.14908,-0.43363,0.01280,-0.40351,0.68406,0.06526,0.79274,-0.22766,0.59425,-0.58870,0.41699,-0.62003,0.18803,-0.32000,0.20802,-0.44617,0.33536,-0.61870,0.01417,-0.14151,0.53218,-0.36410,0.59910,-0.30219,0.17070,-0.13827,0.24120,-0.37623,0.49124,-0.48560,0.27579,-0.22077,0.68548,-0.11725,0.19055,-0.36283,0.26943,-0.75595,0.09193,-0.76921,0.05219,-0.21385,0.09635,-0.61232,0.58141,-0.53118,0.40893,-0.54408,0.67180,-0.63017,0.11186,-0.23597,0.53909,-0.55282,0.60398,0.19544,0.73174,0.02998,0.85756,0.36603,0.73662,-0.30041,0.73915,-0.50448,-0.21200,-0.96628,0.30847,-0.53713,0.44473,-0.14126,0.39188,-0.20576,0.65863,-0.52239,0.43291,-0.66929,0.21969,-0.31021,0.10174,-0.33688,0.26560,-0.26207,0.30681,-0.06165,0.58129,0.03585,0.61284,0.49657,1.11523,0.51030,0.42599,-0.36526,0.19495,-0.07434,0.28156,-0.46957,0.14804,-0.61205,0.13324,-0.39208,0.34017,-0.28477,0.04408,-0.61764,0.24236,-0.72713,0.54405,-0.40367,0.04308,-0.54528,0.23826,-0.71358,0.59567,0.73536,1.91530,0.86679,1.15327,0.65878,0.87110,0.23734,0.50886,-0.55388,0.23610,-0.42264,0.68383,-0.62123,0.43345,-0.68146,0.26796,-0.53912,0.02444,-0.44550,0.51384,-0.20197,0.00567,-0.75988,0.16429,-0.28733,0.14711,-0.61646,0.91989,0.42125,0.98478,0.50864,0.65470,-0.18748,0.77107,-0.32945,-0.25845,-0.43536,0.70894,-0.10289,0.35356,-0.47385,0.52220,-0.25187,0.07153,-0.31525,0.34615,-0.13425,-0.14653,-0.39137,0.02239,-0.87216,-0.12969,-0.30738,0.69670,0.43100,0.42923,-1.00061,-0.47797,-0.32782,0.56237,-0.19900,0.16423,-0.73120,-0.05634,-0.59541,0.48477,0.15017,0.61596,0.09234,0.70959,-0.29981,0.47657,-0.44177,0.51210,-0.51079,0.00816,-1.02953,0.00507,-0.57046,0.14513,0.05060,0.92003,0.73927,0.10751,-1.15217,-0.67602,-1.43819,0.18816,-0.25569,0.54695,-1.03873,0.13306,-0.79259,0.47046,0.58322,1.31675,0.00455,0.24249,-0.06077,0.46232,-0.23693,0.18915,-0.44744,-0.32126,-0.72475,0.48419,0.09671,0.15473,0.26055,0.34840,-0.51770,0.00747,-0.80766,0.16923,-0.68264,0.18655,-0.36984,0.76682,-0.36839,0.17963,-1.05787,0.37073,0.22482,0.97390,0.31149,0.75939,-0.52226,0.55816,-0.34899,0.07913,-0.29892,0.11195,-0.13911,0.39603,0.00903,0.54761,-0.12734,-0.06608,-0.46641,-0.23382,-0.18013,0.59573,-0.30143,-0.32658,-0.47285,0.10581,-0.63206,-0.26116,-0.98885,0.55554,-0.18291,1.02874,-0.20909,0.55029,-0.32328,0.05198,-0.04632,0.32751,-0.34058,0.32119,-0.04688,0.34021,-0.26093,0.36817,-0.48949,0.23751,-0.71903,0.23500,0.14989,0.27856,-0.64021,-0.48636,-0.42867,0.04703,-0.50419,0.17730,-0.76857,-0.06813,-0.19375,0.31781,-0.63628,0.72238,-0.64570,0.64299,-0.21153,0.44789,-0.42186,0.10919,-0.32362,0.10143,-0.08521,0.36153,-0.27693,0.91077,-0.15272,0.82130,-0.10486,-0.25719,-1.40566,-0.58032,-0.78439,0.52562,-0.30288,-0.16618,-0.34997,0.24966,-0.47895,0.53245,-0.16968,0.25252,-0.28241,0.05861,-0.12187,0.04684,-0.60867,0.66307,-0.36750,0.07587,-0.12254,0.19656,-0.21521,0.61961,0.34126,0.75348,-0.66211,-0.33980,-1.52004,-0.49899,-0.80251,0.34676,-1.04098,0.13935,-0.74733,0.33158,-0.56321,0.35489,-0.67769,0.27474,-0.50358,0.52978,-0.63922,0.23513,-0.11860,0.47491,-0.18154,0.15296,-0.26191,0.57332,-0.18090,0.98610,-0.10965,0.35857,-0.95823,-1.01982,-1.49278,-0.01298,-0.53098,0.28923,-1.04636,-0.15833,-0.50624,0.59155,-0.35005,0.74941,0.06378,0.23552,-0.05750,0.22858,-0.12927,0.33074,-0.53579,0.38699,-0.11104,0.55711,-0.80869,-0.64664,-0.90524,0.42031,-0.54281,-0.49114,-1.51444,-0.94361,-0.65229,-0.18211,-0.12897,0.28862,-0.78714,0.03213,-0.42628,0.37443,0.36053,1.15506,-0.22305,0.65788,-0.41845,0.65980,-0.55348,0.16303,-0.59357,0.65452,0.38783,0.86697,-0.09566,0.18122,-0.89570,-0.71330,-1.53715,-1.14019,-1.88552,-0.48714,-0.47949,0.18184,-0.37407,-0.06935,-1.43392,-0.09564,-0.44905,0.71734,0.13549,0.69101,-0.06359,0.58599,-0.23702,0.30914,-0.52547,0.42488,-0.52849,0.44740,0.51096,1.81025,1.12564,1.22735,-0.37418,-0.07181,-1.30791,-0.33117,-0.88283,0.42235,0.14041,0.02061,-0.50679,-0.19054,-0.68365,-0.27464,-0.23354,0.97464,0.02458,0.57007,-0.11561,0.37506,-0.32279,0.24087,-0.12891,0.48475,-0.34840,0.73259,0.32430,1.84759,1.36669,1.22699,0.24446,0.71273,-0.01139,0.47449,0.07976,0.42564,-0.15254,0.34813,-0.18543,0.14767,-0.20930,0.28155,-0.19141,0.69498,0.18237,0.83138,-0.20531,0.27764,-0.55241,0.50626,-0.16481,0.17085,0.07904,0.89183,0.38421,1.56499,0.77003,1.36984,0.45195,1.40663,0.51253,0.79716,-0.28595,-0.10481,-0.81342,0.13899,-0.58783,0.61438,0.07311,0.69243,-0.15679,1.35499,-0.13081,0.77595,-0.52746,0.06990,-0.56156,0.14081,-0.05967,0.07698,0.03266,0.43275,0.47559,1.42758,0.83418,1.20579,0.57757,0.71211,-0.33421,-0.00770,-0.89863,-0.48193,-0.38780,0.14014,-0.63433,0.03234,-0.24171,0.90162,0.02623,0.63661,0.18890,0.31676,-0.63029,0.65594,-0.16364,0.64705,-0.00405,0.59636,-0.41424,0.34838,-0.10312,0.85327,0.34600,1.41060,0.62385,0.44559,-0.07962,0.11489,-0.07218,0.23279,-1.02441,-0.03799,-0.22032,-0.19837,-0.94989,0.59079,-0.44775,0.29465,-0.11656,0.54459,-0.26130,0.18843,-0.64574,0.09243,-0.10959,0.15043,-0.18309,0.50550,-0.62180,0.47434,-0.28326,0.01415,0.33653,0.87037,-0.05936,0.56253,-0.61899,0.07782,-0.41306,0.11753,-0.95198,-0.04055,-0.83546,0.47205,-0.26402,0.78591,-0.36503,0.72778,-0.09621,0.30167,-0.00082,0.54462,-0.19317,0.65782,-0.15488,0.41373,-0.74518,0.06855,-0.70497,0.31907,-0.23131,0.40879,-0.59467,0.00978,-0.69202,0.10494,-0.76889,-0.18478,-0.02276,0.07595,-0.02548,0.55467,0.34148,0.70143,-0.48759,0.19251,-0.15073,0.39703,-0.18448,0.27349,-0.31669,0.47599,-0.31640,0.12185,-0.55953,0.02488,-0.39510,0.00423,-0.59846,0.50378,-0.53140,0.00088,-0.61855,0.49574,0.14040,0.66758,0.02240,0.81077,0.32614,0.96571,-0.20740,0.64745,-0.29718},
{ -1.77741,0.24573,-0.62193,0.35887,-0.39559,0.06958,-0.49201,0.12090,-0.51401,0.21828,-0.65633,0.32525,-0.18755,0.68222,-0.03524,0.13257,-0.68869,0.25320,-0.27997,0.00449,-0.48621,0.68002,-0.11785,0.35608,-0.26761,0.19973,-0.31744,0.47622,-0.64910,0.67623,-0.19863,0.05607,-0.13643,0.56063,-0.49444,0.27068,-0.00404,0.51180,-0.00365,0.14937,-0.65915,0.35528,-0.50285,0.61512,-0.51967,0.16909,-0.66071,0.10688,-0.27805,0.33640,-0.41502,0.09527,-0.63549,0.31088,-0.22058,0.12302,-0.50960,0.42512,-0.09230,0.07449,-0.27825,0.40581,-0.18825,0.12535,-0.44652,0.38731,-0.17003,0.73057,-0.39139,0.57348,-0.37851,0.62585,0.06799,0.86386,0.23754,0.85963,0.01702,0.55368,-0.35595,0.31420,-0.59759,0.47265,-0.51752,0.06102,-0.04406,0.56014,-0.63182,0.06545,-0.04083,0.42434,-0.32257,0.67906,-0.24821,0.37359,-0.66185,0.13330,-0.54631,0.14015,-0.38617,0.20108,-0.17209,0.93018,0.53076,1.23994,0.60839,1.55358,-0.01116,0.78882,0.04909,0.25449,-0.14778,0.09714,-0.66447,0.00067,-0.02730,0.34194,-0.54503,0.35840,-0.51552,0.51093,-0.21444,0.10692,-0.55876,0.53668,-0.22515,-0.24067,-0.36321,-0.13735,-1.06589,-0.42945,-1.09885,0.08472,0.08379,0.90488,-0.01490,0.45214,-0.31956,0.61988,-0.33402,0.42015,-0.43223,0.30874,-0.66217,0.52626,-0.45077,0.40230,-0.19828,0.10284,-0.38342,-0.20903,-0.63289,0.21748,-0.84167,-0.19844,-0.68095,-0.41187,-1.14039,-0.12394,-0.29648,0.13375,0.24765,0.57088,0.16101,0.64064,0.19675,0.46670,-0.68468,0.30241,-0.08656,0.13804,-0.24146,0.38152,-0.11686,0.58606,-0.40897,-0.33293,-0.30172,0.12917,-0.85798,-0.18848,0.14034,0.49309,-0.97412,0.04443,0.30086,0.45286,-0.12106,0.65382,-0.17027,1.10106,0.32211,0.73160,0.16680,0.84734,-0.34333,0.03656,-0.38513,0.43764,-0.50477,0.26350,-0.31495,0.73343,-0.26562,-0.16863,-0.58727,0.54219,-0.33167,0.23338,-0.86332,-0.12151,-0.62269,-0.20652,-0.10168,0.71375,-0.25468,-0.15456,-0.61425,0.82613,-0.26058,-0.15334,-0.08398,0.88001,-0.60765,0.19790,-0.28305,0.37578,-0.44158,0.35170,-0.13875,0.07052,-0.30507,0.27974,-0.40496,0.14163,-0.45865,-0.43947,-0.90803,-0.13040,-0.27956,-0.69183,-0.77451,0.06547,-1.28066,-0.63659,-1.56520,0.07092,-0.58048,0.19659,-0.56040,0.47610,-0.21732,0.26198,-0.17485,0.60196,-0.31111,0.63649,-0.16577,0.54892,-0.30012,0.64689,-0.58596,0.31081,-0.33586,-0.24280,-0.94122,-0.17796,-0.79501,-1.10627,-1.64860,-1.42870,-1.30063,-0.94756,-1.07690,0.07741,-0.82296,-0.13869,-0.49576,0.47167,-0.69917,0.10912,-0.15526,0.25917,-0.57862,0.46589,-0.53352,0.13059,-0.37668,0.41522,0.14514,0.25039,-0.10114,0.60842,0.16816,1.27233,-0.40863,-0.84343,-2.15266,-0.67763,-1.11364,-0.61656,-1.00852,-0.37507,-1.23745,0.45519,-0.36621,0.34760,-0.33793,0.52490,-0.71557,0.41814,-0.48494,0.42373,-0.25427,0.77200,-0.07975,0.80076,0.40306,1.33720,0.50199,1.13352,0.91278,2.66378,1.53317,1.55687,-0.51075,0.44613,-0.02626,-0.16692,-0.24128,-0.13010,-0.24181,0.78175,0.38591,0.23338,-0.37247,-0.04858,-0.20940,0.22690,-0.62292,0.41510,-0.50171,0.38382,0.78904,1.66257,1.36072,1.50245,1.67686,2.41831,1.88860,3.17042,2.49272,2.75880,0.77550,1.66581,0.23475,0.25642,0.14287,0.20762,0.64137,1.22045,0.73930,1.19900,-0.56395,0.04460,-0.31694,0.26767,-0.03427,0.58889,-0.59753,0.95512,1.08713,2.08288,1.71992,2.05243,1.50360,1.38635,0.68162,1.60593,1.05553,1.59018,0.79252,1.44144,0.53709,0.74716,0.28587,0.55403,0.52264,0.82499,0.48000,0.68512,-0.16343,0.15201,-0.51426,0.20479,-0.00811,0.66840,-0.68813,0.32651,0.68264,2.08518,0.73943,1.31994,0.33548,0.31765,0.08909,0.26087,-0.24595,0.46403,0.15642,0.53741,0.44267,0.40426,0.19670,0.88998,-0.58096,0.24433,-0.31796,0.32170,-0.69877,0.29579,-0.13557,0.50690,-0.34898,0.58683,-0.35662,0.36010,-0.02058,0.67366,0.39829,0.24033,-0.34927,0.20716,0.20665,1.05744,-0.35167,0.41561,-0.02149,0.32748,-0.14477,0.40334,-0.03868,0.47753,-0.36503,0.52243,-0.26489,0.28058,-0.36757,0.10096,-0.58438,0.32161,-0.22448,0.00301,-0.31066,-0.16428,-0.94869,0.36565,-0.09161,0.39242,-0.17502,1.00794,-0.05325,0.03044,-0.71264,0.77183,-0.05700,0.56343,-0.67481,0.02051,0.41753,0.54538,-0.65453,0.63406,-0.66746,-0.38956,-0.95868,-0.28918,-0.57818,0.24632,-0.15833,0.64989,-0.20139,-0.76049,-1.42404,-0.43076,0.01593,0.26153,-0.62345,0.22036,0.26402,0.72750,-0.34713,1.07608,0.20655,0.25390,-0.41221,0.34714,0.10251,0.61639,-0.33781,0.13441,-0.96694,-0.34582,-1.21021,0.44839,-0.58873,0.62534,-0.49384,0.37986,-0.83371,-0.21502,-1.67346,-0.63343,-0.56470,0.24496,-0.57335,0.21345,-0.21850,0.03693,-0.95847,0.13189,-0.24910,0.69346,-0.05514,0.51486,0.07764,0.79178,-0.38616,-0.41065,-1.55552,-0.54293,-1.05832,0.61666,-0.09449,0.31444,-0.43996,0.23867,-0.39526,-0.07356,-0.76603,-0.09712,-0.57389,-0.06237,-0.91917,-0.34169,-0.63736,-0.51856,-1.46581,-0.29006,-0.02118,0.74263,0.41866,0.79632,0.13598,0.63297,-0.15681,-0.12799,-0.49740,-0.53521,-0.81787,0.64211,-0.19664,0.53026,-0.32889,0.47711,-0.57266,0.59492,-0.31597,-0.35035,-0.87077,-0.02894,-1.28927,-0.08307,-0.87609,-0.84230,-1.26773,-0.00119,0.44088,1.00336,0.68808,0.51826,-0.07002,-0.20243,-0.26826,0.04200,-1.03057,-0.52516,-0.69282,0.32316,-0.27830,0.67670,-0.07410,0.49644,0.09344,0.44743,-0.24059,0.68312,-0.43972,-0.09877,-0.40560,0.54850,-0.40294,-0.14743,-0.53713,0.97150,0.40590,1.02764,0.49555,0.58342,-0.52459,0.03412,-0.62363,0.04151,-1.09838,-0.06799,-0.14729,0.54283,-0.16035,0.42475,-0.65128,0.24658,-0.52744,0.32809,-0.03148,0.48047,-0.09150,0.13467,-0.48792,0.38409,-0.65722,0.53368,-0.00127,0.16521,-0.65472,-0.06854,-0.44112,0.41274,-0.35485,-0.16609,-0.69115,-0.34141,-0.65257,0.11174,-0.17943,0.30024,-0.02302,0.65110,-0.61233,0.05951,-0.39122,0.30219,-0.31282,1.10931,0.32585,1.26846,0.53259,0.51062,-0.44368,0.67025,0.68236,0.70006,-0.12739,0.68999,0.31139,1.47312,0.52234,0.22205,-0.50153,-0.10233,0.13440,0.37040,-0.07168,0.26022,-0.33064,0.45635,-0.02682,0.69764,-0.38813,0.15860,-0.51088,0.82196,0.65468,1.49869,0.80367,1.64405,0.40751,0.55141,-0.26350,0.65090,-0.36181,0.79866,-0.34137,0.85113,0.19763,1.02956,-0.09754,0.47354,0.10576,0.01229,-0.39338,0.44860,-0.68335,0.16233,-0.46298,0.13713,-0.12229,0.32654,-0.25015,0.18396,-0.08074,0.71317,-0.02210,0.19709,-0.88651,0.12915,-0.13413,0.14835,-0.73870,0.15512,-0.36432,0.50626,0.10239,0.77104,-0.26482,0.42821,-0.30352},
{ 2.84145,0.59008,-0.59873,0.30259,-0.19307,0.46840,-0.23476,0.40107,-0.43157,0.64183,-0.18843,0.14457,-0.16292,0.49766,-0.05929,0.47783,-0.45198,0.01994,-0.54374,0.11938,-0.24804,0.38965,-0.36010,0.63403,-0.11488,0.17717,-0.52513,0.23655,-0.33431,0.46437,-0.44064,0.56798,-0.11764,0.44082,-0.08385,0.13600,-0.23617,0.12759,-0.29932,0.34533,-0.03979,0.53280,-0.29884,0.54025,-0.05987,0.06874,-0.59674,0.63475,-0.34455,0.49508,-0.66861,0.22397,-0.33263,0.23976,-0.47514,0.07437,-0.43995,0.17316,-0.41636,0.56899,-0.38611,0.25758,-0.55596,0.12034,-0.24362,0.54962,-0.33004,0.26026,-0.61190,0.16571,-0.15307,0.71546,-0.03063,0.79855,-0.27566,0.43205,-0.18228,0.18999,-0.31745,0.66714,-0.37025,0.23737,-0.37823,0.18054,-0.45785,0.67622,-0.09279,0.53966,-0.62839,0.47814,-0.44829,0.07160,-0.05594,0.06682,0.00941,0.63926,-0.55515,0.30950,-0.18363,0.77714,-0.39108,0.68407,0.13545,0.59969,-0.24558,0.34509,-0.31280,0.67827,-0.57823,0.31687,-0.25807,0.64100,-0.67642,0.62507,-0.01700,0.07508,-0.69925,0.63664,-0.49853,0.06971,-0.38382,0.07584,-0.41236,0.25870,-0.34725,0.37952,-0.73422,0.01557,-0.53168,0.30487,-0.91820,0.31608,0.20011,0.91675,0.25842,0.89141,0.15438,0.72190,-0.64663,0.61709,-0.04535,0.61676,-0.27074,0.26290,-0.12079,0.29549,-0.47846,0.33479,-0.32976,0.28216,-0.38600,0.58330,-0.94065,-0.28959,-0.76705,0.27279,-1.05743,-0.62115,-1.23476,-0.12887,-1.27434,0.17226,-0.23898,0.79481,-0.20139,0.79144,-0.62933,0.02386,-0.26912,0.03117,-0.35322,0.48169,-0.74967,0.24472,-0.19884,0.26718,-0.61505,0.59457,-0.21345,-0.11442,-0.58705,-0.27158,-0.78574,0.14415,-1.16533,0.11264,-0.36097,0.10007,-0.66322,-0.21569,-0.59826,-0.30765,-0.52381,-0.31435,-0.95441,0.55771,-0.05251,0.29900,-0.30909,0.49797,-0.48465,0.09685,-0.50795,-0.16676,-0.26019,0.05242,-0.69811,0.15990,-0.17144,0.80360,-0.37684,0.02801,-1.53494,0.13962,-0.17382,-0.29459,-0.65595,0.38411,-0.65055,0.20935,-0.58408,-0.06672,-1.07689,0.00571,-0.48680,0.47308,-0.31202,0.04947,-0.36940,0.29397,-0.63352,0.27073,-0.09209,0.31116,-0.99373,0.25118,0.27870,0.63154,-0.33244,0.02696,-0.79292,-0.13369,-0.26683,0.04138,-1.10563,0.11881,-0.95263,-0.46157,-1.09716,-0.04931,-0.88023,0.26275,-0.47189,0.54526,-0.20013,0.06317,-0.00515,0.31690,-0.02447,0.08675,-0.66254,0.20188,-0.41823,-0.18143,-0.25135,0.29072,-0.32389,0.35802,-0.65716,0.12669,0.02248,0.62471,-0.16835,-0.08314,-0.70674,-0.69882,-1.81106,-0.65296,-0.93300,0.38872,-0.35069,0.67487,-0.14528,0.65661,-0.25102,0.28911,0.12948,0.11442,-0.11566,0.38068,-0.47609,0.81213,-0.02805,0.62708,0.04489,0.67941,0.51561,0.76391,-0.00561,-0.05573,-0.28472,0.44160,-0.62460,-0.32540,-1.85069,-0.73601,-0.52235,0.37370,-0.59869,0.22003,-0.08494,0.39511,-0.34123,0.91394,-0.31969,0.37601,0.38005,0.62636,0.24093,0.94959,-0.20923,0.08146,-0.63698,0.08478,0.26606,0.76131,-0.18921,0.94574,0.11097,0.63072,0.02139,0.50150,-1.11155,-0.39412,-0.75631,0.18750,-0.47934,0.27158,-0.46290,0.39461,-0.06732,0.98746,-0.14123,0.78566,0.15797,0.61738,-0.44363,-0.08048,-0.72597,-0.81768,-0.81751,0.00055,0.68773,1.19263,-0.03132,0.70836,0.28065,0.58494,-0.09431,0.26757,-0.81926,-0.21351,-0.26058,0.34374,-0.03016,0.24194,-0.16659,0.67010,-0.14277,1.09561,0.10526,1.09201,0.32647,0.92673,-0.28815,0.44650,-0.91779,-0.97266,-1.22343,0.39501,0.44542,1.12132,0.23543,0.94537,1.11695,1.15719,0.28499,0.73692,-0.30163,0.08625,-0.69122,0.30894,-0.35706,0.37493,-0.06141,0.52268,-0.48382,0.66991,0.15327,1.00151,-0.05588,0.82900,-0.16379,-0.16785,-0.82462,-0.39101,-0.05596,0.71390,0.85376,1.23379,0.85339,1.34744,0.72992,1.65196,0.58127,0.78515,-0.56816,0.11215,-0.30322,0.39927,-0.09635,0.33804,-0.07417,0.54858,-0.26348,0.99219,0.11682,1.15477,0.68784,0.82462,-0.30080,-0.00579,-0.28230,0.14607,-0.33929,0.91730,0.87458,1.44091,0.77307,1.58425,0.43524,1.25310,0.44847,1.07977,-0.20216,0.36913,-0.04954,0.27946,-0.68867,0.65839,-0.47377,-0.04298,-0.91472,0.08658,-0.18349,1.16888,0.20850,0.02831,-0.56535,0.37386,-0.30525,-0.00921,-0.44691,1.31173,0.71343,0.77545,0.43276,1.10177,0.37619,0.56728,0.13566,0.39509,-0.32007,-0.17046,-0.10710,0.57243,-0.54169,0.61811,-0.53604,0.12395,-0.49476,0.24226,-0.79069,1.00567,0.30784,0.57069,-0.17070,0.30270,0.04983,0.28981,-0.21532,1.58233,0.87023,0.43774,0.45686,0.66212,-0.30593,0.96459,-0.28933,0.11637,-0.85372,0.28429,-0.39117,-0.00876,-0.50551,0.69457,-0.47850,0.54067,-0.84519,-0.26208,-0.87590,0.01968,-0.22840,0.65298,-0.08814,0.65786,0.15002,0.85597,0.69206,2.01454,0.78616,-0.14265,-0.26177,-0.30979,-0.82668,0.11660,-0.61065,-0.66123,-0.50442,0.06668,-0.12479,0.10463,-0.41252,0.60445,-0.52431,0.62660,-0.20202,-0.00837,-1.23604,-0.79665,-1.02403,-0.41276,-0.85778,-0.24967,-0.31284,0.21561,0.48623,1.27603,-0.22837,0.51432,-0.45275,-0.90622,-0.88468,-0.60959,-0.97931,-0.97440,-0.46239,0.23466,-0.28637,0.05139,-0.12483,0.30019,-0.47529,0.32494,-0.94294,-0.43165,-1.22542,-1.19634,-1.23354,-1.13510,-1.67222,-1.48190,-1.09547,-0.21899,0.25551,0.75684,-0.25202,0.64873,-0.86870,-0.90912,-1.18493,-0.63430,-1.61824,-0.30073,-0.64065,0.06600,-0.66529,0.18212,-0.65628,0.37070,-0.31162,0.26500,-0.64379,0.01698,-1.59871,-0.57902,-1.29797,-1.03462,-1.91330,-1.02057,-1.29607,-0.47447,-0.79074,-0.43875,0.22086,0.89257,-0.55935,-0.52115,-0.97678,-0.26927,-1.24444,-0.18129,-0.58980,0.07163,-0.32450,0.62649,-0.05905,0.49619,-0.27353,0.00960,-0.25057,-0.22578,-0.47549,-0.19629,-1.06878,-0.32010,-1.52054,-1.02401,-2.23695,-0.87498,-1.61464,-0.81697,-0.27679,0.23761,-1.03133,0.03658,-0.68364,-0.52404,-1.06929,-0.28039,-0.62932,0.41149,-0.41117,0.37797,-0.49328,0.45968,-0.62398,0.45466,-0.69659,0.66085,-0.31990,0.69592,0.05610,0.46059,-0.74236,-0.02747,-1.27146,-0.63025,-1.06947,-0.71274,-1.45387,-0.63932,-0.42309,-0.32692,-0.56144,0.22992,-0.78171,-0.16756,-0.27031,0.61162,-0.51147,0.15143,-0.20841,0.01792,-0.14791,0.20294,-0.26807,0.51294,-0.04384,1.06825,0.20788,0.38882,-0.71392,0.04871,-0.75270,-0.53530,-1.14010,-0.97999,-1.10633,-0.71344,-0.91393,-0.20136,-0.51456,0.74802,-0.27959,0.58604,-0.48856,0.39301,-0.63241,0.61717,-0.33311,0.62667,-0.29571,0.02200,-0.28631,0.42661,0.07325,1.07320,0.36618,0.86187,0.01260,0.14305,-0.73340,0.60439,-0.52740,0.31776,-0.51403,0.39568,-0.31482,0.81656,0.10916,0.27348,-0.35424,0.55295,-0.56524},
{ 0.73828,0.32123,-0.58568,0.18805,-0.04162,0.21792,-0.16457,0.19894,-0.30878,0.61439,-0.41037,0.67205,-0.57185,0.06852,-0.08350,0.07711,-0.22857,0.68275,-0.63957,0.08367,-0.57689,0.15032,-0.16671,0.48828,-0.46289,0.61160,-0.41260,0.37529,-0.55638,0.56102,-0.08734,0.69041,-0.58038,0.59318,-0.25034,0.50841,-0.38975,0.63509,-0.45170,0.54463,-0.65099,0.71607,-0.49712,0.01816,-0.28537,0.54055,-0.20176,0.20516,-0.07911,0.65971,-0.36828,0.17838,-0.53654,0.19958,-0.58081,0.22170,-0.04355,0.48948,-0.32412,0.02489,-0.48356,0.15220,-0.17017,0.53139,-0.42914,0.44412,-0.09999,0.47277,-0.18466,0.55652,-0.24520,0.37103,-0.16907,0.23735,-0.22800,0.11458,-0.31443,0.52132,-0.00047,0.50353,-0.34674,0.13905,-0.08751,0.21636,-0.55840,0.13676,-0.47015,0.12740,-0.16487,0.15748,-0.22626,0.29090,-0.41046,0.05036,-0.73802,0.00350,-1.10120,0.18431,-0.70626,-0.24562,-0.61827,0.42103,-0.22374,0.59874,0.10791,0.48725,0.39322,0.45650,-0.47152,0.62442,-0.29169,0.04996,-0.24229,0.29847,-0.16597,0.62822,-0.41878,0.38989,-0.39423,0.31129,-0.93027,-0.17785,-1.28107,-0.24347,-1.24042,-0.32534,-1.03334,-0.51482,-1.46050,0.31396,-0.33993,0.64715,-0.15067,0.95302,-0.00534,0.39529,0.01201,0.15388,-0.09065,0.13295,-0.52322,0.13178,-0.03555,0.38873,-0.29709,0.47907,-0.63603,-0.09879,-1.45186,-0.41560,-1.13467,-0.62880,-0.83050,0.24667,-0.90509,-0.33243,-0.96832,-0.07360,0.09763,1.05618,0.39303,1.16427,0.03374,0.34555,0.17062,0.72290,-0.07484,0.07785,-0.10369,0.66063,-0.49504,0.66655,-0.18182,-0.10963,-1.34633,-0.62974,-1.24605,0.17271,-0.37056,-0.19501,-0.40529,-0.30470,-0.89769,-0.19137,-0.61098,-0.08604,-0.28444,0.42951,-0.04885,0.36624,0.66253,1.01029,0.73593,1.01906,0.08735,0.67344,-0.31040,0.25015,-0.27117,0.05629,-0.47976,-0.46601,-1.15479,-0.18823,-0.92882,0.07716,-0.72564,-0.29417,-1.33543,-0.43094,-1.44154,-0.10499,-0.28699,0.56881,-0.80375,0.26154,-0.39694,-0.02916,0.00751,1.59618,1.09872,1.09549,0.05982,0.52410,-0.61720,0.34194,-0.47737,0.30301,-0.98166,-0.71425,-1.48823,0.08807,-0.64399,0.39010,-0.51095,-0.42546,-0.52758,-0.31115,-1.07047,-0.88656,-1.05827,0.24229,-0.83609,-0.03904,-0.95026,0.20535,0.12360,1.30116,1.37833,1.00526,-0.24184,0.57893,-0.38395,0.56193,-0.04493,0.01141,-0.42238,-0.03774,-0.42279,0.74904,-0.01114,0.71959,0.33040,1.45627,1.52837,1.67633,-0.08810,-1.00286,-1.94253,-0.51221,-1.21484,-0.32220,-0.35067,0.13126,0.06119,1.52405,1.14391,1.05681,-0.47327,0.60773,-0.57849,0.58850,-0.00067,0.56047,-0.23794,-0.01422,-0.09571,1.80174,0.99116,2.49843,2.50270,2.93369,2.64685,2.51853,1.01436,-0.45908,-1.98940,-0.41032,-1.00700,-0.25125,-0.57875,0.09147,0.50899,1.22249,0.78527,0.94904,-0.57411,0.68253,-0.15379,0.53951,-0.49584,0.08620,-0.72130,0.46549,0.54016,2.16589,2.24863,2.91367,2.25361,2.20375,0.49886,1.75503,1.56085,-0.01843,-1.31915,-0.61333,-0.44279,0.52279,-0.52897,0.19721,0.87968,1.70566,-0.02169,0.55162,-0.60245,0.17328,-0.07345,0.50730,-0.12633,0.44294,-0.17735,0.37099,0.95842,2.08540,1.60576,2.26866,0.90004,0.62930,-0.37143,1.16610,0.40998,-0.19121,-1.05138,-0.19413,0.05273,0.56041,0.46831,0.52494,0.55629,1.20053,0.15111,0.41744,-0.38528,0.44702,-0.25449,0.54386,-0.67382,0.11554,-0.26574,0.45418,0.63125,1.59975,0.68598,0.82145,-0.54692,0.57299,0.16517,0.84257,-0.20777,-0.27536,-0.87390,-0.11337,-1.07624,0.16388,0.08803,0.82552,-0.16433,0.99079,0.51818,0.38089,-0.70956,0.57005,-0.17358,0.55660,-0.63241,-0.00250,-0.12163,0.79648,0.39925,1.85873,0.46734,0.44820,-0.35349,0.70228,0.48472,1.05207,-0.15255,0.12580,-0.40605,0.63565,-0.26280,0.09879,-0.49680,0.40127,-0.49497,0.90718,0.26689,0.67095,-0.05940,0.11459,-0.66546,0.49059,-0.10664,0.10032,-0.41999,0.07806,-0.10342,1.08606,-0.48700,0.33657,-0.12069,0.58553,0.40751,0.60100,-0.41537,0.13058,-0.20099,0.34810,0.32959,0.43174,0.05004,0.35252,-0.80816,0.31840,-0.27503,0.29117,-0.81537,0.11338,-0.13119,0.61728,-0.61300,0.35675,-0.57264,0.29183,-0.04399,0.39756,-0.20987,0.51158,-0.26216,0.78345,-0.22673,0.27583,-0.57194,0.25683,0.10489,0.44686,-0.39248,0.26792,-0.47236,0.33954,-0.70768,0.26173,-0.64325,-0.00086,-0.47555,0.20972,-0.45909,0.30132,-0.43332,0.01338,-0.87619,0.22647,-0.48328,0.62054,0.37078,0.85618,0.10734,0.41570,0.45681,0.88349,-0.74497,-0.43382,-0.32322,0.41023,-0.28686,0.33895,0.11860,0.28478,-0.39323,0.03468,-1.03897,0.34172,-0.94010,0.47498,-0.55434,0.13337,-0.07258,0.31783,-0.70527,-0.02652,-0.18461,0.48533,0.32714,0.63696,0.36445,1.05436,0.23653,0.58298,-0.67409,-0.26175,-0.45785,0.04920,-0.51074,0.26973,-0.58477,-0.05930,-1.16957,-0.03542,-0.72183,0.19427,-0.80431,0.35903,-0.36320,0.14583,-0.26216,0.34944,-0.84113,-0.12678,-0.58715,0.72203,-0.38915,0.32039,-0.01102,0.51403,0.21712,0.61190,-0.75472,-0.10660,-0.86632,0.48298,-0.05974,0.15495,-0.91519,-0.30986,-1.33544,0.03089,-0.81949,0.32303,-0.65620,0.33686,-0.32184,0.53141,-0.06683,0.13954,-1.17025,-0.28019,-0.74646,-0.21844,-0.23873,0.01548,-1.03106,0.58839,-0.25883,0.85657,0.00982,-0.10664,-0.47058,-0.12928,-0.61644,0.06124,-1.08889,-0.15006,-0.77107,0.72958,-0.24666,0.42735,-0.37451,0.12789,-0.54768,0.59913,-0.00360,0.23519,-0.47246,-0.37312,-0.84277,-0.42211,-1.06186,-0.56134,-0.36327,0.32465,0.06153,0.99063,0.57811,0.71441,-0.54345,0.36200,-0.49506,-0.01452,-0.52886,0.38316,-0.66317,0.60163,-0.74976,0.39243,-0.47248,0.03178,-0.68554,0.61447,-0.35331,0.64056,-0.32997,-0.23356,-1.41429,-0.41754,-0.92361,0.37621,-0.64046,0.17970,-0.13504,0.85642,0.91510,0.97684,-0.10348,0.53214,-0.46240,0.25131,-0.92766,0.33967,-0.59252,0.39770,-0.31982,0.35520,-0.08169,0.21180,-0.00220,0.49667,-0.68773,0.21965,-0.69966,-0.26028,-0.98724,-1.10811,-1.38476,-0.07571,-0.57904,0.27731,-0.06559,0.95730,0.24248,1.02566,0.01707,0.48729,0.06270,0.64924,-0.21188,0.54153,-0.01736,0.76443,-0.21257,0.08224,-0.08993,0.65635,-0.43693,0.47354,-0.41333,0.06905,-0.28807,0.49155,-1.06581,-0.16527,-0.90106,0.15730,-0.21951,0.46410,0.07229,0.59603,-0.28615,0.48919,-0.00657,0.45956,-0.11855,0.74602,0.07120,0.43805,0.12044,0.24352,-0.62431,0.20361,-0.64252,0.29006,-0.12832,0.64519,-0.07772,0.00211,-0.31046,0.41551,-0.48160,0.30792,-0.35243,0.10919,-0.31332,0.42331,-0.73665,0.07876,-0.78272,0.46529,-0.51328,0.84568,-0.08781,0.18319,0.16164,0.14318,-0.48723,0.16922,-0.06443},
{ -0.70288,0.44072,-0.55594,0.09461,-0.33776,0.47044,-0.16878,0.29966,-0.62250,0.08720,-0.39099,0.39644,-0.42449,0.07214,-0.64039,0.63551,-0.37421,0.60883,-0.65247,0.57879,-0.46536,0.26052,-0.68174,0.45856,-0.69021,0.58399,-0.44925,0.35516,-0.32234,0.21699,-0.58374,0.34145,-0.16797,0.63417,-0.26094,0.32862,-0.21268,0.24877,-0.45978,0.62301,-0.20474,0.56456,-0.53948,0.28193,-0.05444,0.54004,-0.53673,0.29717,-0.09760,0.23046,-0.31629,0.71246,-0.01281,0.28368,-0.12103,0.01901,-0.27249,0.39569,-0.32375,0.15584,-0.45058,0.38860,-0.03391,0.38803,0.05614,0.61674,-0.35610,0.46952,-0.09937,0.97976,0.28656,0.43263,0.40762,0.89591,-0.06824,0.78730,0.22866,0.66324,0.24948,0.71533,-0.07001,0.68263,-0.42349,0.11120,-0.67145,0.34047,-0.45269,0.13610,-0.45375,0.06844,-0.52560,0.40573,-0.39376,0.12799,0.10222,0.88521,0.37309,0.78469,0.62486,1.06949,0.91731,1.67380,0.61461,1.46638,0.17682,0.82781,0.17815,0.68822,-0.20359,0.11537,-0.14992,0.35224,-0.40198,0.40711,-0.44696,0.42572,-0.29702,0.35555,-0.29147,0.79849,0.20157,0.71598,-0.06266,1.17585,0.30623,1.21651,-0.05035,0.72857,-0.30887,0.57388,0.05320,0.72404,1.02636,1.51029,0.36563,0.23415,-0.42765,0.32841,-0.70794,0.50440,-0.13188,0.17652,-0.09778,0.56218,-0.39322,0.25327,0.16412,0.50698,-0.39101,0.72702,0.13784,0.91736,0.02961,0.22163,-0.76080,-0.42965,-0.98515,-0.12923,-1.03398,0.16751,0.10055,0.61244,-0.11381,0.39236,-0.58128,-0.14860,-0.73764,0.07693,-0.08409,0.19073,-0.37072,0.67656,-0.58381,0.50137,-0.06632,0.76298,-0.15535,0.21633,-0.69952,-0.11749,-0.21567,0.03068,-0.90069,-0.16401,-0.87642,-0.72550,-0.70869,-0.44802,-0.91957,-0.50587,-1.03586,-0.39764,-0.91523,-0.15504,-0.44321,-0.03966,-0.65189,0.52491,-0.69638,0.20351,-0.25828,0.31837,0.00470,-0.00455,-1.29223,-0.30118,-0.89921,-0.41843,-0.91283,-0.70683,-0.41795,0.65553,-0.48299,-0.06892,-0.75746,-0.28940,-1.65940,-0.49257,-1.51729,-0.46795,-1.47238,-0.19137,-0.96513,0.27599,-0.15708,0.06326,-0.62039,0.26764,-0.06093,0.61336,-0.27335,-0.49150,-1.09327,-0.65548,-1.46218,-0.58188,-0.93756,-0.24369,-0.74335,-0.26528,-0.03724,-0.34466,-0.85373,-1.50537,-2.46057,-1.34403,-1.58097,-0.69665,-1.68201,-0.11042,-0.83478,-0.03080,-0.54995,0.63165,-0.58279,0.09174,-0.34199,0.76817,-0.76865,-0.26409,-1.03259,-1.01761,-0.90244,-0.84971,-0.94437,-0.04022,-0.90660,1.15574,0.18495,-0.75310,-1.65738,-1.08348,-2.07099,-0.87622,-1.10272,-0.98657,-1.70508,-0.66307,-1.01508,0.06795,-0.06582,0.02282,-0.66432,0.50379,-0.17082,0.37761,-0.39455,-0.01241,-0.78004,-0.04138,-0.92163,-0.43835,-0.48109,0.30671,-0.31461,1.00845,0.13463,-0.44107,-1.17827,-0.95165,-1.21500,-0.32464,-1.06362,-0.64288,-1.18056,-0.28262,-0.76002,0.03872,-0.40176,0.50329,-0.62301,0.57714,-0.13940,0.14319,-0.66331,-0.05390,0.34953,0.16148,-0.79215,0.15559,0.05966,0.68843,0.26298,1.33127,-0.33899,-0.04028,-0.65377,0.04654,-0.74493,-0.00975,-0.14103,0.22626,-0.06851,0.64636,-0.18609,-0.05592,-0.12552,0.62285,-0.40389,0.21873,-0.37598,0.35562,-0.30922,0.69538,0.66595,0.74021,-0.33906,0.21755,-0.44820,0.57999,0.35436,1.13160,0.08995,0.39104,-0.57299,0.04057,-0.57643,0.77693,0.31537,0.37265,0.10353,1.25973,0.02862,0.11150,-0.21180,0.10004,-0.64118,0.51683,-0.47045,0.11280,-0.33100,0.67708,-0.10383,0.21344,-0.57036,-0.20060,-0.58817,-0.24819,-0.27232,0.91788,-0.33496,0.11034,-0.78383,0.00553,-0.06223,0.33667,0.11487,0.57485,0.73336,0.95559,0.15044,0.33118,-0.54966,0.36484,-0.59122,0.07311,-0.23335,0.14831,-0.39662,0.87020,-0.33523,0.25257,-0.40907,0.22984,-1.32058,-0.41197,-0.91165,0.01979,0.04819,0.40122,-0.97700,0.45625,-0.63369,0.25060,0.10998,0.94514,0.57755,0.37725,-0.26520,0.08460,-0.53472,0.63824,-0.17739,0.15438,-0.52558,-0.02288,0.07154,0.47544,-0.16232,0.18064,-0.81980,0.21528,-0.71216,-0.49024,-0.28152,0.86976,-0.43293,0.23122,-0.80978,0.08067,0.17091,0.72852,0.45905,0.81624,0.00911,0.77069,-0.43528,0.47774,-0.39547,0.17516,-0.40845,0.26181,-0.37473,0.38812,-0.72428,0.79883,-0.44555,-0.02423,-0.06403,0.11888,-0.19287,-0.25030,0.19813,1.22675,-0.42212,-0.47681,-1.07063,0.36528,0.02208,0.22870,-0.58486,0.25641,-0.32897,-0.00091,-0.11012,0.32215,-0.05431,0.15060,-0.54995,0.49024,-0.50768,0.09053,-0.46492,0.09392,-0.32934,0.05563,-0.51043,0.70474,0.15037,0.28347,0.30744,0.87916,-0.59228,-0.60258,-0.65617,0.09815,-0.04827,0.63864,-0.05684,0.47805,-0.01196,-0.18911,-0.72922,-0.02722,-0.01786,0.17975,-0.57698,0.42498,0.07486,0.32775,-1.03775,0.04521,-0.40952,0.97626,-0.00556,0.85190,0.59356,1.23129,0.94602,1.12988,0.30452,0.81817,-0.25827,0.87385,0.06915,0.35286,0.27686,0.94610,-0.24390,-0.06259,-0.79106,0.60723,-0.31931,0.32395,-0.02147,0.33720,-0.20621,0.24824,-0.62660,-0.35305,-0.29291,0.53111,0.04812,1.17642,0.74642,1.53451,1.06395,1.12018,0.38468,0.93066,0.39491,0.94774,0.02105,0.69280,-0.03436,0.26145,-0.64377,0.26194,-0.26284,0.06690,-0.58549,0.55961,-0.10544,0.70172,-0.63958,0.57555,-0.73783,0.05402,-0.51767,0.43210,0.21070,1.06504,0.20075,0.60955,0.37941,0.56771,-0.40372,0.81603,-0.16651,0.96402,0.28691,0.82194,-0.54429,0.50681,-0.62966,0.16835,-0.42332,0.52653,-0.66063,0.58638,-0.07162,0.61441,-0.49886,-0.00671,-0.80059,-0.35936,-1.26711,0.34041,0.15015,1.38959,0.68545,0.57807,0.42028,0.98789,0.76176,0.47163,0.52160,1.17157,0.19872,-0.03556,-0.65488,0.09534,-0.61894,0.53861,-0.58040,0.01703,-0.36879,0.41210,-0.57627,0.49295,-0.33505,0.53173,-0.39847,-0.02061,-0.75914,-0.56252,-0.60884,0.03775,-0.35054,-0.01146,-0.79837,0.34467,-0.22307,1.08480,0.40403,0.13714,-0.78280,-0.23293,-0.61538,0.25679,-0.66585,0.12211,-0.56763,0.62030,-0.20249,0.61236,-0.60732,0.54642,-0.53530,0.68237,-0.43392,0.21181,-0.61502,0.04093,-0.87663,-0.03461,-0.92217,-0.30306,-1.06456,0.04477,-0.28638,-0.11946,-0.55264,0.12835,-0.63908,-0.27274,-0.36264,0.17002,-0.42046,0.06717,-0.33474,0.24101,-0.06318,0.60536,-0.48138,0.63174,-0.64107,0.59035,-0.57925,0.39230,-0.30497,-0.01116,-0.33855,0.07046,-0.71483,0.35412,-0.51609,0.27632,-0.73634,-0.65151,-0.31561,0.25882,-0.79640,0.09368,-0.50239,0.21091,-0.36989,0.02167,-0.59418,0.37761,-0.34761,0.07022,-0.00857,0.46206,-0.66151,0.54384,-0.52379,0.18632,-0.31986,0.52439,-0.46192,0.13207,-0.07718,0.34214,-0.34552,0.24233,-0.35359,-0.04184,-0.42123,0.48618,-0.30262,0.10450,-0.46707,0.39580,-0.34738},
{ 1.15342,0.23703,-0.11346,0.07616,-0.47946,0.60498,-0.37760,0.17522,-0.09259,0.09462,-0.54252,0.62782,-0.69302,0.33374,-0.04534,0.50691,-0.59576,0.09460,-0.21671,0.14916,-0.27014,0.06634,-0.60508,0.00167,-0.04250,0.26009,-0.61112,0.06431,-0.09371,0.61860,-0.36701,0.67508,-0.45067,0.39996,-0.66361,0.19113,-0.01519,0.49630,-0.15117,0.63310,-0.42948,0.40774,-0.38915,0.22597,-0.51058,0.31562,-0.22942,0.27902,-0.64692,0.63076,-0.15032,0.37096,-0.17635,0.05371,-0.46893,0.63740,-0.65759,0.59282,-0.39572,0.19708,-0.64066,0.17631,-0.14611,0.14590,-0.69375,0.30035,-0.16179,0.29694,-0.54749,0.00558,-0.41252,0.18002,-0.07056,-0.05783,-0.53911,0.50499,-0.26033,0.20432,-0.58325,0.54689,-0.51004,0.61446,-0.67427,0.45807,-0.21650,0.18827,-0.28954,0.56798,-0.13476,0.38767,-0.44270,0.01152,-0.52833,0.03070,-0.50470,-0.16165,-0.56814,0.07338,-0.81055,-0.15896,-0.24678,-0.20823,-0.87198,0.02792,-0.52455,0.43002,-0.44901,0.03684,-0.60562,0.49199,-0.44762,0.57073,-0.03771,0.26101,-0.62518,0.45898,-0.10045,0.59182,-0.49237,0.14613,-0.26086,-0.20926,-0.54351,-0.07503,-0.73729,-0.57612,-0.96501,-0.07832,-0.71918,0.13704,-0.20551,0.37062,-0.53026,0.08277,-0.48342,0.56594,-0.18868,0.55508,-0.00789,0.48433,-0.32313,0.54250,-0.33344,0.64593,-0.57536,0.65597,-0.02181,0.12994,-0.38222,-0.48890,-1.52670,-0.37216,-1.36227,-0.40098,-1.21678,0.26957,-0.55021,-0.16037,-1.26274,-0.36235,-0.37356,0.76730,-0.24140,0.79884,0.11777,0.93730,-0.22326,0.02009,-0.04824,0.37408,-0.41649,0.57737,-0.27768,0.43873,-0.45906,0.05690,-1.03269,-0.14371,-1.20200,-0.27046,-1.10797,-0.68787,-1.19023,0.15257,-0.99125,-0.72595,-1.17658,-0.04675,-0.09683,0.85476,0.15190,1.10318,0.40229,1.23732,-0.22922,0.11842,-0.48327,0.09308,-0.65738,0.02477,-0.48915,0.07022,-0.57129,-0.39968,-1.10519,-0.59063,-1.84585,-1.00089,-1.06722,-0.26287,-0.98707,0.17530,-1.27599,-0.54687,-0.83408,0.19312,-0.22161,0.73899,0.12761,1.11191,0.36415,0.83372,0.32979,0.26939,-0.40640,0.65635,-0.61263,0.20437,-0.31795,0.05408,-0.68351,-0.28729,-1.35484,-0.57673,-1.52784,-0.82922,-1.31043,0.52245,-0.16160,0.38744,-0.20174,0.31430,0.07264,0.76008,-0.48814,0.10795,-0.38659,0.78993,0.05797,0.60767,0.28157,0.77996,-0.46273,0.17854,-0.53182,0.26208,-0.35535,0.06688,-0.33928,0.11469,-0.90241,-0.38258,-1.34076,-0.82536,-0.11319,0.81300,0.63403,0.60505,-0.15445,0.34281,-0.16867,0.41994,-0.71280,0.13593,-0.36791,0.68951,-0.01110,1.49609,0.64552,0.80705,-0.18939,0.51627,-0.48331,0.03658,-0.40685,0.06221,-0.40739,0.19875,-0.90680,-0.39350,-1.07456,0.05121,0.02603,1.21405,1.10654,1.66651,0.63923,0.65691,0.19749,0.18331,-0.64972,0.19220,-0.03167,0.61339,0.14614,0.93343,0.29777,0.43571,-0.38483,0.58774,-0.49625,0.51492,-0.58553,0.45642,-0.16559,-0.29851,-0.57025,-0.28163,-1.08485,0.16225,-0.18481,0.39405,0.89252,1.01143,0.57570,0.43236,-0.46224,-0.37923,-1.71082,-0.14754,-0.96505,-0.35276,-0.47044,0.44252,-0.13639,0.64619,-0.10034,0.31000,-0.04840,0.45596,-0.34826,0.17254,-0.23524,0.29418,-0.17597,0.05280,-0.63651,0.10365,-0.73387,0.51241,0.75774,1.29995,0.73442,0.37156,-0.86232,-0.99245,-2.09950,-0.71915,-1.09234,-0.53699,-1.22094,0.16767,-0.36555,0.58415,-0.55293,0.07651,-0.62010,0.67671,-0.50394,0.07694,-0.09430,0.64876,-0.34133,0.07372,-0.15311,0.13981,-0.77327,0.18543,0.43704,1.70549,-0.29590,-0.17277,-0.59392,-0.58475,-1.64452,-0.83335,-1.55336,-0.32772,-1.00650,0.06583,-0.32549,0.02974,-0.00266,0.15172,-0.58374,0.28722,-0.36577,0.29107,-0.60602,0.13579,-0.16891,0.14530,-0.35274,-0.11898,-0.82802,0.25916,0.12771,0.79390,-0.02131,0.41911,-1.06723,-0.39770,-1.20789,-0.74386,-1.41703,-0.27069,-0.54163,-0.10705,-0.71234,0.13774,-0.58052,0.24839,-0.65671,0.38091,-0.57717,0.16340,-0.60594,-0.12369,-0.84584,0.42851,-0.74155,-0.26544,-0.54326,0.43692,-0.05975,0.67959,-0.46384,0.45524,-1.09297,0.11497,-1.16075,-0.35570,-1.22965,-0.37675,-0.93544,-0.01778,-0.29469,0.45685,-0.08315,0.16883,-0.50141,0.28119,-0.00164,0.53236,-0.44756,0.49025,-0.59608,-0.04979,-0.32142,0.31075,-0.28580,-0.12343,-0.08235,0.45043,-0.33782,-0.40750,-1.25684,0.04807,-0.55004,-0.60734,-1.30857,-0.30179,-0.78955,0.12509,-0.15649,0.15863,-0.42200,0.27706,-0.12085,0.31187,-0.53545,0.67093,0.01786,0.35716,-0.59343,-0.12361,-0.99348,0.13559,-0.84510,-0.05184,-0.29927,0.65765,-0.34043,-0.64154,-1.25319,0.39256,-0.51924,-0.20131,-1.21980,-0.41835,-0.96533,0.09167,-0.50525,0.08007,-0.45470,0.44761,-0.48656,0.01772,-0.01952,0.63234,-0.59307,0.99618,-0.33818,0.35589,-0.67821,-0.38366,-0.45841,0.47520,0.44983,0.68397,-0.54213,-0.35649,-0.36365,0.28685,-1.04377,-0.22567,-0.80583,0.04977,-0.45891,0.19193,-0.36378,0.12008,-0.66248,0.41618,-0.36986,0.32968,-0.72269,0.02093,-0.31034,0.31900,-0.13446,0.62450,0.05212,0.20071,-0.36664,0.13900,0.84511,0.76928,-0.52252,0.16024,-0.17985,-0.07097,-0.34193,-0.29132,-0.81280,-0.14258,-1.05932,0.09221,-0.51826,0.53235,-0.49223,0.51508,-0.05742,0.05727,-0.71053,0.10528,-0.95212,0.15465,-0.19938,0.26813,-0.20049,0.06376,-0.26322,0.04875,-0.20428,0.92930,-0.05098,0.32688,0.27277,0.48012,-1.01230,-0.19211,-0.81107,0.08161,-0.69289,0.44163,-0.51842,0.67566,-0.60890,0.22580,-0.01956,-0.00532,-0.17528,-0.25279,-0.95604,0.48456,0.01983,0.30374,-0.49807,-0.06164,-0.21980,-0.07352,-0.35564,0.51744,-0.07222,0.21350,0.06723,0.80030,-0.52413,-0.72597,-1.01286,-0.23030,-0.66792,-0.01480,-0.43284,0.02961,-0.18669,0.29173,-0.11572,0.59998,-0.60349,-0.19929,-0.18428,0.62167,-0.35730,0.56970,0.01069,0.19965,-0.39515,-0.59759,-0.52172,0.37502,-0.67320,0.66974,0.96140,0.47880,-0.55235,-0.10362,-0.72434,0.39501,-0.82348,0.54564,-0.61576,0.30043,-0.24507,0.12292,-0.23210,0.42109,-0.08410,0.64976,-0.16079,0.22735,0.02441,0.40857,-0.12289,0.56303,-0.42175,-0.06240,-0.80176,0.16081,-0.20969,0.81199,0.41278,0.76688,-0.86473,0.18306,-0.65427,0.53886,-0.59858,0.38672,-0.50856,0.40620,-0.68744,0.31290,-0.45071,0.37708,-0.55182,0.13292,-0.59368,0.50165,-0.56957,-0.34423,-1.03865,-0.42663,-0.74153,0.20260,-1.16014,-0.33495,-0.93943,-0.09582,-0.67035,-0.04002,-0.79575,0.27894,-0.31867,0.19197,-0.36274,0.43783,-0.27014,0.37558,-0.65216,0.31694,-0.58804,0.52385,-0.42083,0.41534,-0.13627,-0.09382,-0.60007,0.10287,-0.51843,0.15438,-0.19666,-0.09045,-0.41023,0.52780,-0.11598,0.47364,-0.11989,0.22093,-0.34886,0.35697,-0.29074,0.44126,-0.11113},
{ 0.64095,0.10765,-0.52419,0.55701,-0.62747,0.33372,-0.43187,0.18442,-0.60911,0.44327,-0.63072,0.41118,-0.37801,0.09297,-0.14498,0.56670,-0.31874,0.62032,-0.60683,0.63720,-0.07880,0.67784,-0.01939,0.33732,-0.68858,0.64776,-0.57263,0.57765,-0.25702,0.04425,-0.27483,0.39669,-0.33236,0.69544,-0.34277,0.60697,-0.09076,0.20016,-0.01381,0.36848,-0.04030,0.46597,-0.19001,0.33431,-0.05989,0.53528,-0.24733,0.25588,-0.02383,0.40639,-0.22778,0.18702,-0.28580,0.13628,-0.01200,0.12894,-0.64848,0.06676,-0.01089,0.39504,-0.64501,0.48340,-0.34108,0.16007,-0.11533,0.45503,-0.14728,0.45249,-0.30334,0.38460,-0.10740,0.64106,-0.14144,0.16095,-0.58245,0.56507,-0.24358,0.01984,-0.06083,0.05794,-0.40458,0.29952,-0.48918,0.18328,-0.43223,0.61414,-0.36168,0.68976,-0.17063,0.69670,-0.21147,0.37111,-0.05080,0.44808,-0.70281,0.27037,-0.70874,0.19711,0.02914,0.17472,-0.42073,0.43417,-0.64104,0.21649,-0.68953,0.64156,-0.59186,0.62358,-0.09312,0.10902,-0.65362,0.53159,-0.27554,0.52026,-0.22883,0.16401,-0.33076,0.43249,-0.45424,0.01720,-0.53953,0.40076,-0.42657,0.27779,-0.54859,0.17702,-0.38936,0.58247,-0.57998,0.28094,-0.06644,0.42566,-0.58783,0.24391,-0.52246,0.44202,-0.06644,0.56121,-0.69124,0.24442,-0.21574,0.65578,-0.15252,0.64010,-0.51696,0.39743,-0.36348,0.50452,-0.51289,0.57969,-0.49291,0.37182,-0.21585,0.69005,-0.30634,0.01881,-0.35835,0.48741,-0.66034,0.09192,-0.56313,0.33712,-0.09678,0.57609,-0.07597,0.40374,-0.26849,0.25817,-0.49184,0.13955,-0.41879,0.06915,-0.53701,0.52625,-0.70717,0.07547,-0.13118,0.65478,-0.02302,0.42464,-0.16009,0.24464,-0.43974,0.76585,-0.12585,0.20587,-0.21383,0.66772,-0.43098,0.54369,-0.19781,0.58852,-0.02265,0.40590,-0.45517,0.40197,-0.34060,0.24522,-0.54971,0.55133,-0.47047,0.10602,-0.27741,0.11999,-0.61593,0.15771,0.15539,0.72042,-0.09619,0.25656,-0.01366,0.70045,-0.17457,0.00018,-0.52179,0.07907,-0.20741,0.61565,-0.09549,0.70018,0.07268,0.69232,-0.04604,0.17028,-0.24512,0.36693,-0.29551,0.45334,-0.76895,0.21871,-0.09902,0.05844,-0.24936,0.57923,-0.37842,0.37585,0.07121,0.73222,-0.04802,0.44355,-0.58396,0.08337,-0.45220,0.70700,-0.36085,0.87185,-0.51091,0.65065,-0.44624,0.44803,-0.10628,0.06602,-0.45656,0.61827,-0.37613,0.12531,-0.73017,0.55952,-0.02398,0.40397,-0.46280,0.85286,-0.23178,0.75521,0.08587,0.62557,0.01823,0.28734,-0.48575,-0.03310,-0.45307,0.29702,-0.33454,0.80518,-0.15454,0.82634,-0.58599,0.43235,-0.27592,0.56390,-0.14016,0.05927,-0.16282,0.46361,-0.56256,0.45313,-0.55828,0.18168,-0.14155,0.40208,-0.27127,0.64979,-0.51041,0.53805,-0.22844,0.46716,-0.41057,0.57546,-0.60409,0.47318,0.15482,0.43716,-0.02173,0.71630,-0.58469,0.60273,-0.47850,0.41259,-0.01134,0.60085,-0.68612,0.23411,-0.33847,0.65219,-0.42260,0.66423,-0.18887,0.50954,-0.16887,0.34632,-0.46120,0.42230,-0.67092,0.39216,-0.30228,0.14827,-0.26165,0.23703,-0.08579,0.85894,-0.07619,0.65099,-0.07714,0.57856,-0.64599,0.60037,-0.32779,0.30329,-0.03685,0.35603,-0.30646,0.23125,-0.10496,0.53174,-0.67548,0.21260,-0.29551,0.57252,-0.71096,0.22322,-0.49933,0.45847,0.01731,0.41970,-0.00307,0.33521,-0.11897,0.05373,-0.21168,0.72690,0.11369,0.60927,-0.50430,0.02080,-0.26162,0.34985,-0.18279,0.25004,-0.42334,0.48391,0.01211,0.34227,-0.45184,0.02920,-0.18706,0.13076,-0.37439,0.42704,-0.16655,0.15700,-0.44343,0.49609,-0.03395,0.22827,-0.25021,0.01009,-0.27116,0.27251,-0.00834,0.30065,-0.12342,0.70380,-0.14907,0.33679,-0.22497,0.30170,-0.15117,0.40149,-0.23780,0.27769,-0.50814,0.67323,-0.39473,0.72536,-0.18824,0.63300,-0.21184,0.25423,-0.45793,0.42782,-0.12533,0.31591,0.15329,0.02288,-0.70712,0.67909,-0.65377,0.15301,-0.62256,0.03716,-0.37769,0.30059,-0.18569,0.31224,-0.27775,0.36413,-0.29566,0.17056,-0.17717,0.29203,-0.27414,0.88443,-0.07564,0.13896,0.04973,0.53324,0.05555,0.58859,-0.41488,0.21208,-0.50544,0.27237,-0.15859,0.45703,-0.64243,0.30614,-0.38432,0.32979,-0.02905,0.36155,-0.58917,0.04498,-0.00834,0.35845,0.03071,0.68525,-0.01421,0.62834,-0.18907,0.51784,-0.17705,0.65785,0.09632,0.77192,-0.15023,0.38626,-0.06698,0.48009,-0.48515,0.23115,-0.11774,0.68168,-0.53957,0.30130,-0.10133,0.22256,-0.30395,0.62065,-0.50480,0.34543,-0.50056,0.23063,-0.48961,0.67795,-0.16159,0.43681,-0.09565,0.42723,-0.34560,0.79817,-0.22671,0.73225,-0.17536,0.77157,0.00512,0.35490,-0.55625,-0.00581,0.00967,0.56789,-0.28693,0.70464,-0.50007,0.14554,-0.17004,0.31102,-0.36576,0.24717,-0.48531,0.08931,-0.45673,0.23190,-0.47233,0.54442,-0.18969,0.54053,-0.38430,0.86238,-0.29794,0.64615,0.00936,0.84386,0.04686,0.37959,-0.11948,0.12395,-0.42505,0.65177,-0.53068,0.60130,-0.04403,0.03780,-0.67839,0.37154,-0.47827,0.16216,-0.22246,0.62929,-0.66834,0.78817,-0.66392,0.17629,-0.56140,0.49904,-0.18506,0.76931,0.02659,0.52749,-0.33771,0.60584,-0.01090,0.02152,-0.23710,0.20045,-0.33706,0.12794,-0.12852,0.47801,-0.13542,0.37966,-0.29691,0.27732,-0.25449,0.40790,-0.29238,0.49844,-0.54198,0.27459,-0.22380,-0.01281,-0.73757,0.17460,-0.09954,0.29669,0.12007,0.22029,-0.24152,0.51445,-0.22288,0.15412,-0.39857,0.25791,-0.32616,0.59164,-0.54116,0.47229,-0.53679,0.50486,-0.13896,0.26504,-0.38278,0.52164,-0.28275,0.69618,-0.37328,0.38666,0.06815,0.67838,-0.28397,0.35770,-0.44117,0.57967,-0.22299,0.13319,-0.16180,0.12428,-0.17585,0.21947,-0.33828,0.60389,-0.61956,0.61441,-0.48831,0.25497,-0.32887,0.34268,-0.12658,0.09085,-0.22235,0.50452,-0.01722,0.24821,-0.27824,0.65171,-0.42849,0.23091,-0.44103,0.32181,-0.29213,0.10276,-0.57177,0.34632,-0.01682,0.57643,-0.46287,0.28975,-0.02431,0.41987,-0.59709,0.02103,-0.20301,0.26570,-0.01283,0.53319,-0.29626,0.23860,-0.58341,0.54798,-0.54796,0.59750,0.04445,0.23697,-0.06258,0.60369,-0.14562,0.24202,0.02565,0.28271,-0.00339,0.80894,-0.16707,0.62535,0.02630,0.34338,-0.36543,0.53338,-0.52635,0.61140,-0.24117,0.06631,-0.08394,0.56045,-0.01357,0.61436,-0.46800,0.53197,-0.57822,0.72802,-0.33318,0.40752,-0.08738,0.07141,-0.26694,0.34095,-0.11551,0.09165,0.01742,0.03082,-0.11311,0.61028,-0.26878,0.58201,-0.19079,0.20058,-0.45509,0.56236,-0.38215,0.26487,-0.52585,0.52263,-0.27871,0.65820,-0.33007,0.05229,-0.06963,0.68612,-0.25066,0.46065,-0.39952,0.27884,-0.35286,0.63260,0.01247,0.64646,-0.26428,0.24190,-0.45628,0.02966,-0.25020,0.50063,-0.68934,0.06169,-0.25185,0.33401,-0.61698},
{ -1.86890,0.33420,-0.06975,0.52075,-0.09181,0.33260,-0.56255,0.63521,-0.28910,0.13368,-0.43734,0.41856,-0.45492,0.47567,-0.54071,0.26938,-0.63057,0.67781,-0.21691,0.06932,-0.26233,0.31680,-0.33079,0.22859,-0.37034,0.66438,-0.47940,0.28257,-0.30188,0.11387,-0.00704,0.68758,-0.51509,0.16970,-0.37878,0.32503,-0.65641,0.02306,-0.20308,0.03842,-0.22720,0.67930,-0.43321,0.38098,-0.09884,0.29885,-0.49365,0.32827,-0.42196,0.63721,-0.24781,0.58366,-0.67768,0.07604,-0.46998,0.07518,-0.66816,0.39086,-0.40232,0.47706,-0.13896,0.25116,-0.16077,0.02830,-0.14738,0.64515,-0.64875,-0.01914,-0.66784,0.31193,-0.61018,0.51192,-0.28023,0.14676,-0.60880,0.40754,-0.74547,0.32175,-0.55211,0.32918,-0.24750,0.56756,-0.47280,0.30225,-0.00134,0.10896,-0.16383,0.31593,-0.10492,0.68541,-0.34066,0.71013,-0.42214,0.12065,-0.50250,-0.07604,-0.49130,0.38543,-0.15467,0.01093,-0.57734,0.02991,-0.22273,0.01292,-0.13577,0.52186,-0.62690,0.31578,-0.21462,0.33982,-0.63389,0.58406,-0.50399,0.59748,-0.28927,0.27085,-0.34093,0.38445,-0.02346,0.80972,0.09083,0.52865,-0.68516,0.37082,-0.70714,0.33660,-0.18368,0.84801,-0.01566,0.11057,-0.56348,0.47926,0.00331,0.54992,-0.64639,-0.23519,-0.63930,0.19710,-0.47928,0.16487,-0.45160,0.28132,-0.31239,0.41986,-0.27276,0.62636,-0.04113,0.31078,-0.25391,0.00986,-1.03691,0.06678,-0.65781,0.82657,0.05608,0.37120,-0.61002,-0.08280,-0.87842,-0.57802,-1.17882,-0.33643,-0.98678,-0.58163,-0.76750,0.36784,-0.08071,0.36296,-0.55921,0.05683,-0.42182,0.62590,-0.03015,0.62502,0.13157,0.64066,-0.17523,0.07051,-0.47491,0.19316,-0.17945,0.52549,-0.08564,0.19384,-0.03817,0.73221,0.29850,1.02743,-0.17291,0.22512,-1.05735,-0.72279,-1.31779,-0.40541,-0.77173,0.48846,-0.24287,0.27369,-0.44014,0.12138,0.06834,0.86604,0.12505,0.56269,-0.09610,0.04950,-0.50439,-0.09901,-0.36457,1.22076,0.51982,1.75987,0.65860,0.96112,0.60511,1.01123,0.50972,0.39563,-0.20011,-0.24377,-1.16812,-0.64698,-0.79920,0.06795,-0.23394,0.37526,-0.22549,0.18625,0.04550,0.81343,-0.28157,0.25504,0.04854,-0.06666,-0.54153,0.27933,-0.15208,0.53682,0.63035,1.56380,1.04395,1.67028,0.80870,1.26976,0.43446,0.57460,0.03406,0.36100,-1.09012,-0.68614,-0.95042,0.29665,-0.03216,0.38974,-0.59799,0.23096,-0.06132,0.40407,-0.95453,0.50377,-0.05227,0.02545,-0.57884,0.43492,-0.62903,0.36443,0.56138,2.51278,1.54365,1.28185,0.92664,0.88342,0.36019,1.43177,0.36055,0.77859,-0.78124,-0.24527,-0.72690,0.07223,-0.03682,0.55934,-0.58149,0.16383,0.02178,0.22264,-0.31095,0.18000,-0.67204,0.01461,-0.70642,-0.29390,-0.78854,0.05367,0.63518,2.60438,1.53044,1.26432,0.28128,1.47069,1.44772,1.57832,0.63981,1.58925,-0.03365,0.52400,-0.45152,0.09737,-0.36309,0.04390,-0.01672,0.65594,0.04247,0.53648,-0.50032,-0.01981,-0.35489,0.08484,-1.11401,-0.08700,-0.81453,0.06959,1.02678,2.75511,0.79305,-0.16293,0.45575,1.24508,1.06177,2.15136,1.00262,1.79214,0.66995,0.89284,0.02477,0.60129,-0.32783,0.04715,-0.06060,0.66716,-0.35409,0.70158,-0.01635,0.28617,-0.21818,-0.28849,-0.22779,-0.31282,-1.22574,-0.11241,0.95935,2.76859,1.43253,0.63936,-0.00170,0.84453,0.62180,0.98495,0.78080,1.61916,0.53093,0.89560,-0.48694,0.42079,-0.29187,0.54037,-0.13999,0.26954,0.10052,0.77792,0.26059,0.71473,-0.24811,-0.13839,-0.25739,0.22298,-0.89964,-0.35394,0.33358,1.72149,0.96872,1.13445,0.21669,0.16412,-0.48323,0.19931,-0.26223,0.47128,-0.34685,0.50374,-0.32287,0.70483,-0.47038,0.33319,-0.02077,0.49883,-0.19136,0.40355,-0.22323,0.17884,-0.42526,-0.72638,-0.43792,-0.48869,-1.27761,0.30078,-0.22502,0.72554,0.75836,0.36667,-0.48484,0.11563,-0.33560,-0.08412,-0.68798,0.04247,-0.12559,-0.06892,-0.28376,0.65993,-0.25752,0.05350,-0.44583,0.32138,-0.74586,0.32201,-0.64297,0.20540,-1.49443,-0.81064,-1.19562,-0.13190,-1.35956,-0.10119,-0.47094,-0.03617,-0.62868,-0.20037,-0.32145,0.10346,-0.54666,0.46854,-0.05376,-0.22650,-0.86507,0.26182,-0.42729,0.37445,-0.70894,0.53747,-0.41180,0.56658,-0.18158,0.39442,-0.17957,-0.56399,-0.35932,0.65812,-0.66335,0.24866,-1.21838,-1.14353,-1.41448,-0.49857,-0.77727,-0.34563,-0.20420,0.82745,-0.81305,0.65370,0.07692,0.51708,-1.13361,-0.07158,-0.57391,0.05842,-0.07620,0.04401,-0.46459,0.62344,-0.41361,0.04415,-0.29884,-0.02637,-0.97147,0.38619,-0.14137,0.17821,-1.38850,-1.00382,-1.64851,-1.00411,-1.43947,-0.31493,0.32851,0.69754,-0.47661,0.59690,-0.31164,0.78353,-0.63699,-0.48053,-0.76419,-0.00024,-0.18085,0.27168,-0.44115,0.43450,-0.61840,0.80296,-0.28996,0.48748,0.12343,0.56957,-0.21267,0.23536,-0.71967,-0.57400,-1.12852,-0.27400,-0.62744,0.25018,-0.10515,0.14158,0.12298,-0.01054,-0.70409,-0.20520,-1.12978,-0.37515,-0.68931,0.07508,-0.54444,0.05690,-0.10403,0.21039,-0.15190,0.63155,0.07809,0.07687,0.15895,0.22132,-0.60552,0.08420,-0.73481,-0.57046,-0.87631,-0.22734,-0.75730,0.22930,-0.92700,-0.47643,-0.16846,0.01700,-0.58770,-0.48421,-1.33207,-0.00048,-0.30668,0.13838,-0.53123,0.64900,-0.33426,0.43309,0.13324,0.51220,-0.24805,0.30925,0.20259,0.44382,-0.31834,-0.11314,-0.83756,-0.02001,-0.91117,0.20069,-0.84561,-0.51575,-0.91338,-0.50793,-0.29960,0.36773,-0.47034,-0.72930,-1.21849,0.14819,-0.53383,0.07015,-0.09521,0.48642,-0.01453,0.52037,-0.17110,0.28565,-0.00597,0.38270,-0.28908,0.59140,-0.79940,-0.37187,-0.79285,-0.17913,-0.34901,-0.44718,-0.91045,-0.12345,-1.45636,0.15041,-0.07820,-0.00266,-1.12572,-0.60497,-0.86954,-0.05744,-0.37192,0.45613,-0.32021,0.18421,-0.64610,0.55114,-0.13690,0.05286,-0.80153,0.34728,-0.74667,0.50528,-0.41120,0.42941,-0.33565,0.40294,-0.52595,-0.22623,-0.48795,0.20006,-0.24266,-0.03907,-0.85367,-0.27542,-1.35720,-0.46398,-0.17346,0.30627,-0.42174,0.65430,-0.13630,0.37531,-0.07884,0.62285,-0.32883,0.35152,-0.52111,0.46629,-0.36602,-0.26842,-0.18168,0.42548,-0.10278,0.90723,0.20703,0.57627,-0.02125,0.96167,-0.36895,-0.48626,-1.53151,-0.74100,-0.68931,0.02283,-0.63200,0.48825,-0.29968,0.14370,-0.04489,0.48733,-0.50127,0.38007,-0.00512,0.22274,-0.19903,0.69136,-0.38142,0.80858,-0.20451,0.75480,-0.17332,0.15098,-0.39444,-0.01942,0.20696,0.76147,-0.35884,0.08454,-0.84172,0.45200,0.11126,0.10161,-0.40855,0.68055,-0.27064,0.53678,-0.05557,0.23377,-0.58524,0.37017,-0.07815,0.27347,-0.31926,0.46631,-0.09745,0.60491,0.43296,0.49697,-0.10031,1.06616,-0.19953,0.62744,-0.17179,0.67970,-0.03625,0.37053,-0.11527,0.70070,-0.29507,0.58822,-0.28896},
{ 0.16369,0.17407,-0.22981,0.50815,-0.55733,0.36464,-0.02581,0.44345,-0.18699,0.40129,-0.05678,0.19854,-0.04346,0.39897,-0.16613,0.10204,-0.66697,0.02530,-0.29158,0.54588,-0.46573,0.15763,-0.43822,0.54056,-0.64746,0.28865,-0.31938,0.23958,-0.20523,0.32182,-0.61219,0.42056,-0.42901,0.43697,-0.40858,0.03938,-0.40724,0.50553,-0.51627,0.05118,-0.66684,0.34363,-0.06417,0.53518,-0.31639,0.09200,-0.03859,0.04377,-0.63158,0.41841,-0.69254,0.56875,-0.47848,0.32041,-0.69061,0.46284,-0.50731,0.27665,-0.25422,0.63722,-0.49741,0.36139,-0.22349,0.01359,-0.44881,0.16072,-0.21507,0.45768,0.06689,0.09705,0.03579,0.19014,-0.48867,0.60268,-0.05290,0.29904,-0.12152,0.26586,-0.13116,0.50480,-0.24181,0.43485,-0.54678,0.18880,-0.00247,0.23616,-0.14369,0.00407,-0.49902,0.10505,-0.04219,0.22109,-0.59242,0.74806,-0.14202,0.96932,0.15696,1.27417,0.22056,0.50388,-0.14687,0.84960,-0.06350,0.64672,-0.19837,0.22638,-0.30198,0.12220,-0.48926,0.67075,-0.36876,0.29359,-0.06336,0.21548,-0.39093,0.20190,-0.12554,0.10032,-0.48911,0.66700,0.18759,0.69831,0.52183,1.67701,0.41671,0.98610,0.38134,0.45441,-0.10702,0.01718,0.02800,0.34190,-0.16542,0.22269,-0.99890,0.06240,-0.58962,0.03310,-0.53398,0.64029,-0.44625,0.36344,-0.14806,0.62247,0.00972,0.11823,0.05945,0.64640,0.31716,1.20210,0.31801,1.32364,-0.07626,0.44255,0.01785,0.75159,0.22188,1.53286,0.27171,0.58396,-0.27082,-0.14924,-1.19939,-0.07279,-0.81910,-0.05132,-0.47566,0.34818,-0.05525,0.08173,-0.30834,0.06653,-0.27483,0.79911,0.29763,0.80257,0.56754,1.38024,0.13217,0.29479,-0.46965,0.60395,0.75119,0.60416,0.41816,0.91921,0.16896,0.83443,-0.60764,-0.18001,-1.04771,-0.26213,-1.20760,-0.62935,-0.74697,0.28770,-0.27471,0.47059,-0.51461,0.65489,-0.47565,0.68199,0.53644,1.32524,0.23722,0.38996,-0.28731,0.02245,0.07687,0.76441,0.75692,0.83517,0.23617,0.59035,-0.17600,0.20965,-0.51434,0.36270,-0.68642,-0.30155,-1.51128,-0.63867,-0.92902,0.46712,-0.21355,0.42792,-0.01720,0.40679,-0.06846,1.11245,0.47447,0.99605,-0.38076,0.45292,-0.60787,0.35134,-0.44841,-0.13019,-0.73997,1.43359,1.07855,0.68400,-0.02932,0.54836,-0.21127,0.87894,-0.30920,0.17330,-1.43363,-0.54872,-1.11225,0.30514,-0.20849,0.18223,-0.12966,0.20218,-0.29442,0.21355,-0.26200,0.62715,-0.53473,-0.28085,-1.00588,-0.21966,-0.92683,-0.63221,-0.03884,1.16570,1.44198,1.76816,0.98543,1.61381,0.46034,1.00638,-0.37581,0.35344,-1.19548,-0.50091,-1.08112,-0.17182,-0.61288,0.30201,-0.13223,0.20069,-0.65349,0.07006,-0.03769,0.21945,-1.19759,-0.47378,-1.71079,-1.02523,-2.02922,-1.22491,-1.39990,0.19123,0.56114,1.97232,1.71895,1.78473,0.60640,1.26081,-0.16133,0.24830,-0.46183,-0.26401,-1.01275,-0.15522,-0.67929,0.09142,-0.05898,0.30226,-0.02871,0.08834,-0.39399,-0.37340,-2.13993,-1.06177,-1.57178,-1.16528,-1.50105,-0.95006,-1.93242,-1.40534,-1.27759,0.75635,0.41522,0.71987,0.69722,1.27444,0.44483,1.02165,-0.13408,0.09829,-0.43166,0.19030,-0.24800,0.37877,-0.08817,0.30380,-0.55458,0.76652,-0.37715,-0.10669,-1.67099,-1.01831,-1.75239,-0.65918,-1.51549,-0.41268,-2.31260,-1.17814,-1.79532,0.27040,-0.06039,0.31112,-0.31056,-0.02272,-0.76989,0.48678,0.33707,0.46721,-0.40691,0.45093,-0.03416,0.59090,-0.34282,0.30297,-0.26593,0.67883,-0.92033,-0.07516,-1.06332,-0.06328,-0.68024,0.24371,-1.12056,-0.53092,-1.30338,-1.41073,-1.71080,0.57504,0.40569,0.81641,-0.56930,-0.28914,-0.59494,0.76985,0.09557,0.67881,-0.18424,0.61002,-0.63388,0.40005,-0.29654,0.52924,-0.30508,0.72975,-0.42354,0.28855,-0.36452,0.33136,-0.40660,0.12797,-0.86579,-0.52713,-0.98737,-0.89543,-1.32782,-0.01513,0.60432,1.18600,-0.28259,0.38288,-0.15202,0.16904,0.08289,1.01800,-0.03795,0.62345,-0.18125,0.56534,-0.03121,0.59553,-0.42877,0.13087,-0.09498,0.85752,0.21399,0.40605,-0.10719,-0.03190,-0.80783,-0.15653,-1.29635,-0.66844,-1.07169,0.05955,0.67346,1.04311,-0.31998,0.64005,-0.31208,0.92690,-0.16895,0.39812,0.14736,0.47120,-0.30799,0.68129,-0.05565,0.43815,-0.20458,0.68430,0.26379,1.12710,-0.02021,0.81605,-0.30568,0.30873,-1.00664,-0.32690,-1.08440,-1.25983,-0.53282,0.74091,0.54847,0.95796,0.52692,0.73686,0.32192,0.90326,-0.24317,0.69915,0.12358,0.38597,-0.14120,0.01699,-0.66136,0.14296,-0.03484,0.57967,0.21039,0.89761,0.07857,0.20318,-0.74320,-0.29311,-0.73539,-0.54818,-1.09428,-0.46946,-0.21544,0.43126,0.34356,0.24284,0.11613,0.73008,-0.31149,0.70791,-0.11405,0.44724,-0.04632,0.70124,-0.43461,0.63317,-0.32218,0.26751,0.00377,0.62522,-0.14595,0.60705,-0.05187,0.78082,-0.23007,0.17701,-0.75984,-0.05557,-0.48844,0.04978,0.15007,0.75667,0.02787,0.86276,0.37166,0.44102,0.14845,0.62420,-0.08084,0.47452,0.00551,0.60930,-0.09158,0.52558,-0.14087,0.37545,-0.37096,0.30708,-0.40528,0.87199,0.19032,0.20155,-0.19185,0.32600,-0.55729,0.30532,-0.25720,0.28958,0.12902,0.60767,0.16034,1.23158,-0.13570,0.38175,0.22550,0.78584,0.08909,0.31793,0.08211,0.64102,-0.27790,0.56909,-0.66309,0.25971,0.05928,0.58742,-0.12285,0.43425,-0.39848,0.28661,-0.19113,0.17375,0.01863,0.48375,0.16414,0.05079,-0.28050,0.54844,-0.02547,0.65228,0.19215,0.49817,0.05309,0.26476,-0.18711,0.24747,-0.40229,0.45110,-0.30878,0.49337,-0.54811,0.63249,-0.34205,0.91493,-0.00903,0.41675,-0.30432,0.49120,-0.11775,0.10309,0.06325,0.54387,-0.31982,0.03509,-0.23074,0.60391,-0.10040,0.62256,0.38970,0.61959,-0.38212,0.39559,-0.47079,0.30426,-0.63346,0.10406,-0.58359,0.04101,-0.44989,0.63943,0.00095,0.39817,0.16113,0.43128,-0.09539,0.14032,-0.03171,0.45132,0.04272,0.25415,-0.28920,0.27983,-0.32706,0.47142,0.16641,0.70879,-0.24890,0.62468,-0.48651,0.06100,-0.14158,0.46793,-0.14707,0.15846,-0.23098,0.66110,-0.68098,0.27624,-0.12609,0.31811,0.31697,0.47961,-0.02934,0.42933,-0.79065,0.64006,-0.00705,-0.14488,-1.33107,-0.17658,-0.69265,-0.30993,-0.72397,0.66556,-0.29972,-0.04862,-0.12433,0.43311,-0.50084,0.70910,-0.52970,0.65902,-0.59624,0.51652,-0.40581,0.32269,-0.58328,0.61604,0.22450,0.68166,-0.23101,0.22652,-0.56592,0.42050,-0.42390,0.70261,-0.26942,0.35182,-0.48703,0.06719,-0.46536,-0.07964,-1.00601,0.22674,-0.51643,0.80427,-0.23574,0.10707,-0.33648,0.69280,-0.04462,0.31144,-0.48794,0.22816,-0.71056,0.32750,-0.06857,0.79165,-0.14228,1.06557,0.09679,0.98881,0.02423,0.70969,0.26020,0.21328,-0.24877,0.45902,-0.29511,0.46171,-0.07460,0.19567,-0.21497,0.38519,-0.08190},
