



double hiddenWeights [20][725] =
{
{ 1.32784,0.59266,-0.58175,0.60722,-0.28995,0.53377,-0.54610,0.62867,-0.21777,0.44358,-0.32269,0.58047,-0.03993,0.57118,-0.03080,0.43764,-0.47097,0.03365,-0.01615,0.60203,-0.54554,0.28498,-0.21940,0.53044,-0.54928,0.08689,-0.19396,0.67562,-0.38442,0.69368,-0.10115,0.37515,-0.24692,0.30095,-0.60146,0.69235,-0.37518,0.59251,-0.53059,0.41552,-0.39482,0.34256,-0.25203,0.21094,-0.51835,0.62747,-0.63090,0.45032,-0.35482,0.08521,-0.00415,0.37974,-0.31432,0.55793,-0.62973,0.58779,-0.55909,0.55531,-0.65454,0.36802,-0.15196,0.32641,-0.05539,0.16793,-0.53534,0.66118,-0.37459,0.50702,-0.07055,0.19276,-0.61482,0.60874,-0.38370,0.23414,-0.43495,0.38254,-0.19776,0.27539,-0.29634,0.52362,-0.42111,0.26421,-0.44425,0.25066,-0.28692,0.67649,-0.35902,0.07720,-0.39237,0.54489,-0.47693,0.35188,-0.39687,0.02516,-0.61397,0.17341,-0.25956,0.22576,-0.15519,0.43649,-0.28569,0.31935,-0.19003,0.28642,0.02186,0.18372,-0.26603,0.40985,-0.56684,0.52284,-0.05599,0.15448,-0.03920,0.12048,-0.47317,0.64370,-0.21893,0.13382,-0.57148,0.63395,-0.02533,0.31879,-0.27749,0.07004,-0.18990,0.55301,-0.38585,0.34862,0.02950,0.51284,-0.17214,0.62031,-0.16557,0.08165,-0.07288,0.76520,-0.18161,0.03913,-0.14461,0.58276,-0.56575,0.38159,-0.61041,0.06690,-0.23491,0.50589,-0.23255,0.56528,-0.21311,0.11624,-0.19259,0.45661,-0.70142,-0.11912,-0.84572,0.12268,-0.67421,-0.09430,-0.27676,0.30655,-0.56015,0.64588,-0.61843,0.23288,-0.33944,0.26698,-0.20379,0.29107,-0.21460,0.41332,-0.57618,0.11998,-0.47456,0.36491,-0.10847,0.56554,-0.31797,0.46701,-0.49528,-0.01998,-0.51437,-0.12332,-0.74432,0.06706,-0.66409,-0.05126,-0.57175,0.01332,-0.41098,0.07931,-0.62540,0.36019,-0.19441,0.43073,-0.55202,0.59681,-0.37879,0.37422,-0.07288,0.67482,-0.13102,0.31670,-0.34892,0.79738,-0.12856,0.22684,-0.15298,0.58253,-0.62530,0.63970,-0.30361,0.07054,-0.23670,0.42343,-0.22688,0.30066,-0.47131,-0.31944,-0.55983,0.35481,-0.34341,0.05522,-0.69891,0.20007,-0.24604,0.27564,-0.15928,0.47909,-0.58308,0.73944,-0.32149,0.80775,-0.33635,0.20165,-0.32734,0.44663,-0.36457,0.58360,-0.26564,0.74939,0.12766,0.35067,-0.85513,0.22035,-0.66135,0.06952,-0.42824,0.17331,-0.59474,0.56937,-0.76038,0.25227,-0.47152,0.30647,-0.42507,0.03810,-0.44563,0.61561,-0.14597,0.44545,-0.28877,0.05671,-0.58965,0.19690,-0.10005,-0.00103,-0.15851,0.27024,-0.00326,0.25710,-0.40922,0.53392,-0.32723,0.02249,-0.48793,-0.05166,-0.67977,-0.01205,-0.71563,0.33361,-0.25141,0.50006,-0.13369,0.20950,-0.26828,0.17199,0.02521,0.55817,-0.38116,0.54193,-0.35509,0.38754,-0.80882,0.07716,-0.57308,0.39788,-0.24734,0.69903,-0.34526,0.67705,-0.41438,0.36857,-0.64878,0.15017,-0.45677,0.20744,-0.49932,0.13966,-0.16539,0.49461,-0.47458,0.42002,-0.51722,0.59268,0.02804,0.26204,-0.45052,0.38462,-0.31945,0.30341,-0.50608,0.19819,-0.37272,0.02948,-0.17039,0.66036,-0.05482,0.21611,0.14188,0.35563,-0.52402,0.35102,-0.39957,0.05783,-0.36547,0.20805,-0.54827,0.68626,-0.04623,0.15542,-0.19440,0.01874,-0.27937,0.39866,-0.34165,0.66545,-0.36543,0.31316,-0.95547,-0.32055,-0.70043,-0.09914,-0.39703,0.66776,0.17336,0.77807,-0.18993,0.65354,-0.48520,0.47663,-0.51224,0.50388,-0.16558,0.52525,-0.34598,0.68678,-0.35354,0.24750,-0.01826,0.70818,-0.27039,0.21708,-0.01182,0.77136,-0.35464,-0.02162,-0.56278,-0.02823,-0.72195,0.29691,-0.58112,0.32703,-0.11651,0.34877,-0.19295,0.41622,-0.12454,0.40789,-0.45710,0.09606,-0.29537,0.16218,-0.26350,0.51776,-0.22039,0.38842,-0.00476,0.00848,-0.16123,0.24218,-0.30017,0.83318,-0.32877,0.43566,-0.43271,0.06104,-0.33618,0.43091,-0.25510,0.66569,0.14762,0.62789,0.05720,0.53727,-0.02951,0.61713,-0.60187,0.69993,-0.44959,0.58771,-0.61001,0.31803,-0.59745,0.56507,-0.30953,0.34352,-0.05575,0.34428,0.09915,0.68021,-0.27136,0.94038,-0.12322,0.07592,-0.19634,0.36617,0.16748,0.39004,-0.08133,0.81828,-0.11902,0.20313,0.04001,0.14105,-0.05153,0.25827,-0.30691,0.47335,-0.44168,0.33290,-0.61252,0.44531,-0.55350,0.45298,-0.29019,0.47297,0.20208,0.54263,0.05644,0.51096,-0.21244,0.69218,-0.59352,0.29181,-0.20055,0.30822,0.00239,0.50076,-0.21813,0.18355,0.00235,0.18139,-0.11763,0.18944,-0.49013,0.36495,-0.03478,0.42294,-0.48160,0.21179,-0.61561,0.00522,-0.20479,0.56391,-0.38748,0.50205,-0.04576,0.47102,0.13449,0.96831,-0.08816,0.43582,0.32092,0.88266,-0.58323,0.34539,-0.70949,0.08639,-0.06893,0.19119,-0.12612,0.71898,-0.42486,0.05822,-0.67375,0.07637,-0.51821,0.08087,-0.53402,0.48522,-0.65724,-0.02901,-0.62725,0.29525,-0.20746,0.16653,-0.21981,0.75697,-0.21260,0.79184,0.06493,0.58966,-0.24268,0.20981,-0.62436,0.53330,-0.02250,0.80659,-0.04796,0.32891,-0.31957,0.14662,-0.09855,0.04975,-0.30546,0.15292,-0.56993,0.59267,-0.40761,0.31585,-0.64261,0.36983,-0.82155,0.47111,-0.14923,0.61693,0.07574,0.33335,-0.06379,0.31162,-0.38183,0.21685,-0.17197,0.34079,-0.56644,0.76213,-0.38090,0.07826,-0.31160,0.43748,-0.32711,0.42670,-0.68640,0.38918,-0.22408,-0.08432,-0.69952,0.31738,-0.99440,0.33756,-0.57057,0.02039,-0.22251,0.32715,0.22869,0.33151,-0.29443,0.60697,-0.58686,0.38320,-0.64020,0.59795,-0.23919,0.20503,-0.53679,0.09413,-0.65454,0.37135,-0.67540,0.17622,-0.00581,0.39879,-0.02541,0.08238,-0.52623,0.29886,-0.93167,-0.26284,-0.61579,0.15638,-0.37830,0.01166,-0.47781,0.28939,-0.24758,0.48048,-0.12104,0.19665,-0.19043,0.41950,-0.14851,0.38808,-0.59211,0.36635,-0.35729,0.43645,-0.49818,0.21982,-0.64094,0.05211,-0.37383,0.45183,-0.17945,0.08919,-0.40876,0.21517,-0.55475,-0.35121,-0.99466,0.08477,-0.88920,-0.09748,-1.14303,-0.15833,-0.46509,-0.08328,-0.72185,-0.00280,-0.38168,0.13817,-0.27747,0.16958,-0.12682,0.66385,-0.44054,0.27219,-0.24901,0.57760,-0.65171,0.01390,-0.23844,0.12221,-0.45218,0.02655,-0.15605,0.17787,-0.91375,-0.36748,-1.24887,-0.26772,-0.70756,-0.18369,-0.61763,0.20575,-0.62764,0.63706,-0.63568,0.20913,-0.09984,0.10312,-0.47384,0.49769,-0.33668,0.43395,-0.08319,0.27227,-0.20923,0.18369,-0.17042,0.20023,-0.54677,0.26668,-0.58892,0.26522,-0.41537,-0.03526,-0.68160,0.11658,-0.47224,0.07136,-0.28718,0.66039,0.04961,0.69564,-0.05633,0.59320,-0.61994,0.19132,-0.57085,0.11349,-0.69528,0.44719,-0.04628,0.09253,-0.51984,0.36125,-0.39974,0.43137,-0.34062,0.55599,-0.30102,0.72829,-0.04359,0.77731,-0.38814,0.20714,0.04298,0.49681,-0.13184,0.56958,-0.40008,0.42934,-0.00834,0.39803,-0.39636},
{ -0.20882,0.52084,-0.17662,0.44500,-0.34419,0.01267,-0.13040,0.57638,-0.65725,0.41069,-0.44630,0.52944,-0.56455,0.50854,-0.08030,0.63639,-0.56208,0.43654,-0.21540,0.60284,-0.05791,0.21758,-0.05794,0.14717,-0.46793,0.61956,-0.46125,0.39308,-0.62058,0.01605,-0.26427,0.08714,-0.10816,0.66516,-0.36600,0.10471,-0.43331,0.04036,-0.58580,0.62368,-0.36920,0.53555,-0.12278,0.07468,-0.31920,0.34118,-0.05301,0.47523,-0.54921,0.32772,-0.32170,0.66238,-0.47954,0.58571,-0.00573,0.32177,-0.50752,0.32341,-0.04113,0.38606,-0.18524,0.38495,-0.50052,0.52707,-0.25615,0.22184,-0.39774,0.04682,-0.58282,0.52192,-0.08746,0.14092,-0.25135,0.23920,-0.15262,0.59764,-0.03541,0.23410,-0.26858,0.61258,-0.58809,0.62249,-0.00947,0.30237,-0.55555,0.51590,-0.48811,0.43526,-0.34013,0.33693,-0.47995,0.31120,-0.06909,0.46982,-0.35160,0.28695,-0.25466,-0.03033,-0.29038,0.15359,-0.82357,0.01304,-0.38548,0.42690,-0.43334,0.13863,-0.22692,0.56284,-0.51786,0.15706,-0.36679,0.64840,-0.01300,0.10367,-0.09523,0.36570,-0.40343,0.33750,-0.31994,0.45157,-0.36513,0.13287,-0.33603,0.10797,-0.42849,-0.02724,-0.41357,0.39396,-0.24727,-0.06033,-0.50715,-0.00436,-0.70166,0.00184,-0.21666,0.65255,-0.39011,0.62773,-0.32099,0.47956,-0.20161,0.40638,-0.17486,0.26043,-0.32487,0.10397,-0.53420,0.63105,-0.47426,0.55532,-0.62737,0.47845,-0.07272,0.15298,-0.78966,0.24445,-0.31699,0.68091,-0.55091,0.17635,-0.35724,0.55527,-0.54720,0.21404,-0.16555,0.48782,-0.13523,0.02952,-0.34333,0.17829,-0.54365,0.08824,-0.56159,0.38878,-0.40993,0.24243,-0.15750,0.67540,-0.15787,0.61722,-0.42296,0.16313,-0.32740,0.54240,-0.58829,0.39353,-0.57971,0.48815,-0.48163,0.47165,0.02504,0.55089,0.06097,0.16109,-0.43714,0.56874,-0.61393,0.40356,-0.25887,0.30870,-0.24441,0.77443,-0.00443,0.81888,-0.14319,0.46688,-0.26331,0.55365,-0.14464,-0.07633,-0.55878,-0.39088,-1.04131,0.00245,-0.42791,0.75675,0.17734,0.90056,-0.05819,0.88457,-0.42500,0.70051,-0.51629,0.55677,-0.58043,0.35015,-0.06847,0.08419,-0.58311,0.23174,-0.35073,0.89108,-0.26889,0.35732,-0.33935,0.26541,-0.31131,-0.07887,-0.68907,0.13042,-0.05229,0.59791,-0.04366,0.47447,-0.08598,0.49102,-0.46797,0.37054,-0.03834,0.37817,-0.42205,0.40360,-0.08311,0.34933,-0.59750,0.10147,-0.25282,0.79530,-0.48800,0.39748,-0.47334,0.47897,-0.59824,-0.05342,-0.57331,0.36826,-0.45718,0.50568,-0.12458,0.23906,0.02457,0.90981,0.03329,0.49956,-0.21310,0.39903,-0.13179,0.11814,-0.56036,0.45378,-0.30100,0.52861,-0.33217,0.24904,-0.14327,0.16625,-0.34319,0.16242,-0.27728,0.01703,-0.62671,-0.12531,-0.74196,0.02255,-0.26023,0.93675,0.07820,0.46974,-0.07178,0.27119,-0.35096,0.17287,-0.48634,0.13565,-0.08082,0.08784,-0.31405,0.23414,-0.00919,0.69944,-0.33537,0.21576,-0.60504,0.39674,-0.39096,0.17275,-0.13156,0.35192,-0.43428,0.67429,-0.25979,0.50706,-0.36745,0.24162,-0.21551,0.63729,-0.19602,-0.05487,-0.59867,-0.12525,-0.38742,0.20011,-0.36557,0.46982,-0.34050,0.25537,-0.23616,0.19389,-0.19959,0.23198,-0.50455,0.63162,-0.34052,0.73047,-0.35024,0.50532,-0.26886,0.46778,-0.08612,0.40319,-0.04486,0.27731,-0.08853,0.23335,-0.09351,0.25914,-0.92480,0.03569,-0.36725,0.21946,-0.37162,0.63847,-0.47821,0.53533,-0.11709,0.25241,-0.20873,0.31174,-0.11289,0.51842,-0.31008,0.14864,-0.39958,0.37254,-0.46897,0.70132,-0.03354,0.50239,-0.77843,0.12261,-0.29394,-0.01469,-0.16085,0.47906,-0.31891,0.32522,-0.44574,0.62787,-0.44622,0.30360,-0.64255,0.40391,-0.15727,0.11920,-0.07685,0.06920,-0.00210,0.49552,0.06666,0.55015,-0.16011,0.51539,-0.13792,0.45843,-0.05094,0.22623,-0.95323,-0.07235,-0.79058,0.27407,-0.55084,0.20554,0.24312,0.39674,-0.34129,0.22087,-0.44223,0.64483,-0.18854,0.33221,-0.30288,0.13226,-0.40311,0.41523,-0.50385,0.26646,0.01716,0.42902,-0.17271,0.74229,0.02420,0.03893,-0.53366,-0.15752,-1.11428,-0.22694,-0.52801,0.45352,-0.13420,0.50532,0.16409,0.84642,-0.21176,0.85690,0.07326,0.61759,-0.08882,0.22729,-0.19443,0.27437,-0.48727,0.31819,-0.59876,0.22233,-0.00329,0.40668,-0.27636,0.21132,-0.31932,0.06856,-1.24187,-0.27627,-0.90673,0.04691,-0.01298,0.49211,0.09987,0.80506,0.12182,0.67329,-0.21321,0.70710,-0.11353,0.45825,-0.53406,0.46307,-0.43395,0.13615,-0.65636,0.16909,-0.25041,0.24479,-0.57050,0.31944,-0.58795,0.41207,-0.79411,-0.62927,-1.01379,-0.25147,-0.83295,-0.13681,-0.40839,0.06196,-0.03062,0.84018,0.13329,0.46883,0.13770,0.32094,-0.08961,0.37836,-0.53017,0.18460,-0.41820,0.00737,-0.65517,0.43207,-0.12592,0.22236,-0.36258,0.62734,-0.43865,0.37423,-0.51358,-0.49050,-1.21016,-0.27362,-0.69245,-0.01957,-0.35529,0.52439,-0.08816,0.65182,-0.32092,0.42879,-0.56454,0.68090,-0.56556,0.55323,-0.28500,0.44925,-0.68776,0.39704,-0.01402,0.41441,-0.54128,0.11429,0.01671,0.46248,-0.61841,0.47459,-0.68275,-0.53743,-0.83528,-0.24670,-0.44822,0.39513,-0.30815,0.37778,-0.36395,0.33139,-0.62754,0.69874,-0.09188,0.43286,-0.30242,0.17759,-0.41364,0.26057,-0.35149,0.12218,-0.40547,0.11780,-0.36002,0.56299,-0.32177,0.11063,-0.07016,0.13466,-0.38413,0.43192,-0.60684,0.20055,-0.54962,0.20149,-0.28008,0.02865,-0.12599,-0.07259,-0.66805,0.26801,-0.53232,0.43871,-0.43814,0.33335,-0.04860,0.55408,-0.41676,0.26218,-0.66550,0.42380,-0.23803,0.73162,-0.54491,0.41910,-0.24470,0.64284,-0.20463,0.33959,-0.40181,0.60420,-0.31974,0.54064,-0.05717,0.23934,-0.36981,0.51042,-0.46251,0.11902,-0.66714,0.35682,-0.67542,-0.01783,-0.21168,0.03240,-0.16697,0.58259,-0.05786,0.09232,-0.18249,0.30399,-0.44517,0.75525,-0.52552,0.25806,-0.28005,0.54206,-0.37409,0.56333,0.20695,0.13224,-0.03585,0.72261,-0.10248,0.53730,-0.32154,-0.00653,-0.69852,0.32398,-0.49611,0.37419,-0.27071,0.68227,-0.37326,0.00941,-0.57309,0.63656,-0.54247,0.18147,-0.11498,0.44848,0.06555,0.43632,0.05130,0.61540,-0.21932,0.44469,-0.18912,0.55404,0.04093,0.10196,-0.33682,0.00761,-0.61942,0.10674,-0.18491,0.12195,-0.28598,0.31893,-0.32689,0.62720,-0.35349,0.14486,-0.68520,0.42094,-0.48552,0.21714,0.00896,0.60050,-0.51243,0.56856,-0.42902,0.53749,-0.43452,0.23846,0.05133,0.23891,-0.12033,-0.02937,-0.49020,0.06231,-0.28239,0.54722,-0.32806,0.30072,-0.38013,0.27517,-0.35285,0.02456,-0.41176,0.23044,-0.59743,0.27836,-0.35914,0.09449,-0.14107,0.16218,-0.49909,0.54906,-0.02984,0.37826,-0.24433,0.03391,-0.10242,-0.00218,-0.63887,0.25430,-0.55931,0.10773,-0.22699,0.27288,-0.70747,0.51481,-0.60241},
{ 0.12611,0.17354,-0.53606,0.59171,-0.63929,0.18316,-0.49401,0.20690,-0.42099,0.61110,-0.31870,0.68720,-0.49169,0.26686,-0.14705,0.50579,-0.00653,0.53957,-0.68788,0.02537,-0.02347,0.28534,-0.00989,0.38709,-0.04666,0.19099,-0.47037,0.43044,-0.59415,0.30619,-0.35483,0.36269,-0.09227,0.30859,-0.11263,0.27450,-0.52111,0.38713,-0.65937,0.55663,-0.18963,0.09448,-0.43485,0.13351,-0.06437,0.67556,-0.01449,0.22141,-0.30754,0.66412,-0.39405,0.03259,-0.41422,0.22059,-0.24806,0.66254,-0.38023,0.25373,-0.69008,0.64537,-0.22835,0.47411,-0.28617,0.06484,-0.43734,0.29366,-0.57474,0.58092,-0.15508,0.10330,-0.19526,0.52615,-0.65005,0.54884,-0.40103,0.06820,-0.21062,0.18835,-0.04897,0.35080,-0.49349,0.53897,-0.59954,0.02595,-0.67398,0.21746,-0.22521,0.27201,-0.65356,0.05600,-0.20878,0.42501,-0.11675,0.26641,-0.27594,0.48753,-0.36321,0.47210,-0.51273,0.37738,-0.10368,0.44825,-0.12786,-0.05538,-0.41896,0.42513,-0.45044,0.37473,-0.12409,0.40598,-0.28044,0.03943,-0.53667,0.25145,-0.20612,0.01401,-0.23030,0.20209,0.00753,0.42525,-0.36415,0.60665,-0.14430,0.75800,0.06514,0.79530,-0.25882,0.58472,-0.16176,0.06693,-0.28058,0.14183,-0.43198,0.24439,-0.56411,0.50732,-0.71662,0.55864,-0.30841,0.22583,-0.02056,0.52459,-0.26328,0.28521,-0.02182,0.45090,-0.02322,0.35702,-0.27474,0.21844,0.02636,0.28962,0.05322,0.33182,-0.30429,0.51325,-0.15812,0.25399,-0.46445,0.36516,-0.35504,0.16366,-0.78553,0.07209,-0.66274,-0.08859,-0.14751,0.24439,-0.53020,0.03994,-0.02479,0.07070,-0.16172,0.31739,-0.37631,0.42215,-0.33877,0.78236,-0.22450,0.23472,-0.14441,0.18508,-0.55356,0.51324,-0.53398,0.35847,-0.49417,0.60924,-0.58890,0.14711,-0.94299,0.07677,-0.73079,-0.06144,-0.47909,0.56749,-0.07429,0.10059,-0.19402,0.24293,-0.56554,0.29896,-0.14097,0.79225,-0.37046,0.53070,-0.03902,0.16739,-0.22605,0.41978,-0.18637,0.48120,-0.50119,0.41978,-0.12580,0.54401,-0.13853,0.44086,-0.64257,-0.22620,-0.52243,0.00449,-0.50905,0.26239,-0.54908,0.46631,-0.13019,0.30221,-0.07971,0.66538,-0.36288,0.60415,-0.00445,0.29284,-0.62005,0.31352,-0.69839,0.18561,-0.72766,0.21970,-0.12604,0.59213,-0.72044,0.03410,-0.01492,0.56818,-0.77027,0.32993,-0.91790,0.11459,-0.35419,0.59406,-0.09421,0.23414,-0.12539,0.36389,-0.33161,0.74577,0.28478,0.46333,-0.27385,0.48065,-0.12068,0.28510,-0.37168,-0.02617,-0.60950,0.30166,0.00965,0.83823,0.10391,0.39829,-0.06183,0.65197,0.06849,0.55431,-0.65120,0.44389,-0.28272,0.56204,-0.33505,0.64022,-0.19857,0.72913,-0.57194,0.33032,0.04194,0.51537,-0.34912,0.14131,-0.40449,-0.39203,-0.62726,-0.30709,-0.57298,0.49812,0.08533,0.74433,0.03639,0.53064,0.20876,1.04332,-0.13984,0.79588,-0.15618,0.27710,-0.61120,0.44704,-0.35746,0.57121,-0.58286,0.37363,-0.47330,0.29874,-0.12492,0.15190,-0.57806,0.13593,-1.10123,0.04890,-1.00106,0.15027,-0.10322,0.35556,0.11821,0.96449,0.20530,0.93945,0.25289,0.69976,0.14765,0.48895,-0.20068,0.22179,-0.11858,0.40096,-0.35807,0.18225,-0.63953,0.14604,-0.34719,0.44067,-0.48778,0.18508,-0.46230,0.26274,-0.76705,0.03309,-0.87413,-0.11653,-0.34247,0.46352,0.25740,0.88040,0.01356,0.54664,0.28038,0.89236,0.03734,0.34757,-0.20505,0.22480,-0.10006,0.58240,-0.20734,0.19972,-0.24063,0.09688,-0.04112,0.23509,-0.24544,0.32241,-0.44268,-0.09220,-1.00084,-0.37073,-0.37564,0.74225,0.00301,0.55619,0.05742,0.44390,-0.11540,0.75520,0.19083,0.26124,-0.30662,0.24454,-0.29865,0.55455,-0.62289,0.69771,-0.19890,0.37696,-0.52930,0.27530,-0.20399,0.20191,-0.61553,0.16237,-0.41185,0.19301,-1.08911,-0.51984,-0.58402,0.38658,0.34675,0.80411,-0.27163,0.67607,-0.09585,0.42103,-0.47341,0.36266,-0.85001,-0.22874,-0.66279,0.07723,-0.47458,0.09960,-0.63460,0.53737,-0.20322,0.17470,-0.17031,0.32896,-0.72583,-0.08759,-0.37237,0.12551,-1.15272,0.03850,-0.25289,0.46527,0.04673,0.93385,0.06232,0.77415,-0.25988,0.02011,-0.72514,0.26548,-0.78160,-0.01617,-0.68580,0.22953,-0.31867,0.40848,-0.45005,0.05409,-0.55864,0.02276,-0.60387,0.40229,-0.52710,-0.15100,-0.73923,0.27353,-0.64026,-0.09514,-0.52095,0.91240,0.25255,0.58633,-0.23646,0.82152,-0.23527,0.63220,-0.18823,0.10483,-0.23534,0.51148,-0.30525,0.62687,-0.63396,0.16222,-0.42499,0.31106,-0.40070,0.54739,-0.22444,0.37799,-0.47415,0.01655,-0.31754,0.30079,-0.18521,0.03367,0.04340,0.76024,0.10078,0.49290,0.14559,0.74725,-0.21995,0.37721,-0.50576,0.49466,-0.16545,0.31428,-0.67170,0.03819,-0.25418,0.43312,-0.00907,0.69725,-0.62560,0.51146,-0.17735,0.48632,-0.49378,-0.05957,-0.52292,0.06769,-0.59244,0.50136,-0.38011,1.06640,-0.08198,0.84476,-0.28382,0.41046,-0.38116,0.38425,-0.68550,0.39390,-0.21723,0.32081,-0.35683,0.53609,-0.07614,0.46166,-0.36779,0.14544,-0.06190,0.14933,-0.60658,0.11983,-0.34669,0.22047,-0.35554,0.41152,-0.49316,0.05998,-0.56140,0.13830,-0.04461,0.56000,-0.26800,0.49132,-0.16844,0.53510,-0.42621,0.49001,-0.34862,0.46313,-0.12475,0.41393,-0.22803,0.28975,-0.13460,0.54768,-0.62579,0.23347,-0.46288,0.57140,-0.19261,-0.06575,-0.75571,0.10322,-0.75352,-0.13308,-0.37785,0.37575,-0.87066,0.06621,-0.88488,0.22229,-0.17356,0.16357,-0.79431,0.41756,-0.11797,0.22501,-0.48513,0.24049,-0.66718,0.47628,-0.51213,0.17980,-0.67388,0.63320,-0.26285,0.44232,-0.03506,0.58097,-0.21116,0.15812,-0.33845,0.41696,-0.48026,0.20821,-0.85865,0.17427,-0.40728,-0.07660,-0.26578,0.54546,-0.30050,0.48288,-0.29282,0.27531,-0.38283,0.60204,-0.11855,0.23514,-0.14467,0.39213,-0.05330,0.54202,-0.23462,0.52381,-0.04730,0.16255,-0.32109,0.61735,-0.03319,0.25233,-0.40807,0.46754,-0.35471,0.25053,-0.23515,0.10306,-0.57860,0.54086,-0.35162,0.28664,-0.31963,0.67023,-0.03398,0.48224,-0.62425,0.28463,-0.12882,0.01721,-0.21246,0.14551,-0.00750,0.51460,-0.15979,0.46856,-0.52845,0.50159,-0.52217,0.54697,-0.22610,0.22002,-0.00252,0.05766,-0.62091,0.37525,-0.49373,0.30315,-0.22217,0.29209,-0.44405,0.57632,-0.30392,0.62439,-0.65572,0.35590,-0.07875,0.61036,-0.44512,0.15476,-0.53867,0.35355,-0.24854,0.17908,-0.58455,0.03924,-0.33873,0.63414,-0.17861,0.40261,-0.00355,0.31084,-0.22995,0.49571,-0.25688,0.19179,-0.62164,0.18892,-0.66031,0.37384,-0.26375,0.38702,-0.59194,0.57419,-0.15308,0.27822,-0.09186,0.42156,-0.39236,0.43979,-0.42670,-0.00480,-0.66688,0.31007,-0.70011,0.12691,-0.55523,0.43503,0.04443,0.31670,0.08207,0.22856,-0.18456,0.57948,0.01141,0.05329,-0.32359,0.05854,-0.57902},
{ -0.60346,0.41361,-0.45960,0.01632,-0.59232,0.42392,-0.21687,0.69903,-0.53699,0.05422,-0.62164,0.45828,-0.14741,0.23446,-0.18835,0.20378,-0.56421,0.43405,-0.35692,0.53319,-0.55537,0.26331,-0.07338,0.59323,-0.38478,0.44919,-0.04966,0.19454,-0.01425,0.07420,-0.31820,0.63617,-0.30183,0.63031,-0.50593,0.51704,-0.05813,0.07135,-0.00425,0.10768,-0.22646,0.54859,-0.67353,0.15914,-0.25332,0.51300,-0.60461,0.19001,-0.47643,0.09692,-0.09744,0.40343,-0.24720,0.13608,-0.23604,0.18897,-0.07048,0.11108,-0.08755,0.07124,-0.39074,0.41867,-0.17520,0.04967,-0.45903,0.12382,-0.17066,0.34000,-0.66108,0.44936,-0.42359,0.43368,-0.23066,0.35810,-0.68296,0.65959,-0.55763,0.04508,-0.68567,0.29594,-0.10903,0.13870,-0.51199,0.64378,-0.17488,0.55381,-0.68261,0.37463,-0.62100,0.08294,-0.07110,0.20906,-0.28312,0.26525,-0.38615,0.61750,-0.18241,0.66112,0.18995,0.23994,-0.39365,0.58288,-0.52457,0.38613,-0.45301,0.42950,-0.37644,0.12956,-0.56932,0.30614,-0.12658,0.30410,-0.28467,0.67980,-0.07558,0.47186,-0.23616,0.57928,-0.18977,0.61443,-0.47566,0.77696,0.01623,0.53288,0.28730,0.44644,0.25174,0.75193,-0.28027,0.74841,-0.07137,0.66216,-0.53094,0.28957,-0.25312,0.30771,-0.55366,0.51743,-0.37153,0.00857,-0.46405,0.61130,-0.27374,0.42223,-0.52452,0.49651,-0.08836,0.47963,0.08753,0.61470,0.15851,0.76361,0.13835,0.79564,-0.02636,0.87782,-0.06767,0.75810,-0.42307,0.46980,-0.55751,-0.12648,-0.39982,0.17208,-0.35381,0.20905,-0.57970,0.18508,-0.22574,0.06173,-0.06529,0.46075,-0.11469,0.75516,0.01078,0.37582,0.00322,0.49608,-0.33370,0.40635,0.35735,0.47067,0.12055,0.40563,-0.23945,0.31616,-0.19209,0.11483,-0.23354,0.38375,-0.39828,-0.24392,-0.96215,0.43493,-0.29752,0.55145,-0.47588,0.60508,-0.60882,0.53436,-0.21398,0.58689,-0.28503,0.45883,-0.02103,0.32582,-0.08173,0.51036,-0.44031,0.81028,0.12927,0.38462,-0.03418,0.71283,-0.24075,0.19500,-0.11765,0.56319,-0.65338,-0.03346,-0.76351,-0.15828,-0.56024,0.35443,-0.19768,0.41742,-0.11855,0.34877,-0.59584,0.82207,-0.32913,0.67411,-0.26568,0.31841,-0.37491,0.19689,-0.00829,0.30033,-0.14335,1.01906,0.10038,0.58712,-0.18711,0.59225,0.13137,0.50479,-0.21952,0.46468,-0.64386,0.36681,-0.36229,-0.03019,-0.29512,0.65627,-0.17287,0.21179,-0.28851,0.55881,-0.17780,0.66326,-0.05926,-0.03900,-0.40310,0.10822,-0.80159,0.38190,-0.07510,1.11882,0.82184,1.32386,0.44738,1.02555,0.02467,0.49534,-0.24041,0.19487,-0.72579,0.18492,-0.72236,0.30403,-0.57150,0.56619,-0.06231,0.18300,-0.08592,0.41629,-0.56706,0.37063,-0.31220,-0.22569,-0.85393,-0.37735,-1.20287,-0.02297,-0.25759,0.65978,0.15694,1.11776,0.39008,1.40186,0.33513,0.58491,-0.34941,0.52740,-0.12622,0.09037,-0.63399,0.41777,-0.52881,0.54067,-0.37375,0.21230,-0.44640,0.16842,-0.74689,0.25937,-1.02417,0.14228,-1.02333,-0.65481,-0.90935,-0.11165,-0.81888,-0.18109,-0.73169,0.71491,-0.06889,0.61701,-0.11314,0.86114,-0.11077,0.24660,-0.07407,0.22324,-0.64094,0.02261,-0.12924,0.66974,-0.31462,0.17196,-0.19922,0.27790,-0.85901,-0.15879,-1.18258,-0.06498,-1.02457,-0.53256,-0.92650,-0.57920,-0.93309,-0.56636,-0.80290,0.12889,-0.10955,0.17324,-0.33530,0.52148,-0.22596,0.15714,-0.46580,0.28287,-0.27856,0.01601,-0.30402,0.35822,-0.54633,0.30269,-0.29668,0.42149,-0.82813,0.28132,-0.89485,-0.17709,-0.34313,0.20560,-0.59386,-0.35076,-0.81047,-0.63482,-0.92310,0.48007,-0.41916,0.27997,-0.56201,0.02504,-0.47739,0.16223,-0.35590,-0.09456,-0.60909,0.55326,-0.59184,0.04666,-0.14293,0.48634,-0.49143,0.07058,-0.35464,0.24065,-0.68425,0.25668,-0.72198,-0.07270,-0.87112,0.19828,-0.86255,-0.22336,-0.87070,0.02283,-0.11721,0.27305,-0.28480,0.34522,-0.19157,0.72864,-0.20918,0.36569,-0.41704,0.57249,-0.16700,0.53248,-0.52694,0.57225,-0.48737,0.58040,-0.44860,0.41525,-0.19378,0.50290,-0.34907,0.17786,-0.77365,-0.15298,-0.71088,0.21738,-0.65684,-0.05569,-0.26514,0.49529,-0.17648,0.14360,-0.20747,0.64521,-0.53810,0.04643,-0.16640,0.22003,-0.47032,0.65600,-0.38708,0.52833,-0.34605,0.54900,-0.28358,0.34077,-0.58287,-0.03176,-0.22360,0.26622,-0.65711,-0.20853,-0.80410,0.22107,-0.60619,0.33535,-0.38738,0.66193,0.18650,0.29214,-0.23411,0.59801,-0.21560,0.39817,-0.11012,0.50795,-0.28199,0.23205,-0.31909,0.33155,-0.04536,0.65754,0.29662,0.98696,0.14577,0.57269,-0.71299,-0.14420,-0.61729,0.24027,-0.77320,0.37571,0.22003,0.78276,0.12335,0.64978,0.18947,0.50921,-0.15404,0.35877,0.14046,0.28892,-0.60996,0.25942,-0.40369,0.10164,-0.30884,0.05572,-0.27106,0.75772,0.28791,1.03086,0.10716,0.56070,-0.38431,0.04309,-0.81246,-0.14300,-0.43161,0.58114,-0.43152,0.30899,0.04142,0.23714,0.00642,0.46898,-0.14415,0.33593,-0.38803,0.60114,-0.27667,0.32020,-0.04123,0.29558,-0.69644,0.34581,-0.10302,0.21789,-0.05677,1.00708,-0.46051,0.23101,-0.47036,-0.30681,-0.33284,-0.01703,-0.24633,-0.03567,-0.37208,0.33291,-0.39208,0.18273,-0.04603,0.43897,-0.44462,0.93426,-0.16560,0.57291,-0.30871,0.39006,-0.65122,0.53598,-0.56897,0.72448,-0.55137,0.34854,-0.13756,0.40350,-0.41761,0.62002,-0.17918,0.06205,-0.16688,0.17399,-0.26665,-0.09134,-0.42240,0.22813,-0.61171,0.52717,-0.47391,0.60377,0.18811,0.75747,-0.20799,0.49029,-0.21060,0.19592,-0.11682,0.66185,-0.04280,0.48248,-0.03804,0.63333,-0.06901,0.66235,0.08806,0.31256,-0.35269,0.35860,-0.51821,-0.07397,-0.76704,0.17356,-0.10970,0.32510,-0.25083,0.20799,-0.31964,0.58472,-0.12670,0.34968,0.02916,0.49213,-0.37548,0.18771,-0.13948,0.62823,-0.49650,0.60563,-0.21581,0.41539,-0.41462,0.46798,0.05256,0.46193,-0.38985,0.66848,-0.20564,0.70402,-0.59482,0.05032,-0.58163,-0.18408,-0.32308,0.43925,-0.54961,0.45302,-0.27070,0.31875,-0.60961,0.14357,-0.71268,0.66795,-0.45023,0.03712,-0.11143,0.30312,-0.45650,0.61731,-0.19548,0.65312,-0.03175,0.22497,-0.38706,0.22100,-0.33728,0.78239,-0.37306,0.65514,-0.81287,0.33278,-0.22412,0.18629,-0.73069,0.42463,-0.27486,0.40874,-0.50098,0.48698,-0.23055,0.67412,-0.47517,0.64697,-0.48653,0.42311,-0.54605,0.44776,-0.41363,0.39591,-0.09642,0.80090,-0.20052,0.57587,-0.49338,0.31152,-0.06269,0.78424,-0.15458,0.18608,-0.59465,0.30760,-0.87685,-0.08463,-0.50828,0.50151,-0.71999,0.32226,-0.04667,0.23190,-0.58970,0.47508,-0.48483,0.61502,-0.38307,0.59144,-0.52602,0.40307,0.12275,0.32588,-0.21867,0.41038,-0.15290,0.91225,-0.35033,0.60671,-0.19945,0.41202,-0.48016,0.45900,-0.26346,0.24404,-0.53678,0.33003,-0.29222},
{ 0.51523,0.41454,-0.04770,0.25926,-0.51492,0.14425,-0.35373,0.06067,-0.44522,0.50607,-0.50206,0.25348,-0.69488,0.01341,-0.68059,0.64238,-0.30604,0.02401,-0.38069,0.19063,-0.05884,0.47168,-0.07442,0.56913,-0.62036,0.50899,-0.62039,0.33009,-0.34832,0.09702,-0.26659,0.62488,-0.23851,0.47774,-0.41775,0.69027,-0.50521,0.65578,-0.39727,0.49717,-0.69339,0.61021,-0.00891,0.18350,-0.17461,0.69334,-0.10365,0.29732,-0.41727,0.49171,-0.59823,0.28331,-0.18625,0.64485,-0.51095,0.66362,-0.40383,0.59135,-0.23102,0.59405,-0.04175,0.33974,-0.03328,0.55169,-0.21100,0.20468,-0.40563,0.09817,-0.55554,0.10372,-0.34598,0.20279,-0.16256,0.08459,-0.56497,0.52429,-0.27633,0.14366,-0.19159,0.58379,-0.60442,0.27869,-0.48775,0.67097,-0.67722,0.01032,-0.50761,0.56530,-0.65371,0.32668,-0.49649,0.62445,-0.54846,0.00862,-0.09689,0.30347,-0.71545,0.46401,-0.57651,0.16368,-0.16655,0.53251,-0.26618,0.60769,-0.23371,0.35364,-0.50324,0.60789,-0.11485,0.12323,-0.46014,0.07445,-0.39772,0.21680,-0.21465,0.52097,-0.36293,0.54173,-0.16657,0.44907,-0.57796,0.10308,-0.63542,0.32474,-0.45544,0.30001,-0.08807,0.57774,-0.29363,0.59702,-0.39752,0.30901,-0.20285,0.39589,-0.26678,0.28275,-0.56522,0.22487,-0.66012,0.15360,-0.07187,0.44841,-0.15858,0.28545,-0.50784,0.12987,-0.50037,-0.00249,-0.70338,0.20340,-0.54538,0.44323,-0.29889,0.43918,-0.07983,0.20599,-0.51368,0.64618,-0.25943,0.41578,-0.37256,0.39230,-0.13079,0.64623,-0.25374,0.54660,-0.62224,0.50212,-0.32304,0.16220,-0.23924,0.17217,-0.29438,0.58992,-0.32650,0.40313,-0.73442,0.09767,-0.43012,-0.13651,-0.82274,0.18598,-0.61029,-0.03357,-0.61475,0.31460,-0.34969,0.63048,-0.32280,0.58766,-0.12143,0.57672,-0.50402,0.17536,-0.37404,0.19178,-0.48669,0.46388,-0.55856,0.02351,-0.57581,0.29430,-0.12402,0.47842,-0.42107,0.32847,-0.50185,0.25675,-0.46005,0.39723,-0.32442,0.05304,-0.26032,0.41755,-0.05995,0.11605,-0.12484,0.52450,-0.52493,0.70594,-0.44589,0.19441,-0.34000,0.29427,-0.23591,0.44831,-0.63225,0.08761,-0.29220,0.27819,-0.34023,0.28161,-0.54195,0.09275,-0.68697,0.23979,-0.40189,0.42899,-0.34561,0.38700,-0.22780,0.16734,-0.58155,0.09112,-0.11212,0.38525,-0.16111,0.06439,-0.70134,0.28237,-0.05655,0.52059,-0.26927,0.02784,-0.37276,0.20080,-0.64724,0.20610,-0.52871,0.34505,-0.54899,0.41393,-0.76465,0.27864,-0.68772,0.24880,-0.03959,0.49398,-0.40253,0.22788,-0.54443,0.13207,-0.15870,0.04924,-0.50047,-0.04562,-0.50016,0.39776,-0.18048,0.21174,-0.63427,0.58629,-0.66428,0.22655,-0.45660,0.27250,-0.20294,0.30522,-0.25374,0.53928,-0.77883,0.13586,-0.61533,0.40467,-0.37722,0.98894,-0.25600,0.45584,-0.34685,0.28569,-0.60140,0.07252,-0.38588,0.11437,-0.12146,0.51963,-0.17137,0.40064,-0.43173,0.33103,-0.02413,0.29785,-0.53394,0.49769,-0.30341,0.38668,-0.65341,0.03284,-0.73313,0.25599,-0.44340,0.05692,-0.52256,0.30249,-0.32090,0.61451,-0.69025,-0.08820,-0.12487,0.29908,-0.48395,0.01311,-0.58521,0.38266,-0.24253,0.30374,-0.46125,0.46133,-0.31620,0.41926,-0.56092,0.54098,-0.52801,0.65002,-0.12535,0.08863,-0.11304,0.07621,-0.35261,0.05442,-0.00377,0.81458,-0.19401,0.40581,-0.41729,0.30587,-0.66410,0.10867,-0.68872,0.19703,-0.67686,0.41055,-0.46841,0.30393,-0.61368,0.39456,-0.31930,0.22799,-0.53939,0.63653,-0.37901,0.61974,-0.39281,0.34428,-0.72106,0.33782,-0.59574,0.20363,-0.07963,0.39056,-0.17132,0.16398,-0.68915,0.23635,-0.82360,-0.04579,-0.31494,0.35518,-0.38376,0.55162,-0.25579,0.17758,-0.13561,0.68529,-0.62860,0.51768,-0.11041,0.60710,-0.23556,0.61682,-0.67717,-0.00234,-0.42645,-0.06617,-0.69763,0.49290,-0.32061,0.70764,-0.10722,-0.06455,-0.50809,-0.03553,-0.14952,0.18330,-0.44693,0.20203,-0.57292,0.65199,-0.28475,0.62348,-0.42723,0.47656,-0.16865,0.20842,-0.41979,0.53154,-0.37563,0.24367,-0.27024,0.11199,-0.31395,0.40596,-0.67913,0.35425,0.17054,0.36778,-0.47019,-0.08548,-0.86464,0.40771,-0.17330,0.60627,-0.11589,0.37749,-0.73229,0.40642,-0.11575,0.56095,-0.65797,0.09284,-0.14337,0.23027,-0.37665,0.41505,-0.52416,0.13922,-0.46927,0.11063,-0.24291,0.12777,-0.34585,0.54613,0.17199,0.88388,-0.40371,0.23596,-0.43952,-0.07452,-0.45322,0.47716,-0.19814,0.50971,-0.55143,0.33680,-0.11260,0.16255,-0.37989,0.01812,-0.01275,0.11751,-0.21184,0.10959,-0.62857,0.02154,-0.59651,0.58632,-0.58910,0.24250,-0.28851,0.88973,-0.26716,0.51310,-0.22802,-0.06063,-0.57449,0.10341,-0.53791,0.54542,-0.68902,0.05043,-0.11466,0.01034,-0.26644,0.63380,-0.59790,0.45661,-0.10323,0.55469,-0.62802,0.44719,-0.65714,0.09905,-0.27027,0.14473,-0.44569,0.20003,0.05353,0.90431,0.05457,0.33070,-0.14459,0.14636,-0.43429,-0.03104,-0.70454,0.38913,-0.77639,0.26545,-0.05672,0.05537,-0.22895,0.16891,-0.01553,0.66459,-0.59883,0.16565,-0.25230,0.51844,-0.20984,0.00648,-0.64832,0.15513,-0.51568,0.20580,-0.40197,0.17056,0.23277,0.32419,-0.64865,-0.13988,-0.43697,0.16658,-0.69077,0.62094,-0.08970,0.61900,-0.55805,0.40020,-0.03046,0.63848,-0.59430,0.44298,-0.62616,0.54077,-0.10763,0.66839,-0.66457,0.20071,-0.57824,0.30674,-0.41124,0.74725,0.07426,0.10746,-0.40692,0.78097,-0.34960,0.30048,-0.25126,0.01088,-0.49161,0.49928,-0.24553,0.22455,-0.63145,0.36710,-0.08477,0.32132,-0.58627,0.20687,-0.59087,0.52009,-0.05976,0.08678,-0.01328,0.05146,-0.58875,0.18026,-0.22833,0.21334,-0.51628,0.12989,-0.28071,0.19322,-0.45149,0.53788,-0.58996,0.27815,-0.60938,0.44956,-0.18413,0.38852,-0.52663,0.52973,-0.44951,0.49286,-0.18915,0.40433,-0.68790,0.38380,-0.46250,0.31416,-0.17172,0.24312,-0.16842,0.76407,-0.21798,0.42061,-0.29620,0.39693,-0.63366,0.41930,0.07853,0.34540,0.00698,0.62590,-0.61420,0.06625,-0.05404,0.29953,-0.62669,0.47222,-0.22916,0.41426,-0.34407,0.13575,-0.17450,0.43432,-0.14296,0.26228,-0.20340,0.43145,-0.45130,0.65188,-0.37096,0.29746,-0.47082,0.15371,-0.65867,-0.00538,-0.43215,0.28615,-0.13542,0.04028,-0.30096,0.24185,-0.72742,0.66576,-0.11862,0.21819,-0.01880,0.15805,-0.61691,0.64282,-0.06444,0.16574,-0.28535,0.59044,-0.04200,0.60557,-0.59357,0.41418,-0.38151,0.03120,-0.55363,0.20430,-0.73793,0.41286,-0.32988,0.14455,-0.41633,-0.03326,-0.44728,0.21733,-0.17552,0.50625,-0.22471,0.42220,-0.57810,0.24267,-0.33273,0.56434,-0.59760,0.26070,-0.33560,0.45389,-0.28822,0.09657,-0.28231,0.08162,-0.45253,0.55805,-0.79448,0.51044,-0.48371,0.38820,-0.66029,0.10203,-0.55483,0.25009,-0.52105,0.33355,-0.03079,0.66135,-0.28437},
{ -0.26894,0.07004,-0.48882,0.44565,-0.02126,0.30179,-0.61817,0.18310,-0.23189,0.44045,-0.13631,0.51578,-0.61114,0.25859,-0.50884,0.11175,-0.12270,0.66932,-0.26214,0.60728,-0.59402,0.33753,-0.07082,0.32177,-0.53151,0.41827,-0.42705,0.30736,-0.54959,0.41382,-0.53953,0.12614,-0.47431,0.20034,-0.18038,0.13495,-0.24765,0.21019,-0.14003,0.23264,-0.66362,0.05478,-0.39253,0.45082,-0.44237,0.27175,-0.07486,0.12859,-0.03560,0.58612,-0.57383,0.41790,-0.60958,0.66626,-0.63178,0.03445,-0.02101,0.26280,-0.51121,0.07693,-0.02785,0.54786,-0.14872,0.47579,-0.15982,0.48891,-0.34524,0.06776,-0.47669,0.36438,-0.70051,0.42257,-0.11774,0.41352,-0.45041,0.18409,-0.12273,0.23807,-0.07726,0.15314,-0.67956,0.61772,-0.32727,0.55593,-0.66990,0.20149,-0.57967,0.69171,-0.03322,0.50362,-0.17571,0.38804,-0.52657,0.12610,-0.30555,0.33113,-0.48548,0.37516,-0.66489,0.22207,-0.38131,0.20432,-0.55192,0.27889,-0.33520,0.64555,-0.71750,0.05848,-0.15151,0.68661,-0.63919,0.47360,-0.06610,0.02692,-0.19102,0.32121,-0.14936,0.65826,-0.61495,0.07885,-0.72118,0.12652,-0.47896,0.35482,-0.19478,0.11997,-0.69891,-0.04689,-0.86118,0.21553,-0.41879,-0.13681,-0.22044,0.66644,-0.49739,0.38457,-0.39490,0.48043,-0.42996,0.18326,-0.43920,0.20555,-0.17578,0.29799,-0.59969,0.44238,-0.27857,0.32377,-0.35322,0.04974,-0.49979,0.07902,-0.49803,-0.00027,-0.89982,-0.05121,-0.79907,-0.14177,-0.56408,0.15429,-0.26746,-0.05583,-0.50637,0.26879,-0.40410,0.19300,-0.20559,0.23364,-0.19947,0.25299,-0.28206,0.16303,-0.55271,0.07762,-0.69028,0.18990,-0.35230,-0.28551,-0.71718,-0.21129,-0.97073,0.43783,-0.08597,0.49909,-0.23342,0.54857,-0.32932,0.18204,-0.17495,-0.17264,-0.76301,0.49530,-0.64953,0.40640,-0.51019,0.17901,-0.43145,0.40862,-0.01021,0.12209,-0.09165,0.09756,-0.58270,0.36366,-0.51656,-0.23780,-0.72623,-0.10234,-0.15667,0.78516,0.05583,1.14586,0.57140,1.19510,0.60222,0.59415,0.00316,-0.08291,-0.35351,0.07124,-0.16624,0.52996,-0.09178,0.21209,-0.11218,0.43372,-0.44861,0.45737,-0.29408,0.02507,-0.44186,0.15257,-0.70875,-0.09753,-0.53071,0.53345,-0.01961,0.46812,0.20648,1.07224,0.04257,0.90767,0.35803,0.28518,-0.25097,-0.02777,-0.33570,0.08037,-0.20892,0.19536,-0.64349,0.48214,-0.20788,0.64648,-0.19802,0.21970,-0.59243,-0.02802,-0.15153,0.25669,-0.77037,0.43225,-0.35172,-0.06828,-0.35155,0.29465,0.46060,0.93787,0.36632,0.65286,-0.34752,-0.13525,-0.79595,0.12735,-0.31898,-0.01555,-0.27214,0.45485,-0.36678,0.61672,-0.17819,0.22719,-0.54123,0.49051,-0.07716,0.44470,-0.31162,0.77230,-0.40242,0.15207,-0.26035,0.30170,-0.35126,0.68886,-0.10491,0.79946,0.23922,0.28939,-0.70653,0.37222,-0.16147,-0.03788,-0.75375,0.03565,-0.67868,0.54718,-0.36415,0.61376,-0.50165,0.18513,-0.21116,0.60989,-0.48958,0.55076,-0.29215,0.59297,-0.08594,0.72684,-0.03299,0.31195,-0.25464,0.15107,-0.17492,1.04836,0.09631,0.28458,-0.32536,0.76259,-0.31075,0.24241,-0.68501,-0.04543,-0.37916,0.46333,-0.27045,0.59839,-0.21929,0.06366,-0.38843,0.09251,-0.06980,0.51264,-0.18390,0.75508,-0.04251,0.56566,-0.29671,0.44508,-0.91418,-0.16663,0.00842,1.15057,0.09954,0.76458,0.03702,0.68364,0.42753,0.87027,-0.14675,0.13364,-0.43236,0.60424,-0.42688,0.18800,-0.29915,0.41554,-0.10981,0.56767,-0.26442,0.41321,-0.09284,0.33298,-0.44643,0.24346,-0.46311,0.16449,-1.06337,-0.44657,-0.50849,1.06420,0.42174,0.48914,0.05441,0.94471,-0.18980,0.52867,-0.21178,0.35531,-0.48177,0.14958,-0.24682,0.39361,-0.30062,0.64586,-0.01214,0.39301,-0.30176,0.44969,-0.23365,0.28494,-0.54434,0.64521,-0.50986,0.18455,-1.09253,0.01282,-0.49259,0.41446,0.27004,0.30843,-0.44565,0.55715,-0.27242,0.11972,-0.63335,0.29771,-0.73407,0.02366,-0.05997,0.25786,-0.46976,0.02479,-0.12664,0.49155,-0.31898,0.58464,-0.87452,0.12567,-0.27307,0.13818,-0.31188,0.06012,-0.48798,-0.06044,-0.67688,0.16014,-0.42117,0.45218,-0.14119,0.41483,-0.67042,0.23574,-0.86459,0.09541,-0.39694,0.57631,-0.24908,0.54158,-0.69373,0.44841,-0.22519,0.62121,-0.68294,0.15478,-0.43829,0.05270,-0.38622,0.12074,-0.68615,0.11772,-0.68746,0.49716,-0.55041,0.10304,-0.49992,-0.02322,-0.30039,-0.00950,-0.33023,-0.12367,-0.30157,0.32427,-0.48593,0.50099,-0.20605,0.12436,-0.52802,0.62040,-0.62577,0.48223,-0.68994,0.02358,-0.88806,0.22058,-0.87207,0.15215,-0.39911,-0.22778,-0.75578,0.42711,-0.59831,0.46031,-0.30629,0.29408,-0.74461,0.28615,-0.42152,0.11562,-0.74491,-0.05495,-0.48980,0.15304,-0.63872,0.09084,-0.25144,0.27317,-0.59629,0.35313,-0.57248,0.55705,-0.74445,0.19092,-0.73472,-0.11828,-0.77053,0.28016,-0.62697,-0.01939,-0.04519,0.07501,-0.36971,0.50779,-0.62752,-0.26069,-0.28804,-0.02410,-0.38661,0.45294,-0.70323,0.52536,-0.56836,0.58362,-0.20180,0.17983,-0.55533,0.24843,-0.65611,0.21534,-0.80691,0.07584,-0.54623,-0.24141,-1.05242,-0.20892,-0.47098,-0.20178,-0.07280,0.39918,-0.22116,0.04152,-0.80694,0.21563,-0.76946,-0.17890,-0.55043,0.07982,-0.34143,0.12679,-0.72129,0.18046,-0.39997,0.19489,-0.19112,0.45205,-0.10757,0.26216,-0.52222,0.21835,-0.73861,0.10601,-0.63894,0.05469,-0.47699,0.02380,-0.52125,0.65275,-0.55991,0.14965,-0.82252,-0.01627,-0.84981,-0.03796,-0.63490,-0.00729,-0.18148,0.20631,-0.06683,0.22028,-0.06635,0.02631,-0.46939,0.06522,-0.31371,0.59199,-0.27318,-0.11286,-0.88317,0.30964,-0.94796,0.15745,-0.41162,0.18654,-0.18526,-0.00218,-0.73820,0.15057,-0.55682,0.29811,-0.67177,0.31365,-0.27246,0.39846,-0.15339,0.19988,-0.19075,0.64950,-0.57524,0.31406,-0.33256,0.58128,-0.72694,0.12795,-0.22166,0.52935,-0.18247,0.13187,-0.32918,0.17510,-0.46009,0.25839,-0.24651,-0.22001,-0.64819,-0.22849,-0.91160,0.19119,-0.70336,-0.09563,-0.21609,0.07497,-0.23192,0.03594,-0.04253,0.00332,-0.50140,0.39059,-0.05667,0.49073,-0.02637,0.08715,-0.53758,0.51813,-0.61386,0.47822,-0.43893,0.22647,-0.21372,0.20702,-0.91643,-0.10011,-0.60185,0.32014,-0.21001,0.27452,-0.65026,0.29274,-0.54133,0.57391,-0.09959,0.57353,-0.53369,0.20316,-0.61680,0.22481,-0.47017,0.61419,-0.51521,0.45924,-0.08286,0.15977,-0.41207,0.17960,-0.16004,0.33877,-0.37841,0.16810,-0.10547,0.36257,-0.55347,0.58032,-0.25248,0.70773,0.01388,0.72871,-0.49679,0.47647,-0.46325,0.48155,-0.06423,0.05150,-0.30061,0.46734,-0.60096,0.09506,-0.24222,0.29370,-0.31590,0.39752,-0.59864,0.68716,0.02654,0.25475,0.02483,0.89510,0.28749,0.43942,-0.14750,1.15479,0.44986,0.59296,0.09668,0.53268,-0.04918,0.71334,-0.35405},
{ 0.52926,0.06288,-0.48491,0.50519,-0.48746,0.61978,-0.63154,0.11982,-0.64158,0.15411,-0.17883,0.42868,-0.45367,0.48190,-0.32943,0.50448,-0.31656,0.38277,-0.15904,0.31371,-0.05910,0.63386,-0.01247,0.35420,-0.26920,0.26445,-0.27069,0.25960,-0.06824,0.32716,-0.08519,0.24771,-0.33016,0.13413,-0.25571,0.26067,-0.19021,0.17511,-0.13882,0.24032,-0.42608,0.48366,-0.23176,0.11211,-0.62526,0.42196,-0.68763,0.50184,-0.23694,0.60363,-0.17914,0.05841,-0.25031,0.01245,-0.67848,0.18198,-0.31750,0.17035,-0.08973,0.30700,-0.03745,0.15518,-0.59717,0.24020,-0.60556,0.51742,-0.10451,0.12160,-0.61255,0.08231,-0.50312,0.36035,-0.31274,0.00435,-0.18514,0.38909,-0.31181,0.53797,-0.64065,0.35489,-0.50843,0.12994,-0.01088,0.21297,-0.27621,0.63231,-0.49614,0.16961,-0.19288,0.11891,-0.57199,0.63765,-0.63385,0.11509,-0.69116,0.28973,-0.35051,0.11636,-0.80691,0.33157,-0.57670,0.25273,-0.54945,0.22423,-0.27828,0.24077,-0.43048,0.49942,-0.47159,0.35951,-0.12166,0.46393,-0.61293,0.27498,-0.27010,0.14380,-0.39744,0.55565,-0.24497,0.24963,-0.30726,0.12580,-0.32249,-0.14993,-0.71382,0.22468,-0.80510,0.28339,-0.55952,-0.10544,-0.53307,0.35639,-0.37872,0.28554,-0.68573,0.42522,-0.07410,0.65842,-0.43446,0.24592,-0.53657,0.67775,-0.58976,0.57124,-0.29417,0.17320,-0.58404,0.18311,0.00973,0.14838,-0.12256,0.70049,-0.53066,0.45284,-0.54072,0.55231,-0.10769,0.56344,-0.20308,0.18789,-0.33032,0.60499,0.19300,0.62149,-0.49509,0.48786,-0.02007,0.45185,-0.36176,0.60613,-0.10049,0.58970,-0.49993,0.65324,-0.30516,0.47294,-0.29783,0.58508,0.07159,0.21678,-0.21293,0.33194,-0.61815,-0.03181,-0.40298,0.08077,-0.41690,0.08464,-0.29367,0.57893,-0.27810,0.59602,0.11367,0.71662,-0.46303,0.09562,-0.68111,0.39478,-0.38615,0.33534,-0.40325,0.21169,-0.33566,0.31709,-0.44606,0.53043,-0.05013,0.52852,-0.08844,0.08687,-0.39031,-0.57247,-1.11983,-0.07685,-0.63436,0.49937,0.16287,0.59186,-0.28508,0.50050,0.14026,0.86230,-0.49111,0.12400,-0.39745,0.21260,-0.43085,0.05114,-0.61145,0.65015,-0.16817,0.36489,0.11083,0.61552,-0.06217,0.11325,-0.60552,-0.24908,-0.88231,-0.08090,-0.98810,0.03828,-0.62939,0.27027,0.17988,0.52709,0.12339,0.49889,0.26953,0.46818,-0.22647,0.65657,-0.44111,0.36953,-0.30282,0.58634,-0.61817,0.69195,-0.14752,0.74998,0.06761,0.33201,-0.34291,0.06886,-0.36604,0.18544,-0.54558,-0.33904,-0.42826,0.20664,-0.53325,0.22713,-0.45470,0.53747,-0.00507,0.54149,-0.39838,0.24679,-0.14923,0.30333,-0.37988,0.14233,-0.01679,0.03717,-0.39600,0.14683,-0.51704,0.46637,-0.09962,0.64341,-0.12791,0.61956,-0.69457,0.17590,-0.64243,0.60917,-0.22867,0.58217,-0.46630,0.51695,-0.60891,0.24972,-0.61622,0.21517,-0.56708,0.01039,-0.38324,0.50988,-0.23931,0.67419,-0.42884,0.17109,-0.65142,0.48832,-0.59620,0.04389,-0.58774,0.05342,-0.38288,0.70371,-0.23452,0.81603,-0.25581,0.52253,-0.04255,0.37869,0.02001,0.10830,-0.19695,0.00894,-0.74109,0.40978,-0.32119,-0.02534,-0.52533,0.47751,-0.24795,0.21216,-0.69714,0.62473,-0.42476,0.07488,-0.56316,0.01755,-0.37356,0.32056,-0.11487,0.59263,0.05264,0.46262,0.05468,0.33568,-0.01516,0.66383,-0.49117,0.11012,-0.17705,-0.07123,-0.57963,-0.00222,-0.55587,0.16913,-0.63040,0.11614,-0.32017,0.12200,-0.23365,0.62986,-0.08930,0.38772,-0.37085,0.46928,-0.44477,0.56062,-0.42226,0.46110,-0.05867,0.34048,-0.04455,0.33279,-0.03080,0.56480,0.00867,0.57833,-0.62954,0.40848,-0.46111,-0.05467,-0.36286,-0.04248,-0.71929,0.02989,-0.53013,0.26434,-0.60732,0.54450,-0.27574,0.61988,-0.07559,0.05308,-0.09229,0.14132,-0.40300,-0.03811,-0.42148,0.71347,0.00799,0.26203,-0.63652,-0.00420,-0.43221,0.29402,-0.19831,0.47413,-0.13824,0.23511,-0.16695,0.27979,-0.09481,0.28728,-0.17524,0.35400,-0.41459,0.16811,-0.57683,0.36300,-0.18442,0.51440,-0.41506,-0.02792,-0.71621,0.19759,-0.48858,0.68731,-0.32547,0.67502,0.02192,0.65533,-0.24227,0.80170,-0.30554,0.58543,-0.62766,0.09113,-0.52814,0.20202,-0.33034,0.10712,-0.46818,0.59291,-0.50359,0.06100,-0.65202,0.57403,-0.29774,0.19702,-0.29142,0.45365,-0.48509,0.30881,-0.64585,0.59754,0.06904,0.68057,-0.08415,0.29867,-0.05319,0.65514,-0.28574,0.35764,-0.51454,0.34125,-0.60204,0.34044,-0.51044,0.62152,-0.18890,0.45818,-0.69763,0.00464,-0.24432,0.05342,-0.64316,0.48823,-0.28883,0.45859,-0.69843,0.47193,-0.32379,0.61497,0.10722,0.68907,-0.24787,0.63559,-0.42554,0.19303,-0.15813,-0.06212,-0.17265,0.49652,-0.72108,0.17095,-0.37210,0.53494,-0.24856,0.68753,-0.35390,0.05972,-0.02427,0.17048,-0.66886,0.22019,-0.74512,-0.06632,-0.48198,0.03866,-0.55943,-0.02649,-0.10722,0.29832,-0.35204,0.15546,-0.90166,-0.10882,-0.81135,0.49931,-0.38760,0.28529,-0.67670,0.61982,-0.27003,0.43718,-0.56460,0.53888,-0.33372,0.22614,-0.37858,0.47092,-0.64693,0.16525,-0.49870,0.50502,-0.41743,0.13358,-0.35360,-0.04100,-0.91303,-0.03555,-0.47528,-0.29022,-0.49523,0.27534,-0.37354,0.50753,-0.62195,-0.04969,-0.51476,0.26276,-0.47311,0.14435,-0.55021,0.60352,-0.33642,0.68117,-0.56363,0.24242,-0.27072,0.66591,-0.01708,0.22123,-0.55116,0.09406,-0.21085,-0.17365,-0.64937,-0.32465,-0.81459,0.26624,-0.13006,0.11568,-0.34916,0.03316,-0.70002,-0.01636,-0.16619,0.20050,-0.63116,0.26515,-0.69655,0.10473,-0.33394,0.69436,-0.39222,0.43758,-0.42149,0.05576,-0.14107,0.65445,-0.20954,0.33777,-0.31062,0.37661,-0.56281,-0.08970,-0.38856,0.25117,-0.35210,0.15538,-0.14530,0.45840,-0.73361,0.38763,-0.24553,-0.00378,-0.65889,0.29287,-0.41421,0.06749,-0.27954,0.56082,-0.08334,0.43147,-0.66617,0.21854,-0.41589,0.28167,0.01425,0.91753,0.26250,0.53518,-0.16899,0.83411,0.18029,0.32030,0.05731,0.68581,-0.56701,0.47693,-0.76546,0.35809,-0.24774,0.17355,-0.37904,0.31565,-0.19984,0.17636,-0.26891,0.14770,-0.41979,0.53214,-0.63134,0.59017,0.03460,0.43933,-0.17425,0.43733,0.02768,0.75999,0.30351,0.44534,0.20848,0.47934,-0.23840,0.67261,0.01369,0.39756,-0.09742,0.39970,-0.54410,0.60538,-0.70308,0.42690,-0.65774,0.26120,-0.34595,0.22871,-0.17358,0.62655,-0.65112,0.49706,-0.40606,0.53636,-0.02208,0.84575,-0.53006,0.50424,-0.09488,0.04993,-0.50600,0.28171,-0.24702,0.17320,-0.59069,0.32685,-0.48413,0.12975,-0.07406,0.35807,-0.03255,0.37765,-0.24135,0.53983,-0.17517,0.54980,-0.46594,0.62456,-0.23515,0.39194,-0.37247,0.14933,-0.04923,0.07060,-0.69513,-0.07548,-0.45005,0.15427,-0.69325,0.02702,-0.64356,-0.03265,-0.57724,0.21526,-0.18768,0.34391,-0.35287},
{ -0.55461,0.15231,-0.65622,0.60977,-0.43260,0.49343,-0.19347,0.08289,-0.13571,0.33710,-0.57103,0.25687,-0.34249,0.09485,-0.26173,0.04022,-0.49242,0.63098,-0.52844,0.58917,-0.60470,0.53943,-0.53821,0.34332,-0.01373,0.54327,-0.00597,0.26017,-0.49875,0.66106,-0.05261,0.18117,-0.65743,0.57246,-0.50999,0.60104,-0.49085,0.61655,-0.03510,0.15318,-0.21907,0.37744,-0.62861,0.10967,-0.33152,0.44096,-0.33620,0.48865,-0.50168,0.23538,-0.32204,0.07985,-0.14268,0.49555,-0.08964,0.18628,-0.46391,0.37852,-0.19985,0.21066,-0.65956,0.03924,-0.12933,0.31932,-0.54496,0.27730,-0.32618,0.31882,-0.49820,0.15730,-0.31867,0.22895,-0.36935,0.60925,-0.51190,0.26060,-0.45065,0.32774,-0.36317,0.31994,-0.68418,0.13787,-0.16050,0.50738,-0.06241,0.28143,-0.08838,0.66158,-0.45397,0.59347,-0.26222,0.09696,-0.04899,0.22249,-0.51233,0.37800,-0.12922,0.55234,-0.26565,0.15609,-0.09968,0.39534,-0.44999,0.55358,-0.01868,0.13567,-0.55282,0.74816,-0.65109,0.18995,-0.10323,0.15661,-0.16672,0.62827,-0.59246,0.59956,-0.33354,0.23441,-0.59888,0.63117,-0.18479,-0.11722,-0.11101,0.18564,-0.23339,0.06228,-0.78037,-0.02303,-0.05043,0.43647,-0.43385,0.43256,-0.32995,0.25184,-0.15966,0.77263,-0.45378,0.28466,-0.50695,0.64055,-0.09114,0.19960,-0.20282,0.49930,-0.20106,0.50299,-0.72332,0.40936,-0.81580,0.37207,-0.30125,-0.02281,-0.65587,-0.07137,-0.92116,0.08759,-0.62209,0.59647,-0.31026,0.83513,-0.03843,0.24737,0.22700,0.52827,-0.42503,0.74338,-0.17984,0.63589,-0.64988,0.41222,-0.22337,0.13206,-0.54859,0.51362,-0.83959,-0.31402,-0.92789,0.40397,-0.58039,0.06811,-0.65450,0.20570,-0.45097,-0.02278,-0.88437,0.30688,-0.45501,0.20802,-0.26151,0.77476,-0.10767,0.75460,-0.08541,0.73897,-0.46723,0.38280,-0.17043,0.46266,-0.31499,0.42932,-0.66124,-0.02396,-0.26593,-0.01502,-0.54806,0.35116,0.00036,0.31873,-0.59947,0.33746,-0.78199,0.12400,-0.72507,0.16259,-0.19517,-0.12786,-0.81599,0.31078,-0.14841,0.85443,0.35457,0.78468,-0.09769,0.53682,-0.54583,0.29859,-0.09680,0.60924,-0.61199,0.33725,-0.25452,0.04765,-0.53059,0.65578,-0.39016,0.65092,-0.34845,0.61519,-0.56428,0.18423,-0.60013,-0.05003,-0.77249,-0.07751,-0.80726,0.43438,-0.48544,0.92044,0.26423,0.80729,0.15499,0.26170,-0.45451,0.12812,-0.68052,0.70106,-0.66465,0.27706,-0.33844,0.56264,-0.27347,0.60971,0.36264,1.04117,0.02043,1.01536,-0.44815,0.51579,-0.94981,-0.06887,-0.73729,0.20949,-1.16118,0.33381,-0.50534,0.14726,0.18990,0.64902,-0.17907,0.43068,-0.16085,0.10776,-0.62487,0.02118,-0.05483,0.14253,-0.10631,0.22369,-0.38411,0.74861,0.31638,1.16366,0.26272,0.73679,0.13101,-0.12955,-0.72389,-0.02471,-0.45404,-0.08600,-0.49594,-0.20159,-0.76062,0.12528,-0.10080,0.59984,-0.38873,0.30313,-0.38653,0.03131,-0.48569,0.48506,-0.54880,0.13710,-0.26391,0.08113,-0.37060,1.10852,0.12472,0.96047,0.60133,1.01557,-0.22572,0.00585,-0.63251,0.21761,-0.43609,0.37380,-0.48641,-0.18486,-0.18079,0.24206,-0.25277,0.32679,-0.59225,0.15495,-0.30868,0.32975,-0.13445,0.21362,-0.05099,-0.00045,-0.19934,0.53582,-0.36317,0.66332,0.23227,0.94099,0.35543,0.39001,-0.11958,-0.18045,-0.62454,0.48963,-0.21223,0.47553,-0.43236,0.04863,-0.62199,0.13609,-0.70014,0.08866,-0.42867,0.11371,-0.60264,0.30390,-0.51197,0.33599,0.00127,0.42179,-0.21370,0.59036,-0.07913,0.58116,-0.07922,0.34948,0.26828,0.52218,-0.46512,0.09187,-0.33795,0.85157,-0.20313,0.15368,-0.03415,0.21307,-0.15988,0.48181,-0.25480,0.43306,-0.17971,0.23368,-0.00727,0.39101,-0.13938,0.38854,-0.35338,0.19406,-0.61852,0.33917,-0.48167,0.40055,-0.60120,0.36117,-0.31661,0.37060,-0.24359,-0.02617,0.01538,0.73272,-0.03569,0.72807,-0.60276,0.06337,-0.47897,0.25733,-0.24771,0.09917,-0.58516,0.06589,-0.53123,0.50349,-0.49294,0.28499,-0.62902,0.22436,-0.88091,0.32921,-0.62274,0.37957,-0.68955,0.56411,-0.22532,0.43278,-0.41195,0.00765,-0.13920,0.88129,-0.36007,0.23380,-0.66939,0.56535,-0.20419,0.53169,-0.35626,0.14093,-0.54594,0.42401,-0.42937,0.00353,-0.44820,0.13675,-0.66119,0.46390,-0.35044,0.07843,-0.30359,0.39726,-0.57175,0.34909,-0.50980,0.51495,-0.39986,0.51062,-0.29950,0.77766,-0.18405,0.12648,-0.21715,0.21412,-0.45834,0.51018,-0.21839,0.44666,-0.21303,0.48187,-0.66162,0.47247,-0.66955,0.60989,-0.41124,0.36774,-0.40502,-0.02694,-0.68531,0.09850,-0.41619,0.46493,-0.25491,0.65889,-0.43771,0.44758,-0.32041,0.21608,-0.11770,0.05529,-0.77207,0.24596,-0.28156,0.03845,-0.57934,0.67293,-0.50402,0.46628,-0.31377,0.63787,-0.19154,0.40945,-0.51611,0.28002,-0.38841,0.23592,-0.17809,0.44884,-0.47546,0.65857,0.01771,0.16331,-0.05623,0.35653,-0.25894,0.54817,-0.48470,0.11723,-0.38766,0.28866,-0.58184,-0.06020,-0.55413,-0.01440,-0.68245,0.03196,-0.23469,0.55143,-0.52222,0.03230,-0.21789,0.27202,-0.14967,0.30897,-0.64591,0.21337,-0.22518,0.61644,-0.25043,0.85237,-0.16589,0.18798,-0.43873,0.47639,-0.98739,0.06900,-0.21732,0.27865,-0.36691,0.45489,-0.72998,0.20220,-0.12316,0.24309,-0.32667,0.12914,-0.38845,0.26070,-0.25617,0.44021,-0.76701,0.62555,-0.47146,0.23213,-0.11153,0.36345,-0.36965,0.90715,-0.19458,0.37307,-0.17670,-0.07122,-0.52487,0.36442,-0.42339,-0.01599,-0.30745,0.37435,-0.24386,0.21599,-0.56811,0.41496,-0.45028,0.19755,-0.15478,0.17438,-0.33251,-0.13490,-0.71346,0.16345,-0.38054,0.54589,-0.67328,0.16941,-0.12529,0.54870,-0.14775,0.57282,-0.33450,0.01734,-0.31732,0.52958,-0.78572,0.13169,-0.34427,0.05235,-0.13498,0.68685,-0.47485,0.55474,-0.61824,0.66586,-0.20120,0.53817,-0.09084,0.52211,-0.50049,0.44900,-0.18433,0.51332,-0.69650,0.67151,-0.06706,0.63032,-0.29048,0.49866,-0.04807,0.11072,-0.66005,0.57185,-0.36788,0.14389,-0.43547,0.59072,-0.43162,0.57945,-0.26718,0.53928,-0.09122,0.08808,-0.55557,0.19909,-0.47920,0.56491,-0.21694,0.04673,-0.59317,0.11648,-0.47297,0.19516,-0.66808,0.64008,-0.47884,0.26577,-0.28295,0.00606,-0.35025,0.45086,-0.11004,0.62848,-0.53789,0.33133,-0.14740,0.48674,-0.15764,0.15230,-0.54814,0.62553,-0.02534,0.31857,-0.59805,0.36353,-0.05455,0.53473,-0.53728,0.47039,-0.45101,0.19865,0.05544,0.10583,0.05026,0.58695,-0.32031,0.59837,-0.62994,0.08478,-0.38320,0.58979,-0.45832,0.10278,-0.57986,0.08257,-0.30039,0.30176,-0.16790,0.11954,-0.09089,0.12241,-0.03972,0.33620,-0.19063,0.34727,-0.23251,0.54203,-0.07246,0.18074,-0.13017,0.37317,-0.50033,0.36028,-0.16979,0.59436,-0.53379,0.61794,-0.27295,0.43384,-0.54630,0.02770,-0.21350},
{ 0.79669,0.05825,-0.48069,0.18939,-0.23641,0.05936,-0.17010,0.13208,-0.15912,0.26183,-0.35610,0.69747,-0.18643,0.18864,-0.14298,0.68306,-0.26575,0.41477,-0.36487,0.35567,-0.38100,0.56934,-0.61103,0.60926,-0.27704,0.57695,-0.42116,0.03472,-0.36168,0.03580,-0.38910,0.24279,-0.21880,0.28792,-0.64229,0.03689,-0.27269,0.42299,-0.15143,0.61853,-0.46011,0.51084,-0.19474,0.59004,-0.60323,0.04308,-0.47065,0.52929,-0.40059,0.01850,-0.05620,0.22759,-0.27410,0.06985,-0.12330,0.36694,-0.14556,0.61677,-0.40608,0.01134,-0.27124,0.31460,-0.40878,0.67442,-0.53089,0.25924,-0.68929,0.67034,-0.25480,0.63018,-0.11979,0.54166,-0.48118,0.15811,-0.46487,0.68087,-0.67032,0.16742,-0.15279,0.47096,-0.25527,0.25747,-0.24527,0.58831,-0.26452,0.07875,-0.53797,0.43896,-0.28557,0.43779,-0.03743,0.20881,-0.42937,0.00086,-0.41391,0.14486,-0.55592,0.21407,-0.65071,0.30848,-0.58309,0.29551,-0.53085,0.67200,-0.58723,0.60087,-0.63946,0.44576,-0.27956,0.36921,-0.10044,0.37496,-0.48172,0.69120,-0.55857,0.20993,-0.37317,0.44647,-0.59375,0.32742,-0.12485,0.64360,-0.39265,0.26439,-0.44498,0.26349,-0.51392,0.31291,-0.60724,0.58678,-0.32033,0.39436,-0.27337,0.58709,-0.39480,0.15819,-0.28770,0.34435,-0.16142,0.14035,-0.48188,0.67457,-0.34439,0.61116,-0.66017,0.53671,-0.41070,0.54144,-0.12846,0.14171,-0.55867,0.21434,-0.58696,-0.07449,-1.05221,-0.05293,-0.52485,-0.00791,-0.47383,0.25974,-0.02973,0.37525,-0.16714,0.63519,-0.13561,0.31538,-0.09743,0.41996,-0.55624,0.24424,-0.19728,0.51987,-0.70325,0.57036,-0.22513,0.22479,-0.56027,0.49161,-0.35908,0.37552,-0.68439,-0.18379,-0.85786,0.23723,-0.51164,0.16865,-0.46086,0.18592,-0.19754,0.31203,-0.22738,0.55913,-0.15110,0.34207,-0.34590,0.47571,-0.66248,0.63769,-0.58927,0.19519,-0.10667,0.07477,-0.52950,0.01285,-0.54130,0.07116,-0.74992,-0.13563,-0.52806,-0.12967,-0.78365,-0.22097,-0.86566,-0.52388,-0.89844,-0.22440,-0.50068,0.19700,-0.80003,0.15069,-0.83463,0.55843,-0.17588,0.27876,-0.33516,0.66080,-0.54777,0.20791,-0.54205,0.46038,-0.81402,0.08814,-0.53496,0.56010,-1.02102,0.16784,-0.97700,-0.32638,-0.96714,-0.50931,-0.97154,-0.57116,-0.80006,-0.02241,-0.83688,-0.17972,-0.98633,0.06677,-0.30529,0.47935,-0.41774,0.07777,-0.57475,0.10508,-0.13684,0.22647,-0.68579,0.42818,-0.77772,0.36374,-0.21234,-0.02894,-0.57032,0.29935,-0.53625,0.24665,-0.74646,-0.12859,-1.17781,-0.14045,-0.80058,-0.02569,-0.78042,-0.29999,-0.69368,-0.04381,-0.77236,0.40547,-0.52559,0.28475,-0.30391,0.67203,-0.23545,0.15017,-0.32282,0.38935,-0.62624,0.02677,-0.76204,0.37881,-0.71541,0.12601,-0.56430,0.21782,-0.63996,-0.05465,-0.65529,0.10625,-0.60061,-0.25016,-0.57858,0.27020,-0.46244,-0.17778,-0.46598,-0.12163,-0.19006,0.28823,-0.15146,0.17592,-0.52655,0.34797,-0.20675,0.07106,-0.60058,0.35376,-0.74903,0.11622,-0.90149,-0.05998,-0.45070,0.57414,-0.59657,0.16028,-0.03236,0.78322,-0.64427,0.42191,-0.52632,0.35422,-0.33806,0.03947,-0.65933,0.14245,-0.03009,0.01708,-0.00521,0.10084,-0.05079,0.26782,-0.37233,0.50605,-0.54032,0.59873,-0.01615,0.62157,0.13327,0.40351,-0.09075,0.25812,-0.61513,0.21277,-0.22483,0.62855,-0.16626,0.06216,-0.70850,0.02223,-0.38003,0.18186,-0.60795,0.43841,-0.37964,0.26945,-0.14766,0.24361,-0.04683,0.28921,-0.22496,-0.02828,0.08368,0.58506,-0.07445,0.59019,0.35644,0.84368,0.44634,0.66507,-0.05323,0.39189,-0.38712,0.69713,0.05385,0.70372,-0.55040,0.45060,0.13005,0.43234,-0.46733,0.45249,-0.45675,0.49079,-0.55511,0.17729,-0.49008,0.57549,-0.52285,0.63023,-0.08404,0.51463,0.12755,0.82861,-0.06581,1.05488,0.09594,0.66582,-0.08662,0.62380,-0.39704,0.44205,-0.11454,0.57776,-0.32478,0.55000,0.02261,0.78420,-0.44249,0.55376,-0.60474,0.25834,-0.04601,0.54994,-0.69185,0.18702,-0.39061,0.26641,-0.58844,0.44616,0.50700,0.49376,0.43622,1.08074,0.12997,0.78606,-0.40364,0.31870,-0.13038,0.45589,0.06686,0.70547,0.11925,0.63474,0.24044,0.49635,-0.11913,0.55519,-0.05771,0.13742,-0.27895,0.40028,-0.45176,0.46200,-0.12970,0.64334,-0.58594,0.59723,-0.03576,0.56949,-0.24799,0.79906,-0.38811,0.40009,0.03695,0.71023,0.29203,0.72654,-0.59573,0.54275,0.10174,0.69012,-0.04185,0.32106,-0.08903,0.06441,-0.30962,0.43742,-0.53620,0.25205,-0.57133,0.47294,-0.13306,0.36893,-0.52573,0.45995,0.02452,0.61006,0.23755,0.39944,0.12206,0.50543,0.37508,1.08124,-0.07982,0.02629,-0.17877,0.15090,-0.54656,0.58010,-0.14352,0.66244,-0.17345,0.47556,-0.11030,0.56346,-0.48296,0.61811,-0.54237,0.30775,-0.36541,0.04146,-0.31303,-0.07513,-0.20598,0.29859,-0.42928,0.62366,0.13560,0.35216,0.05644,0.29979,-0.02406,0.19323,-0.64395,0.13174,-0.18747,0.02999,-0.54348,0.04171,-0.52572,0.06602,-0.44578,0.26733,-0.17744,0.00199,-0.50047,0.46764,-0.07950,0.39398,-0.70487,0.27520,-0.98515,-0.00299,-0.10512,0.48853,-0.06183,0.44375,-0.73825,-0.03522,-0.22770,0.08952,-0.04282,0.34331,-0.22377,0.07668,-0.91291,0.39867,-0.44114,0.41679,-0.65480,0.42226,-0.29239,0.00360,-0.38006,0.67843,-0.62970,0.49556,-0.61120,0.28420,-1.19611,0.10220,-0.36770,0.54272,-0.59145,0.42778,-0.61826,0.43050,-0.19502,0.78121,-0.03230,0.39595,-0.31522,-0.12520,-0.35587,-0.03252,-0.53012,0.09629,-0.30614,0.51856,-0.17834,0.66649,-0.21850,0.16089,-0.66372,0.13399,-0.49744,-0.18382,-0.76580,-0.20573,-0.53050,0.12975,-0.43081,0.40039,-0.14139,0.46594,0.08934,0.66284,-0.31582,0.38466,-0.86847,-0.25193,-0.73782,0.48625,-0.11074,0.56306,-0.25593,0.31269,-0.19679,0.68405,-0.03849,0.09468,-0.37708,0.05806,-0.67349,0.23575,-0.52452,0.17961,-0.65982,-0.40596,-0.61569,-0.05538,-0.30626,-0.02036,-0.55335,0.61760,-0.65688,0.44742,-0.70676,0.31140,-0.42740,0.51907,-0.13373,0.06974,-0.09016,0.19151,-0.61787,0.06346,-0.49094,0.34800,-0.38689,0.15806,-0.20935,0.47013,-0.25819,-0.05580,-0.85477,0.25764,-0.77655,-0.22525,-0.49208,-0.25068,-0.60284,-0.08639,-0.43094,0.29932,-0.32216,0.25773,-0.49105,0.06789,-0.28161,0.64557,-0.46154,0.25416,-0.24820,0.25618,-0.53936,0.65004,-0.33875,0.36637,-0.36397,0.21142,-0.50235,0.55334,-0.68682,0.07073,-0.40627,0.02306,-0.67201,0.02502,-0.66612,-0.18233,-0.53232,-0.12414,-0.05579,0.09779,-0.56146,0.49916,-0.39708,0.02818,-0.26075,0.62028,-0.57516,0.45084,-0.52848,0.60710,-0.25539,0.57903,-0.02541,0.34652,-0.55215,0.49528,-0.38505,0.25387,-0.59377,-0.11220,-0.68237,0.32350,-0.59214,0.23871,-0.86404,0.02772,-0.48728,0.55223,-0.42997,0.00712,-0.14270},
{ -0.58307,0.62769,-0.64691,0.27286,-0.18080,0.66925,-0.52120,0.65753,-0.16787,0.32505,-0.37036,0.16694,-0.20620,0.63732,-0.01392,0.16189,-0.01818,0.31986,-0.53112,0.15893,-0.56766,0.31755,-0.25069,0.68328,-0.41569,0.56164,-0.69208,0.51617,-0.18023,0.21406,-0.48288,0.68872,-0.08121,0.61631,-0.34276,0.66409,-0.37540,0.19040,-0.41050,0.48437,-0.11893,0.18221,-0.13195,0.55704,-0.38459,0.22205,-0.45148,0.12303,-0.35516,0.45488,-0.42258,0.13543,-0.42730,0.33441,-0.12988,0.36627,-0.14346,0.41592,-0.23152,0.54810,-0.68634,0.69742,-0.66989,0.22246,-0.27132,0.20458,-0.59583,0.64485,-0.26127,0.38737,-0.15961,0.58044,-0.60203,0.29033,-0.23431,0.08592,-0.18586,0.46773,-0.32492,0.60213,-0.05582,0.11828,-0.60488,0.05637,-0.31148,0.37866,-0.36359,0.62919,-0.60327,0.29311,-0.28111,0.25730,-0.00559,0.34590,-0.47762,0.84084,0.00767,0.68982,-0.38665,0.72504,-0.13493,0.64690,-0.42783,0.24707,-0.30633,0.21330,-0.34326,0.10547,-0.28087,0.65455,-0.00274,0.30666,-0.56679,0.42177,-0.56315,0.14662,-0.28603,0.65538,-0.20866,0.64773,-0.48371,0.54593,-0.27956,0.36157,-0.23369,0.35893,0.27907,0.85459,-0.41169,0.84167,0.14513,0.18251,-0.12489,0.10718,-0.11433,0.05338,-0.38682,0.22874,-0.47966,0.14243,-0.53270,0.11992,-0.14538,0.35913,-0.31272,0.02251,-0.48224,0.24367,-0.39517,0.33143,-0.10377,0.31753,0.13028,0.45749,0.01064,1.04033,-0.08839,0.83044,0.01899,0.91508,0.06109,0.30647,-0.57952,0.00311,-0.22988,0.58188,-0.20585,0.00423,-0.56502,0.14818,-0.57317,0.50300,-0.60938,0.34785,-0.66570,0.50708,-0.12554,0.56067,-0.55078,0.48744,0.03131,0.45587,-0.07669,0.53516,-0.49522,0.60298,-0.25169,0.53731,0.03302,0.54232,-0.25945,0.23169,-0.18335,0.63742,-0.56738,0.26902,-0.41156,0.59281,-0.24952,0.64450,-0.06071,0.14101,-0.20289,0.48117,-0.51195,0.34998,-0.64258,0.06303,-0.34636,-0.04541,-0.52366,0.24558,-0.55633,0.40548,-0.57872,0.27947,-0.61320,0.29568,-0.27886,0.54148,-0.59980,0.19114,-0.21397,0.35491,-0.02946,0.09353,-0.44875,0.07833,-0.34821,0.49153,-0.40325,0.24327,-0.57024,0.43271,-0.25180,0.47106,-0.45925,0.41642,-0.66347,-0.08247,-0.43599,0.04597,-0.79017,0.38610,-0.49217,0.47450,-0.66973,0.43478,-0.21123,0.42327,-0.07504,0.26410,-0.24489,0.55663,-0.14834,0.60986,-0.08902,0.33580,-0.12185,0.09518,-0.60274,-0.02384,-0.51487,-0.01376,-0.51846,0.33267,-0.36467,-0.09127,-0.46405,0.42495,-0.82348,0.25336,-0.33676,0.35985,-0.61533,0.18012,-0.52880,0.27399,-0.00539,0.07681,0.00084,0.67779,-0.39906,0.19256,-0.11979,0.51278,-0.33831,0.67005,-0.75145,0.19697,-0.31635,0.63365,-0.73909,0.35520,-0.48924,0.83578,-0.24045,0.03934,-0.57859,-0.12979,-0.54181,0.41256,-0.24195,0.83888,-0.34031,0.61892,-0.29610,0.08725,-0.24648,0.59389,-0.29299,0.47814,-0.05582,0.02436,-0.63006,0.36317,-0.32325,0.20016,-0.68911,-0.00107,-0.44928,0.44628,-0.44827,0.89280,-0.67048,-0.02750,-0.68218,-0.18599,-0.48056,0.08672,-0.19043,0.72265,0.00398,0.48724,-0.02055,0.65603,-0.30480,0.17875,-0.49412,0.02943,-0.56718,0.30038,-0.10297,0.21922,-0.56792,0.25381,-0.16801,0.60041,-0.55483,0.46566,0.17232,0.96412,-0.09591,-0.24469,-0.51860,0.00158,-0.38033,0.11234,0.09600,0.49479,-0.34478,0.33303,-0.56736,0.25210,-0.44785,0.57565,-0.20706,0.18972,-0.26915,0.62107,-0.52754,0.56652,-0.13363,0.14015,-0.64043,0.14989,-0.74213,0.70240,-0.10357,0.45541,-0.26365,-0.29462,-0.77943,0.30951,-0.17822,0.07879,-0.33739,0.18927,-0.40842,0.19066,-0.28216,0.46483,-0.34620,0.22631,-0.43455,0.33833,-0.06563,0.33001,-0.29041,0.03278,-0.24112,0.25525,-0.46919,0.02752,-0.57588,0.34879,0.20195,0.64232,-0.94551,-0.05020,-0.49769,-0.30303,-0.36199,0.16344,-0.00131,0.08115,-0.10202,0.44718,-0.48478,0.25342,-0.42915,0.63605,-0.42023,0.44109,-0.17701,0.16545,-0.61465,0.42258,-0.59385,0.07796,-0.41828,0.40928,-0.15906,0.16181,-0.09178,0.55336,-0.64239,-0.28626,-0.98658,-0.02449,-0.83783,-0.06279,-0.26885,0.10027,-0.40608,0.73157,-0.57501,0.54588,-0.48193,0.26723,-0.18398,0.24398,-0.65543,0.61910,-0.15401,0.60200,-0.43458,0.13943,-0.56497,0.57518,-0.27049,0.59882,0.00454,0.09230,-0.94895,-0.37056,-0.57972,-0.26299,-0.59509,0.53837,-0.34131,0.73135,-0.10223,0.46588,-0.23578,0.54855,-0.67008,0.38412,-0.46029,0.45991,-0.18954,0.50579,0.00086,0.47016,-0.36529,0.05481,-0.77062,0.23420,-0.19070,0.31747,-0.50324,0.46488,-0.37585,0.01216,-0.67875,0.53515,-0.30085,0.59216,-0.17883,0.78723,-0.03757,0.31260,-0.18538,0.22008,-0.44277,0.61880,-0.28274,0.65754,-0.66533,0.42830,-0.46676,0.43462,-0.25227,0.39745,0.11534,0.89279,-0.09290,0.66650,-0.37045,0.21751,-0.24484,0.20817,-0.12900,0.43803,0.18639,0.40499,-0.25374,0.67155,-0.53648,0.19620,-0.61262,0.44190,-0.53292,0.11551,-0.23820,0.57275,-0.10640,0.13719,-0.50626,0.72837,-0.18874,0.96872,0.10776,1.16535,0.20347,0.83117,-0.35550,0.37218,-0.33126,0.83376,0.21863,0.85361,-0.02068,0.86406,-0.31727,0.22662,-0.30478,0.69176,-0.69181,0.15490,-0.69593,0.12412,-0.13348,0.66989,-0.46458,0.49344,0.08681,0.95631,0.03584,1.00960,-0.09055,1.19561,0.19055,0.58232,0.08852,0.83574,-0.34832,0.46187,0.13707,0.41887,0.14478,0.42250,-0.25021,0.59640,-0.13408,0.42611,-0.09023,0.24574,-0.24043,0.43036,-0.57702,0.11780,-0.53044,0.15267,-0.27588,0.69202,-0.34851,0.70411,0.31689,0.83585,0.11921,0.79769,-0.41388,0.47713,-0.05295,0.35604,-0.35949,0.57863,-0.34523,0.16972,-0.00471,0.25572,-0.15068,0.18046,-0.04268,0.04875,-0.36413,0.53672,-0.51909,0.20151,-0.37047,0.63081,-0.48813,0.72387,-0.41508,0.79246,0.07419,0.30356,-0.07382,0.58330,-0.42187,0.89759,-0.02684,0.88844,-0.39595,0.61732,-0.38753,0.24660,-0.40778,0.28630,-0.39637,0.12785,-0.62709,0.55501,-0.49455,0.08401,-0.03627,0.60624,-0.51105,0.00341,-0.43302,0.46622,-0.28735,0.29755,-0.38559,0.54919,0.01532,0.56080,-0.15354,0.70825,-0.04270,0.34081,-0.45711,0.41887,-0.53552,0.27361,-0.28480,0.22436,-0.25266,0.35871,-0.12335,0.66509,-0.59564,0.18074,-0.47345,0.33227,-0.62676,0.33586,-0.48112,0.40093,-0.60626,0.17744,-0.46470,0.16825,-0.30467,0.20697,-0.51737,0.63722,-0.30345,0.17574,-0.30427,0.18980,-0.26658,0.54030,-0.03468,0.03093,-0.56249,0.60643,-0.12100,0.32038,-0.30571,0.14757,-0.11312,0.00903,-0.51571,0.33671,-0.36970,0.31280,-0.73104,0.13144,-0.87723,0.10515,-0.35658,0.30762,-0.78372,0.52175,-0.17092,0.02243,-0.34273,0.19235,-0.12311,0.37849,-0.45053,0.56892,-0.62443},
{ -0.11075,0.10180,-0.14956,0.65043,-0.50548,0.41506,-0.41279,0.03171,-0.20403,0.56549,-0.27879,0.58110,-0.11502,0.42213,-0.18498,0.24556,-0.60865,0.43563,-0.27082,0.32173,-0.46859,0.63576,-0.36688,0.51731,-0.47962,0.54096,-0.30212,0.58622,-0.15310,0.57603,-0.36778,0.21528,-0.54718,0.59984,-0.16963,0.23159,-0.02343,0.01185,-0.62347,0.22093,-0.27246,0.53039,-0.30905,0.28869,-0.39801,0.54562,-0.70148,0.09412,-0.44268,0.38640,-0.31103,0.61222,-0.24571,0.39352,-0.30745,0.60762,-0.04067,0.39985,-0.22842,0.24511,-0.05884,0.49830,-0.17547,0.20344,-0.32421,0.28133,-0.61843,-0.04178,-0.18547,0.47602,-0.12392,0.14123,-0.21360,0.16982,-0.50854,0.41186,-0.43842,0.03419,-0.67897,0.50589,-0.54406,0.30700,-0.02928,0.06919,-0.16816,0.36129,-0.34733,0.19567,-0.69184,0.03001,-0.65797,0.46353,-0.54845,0.09155,-0.32204,0.23279,-0.51435,0.38592,-0.68041,0.04297,-0.38137,0.35343,-0.42830,-0.03663,-0.68277,-0.04156,-0.58679,0.12363,-0.43659,0.17088,-0.01567,0.48532,-0.37236,0.33059,-0.40481,0.29502,-0.31116,0.13375,-0.69181,0.47580,-0.10311,0.02684,-0.29005,0.19017,-0.34250,-0.15227,-0.85624,-0.16769,-0.74260,0.25771,-0.25489,0.36284,-0.37329,0.13652,-0.32600,0.30731,-0.50484,0.66785,-0.11442,0.28785,-0.50658,0.04559,-0.42569,0.65329,-0.38263,0.26708,-0.40826,0.16002,-0.64175,0.29263,-0.36983,-0.02205,-0.77577,0.54890,-0.32150,0.48854,-0.25559,0.04054,-0.13363,0.13610,-0.24815,0.58476,-0.36261,0.08461,-0.10260,0.25222,-0.55878,0.44109,-0.11685,0.44906,-0.59373,0.26891,-0.24224,0.18769,-0.31020,0.37374,-0.21452,0.25436,-0.69305,-0.21237,-0.72555,0.44496,-0.30560,0.77531,-0.40113,0.80948,-0.22446,0.35690,-0.31170,0.31900,-0.38886,0.41013,-0.53188,0.15284,-0.53311,0.58803,-0.60656,0.09539,-0.20303,0.42130,-0.27173,0.50028,-0.51841,-0.03993,-0.41554,0.12477,-0.40821,0.12536,-0.50744,0.17584,0.05041,0.71947,-0.12390,0.41866,0.12634,0.69268,-0.24744,0.84186,-0.47469,0.38943,-0.08498,0.46997,-0.49755,0.51418,-0.20645,0.37129,-0.44628,0.13726,-0.54304,0.28578,-0.22312,-0.17112,-0.36093,-0.16186,-0.80227,-0.01901,-0.81841,0.23596,-0.22887,0.11359,-0.11726,0.60937,-0.54413,0.18505,-0.38835,-0.04016,-0.23918,0.48293,-0.65443,0.03770,-0.19692,0.02582,-0.48389,0.00687,-0.44336,0.50523,-0.40466,0.10660,-0.47052,0.18941,-0.80722,-0.08985,-0.48682,0.36513,-0.71153,0.47090,-0.78754,-0.16099,-0.33613,0.03525,-0.08074,0.29921,-0.65688,0.25877,-0.42006,0.19123,-0.52348,0.24606,-0.38007,0.32986,-0.17932,0.26221,-0.60908,0.15630,-0.81678,-0.12943,-0.26854,0.03370,-0.11958,0.06048,-0.26089,-0.29305,-0.80827,-0.31011,-1.19394,-0.17426,-0.36936,0.48361,-0.39143,0.47820,-0.11414,0.82791,-0.28645,0.12621,-0.31789,0.48362,-0.64897,0.08142,-0.18339,0.47908,-0.47956,0.01429,-0.36303,0.53705,-0.67825,0.54288,-0.23130,0.52126,-0.41819,0.23999,-0.30368,0.01592,-0.84343,0.42145,-0.34419,0.76382,0.10260,0.66036,-0.39298,0.68904,-0.15392,0.52648,-0.69136,0.54082,-0.62744,0.14354,-0.67556,0.20130,-0.16446,0.17312,-0.46059,0.47523,-0.34793,0.22731,-0.34490,0.42787,-0.20282,0.40852,-0.04862,0.59287,-0.00748,0.77935,0.36423,0.35056,-0.48773,0.57740,-0.22617,0.26388,-0.14504,0.16247,-0.28137,-0.00487,-0.32743,0.17375,-0.52983,0.08286,-0.39946,0.08289,-0.67444,0.01625,-0.13998,0.32156,0.07009,0.06804,-0.09066,0.35193,-0.09853,0.96074,0.58746,1.23208,0.02343,0.53093,-0.13381,0.55836,-0.33899,0.57924,-0.33974,-0.04224,-0.83825,0.25286,-0.52010,0.33385,-0.39472,0.20598,-0.46947,0.04842,-0.12116,0.32134,-0.08525,0.73816,-0.16310,0.78669,-0.14283,0.72283,0.17899,1.06160,0.66442,1.21212,0.36344,0.47291,-0.22517,0.45610,-0.07079,-0.12581,-0.71130,-0.07724,-0.41139,0.20612,-0.69700,0.15789,-0.64021,0.34062,-0.28188,0.01469,-0.12467,0.56256,-0.02596,0.20556,0.25033,0.80793,0.04174,0.56487,-0.18235,0.80695,0.56499,1.04651,-0.00806,0.64378,-0.15768,0.49491,-0.53179,0.31091,-0.83847,-0.03298,-0.69433,0.27307,-0.37837,0.00796,-0.56801,0.31252,-0.38770,0.55455,-0.09897,0.72086,-0.11811,0.73782,0.36075,0.99983,-0.20288,0.70192,0.18375,0.62145,0.32666,0.72275,0.33445,0.70606,0.18851,-0.13034,-0.54787,0.34959,-0.65201,-0.21021,-0.35937,0.46644,-0.17473,0.25952,-0.33627,0.27212,-0.45013,0.43583,-0.20665,0.61272,-0.38062,0.80298,-0.17851,0.45594,-0.01191,0.45716,-0.23464,0.40536,-0.15438,0.47776,-0.06358,0.85381,-0.65648,0.14550,-0.80421,-0.00031,-0.82646,0.40896,-0.67365,0.07788,-0.63270,0.50752,-0.17607,0.42693,-0.33851,0.45300,-0.21864,0.64671,-0.05371,0.18506,-0.30933,0.77381,-0.29349,0.40741,-0.71859,0.38336,-0.33370,0.45278,-0.06502,0.36576,-0.77758,-0.02582,-0.63895,-0.02752,-0.27917,0.21222,-0.18618,0.24011,-0.14764,0.45134,-0.61748,0.60839,-0.38366,0.44098,-0.17278,0.61369,-0.64481,0.56182,-0.13154,0.55581,-0.72340,0.22624,-0.82105,-0.57487,-0.94025,-0.05990,-0.63621,-0.24839,-0.36945,-0.03974,-0.68776,-0.01395,-0.52563,0.30522,-0.58773,0.22199,-0.37164,0.55578,-0.14799,0.48119,-0.20214,0.30249,-0.25773,0.51183,-0.14063,0.07632,-0.26830,0.20241,-1.04386,-0.37677,-1.50943,-0.47823,-0.97128,-0.20982,-0.94681,0.19208,-0.88736,0.48631,-0.46711,0.10504,-0.27127,0.02222,-0.20068,0.34997,-0.12554,0.68048,-0.55805,0.54877,-0.02745,0.06954,-0.42548,0.05287,-0.11045,0.09374,-0.51759,0.01963,-0.84237,-0.10727,-1.01406,-0.31971,-0.99813,0.12412,-1.10804,0.20305,-0.74689,0.28152,-0.12802,0.58837,-0.11154,0.64840,-0.22959,0.31556,-0.10046,0.36553,-0.68575,0.60873,-0.37950,0.60878,-0.66555,0.34255,-0.56459,0.37162,-0.85908,0.01980,-0.63981,0.08589,-0.54870,0.08039,-0.14255,-0.10331,-0.49127,0.04463,-0.00071,0.67640,-0.45566,0.46787,-0.10634,0.42344,-0.32673,0.22515,-0.14946,0.05286,-0.44374,0.11992,-0.18469,0.29974,-0.46804,0.23570,-0.60109,0.25117,-0.41405,0.29475,-0.34879,0.17826,-0.17999,0.29015,-0.44169,0.46133,-0.25704,0.53161,-0.09345,0.46090,-0.13378,0.77579,-0.42327,0.33371,-0.50133,0.47572,-0.26208,0.17596,-0.52306,0.51391,-0.02114,0.32421,-0.23435,0.02797,-0.28784,0.14529,-0.33548,-0.07390,-0.71422,0.20552,-0.66761,-0.00736,-0.73568,-0.02411,-0.59200,0.50655,-0.34685,0.35113,-0.27948,0.36935,-0.20051,0.11647,-0.33938,0.14359,-0.05249,0.07416,-0.47471,0.49178,-0.42364,0.35987,-0.38869,0.58200,-0.10825,0.10624,-0.45270,0.48470,-0.84811,-0.03840,-0.10922,0.18487,-0.60670,0.35786,-0.54585,0.27506,-0.66758,0.10445,-0.09685,0.34001,-0.54354,0.21637,-0.21085},
{ -0.58730,0.50659,-0.08963,0.63621,-0.34220,0.12615,-0.51910,0.42534,-0.23185,0.46026,-0.50822,0.20386,-0.55298,0.03833,-0.13458,0.13593,-0.48284,0.61111,-0.54173,0.01163,-0.10548,0.34072,-0.48795,0.53899,-0.16989,0.02261,-0.57307,0.22311,-0.55062,0.25729,-0.31104,0.01273,-0.38030,0.62819,-0.58227,0.02289,-0.05041,0.46816,-0.53716,0.50973,-0.66024,0.31502,-0.31610,0.14228,-0.50284,0.17851,-0.47499,0.67922,-0.23253,0.68835,-0.23892,0.36888,-0.50195,0.49602,-0.25808,0.38211,-0.39364,0.17596,-0.53410,0.45589,-0.57352,0.12917,-0.22220,0.06793,0.00206,0.47921,-0.19197,0.48457,-0.03995,0.46984,-0.27971,0.60618,-0.45018,0.09399,-0.27217,0.24023,-0.67026,0.55538,-0.39694,0.30544,-0.45073,0.67233,-0.50510,0.29210,-0.20459,0.06912,-0.35060,0.63028,-0.69394,0.40781,-0.08826,0.33523,-0.33605,0.27388,-0.34437,0.32479,-0.56944,0.73444,-0.28888,0.36283,-0.00736,0.11747,-0.42603,0.67077,-0.02013,0.64775,-0.40035,0.18102,-0.44140,0.27708,-0.15965,0.67406,-0.19835,0.33148,-0.52842,0.25803,-0.22828,0.50428,-0.39795,0.32487,-0.30997,0.22728,-0.16397,0.58546,0.07610,0.78141,-0.48688,0.33842,-0.04741,0.32403,-0.11855,0.31100,-0.28607,0.04650,-0.64350,0.01311,-0.50977,0.01148,-0.37588,0.19120,-0.22757,0.69532,-0.46753,0.31061,-0.45799,0.58633,-0.60239,0.51805,-0.13613,0.65603,-0.17446,0.85852,-0.28146,0.59594,0.26064,0.70818,-0.20528,0.37400,-0.06098,0.42199,-0.41440,0.20027,-0.23791,-0.12110,-0.55858,0.65364,-0.64207,0.35089,-0.24356,0.57708,-0.40820,0.53423,-0.44462,0.15708,-0.52229,0.44785,0.01048,0.84308,-0.36554,0.33127,-0.15944,0.78250,-0.46638,0.48849,0.31294,0.60363,-0.40484,0.30169,-0.25885,0.43015,-0.29044,0.55445,-0.67339,0.45860,-0.59581,0.30284,-0.48309,0.34316,-0.26571,0.11724,-0.47512,0.32931,-0.53500,0.53255,-0.76088,0.23002,-0.02427,0.53980,-0.39781,0.07496,0.03176,0.63202,0.23446,0.71514,-0.19223,0.33514,-0.71959,0.01612,-0.28355,0.16399,-0.26615,0.43841,-0.04987,0.18784,-0.30746,0.54967,-0.42716,0.45135,-0.70525,0.08961,-0.24705,-0.07410,-0.43179,0.02399,-0.33405,-0.03345,-0.30404,0.61575,0.08442,0.34795,-0.30212,0.37223,-0.77993,0.36944,-0.68557,0.37080,-0.60504,0.44166,-0.00392,0.45850,-0.27460,0.64227,-0.18359,0.43978,-0.35992,0.64214,-0.52712,0.43116,-0.40854,0.20232,-0.69757,0.45508,-0.33104,0.28999,-0.53713,0.07698,-0.53070,0.23840,-0.77757,0.04391,-0.91311,-0.38500,-0.40574,0.13816,-0.51324,0.56452,-0.41286,0.34250,-0.62673,0.48779,-0.66826,0.61670,-0.43097,0.17507,-0.72729,0.14930,-0.41480,0.07608,-0.62246,0.15819,-0.59322,0.74112,-0.42175,0.27889,-0.45631,-0.17497,-0.89634,-0.34575,-0.89027,0.08035,-0.50418,0.44128,-0.22076,0.74446,-0.50535,0.21802,-0.13940,0.02205,-0.47833,0.10454,-0.50524,0.29034,-0.30906,-0.01338,-0.26236,0.45795,-0.46867,0.45885,-0.43604,0.50676,-0.26427,0.46659,-0.29008,-0.28307,-0.91258,-0.04403,-0.81523,0.39805,-0.69084,0.45086,-0.25819,0.56874,-0.32767,0.19454,-0.54240,0.12665,-0.43352,0.60826,-0.24178,0.48712,-0.45885,0.18215,-0.49200,0.25086,0.08499,0.28454,-0.26285,0.58332,0.12008,0.79953,-0.65285,0.30004,-0.70675,0.42091,-0.54299,-0.03242,-0.21387,0.30754,-0.52987,0.49309,-0.54839,0.23351,-0.35563,0.05815,-0.57599,0.36149,-0.31946,0.09983,-0.48856,0.60409,-0.10144,0.04415,-0.46881,0.78386,-0.31463,0.51513,0.03433,0.69548,-0.15563,0.13248,-0.59932,0.19721,-0.52254,0.43247,-0.25667,-0.02024,-0.14911,0.40060,-0.35303,0.50848,-0.13336,0.66099,-0.23701,0.48246,-0.60110,0.36570,-0.09697,0.55677,-0.10002,0.63357,-0.20590,0.17474,-0.14590,0.94537,0.40562,0.97850,-0.50836,0.50866,-0.49835,0.43992,-0.08034,-0.04321,-0.58183,-0.00533,-0.41194,0.26876,-0.07370,0.18875,-0.07396,0.55800,-0.28549,0.47261,-0.30174,0.61594,-0.06792,0.03200,-0.32931,0.41326,-0.16464,0.57022,0.25737,0.58581,0.19521,1.08828,-0.18333,0.01132,-0.35987,0.49943,-0.62262,0.39413,-0.64359,0.32874,-0.26694,0.25384,-0.20911,0.62538,-0.39245,0.59794,-0.57050,0.11065,-0.47882,0.26940,-0.05438,0.59063,-0.57439,0.63289,0.13130,0.45984,0.00163,1.03067,0.22833,0.47599,-0.39092,0.06849,-0.74428,0.56848,-0.53152,0.62418,-0.18465,0.61536,-0.38774,0.63076,-0.25510,0.73900,-0.20553,0.43890,-0.12012,0.46089,-0.04002,0.69329,-0.41402,0.27590,-0.10776,0.57272,-0.34697,0.75633,0.04857,0.48380,-0.13737,0.06184,-0.44397,-0.05432,-0.51908,0.16303,0.05074,0.41051,-0.19450,0.37639,-0.35940,0.89959,-0.36101,0.30793,-0.39434,0.05703,-0.01355,0.03232,-0.05482,0.70332,-0.34863,0.58567,-0.08117,0.85909,-0.36123,0.60279,-0.21742,0.17451,-0.29285,0.12164,-0.67580,-0.27905,-0.27186,0.89635,-0.20951,0.75169,0.23707,0.85033,0.21206,0.38807,0.04176,0.59906,0.00205,0.59152,-0.54937,0.20604,-0.03332,0.40237,-0.62020,0.52597,-0.18502,0.73194,0.14011,0.87165,-0.09972,0.25197,-0.03962,0.09640,-0.63334,-0.00554,-0.42587,0.80151,0.19492,0.76786,-0.18748,0.70406,-0.16799,0.83419,-0.47891,0.77901,-0.47771,0.66877,-0.63537,0.23709,-0.38181,0.19974,-0.32354,0.55669,-0.29047,0.43930,-0.41208,0.81285,-0.61507,0.65429,-0.23670,0.38066,-0.58408,0.48089,-0.60229,0.10155,-0.06497,1.07563,0.05849,0.54113,-0.00329,0.69678,-0.53687,0.08069,-0.48139,0.09929,-0.15107,0.15061,-0.16423,0.15928,-0.39529,0.56712,-0.07205,0.30385,-0.48412,0.49531,-0.70011,-0.01102,-0.15639,0.35059,-0.07077,0.45707,-0.07347,0.49916,-0.16924,0.69630,0.18436,0.42923,-0.13722,0.38219,-0.59425,0.62123,-0.43582,0.38290,-0.03796,0.22796,-0.22681,0.41809,-0.12358,0.59928,-0.22006,0.46892,-0.63935,0.60088,-0.10720,0.56808,-0.08335,0.45495,0.01504,0.25558,-0.11671,0.28073,-0.42385,0.87567,-0.11592,0.54283,-0.06816,0.60183,-0.01154,0.22790,-0.17554,0.51775,-0.10335,0.26727,-0.17474,0.29687,-0.12791,0.20640,-0.63295,0.27514,-0.27742,0.52369,-0.26864,0.46981,-0.30118,0.66238,-0.33856,0.05061,-0.53253,0.43428,-0.67714,0.57178,-0.54161,0.56170,-0.54028,0.14386,-0.06543,0.38613,-0.08657,0.09073,-0.31027,0.40251,-0.24673,0.68309,-0.69707,0.10732,-0.62604,-0.10136,-0.32883,0.52516,-0.57355,0.08921,-0.26445,0.27130,-0.07721,0.50989,-0.32884,0.64299,-0.08546,0.27904,-0.48854,0.57964,-0.36889,0.12353,-0.39387,0.41179,-0.20565,0.15102,-0.64236,0.07761,-0.30428,0.57703,-0.27922,0.55370,-0.70313,0.29856,-0.70353,0.56652,-0.59293,0.20303,-0.64906,0.28979,-0.42986,0.14252,-0.45321,-0.02730,-0.50985,0.49478,-0.60908,0.19232,-0.14537,0.44505,-0.13853},
{ 0.19654,0.03634,-0.31160,0.31940,-0.51808,0.10372,-0.28833,0.56886,-0.24926,0.43545,-0.12904,0.24530,-0.53784,0.44071,-0.30457,0.55077,-0.03046,0.29964,-0.19737,0.64662,-0.23881,0.54233,-0.28109,0.03654,-0.26642,0.47929,-0.56896,0.44500,-0.38807,0.44505,-0.40944,0.42767,-0.28315,0.31485,-0.32554,0.32342,-0.67981,0.43078,-0.67724,0.30233,-0.59052,0.36844,-0.40309,0.49513,-0.71485,0.68082,-0.17255,0.42381,-0.51178,0.65416,-0.25328,0.25051,-0.47833,0.50571,-0.01141,0.01076,-0.21656,0.34082,-0.13488,0.24922,-0.60717,0.18096,-0.58840,0.03642,-0.66475,0.44681,-0.26803,0.29143,-0.25343,0.40896,-0.49275,-0.04987,-0.38721,0.44015,-0.64068,0.24190,-0.10163,0.33992,-0.44762,0.05832,-0.21241,0.32596,-0.53987,0.19193,-0.18820,0.54375,-0.33057,0.61110,-0.44142,0.39307,-0.01702,0.40920,-0.53046,0.37816,-0.69437,-0.18873,-0.87198,-0.15664,-0.80253,0.33932,-0.54106,-0.15582,-0.63509,-0.14220,-0.19292,0.01292,-0.53991,0.48265,-0.46374,0.62693,-0.55954,0.10413,-0.10180,0.08654,-0.59500,0.69587,-0.51774,0.11965,-0.24776,0.08191,-0.63795,0.14166,-0.31023,0.17438,-0.85151,0.17700,-0.72860,0.38373,-0.57512,-0.08641,-0.93997,-0.19575,-0.32666,-0.02509,-0.55700,0.46264,-0.69138,0.66671,-0.40071,0.24500,-0.55516,0.19935,-0.35849,0.25282,-0.20836,0.14900,-0.30351,0.51938,-0.41898,0.18359,-0.58825,-0.11077,-0.60096,0.04579,-0.55930,0.15055,-0.89366,0.19590,-0.25982,0.43925,-0.79868,0.18422,-0.54492,0.32941,-0.11811,0.28303,-0.38753,0.32755,-0.16722,0.64180,-0.42692,0.32452,-0.04893,-0.03296,-0.64647,0.25094,-0.54208,0.13003,-0.85632,0.20058,-0.40184,0.37946,-0.83267,0.17627,-0.51169,0.16668,-0.10869,0.60922,-0.27531,0.74222,-0.19206,0.26693,-0.40406,0.57385,0.05866,0.52868,-0.15022,0.03460,-0.44911,0.13975,-0.46081,0.07423,-0.39640,0.18595,-0.43052,0.27695,-0.42305,0.50477,-0.40868,0.39732,-0.29406,0.26900,-0.20024,0.62084,-0.25810,0.36681,-0.08428,0.89462,0.02648,0.64804,0.19152,0.29435,-0.44719,0.02306,-0.60327,0.14020,-0.18805,0.56263,-0.16395,0.09889,-0.28494,0.54573,-0.57477,0.31751,0.05371,0.57221,-0.19982,0.64413,-0.67646,0.18467,-0.41846,0.39532,0.27304,0.74010,0.03404,0.51775,-0.38039,0.74831,-0.50093,0.51947,-0.22209,0.21470,-0.28178,0.41226,-0.60363,0.13752,-0.15820,0.46750,-0.09803,0.39705,-0.27748,0.11132,-0.33523,0.40682,0.05972,0.64907,-0.04040,0.56467,-0.29363,0.60390,-0.23011,0.93017,0.34952,0.78601,-0.26110,0.81920,-0.06314,0.39210,-0.43087,0.11627,-0.68232,0.63576,-0.38550,0.19102,-0.47300,0.17249,-0.51866,0.62904,0.04343,0.75559,-0.23325,0.66920,0.25782,0.97894,0.02075,0.22864,-0.48446,0.73860,0.07148,0.65348,-0.19429,0.66832,0.01355,0.65952,-0.03179,0.40291,-0.26447,0.28148,-0.65469,0.49717,-0.14718,0.52057,-0.18799,0.25402,-0.37445,0.21803,0.14915,0.91945,-0.11765,0.82036,0.03176,0.47068,-0.28577,0.04530,-0.35355,0.12996,-0.33849,0.58053,-0.35909,0.36229,-0.05664,0.14741,-0.10115,0.47110,-0.59211,0.48883,-0.42370,0.09342,-0.63259,0.28037,-0.61385,0.47430,0.06455,0.74814,-0.02693,0.63896,0.09410,0.87423,-0.02932,0.22980,-0.58039,-0.10152,-0.70392,0.50956,-0.22179,0.34430,0.08120,0.84043,-0.39618,0.67604,-0.38260,0.42134,-0.19081,0.59606,-0.62914,0.52675,-0.17593,0.62735,-0.20139,0.47527,0.02415,0.70116,-0.29185,0.71691,0.10808,0.49186,-0.20142,0.29318,-0.65104,-0.38791,-0.56935,0.46119,-0.26681,-0.09647,-0.50795,0.82669,-0.45324,0.35707,-0.38617,-0.01271,-0.55456,0.48475,-0.51502,0.46182,-0.12626,0.28468,-0.67449,0.52190,0.06513,0.41173,-0.03805,0.62139,0.04632,0.45127,-0.37389,0.31727,-0.73587,-0.36091,-0.53250,-0.04089,-0.52476,-0.14460,-0.48805,0.49310,-0.24681,0.53254,-0.41564,0.27720,-0.64573,0.69267,-0.54771,0.33100,-0.18236,0.34781,-0.66195,0.16245,-0.06399,0.17695,-0.19061,0.60483,-0.35677,0.23229,-0.33724,0.20099,-0.71544,-0.21414,-0.56329,0.36579,-0.68422,-0.02152,-0.52646,0.49520,-0.64560,0.22868,-0.16272,0.56882,-0.64253,0.52155,-0.04546,0.36618,-0.04233,0.30433,-0.66699,0.68477,-0.35143,0.49499,-0.40618,0.26648,-0.01181,0.33087,-0.38212,-0.01227,-0.44313,-0.01034,-0.47040,0.45671,-0.02349,0.38842,-0.44972,0.35357,-0.56277,0.54661,-0.38138,0.34843,-0.22137,0.35495,-0.65725,0.25294,-0.08763,0.06278,-0.12785,0.05912,-0.16142,0.39878,-0.47758,0.10931,-0.19254,0.17056,-0.75058,0.28722,-0.35456,-0.10573,-0.48558,0.47126,-0.38494,-0.06987,-0.49829,-0.26289,-0.50147,0.49260,-0.43783,0.39179,-0.59074,0.55441,-0.17645,0.32629,-0.09191,0.25516,-0.27883,0.10153,-0.07411,0.22325,-0.30193,0.46568,-0.75171,-0.00768,-0.61669,0.27408,-0.59367,0.18933,-0.25126,0.20669,-0.81296,-0.05442,-0.48426,-0.26275,-0.42992,0.31876,-0.66502,0.21111,-0.44460,0.30453,-0.59495,0.22473,-0.59136,0.31879,-0.25398,0.06317,-0.80258,0.49977,-0.69517,0.02360,-0.42815,-0.11244,-0.64214,0.05021,-0.44917,0.00980,-0.15293,0.00904,-0.44007,-0.06205,-0.58504,-0.22731,-0.99130,0.01756,-0.79971,0.00467,-0.60787,0.19947,-0.49817,0.23405,-0.35441,0.54094,-0.33304,0.42390,-0.55784,0.09340,-0.14978,0.48542,-0.40826,0.44027,-0.82356,0.49758,-0.66759,0.39563,-0.53323,0.18584,-0.52640,-0.20129,-0.78723,0.06991,-0.58760,0.29838,-0.76276,0.12435,-0.13092,0.02048,-0.10344,0.39922,-0.20500,0.06115,-0.76320,0.19028,-0.55868,0.35723,-0.68400,0.03145,-0.31802,0.43372,-0.43602,0.42174,-0.70546,0.32837,-0.31828,-0.09002,-0.50660,0.18128,-0.44317,0.14829,-0.76819,0.02987,-0.10976,-0.02389,-0.54362,0.24772,-0.31961,0.62382,-0.68571,0.62990,-0.17363,0.01444,-0.36786,0.14956,-0.63672,0.06323,-0.45079,0.82172,-0.17490,0.20017,-0.26386,0.70177,-0.09308,0.48918,-0.40665,0.49383,-0.52802,0.38767,-0.69112,0.50061,-0.19224,0.45212,-0.54049,0.58882,-0.34483,0.31724,-0.67183,0.41642,-0.04695,0.59117,-0.18673,0.47222,-0.34839,0.39906,-0.57336,0.58844,-0.26400,0.76357,0.10381,0.48046,-0.15670,0.82782,-0.07830,0.39574,-0.33477,0.18443,-0.26395,0.41271,-0.19872,0.41136,-0.06971,0.38242,-0.63043,0.38767,-0.00257,0.42634,-0.34650,0.55360,-0.64055,0.48215,-0.32480,0.32317,-0.52888,0.29721,-0.17356,0.52443,-0.48973,0.58653,0.04250,0.39097,-0.48540,0.71972,0.03536,0.16266,-0.10034,0.22438,-0.33744,0.20832,-0.09101,0.04871,-0.30326,0.16840,-0.18370,0.48800,-0.58835,0.65314,-0.36621,0.04634,-0.62020,0.41253,-0.56929,0.31777,-0.62137,0.37571,-0.29380,0.36703,0.02015,0.75997,-0.45635,0.36151,-0.07564,0.06559,-0.16206,0.52541,-0.03341},
{ -0.06325,0.20170,-0.54271,0.36629,-0.36969,0.12884,-0.37892,0.57603,-0.37661,0.33459,-0.40115,0.46171,-0.41539,0.36913,-0.63432,0.03817,-0.39808,0.69125,-0.67145,0.42969,-0.51771,0.15897,-0.54295,0.13722,-0.37587,0.39713,-0.05728,0.25797,-0.59445,0.44729,-0.25924,0.24937,-0.21449,0.56291,-0.27740,0.24490,-0.22985,0.26451,-0.29898,0.09537,-0.40519,0.60335,-0.53773,0.62263,-0.17348,0.10695,-0.45489,0.09134,-0.36912,0.12802,-0.58528,0.35425,-0.33615,0.00730,-0.24765,0.06726,-0.59282,0.46106,-0.09292,0.01393,-0.40040,0.36650,-0.51314,0.06901,-0.17271,0.14090,-0.37121,0.52570,-0.08097,0.31993,-0.37674,0.57539,-0.53868,0.28614,-0.52561,0.13258,-0.32417,0.18148,-0.61922,0.32580,-0.13139,0.13653,-0.23374,0.12218,-0.39230,0.02657,-0.63813,0.41234,-0.20287,0.63617,-0.08708,0.66857,-0.03910,0.61548,-0.65412,0.24271,-0.02463,0.73739,-0.11255,0.21811,-0.18262,0.41520,-0.37932,0.52702,-0.44123,0.22967,-0.18457,0.46427,-0.50497,0.40361,-0.42269,0.00509,-0.21298,0.41016,-0.00155,0.18123,-0.16660,0.30584,-0.50136,0.05160,-0.09464,0.50273,-0.21921,0.48501,-0.14355,0.35861,-0.42132,0.71533,-0.65751,0.09183,-0.58523,0.09210,-0.47186,0.61506,-0.67438,0.05747,-0.60507,0.32878,-0.64283,0.50849,-0.68697,0.04192,-0.35201,0.51112,-0.66326,0.38800,-0.19210,0.41199,-0.45809,0.38469,-0.17837,0.24396,-0.32372,0.59444,-0.04832,0.50725,-0.28212,0.61007,-0.32307,-0.04955,-0.51880,0.16111,-0.45857,0.62608,-0.00508,0.55446,-0.25669,0.47850,-0.29459,0.08158,-0.46510,0.68640,-0.42884,0.14424,-0.54176,0.17588,-0.39521,0.33916,-0.60070,0.25385,-0.25703,0.43608,-0.71544,0.58465,-0.28807,0.40637,-0.42509,0.47069,-0.54788,0.42515,-0.04293,0.11050,-0.01291,0.10951,-0.48950,0.06317,-0.21961,0.11142,-0.14172,0.58307,-0.11446,0.33637,-0.30302,0.14506,-0.08468,0.62988,-0.18055,0.48047,-0.33558,0.50994,-0.28581,0.35764,-0.62057,0.07660,-0.56314,-0.01908,-0.10033,0.12765,-0.21044,0.53697,-0.33952,0.45520,-0.32546,0.31265,-0.57568,0.38518,-0.06675,0.08210,-0.24086,0.63356,0.00388,0.19303,-0.22325,0.33817,-0.20883,0.37349,-0.16233,0.18116,-0.31715,0.40522,-0.66502,0.28911,-0.21100,0.49337,-0.29699,0.56277,-0.20000,0.13123,0.01382,0.13052,-0.59968,0.48575,-0.31227,0.50646,-0.03474,0.27323,-0.25943,0.49847,-0.12753,0.58356,-0.21556,0.35255,-0.56640,0.67849,-0.54548,0.16743,-0.00888,0.22375,-0.31161,0.54285,-0.38456,0.54706,-0.24549,-0.07464,-0.15578,0.02013,-0.47258,0.69457,-0.10519,0.26704,-0.21285,0.48286,-0.47704,0.69950,-0.64596,0.39154,-0.46138,0.55888,-0.41417,0.22290,-0.50507,0.65419,-0.28596,0.09645,-0.24703,0.16341,-0.24544,0.78884,-0.13153,0.49123,-0.23067,0.27373,-0.45395,0.41512,-0.24564,0.29089,-0.37239,0.47359,-0.22555,0.33431,-0.46484,0.45811,-0.62708,0.10850,-0.08693,0.29560,-0.10743,0.43151,-0.44617,0.31912,-0.58883,0.53125,-0.13943,0.61931,0.26499,0.47665,0.04498,0.11808,-0.29845,0.27748,-0.19606,0.48118,-0.32126,0.10075,-0.65852,0.58588,-0.50127,0.36229,-0.43634,0.25900,-0.23448,0.03650,-0.27188,0.40732,-0.11209,0.16998,-0.29503,0.43205,-0.51406,0.21586,0.06565,0.53238,-0.29904,0.38470,-0.26163,0.17649,-0.54534,0.19244,-0.66523,0.00045,-0.54641,0.38690,-0.58739,0.22074,-0.12115,0.56771,-0.45050,0.62854,-0.15346,0.41281,-0.66404,0.16981,-0.53644,0.25000,-0.25328,0.05950,-0.12628,0.22203,0.11466,1.02721,-0.00713,0.43762,-0.14375,0.15749,-0.55809,-0.02991,-0.42551,0.45745,-0.24589,0.51484,-0.63305,0.01234,-0.61578,0.67346,-0.59923,0.30585,-0.00704,0.16461,-0.68778,0.48075,-0.40093,0.01337,-0.45149,-0.07633,-0.09207,0.45255,-0.29209,0.87342,-0.09079,0.62812,-0.33240,0.36672,-0.12094,0.52342,-0.28562,-0.09317,-0.58599,0.09275,-0.36448,0.23413,-0.11482,0.49657,-0.49749,0.50507,-0.34947,0.34968,-0.26078,0.24658,-0.30211,0.12835,-0.59273,0.29794,-0.42857,0.31855,0.02107,0.62445,-0.37003,0.59505,0.14261,0.26120,-0.71428,0.20152,-0.09950,0.40276,-0.42461,0.22852,-0.27636,0.56916,-0.61842,0.67576,-0.02881,0.54886,-0.44946,0.67505,-0.45237,-0.07847,-0.41370,-0.13873,-0.52412,0.47479,-0.35381,0.73737,0.03914,0.90204,-0.45349,0.88294,-0.24219,0.50539,-0.14805,0.22276,-0.21837,0.42100,-0.56591,0.40376,-0.60090,0.66309,-0.67821,0.49709,-0.15662,0.29030,-0.48430,0.41616,-0.09269,0.06811,-0.51942,0.07511,-0.80292,0.27928,-0.44117,0.27434,-0.05361,0.54233,-0.47967,0.54402,-0.32788,0.23613,-0.53779,0.57623,-0.45512,0.13933,-0.40215,0.08139,-0.17142,0.61228,-0.13420,0.61165,-0.49664,0.03001,-0.53776,0.60127,-0.37699,0.49777,-0.64767,0.01675,-0.59732,0.21673,-0.56102,0.54212,-0.32215,0.77633,-0.40610,0.50337,-0.46335,0.01963,-0.20291,0.39056,-0.30424,0.54001,-0.26519,0.65277,-0.00490,0.35973,-0.67413,0.40872,-0.20928,0.07891,-0.53596,0.51363,-0.27372,0.11083,-0.09543,0.08842,-0.59490,0.58295,-0.43706,0.69500,-0.04263,0.70605,0.13780,0.02724,-0.32848,0.02109,-0.19823,0.23512,-0.34371,0.10196,-0.10744,0.71124,-0.14148,0.64211,-0.68181,0.38601,-0.09727,0.40341,-0.24092,0.04777,-0.49614,0.47897,0.02081,0.11664,-0.41784,0.27685,-0.34683,0.14026,-0.07024,0.21958,-0.26470,0.36668,-0.62308,0.63528,-0.16076,0.39269,-0.41453,0.21830,-0.33650,0.22907,-0.66782,0.69867,-0.25469,0.04986,-0.10249,0.56813,-0.13509,0.54850,-0.46533,0.62444,-0.37574,0.28510,-0.63982,0.59377,-0.41618,0.51590,-0.60917,0.36197,-0.06327,0.63223,-0.29024,0.09044,-0.26436,0.70161,-0.55360,0.44497,-0.47052,0.19832,-0.47123,0.18040,-0.10517,0.09005,-0.05451,0.57785,-0.03784,0.24503,-0.26387,0.32438,-0.60709,0.46276,-0.07555,0.35939,-0.71971,0.55180,-0.13066,0.18925,-0.55816,0.32881,-0.14677,0.40216,-0.01876,0.37188,-0.49595,0.14627,-0.07283,0.16163,-0.07241,0.36446,-0.45446,0.49002,-0.26776,0.00868,-0.35695,0.56347,-0.52667,0.62192,-0.17448,0.50055,-0.60759,-0.03291,-0.06853,0.13860,-0.63851,0.61894,-0.72554,0.46788,-0.29012,0.59273,-0.55893,0.30777,-0.27429,0.68663,-0.37572,0.13615,-0.56329,0.62483,-0.15442,0.51182,-0.59496,0.05169,-0.00060,0.05184,-0.31156,0.17464,-0.48751,0.55910,-0.26873,0.25909,-0.53293,0.70878,-0.40871,0.45245,-0.24591,0.63193,-0.45389,0.55560,-0.59035,0.44397,-0.13762,0.02525,-0.33363,0.52093,-0.09164,0.46124,-0.27979,0.47955,-0.07341,0.34496,-0.34861,0.05613,-0.04328,0.43390,-0.18857,0.14568,-0.15582,0.25656,-0.29546,0.46560,-0.09111,0.67748,-0.50261,0.17914,-0.31311,0.55611,-0.03575,0.23624,-0.29483,0.02897,-0.14784},
{ 0.74970,0.00196,-0.67483,0.41508,-0.07247,0.01907,-0.56231,0.01652,-0.48894,0.26359,-0.58208,0.55101,-0.55334,0.47473,-0.22042,0.26937,-0.41001,0.17987,-0.44772,0.59130,-0.11604,0.10902,-0.31942,0.16314,-0.03903,0.14918,-0.62385,0.49037,-0.53650,0.20265,-0.45124,0.17673,-0.18315,0.21942,-0.15891,0.27709,-0.66670,0.39450,-0.06269,0.47897,-0.45182,0.58777,-0.07689,0.51380,-0.04486,0.35468,-0.12480,0.26323,-0.17139,0.69549,-0.48776,0.08679,-0.65756,0.01572,-0.35438,0.40076,-0.11829,0.05870,-0.18690,0.40292,-0.04248,0.01760,-0.43114,0.51302,-0.63263,0.00514,-0.51275,0.43768,-0.03914,0.61000,-0.43271,0.23047,-0.06728,0.47039,-0.66558,0.38050,-0.34291,0.35271,-0.56792,0.11544,-0.09775,0.21890,-0.48832,0.36781,-0.00925,0.01253,-0.53648,0.62136,-0.58583,0.48810,-0.60796,0.26522,-0.53450,0.64559,-0.40686,0.12489,-0.13114,0.61274,-0.13483,0.50888,-0.14876,0.43384,-0.47253,0.22749,-0.65306,0.62855,-0.15499,0.14992,-0.21708,0.08633,-0.47297,0.40843,-0.24372,0.44464,-0.48990,0.41781,-0.44540,0.10914,-0.00700,0.25078,-0.38340,0.49955,-0.37757,0.26964,-0.41303,0.65195,-0.56676,0.28602,-0.68951,0.07909,-0.07221,0.33617,-0.53732,0.22981,-0.09145,0.23426,-0.13646,0.35536,-0.02815,0.55314,-0.42412,0.04555,-0.49070,0.54800,-0.42086,0.42364,-0.10567,0.17260,-0.10839,0.17442,-0.09832,0.44785,-0.29432,0.57631,-0.53180,0.45975,-0.46392,-0.12141,-0.43153,0.46684,-0.49074,0.42555,-0.42827,0.39429,-0.26356,0.25394,-0.14931,0.59479,-0.55464,0.59944,-0.42751,0.34034,-0.50121,0.15171,-0.20141,0.65712,-0.25813,0.58999,-0.26280,0.42120,-0.64194,0.26538,-0.50726,0.39315,-0.16012,0.40939,-0.20396,0.17167,-0.57875,0.39084,-0.25716,0.64821,-0.12908,0.64726,0.00538,0.17227,-0.36868,0.55033,-0.36393,0.66900,-0.49678,0.70881,-0.04131,0.20435,-0.34236,0.39083,-0.27636,0.10666,-0.18976,0.62932,-0.20187,0.61263,-0.73100,0.34609,-0.13628,-0.03926,-0.00310,0.42201,-0.35153,0.53654,0.15626,0.77820,-0.43427,0.06682,-0.08178,0.51927,-0.49728,0.50846,-0.06053,0.23353,-0.60569,0.18428,-0.25121,0.15059,-0.55314,0.27341,-0.38175,0.25639,0.05636,0.60569,0.05231,0.48848,-0.45857,0.04066,-0.56219,0.36058,0.04203,0.13958,0.11252,0.54773,-0.11700,0.63469,-0.48722,0.45773,-0.33042,0.06163,-0.65057,0.13744,-0.08764,0.06869,-0.93121,0.20856,-0.36911,0.00099,-0.38241,0.19357,-0.06368,0.71136,0.29022,0.43336,-0.52228,-0.02176,-0.63507,0.02464,-0.45541,0.39071,-0.48418,0.67457,-0.36992,0.35769,-0.15004,0.16639,-0.10694,0.55336,-0.50543,0.26584,-0.08048,0.20172,-0.30175,0.09058,-0.61110,0.44767,-0.67120,0.21498,0.30230,0.64550,-0.29526,0.37299,-0.67874,-0.06553,-0.87733,-0.31095,-1.02640,0.01736,-0.91013,0.46039,-0.61893,0.66051,-0.15335,0.31685,-0.22774,0.68145,-0.47459,0.08042,-0.20193,0.53292,-0.57245,0.30885,-0.58742,0.34275,-0.12404,0.22154,0.15222,1.14201,-0.01907,-0.08133,-0.95539,0.24803,-0.61373,-0.40898,-1.28141,-0.36624,-0.52969,-0.13944,-0.04880,0.09621,-0.28617,0.60113,-0.06522,0.32703,-0.10259,0.41905,-0.54405,0.25839,-0.58650,0.25813,0.13585,0.81120,-0.32267,0.52238,-0.03079,0.87468,-0.27011,-0.07832,-0.49483,0.37751,-0.84561,-0.35409,-1.18629,-0.40168,-0.45733,-0.03228,-0.19400,0.37501,-0.28612,0.48450,-0.65341,0.12761,-0.21699,0.54031,-0.40979,-0.20079,-0.42451,0.45073,-0.39608,0.74643,0.26899,0.72709,0.16903,0.67579,-0.05611,0.38217,-0.81840,0.06794,-0.52558,-0.11183,-0.99066,0.06052,-0.53732,0.37248,-0.49211,0.11019,-0.41601,0.28841,-0.53098,0.60206,-0.22156,0.17998,-0.37735,-0.35675,-0.63191,0.50372,-0.32803,0.80402,0.18765,0.85919,-0.08449,0.05505,-0.22414,0.33634,-0.33517,0.09617,-0.25298,0.48812,-0.27325,-0.17753,-0.31280,0.52948,-0.55281,0.53176,-0.60515,0.45107,-0.15037,0.28602,-0.37133,0.55666,-0.64302,-0.50479,-0.58975,-0.37474,-0.93916,0.53476,-0.45608,0.07051,-0.15726,0.25258,-0.34982,0.19031,-0.46650,0.48603,-0.39434,0.26904,-0.43179,-0.16882,-0.62222,0.37369,-0.49020,0.34965,-0.02073,0.60108,-0.59038,0.03419,-0.60162,0.40363,-0.43903,-0.05696,-0.90574,-0.50630,-1.37148,-0.17366,-1.32358,0.18477,-0.87500,0.32755,-0.25435,0.37122,-0.22429,0.49646,-0.58520,0.44895,-0.07175,0.33937,-0.50857,0.62891,-0.53434,0.32134,-0.54889,0.02497,-0.43658,0.26896,-0.39205,0.38609,-0.42644,-0.24567,-1.03071,-0.44534,-1.27215,-0.64141,-1.67740,-0.42668,-0.89493,0.23444,-0.72357,0.05472,-0.46299,0.59136,-0.17604,0.38076,-0.59289,0.46373,-0.67562,-0.01590,-0.25689,0.58945,-0.30297,0.59931,-0.30003,0.48404,-0.62101,0.11671,-0.14060,0.26558,-0.38174,-0.30264,-0.68918,-0.36733,-1.74132,-0.56283,-0.95007,0.46435,-0.25540,0.31325,-0.08089,0.24063,-0.13296,0.07360,-0.22496,0.15799,-0.17364,0.25565,-0.71446,0.49629,-0.43997,0.37046,-0.53005,0.42655,-0.15672,0.45529,-0.34359,0.62107,-0.26072,0.12923,-0.46699,-0.24125,-0.84528,-0.34633,-0.30455,0.70590,0.17761,0.35268,-0.11173,0.28555,-0.16025,0.22091,-0.53316,0.20114,-0.73458,0.04810,-0.33683,0.64137,-0.65023,0.52199,-0.06570,0.41471,0.00969,0.36484,-0.59025,0.78646,-0.18495,0.76697,-0.33534,0.11089,-0.12371,0.10319,-0.23199,0.75811,-0.12454,0.56346,-0.33364,0.06504,-0.04212,0.05201,-0.67382,0.23182,-0.78808,0.26994,-0.21783,0.40177,-0.04537,0.21082,-0.51631,0.48179,-0.03783,0.48495,-0.29533,0.49531,-0.16161,0.39166,-0.02262,0.90202,-0.18060,0.74412,0.29196,0.65704,-0.42253,0.53807,-0.18485,0.45977,-0.07439,0.14169,-0.53296,0.01158,-0.47912,0.12098,-0.35080,0.61443,-0.02814,0.47341,-0.31965,0.50946,-0.61745,0.21454,-0.13280,0.12893,-0.49401,0.06315,-0.09298,0.34984,-0.39694,0.38277,-0.36105,0.10691,-0.29082,0.52014,-0.56580,0.56262,-0.06044,0.13345,-0.27213,0.47012,-0.74239,0.58404,-0.53376,0.41664,-0.42123,0.48358,-0.45399,0.18566,-0.56809,0.18721,-0.05992,0.66175,-0.04394,0.67005,-0.38911,0.37778,-0.42458,0.21144,-0.48896,0.39076,-0.19053,0.08695,-0.05526,0.09246,-0.66657,0.36031,-0.27087,0.20720,-0.22963,0.51927,-0.69707,0.41804,-0.17650,0.46853,-0.26709,0.49760,-0.22500,0.49318,-0.65115,0.40307,-0.54626,0.40271,-0.50812,0.53315,-0.38415,0.04304,-0.16841,0.20877,-0.34175,0.44346,-0.16014,0.07136,-0.21889,0.37092,-0.45264,-0.00008,-0.68121,0.10831,-0.49468,0.02115,-0.51999,0.67778,-0.27262,0.41822,-0.28749,0.63333,-0.26227,0.45296,-0.56188,0.13962,0.15108,0.79046,-0.26631,0.33531,-0.11252,0.15968,-0.22206,0.59163,0.00875,0.07768,-0.26390,0.03487,-0.58795,0.10399,-0.50897},
{ 0.35160,0.11191,-0.03726,0.46698,-0.21029,0.06343,-0.66444,0.22477,-0.43009,0.39841,-0.53886,0.04065,-0.08572,0.14883,-0.31653,0.00195,-0.63280,0.39662,-0.59857,0.50545,-0.66207,0.27138,-0.57346,0.56372,-0.66417,0.53057,-0.66223,0.16464,-0.68581,0.12751,-0.33706,0.64874,-0.17688,0.55435,-0.68899,0.28647,-0.64483,0.69993,-0.01103,0.58406,-0.65387,0.44441,-0.21332,0.05415,-0.35926,0.29375,-0.13319,0.34482,-0.66507,0.20689,-0.32781,0.47481,-0.08398,0.18219,-0.27806,0.22637,-0.05267,0.41402,-0.37524,0.35982,-0.26555,0.56181,-0.68238,0.28492,-0.51589,0.28970,-0.10381,0.25077,-0.35652,0.53230,-0.17551,0.56616,-0.13136,0.46301,-0.36751,0.30514,-0.01590,0.37605,-0.29998,0.49406,-0.14153,0.23338,-0.32224,0.60376,-0.23576,0.41400,-0.11949,0.65483,-0.31927,0.44690,-0.56145,0.51377,-0.38764,0.67822,-0.39244,0.06373,-0.33802,0.58817,-0.20869,0.61371,-0.30485,0.46758,-0.17618,0.04251,-0.02467,0.09695,-0.65145,0.06674,-0.00377,0.53667,-0.59594,0.17248,-0.09786,0.48476,-0.05091,0.17847,-0.66414,0.66312,-0.49580,0.66325,-0.03485,0.00093,-0.06839,0.39070,-0.65202,0.50466,-0.53598,0.35932,-0.32185,0.52958,-0.26670,0.62793,-0.29759,0.25380,-0.00594,0.07200,-0.51049,0.57058,-0.57902,0.53947,-0.40094,0.44581,-0.68721,0.67657,-0.27087,0.43954,-0.54201,0.22329,-0.69661,0.41460,-0.47698,0.18081,-0.32757,0.04223,-0.18391,0.48833,-0.65457,0.60254,-0.24335,0.13018,-0.13729,0.45146,-0.16409,0.03997,-0.65861,0.25306,-0.58228,0.23730,-0.57461,0.33464,-0.42062,0.69380,-0.15334,0.15664,-0.05934,0.06730,-0.52908,0.40660,-0.14089,0.09913,-0.33413,0.08449,-0.05386,0.32432,-0.28281,0.69944,-0.25324,0.28340,-0.17032,0.55651,-0.07002,0.35314,-0.16499,0.21755,-0.07691,0.55421,-0.50016,0.65256,-0.67416,0.48518,-0.26040,0.20430,-0.45767,0.15777,-0.63947,0.63060,-0.32640,0.38389,-0.31937,0.48402,-0.25767,0.68786,-0.36276,0.18266,-0.41879,0.49123,-0.59807,0.53300,-0.00311,0.14289,-0.17888,0.09195,-0.48808,0.35642,-0.05697,0.64660,-0.64598,0.24032,-0.55733,0.09706,-0.00916,0.55649,-0.21373,0.52402,-0.29851,0.16999,-0.08267,0.64300,-0.56505,0.54000,0.04361,0.10293,-0.19248,0.15928,-0.06789,0.65154,-0.00377,0.65538,-0.62380,0.56536,-0.03597,0.48172,-0.63185,0.66910,-0.27840,0.49014,-0.36445,0.29372,-0.04612,0.61408,-0.58572,0.43355,0.03090,0.63606,-0.12575,0.56717,0.01232,0.74493,0.03815,0.58079,-0.32156,0.55344,-0.46156,0.52382,-0.25711,0.30942,-0.65503,0.19396,-0.60490,0.32499,-0.60117,0.68142,-0.49773,0.39159,-0.18893,0.05001,-0.25370,0.54331,-0.65607,0.47683,-0.08783,0.52834,-0.38094,0.30575,-0.26195,0.68663,-0.03855,0.78980,-0.09806,0.68861,-0.56365,0.29460,-0.23454,0.17357,-0.29758,0.68183,-0.19998,0.33305,-0.39382,0.36956,-0.01166,0.15889,-0.00922,0.67732,-0.38260,0.39146,-0.64800,0.66361,0.00858,0.49941,0.01739,0.70924,-0.47244,0.21361,-0.47735,0.19600,0.08399,0.21012,-0.03196,0.38628,-0.47370,0.62439,-0.46780,0.18003,-0.13464,0.28105,-0.54983,0.34551,-0.43714,0.03429,-0.59119,0.25732,-0.46752,0.61827,-0.46951,0.27114,-0.30784,0.10821,-0.10708,0.19387,-0.45414,0.70403,-0.27542,0.20353,-0.47623,0.61190,-0.26424,0.20143,-0.09548,0.10113,-0.09894,0.45101,-0.54259,0.15064,-0.06566,0.42727,-0.44864,0.53990,-0.65401,0.67435,-0.35022,0.41751,-0.38223,0.59561,-0.33761,0.60229,-0.03808,0.63264,-0.53509,0.45044,-0.19241,0.38508,0.03022,0.24220,-0.48535,0.72120,-0.30670,0.43700,-0.64142,0.15994,-0.67252,0.46454,-0.48464,0.07181,-0.18882,0.32404,-0.59189,0.66617,-0.18094,0.34924,-0.51948,0.11726,-0.49880,0.57175,-0.39286,0.72317,-0.04164,0.63091,-0.49371,0.24043,-0.17809,0.08416,-0.34960,0.59845,-0.51991,0.24952,-0.24290,0.67031,-0.50321,0.43502,-0.30025,0.68447,-0.02265,0.63057,-0.12521,0.06819,-0.24938,0.50776,-0.46525,0.37737,-0.08248,0.62747,-0.57338,0.29655,-0.44683,0.33141,0.11746,0.19755,-0.34452,0.71295,-0.41838,0.71347,-0.39283,0.63703,-0.48082,0.51433,-0.25577,0.47965,-0.34718,0.55613,-0.51620,0.01102,-0.60819,0.37829,-0.07911,0.29530,-0.39858,0.46639,-0.27386,0.67236,-0.42176,0.61663,-0.10027,0.60707,-0.45707,0.16057,-0.52990,0.43176,-0.09742,0.32212,-0.29415,0.22336,-0.23880,0.68179,-0.17792,0.61217,-0.05600,0.40029,-0.05431,0.67663,-0.17445,0.28583,-0.26074,0.56484,-0.52537,0.16561,-0.37158,0.13791,-0.02965,0.47331,0.10480,0.76621,-0.34964,0.24771,-0.36497,0.69205,-0.53363,0.61721,-0.31384,0.62617,-0.07306,0.27404,-0.56563,0.56489,-0.43245,0.48208,-0.55769,0.43904,-0.39323,0.54887,-0.63317,0.56920,-0.06385,0.31076,-0.08056,0.59127,-0.18494,0.31402,-0.53573,0.28546,0.02401,0.69007,-0.64059,0.40031,-0.39985,0.32422,-0.67668,0.06071,-0.59622,0.58723,-0.32704,0.57219,-0.31948,0.28676,-0.12868,0.28318,-0.30582,0.60449,-0.45084,0.62901,-0.54705,0.25420,-0.04374,0.20977,-0.11399,0.14709,-0.17804,0.75601,0.04221,0.75616,-0.64857,0.55679,-0.00843,0.54070,-0.05413,0.05882,-0.10116,0.28878,-0.46406,0.56766,-0.39603,0.44471,-0.37168,0.58379,-0.58572,0.15910,-0.62219,0.12609,-0.23149,0.15066,-0.18815,0.44694,-0.57881,0.11850,-0.25240,0.36360,-0.37764,0.51810,-0.31599,0.41540,-0.49113,0.72499,-0.20540,0.68100,-0.13698,0.04388,-0.30615,0.47369,-0.12008,0.15056,-0.69337,0.58780,-0.57321,0.17874,-0.68735,0.23687,-0.36982,0.48741,-0.20881,0.23685,-0.30275,0.29837,0.04837,0.24286,-0.45285,0.07505,-0.50113,0.66577,-0.03431,0.69257,-0.36755,0.19116,-0.43579,0.51576,-0.06567,0.29293,-0.15626,0.49944,-0.45517,0.44746,-0.46675,0.05485,-0.36522,0.49107,-0.34841,0.37148,-0.11698,0.70081,-0.08171,0.59871,-0.33332,0.25418,-0.13949,0.31307,-0.37476,0.54948,-0.11563,0.44690,-0.01713,0.27370,-0.19452,0.41050,-0.27861,0.19139,-0.01908,0.16151,-0.67193,0.05821,-0.38747,0.63969,-0.16176,0.09977,-0.60881,0.06467,-0.44020,0.39752,-0.08161,0.61911,0.04395,0.72885,-0.44703,0.25163,-0.42047,0.23505,-0.55089,0.63911,-0.54748,0.50649,-0.05698,0.03330,-0.32744,0.64690,-0.06831,0.02232,-0.64411,0.08721,-0.00628,0.67256,-0.66013,0.53308,-0.24267,0.47133,-0.06004,0.41063,-0.31677,0.16156,-0.23107,0.26749,-0.32696,0.29076,-0.58095,0.48564,-0.19529,0.40832,-0.11613,0.19812,-0.28303,0.22230,-0.42887,0.22227,-0.57113,0.53395,-0.16211,0.21248,-0.50976,0.25370,-0.10259,0.23870,-0.59944,0.06872,-0.59669,0.41398,-0.03407,0.08094,-0.22284,0.43536,-0.28457,0.43995,-0.22021,0.21159,-0.00327,0.22465,-0.60354,0.08071,-0.51728},
