#include <stdio.h>

#define my_float float

my_float outputWeights[9][500] =
{
{-0.154361076463, 0.0195207970621, -0.0576318406809, -0.139729400146, 0.0447950426284, -0.0590082470599, -0.0749067469477, 0.0712232343284, 0.00474633108924, -0.0148767022846, 0.0419220479546, -0.0440998870336, -0.0211121088185, -0.0835441875747, -0.102971290118, 0.0951762963107, -0.0128043063154, 0.0100296107422, -0.175273286318, 0.049436568249, -0.0341210110392, -0.0894024227899, -0.0234045309175, -0.0419046661714, -0.0531895064956, -0.0595319071014, -0.119263176638, 0.0432436793218, 0.125392989161, -0.153298840654, 0.0232160984176, -0.0536175222731, 0.0197431915913, 0.02808090353, 0.0644284857002, -0.0594368448873, 0.0318806030977, 0.0908123523837, -0.0160991599736, 0.00132246121848, -0.00633338690277, 0.0419089372647, -0.0421780663759, -0.0512196833083, -0.012043197236, 0.0379323167111, 0.00501443844217, 0.0149923659858, -0.0278021899213, 0.1016374164, -0.0684173643914, -0.0564352878802, -0.00769052710484, -0.0249697008449, 0.0543032389397, -0.0798696249932, -0.0640893182917, 0.0293093096637, 0.0717760561019, 0.0447819884112, 0.0654464456091, -0.0609340501344, -0.0535525319127, -0.0530978078855, -0.0257421955896, 0.0291475888771, 0.0889373049916, -0.0375069039376, 0.10451790955, -0.0753051266419, 0.000394279850754, -0.0404046860069, 0.0389832506287, 0.0285869696013, 0.0447465068189, -0.012779630721, -0.0437111999203, 0.0830986740435, -0.0404954949569, 0.0766247038244, -0.0349161235546, -0.0706526694088, 0.0426164921793, 0.146760236018, 0.0490337303248, 0.0103341955935, 0.0209017350953, -0.0143799291785, -0.0708634334094, 0.0940925396787, -0.0649560569155, 0.0767263567939, -0.0637262867725, -0.0901037718466, 0.0469216883348, -0.00952108614269, 0.0285865575847, -0.0462745180176, -0.0868409505387, -0.0131167143189, 0.0367351484919, 0.0305887543873, -0.0229251106971, -0.0393663112465, 0.0409996700984, -0.122763689677, 0.00522097965214, -0.0866908798872, 0.0559158238773, 0.0079242720485, -0.126408108312, -0.0555067453292, 0.107605005415, -0.0684740750416, 0.0354407289699, 0.0834334914865, 0.0508108346788, -0.0836266272727, -0.0833858169894, 0.00259433866723, 0.0437551997724, -0.0584059517428, -0.056695823929, 0.069085370287, -0.0730498224183, 0.0893603415773, 0.0221391763669, 0.0681248576973, -0.0289220291483, -0.0386734775261, -0.0666183428558, 0.0203254095477, 0.0222981335053, 0.0286976880496, -0.00267286404947, 0.0226210965195, 0.0650577332775, 0.0212629264536, -0.0470744774615, -0.0430936779523, 0.0318730914654, -0.108838284674, 0.03674537874, -0.0704116820408, -0.0287022589532, -0.045970808311, 0.00807512021517, -0.00387574209139, -0.065232656253, 0.0659309276582, 0.0245236821376, 0.077447277123, -0.220782758933, -0.00740452427201, 0.0023574441012, 0.00273945669075, 0.0448146074375, -0.0167712225252, 0.0329489977028, 0.0251697864097, 0.0784981188037, 0.00427978246805, 0.0183500742243, 0.0413465918677, 0.0234383370574, -0.0115776119187, 0.0795407651558, 0.083765614573, 0.136223793856, -0.0553172230803, 0.0833107547388, 8.8491991706e-05, 0.044756576494, 0.0198496602049, -0.107711642783, 0.0357551335194, -0.0638855488966, 0.0419730710816, -0.0529262784147, -0.0281383221404, 0.00563291045869, 0.0301858660342, 0.0219264036488, 0.00473052880295, -0.0939446273671, -0.0024871541223, -0.0360730375129, -0.0234241953371, 0.0900730500556, -0.0348245092023, -0.000568464712131, -0.126053752362, -0.0276550273005, 0.0252683799706, 0.131204526647, -0.026520946172, 0.0491131690612, -0.112115339276, -0.106892970484, -0.00458525669741, -0.012653640125, -0.0580543774791, 0.0453412377785, -0.10942712647, 0.0331173838128, -0.0228672989156, -0.0185375888716, 0.0533558139255, -0.0371115553499, 0.0424913906848, -0.0227374828996, 0.0407926962902, -0.0811861229831, 0.013896752746, 0.0561459347672, -0.136686274157, 0.0135209255316, -0.0613001262554, -0.163910973952, -0.070900246246, -0.0436682526146, -0.0445566612548, -0.112055798085, -0.0101241556054, -0.00687585977387, -0.184532586076, 0.0611022558006, -0.0441658491671, -0.0293133607422, 0.0563009246372, 0.0153076218805, 0.0538489854834, 0.0185315282913, 0.0665515620347, 0.048038809047, -0.00534081531531, -0.0494929423919, -0.0620609620256, -0.0881797822934, 0.109901480848, 0.125081093025, -0.0511268834907, -0.00689005926401, -0.121387050535, 0.179341240492, 0.0702197094369, -0.0276413591034, -0.0192054028548, -0.0955760491665, -0.128042666397, -0.0271236015686, 0.0111850750763, -0.120330816998, -0.121389128656, 0.067521416866, 0.084998680382, -0.172508757389, -0.0704729495415, -0.0336598216702, 0.0148429601685, 0.0966867479684, 0.0967506016441, 0.0309338791852, -0.0117077175745, 0.0324148104296, -0.0101508064089, -0.0208285100808, 0.0577771903127, -0.0196527945949, -0.00642232143067, -0.0490547871981, -0.11600366596, -0.0158412559529, -0.0967093599129, -0.0628434995702, -0.157239421518, -0.0249650662858, -0.058357180195, 0.0400310723009, -0.128354783619, 0.00801597655338, -0.0736992344401, -0.0373757078546, 0.0029802592514, 0.0351003695862, 0.0404349087746, -0.0172600091153, -0.0159723533493, -0.0595106853855, 0.0229449249502, 0.00573868535558, 0.0442632541641, 0.0233208406957, 0.063152825828, -0.017360224899, -0.0729447009402, -0.026731131334, -0.0159745938768, -0.0534847440448, 0.0883502856459, -0.0780177965006, -0.0224599839904, 0.0704698434887, 0.0950390296253, 0.0261478172694, 0.0424874949623, -0.0324536988696, -0.0273599087004, -0.0526778278221, -0.0572297110397, 0.0329240162615, 0.0075746929122, 0.0378131704375, -0.0911946871672, -0.0771595075282, -0.00727371872185, 0.0224625847259, 0.0706563725586, -0.0927316168953, -0.00759774547129, 0.0161934668207, -0.00865949561289, 0.0457597972971, -0.0249712572329, -0.0410895091626, -0.0193751460792, -0.0154181072219, -0.0823161234447, -0.0179575854014, 0.0713518470774, -0.0501195669353, -0.046282225148, -0.0776067588808, -0.0518303747303, -0.00519386655368, -0.00738202822037, -0.0114597789125, -0.0198036707053, -0.04484183466, 0.0551862256863, -0.0731254564578, 0.0691074561253, -0.0541405792266, -0.133244489538, 0.0174299455306, -0.046129661568, -0.0291656025739, 0.0667352666525, -0.140337240642, 0.000980344580629, 0.0327737306386, -0.0457590002091, 0.0953293392307, -0.000573206810516, -0.0326450994345, 0.0295252027478, -0.046329551274, -0.0523591341601, -0.0934491383657, -0.0539993468091, -0.0607172333702, 0.0611179269888, 0.100619353285, 0.0491974469688, -0.0552700714477, 0.0365694161727, 0.0432513682052, -0.0139056876972, 0.140653295516, -0.0657120052036, -0.0401855512111, -0.00865169433093, -0.0746336142092, -0.0415713889861, -0.0531263191138, 0.0933915298238, -0.101890602485, -0.108536997206, 0.00618970698815, 0.0332199037827, 0.0104762845634, -0.0293215801729, -0.0686502709085, 0.0108393766267, -0.00021362328419, -0.0372970514873, 0.0874493930418, -0.0572993658733, -0.00169887558469, 0.0699134576281, 0.0299598472488, 0.0300277037529, -0.0934840706581, -0.0466154585364, 0.102759063699, -0.0405793752855, 0.0887005548428, 0.0397963753118, 0.0719464575757, -0.0978254068211, 0.0202302653747, 0.050735337131, 0.0567396293095, -0.0312377324616, -0.0395710191726, 0.0625433317562, 0.0638243278801, 0.00691265813071, 0.053329000678, -0.0355028956733, -0.0697071132212, 0.0215377208616, 0.0792642433391, -0.00832899441367, -0.0055568343005, -0.0703045494985, -0.114840103227, -0.0279313776429, 0.0714573775945, -0.0610395431903, 0.0107341391472, -0.0144097741487, 0.0115093833061, 0.0787225644014, 0.0287432967351, -0.0527047133061, -0.0728712994251, 0.0537440860542, -0.0441903342857, -0.0876146623253, 0.00258642114853, -0.000192698973945, -0.00412520587748, 0.0451611263045, -0.130642787486, 0.0213458574251, -0.0165376350586, 0.093750937681, 0.0638232314419, 0.000571379596142, 0.035072095803, 0.0409063957297, 0.0289934322049, -0.0639512590695, -0.00613914267546, -0.0980836434865, -0.0903788973736, 0.015259239732, -0.0141933252397, 0.107544835032, 0.0612357038166, 0.0600936468708, -0.0434909433875, 0.0467092659463, -0.0504056482124, 0.008882524248, 0.0284170006127, 0.0433227991158, 0.147852755949, 0.0574658272651, -0.00229843437772, 0.00336075889434, 0.0751651784152, -0.0207437907176, 0.0361344192004, -0.0389133922887, 0.0920850196335, -0.0613100144742, -0.0634112831178, -0.0518432973898, 0.0770803301409, -0.0560248866918, 0.0477498669573, -0.0709663835632, 0.000197586119555, 0.181408243183, 0.0663338150042, -0.0314612534012, 0.0881157589241, 0.0191373451827, 0.108153242504, 0.0586952708138, 0.0288133064875, -0.0531687225619, -0.0208323460597, -0.0677662048867, -0.104268214084, 0.0519350126268, 0.0318018254781, -0.205239992316, 0.0170638807035, -0.0425457106537, 0.020321726406, 0.040673140348, 0.176702038482, 0.0319798361637, -0.118594574619, -0.0527473454788, 0.00670813069265, -0.0879536591377},
{0.00218948156665, 0.065538881028, -0.0839205697486, -0.00147291736064, 0.0433599567777, 0.131640560585, -0.00369682581285, -0.0520437978623, 0.0272843017022, -0.0776152520699, -0.0583329842931, -0.0658368059074, -0.0171915088156, -0.153736174174, 0.0584225333222, 0.11311317839, -0.0467033404118, 0.059489129426, 0.0473073489113, 0.0267393172937, 0.019129316077, -0.0998692106463, 0.0582167777947, 0.0179665238792, -0.0943490644265, 0.0906333815306, -0.006956652083, -0.0532509371234, 0.039611412361, 0.0138087028773, 0.0483916372204, 0.0179408615767, 0.011115463334, -0.0601005453393, -0.0299053340982, -0.0997197385264, 0.00460981780684, -0.0633679228018, -0.00276670258654, 0.0282536692228, -0.0286548415051, -0.0482700310913, 0.012930861528, -0.0376800171057, -0.0969313851954, -0.00411338316896, -0.0594560843829, -0.0194555601325, -0.0526279044112, 0.0503618866597, 0.031057626719, -0.216948298268, -0.034098388645, 0.116691659375, -0.118216522564, 0.00308599049813, -0.0229883559012, 0.0308911127499, -0.0531179635102, 0.0428851145746, -3.89855054348e-05, -0.0592960007573, 0.0410546459054, 0.0137805140197, 0.155756084891, 0.0428940681862, -0.0914243272062, -0.0662664487018, -0.0960428081171, -0.0309306559617, -0.0266752745802, 0.0227783111901, -0.0181653830561, -0.0457362362089, -0.0872334567196, -0.0125401817642, -0.0607923544467, -0.0382657746856, 0.139711706956, -0.0285323383053, -0.0167763290794, -0.0309951859785, 0.0418529598574, -0.0576279803877, 0.0867488420125, -0.00494364075879, 0.10489257824, 0.00156642384313, 0.0395556909651, -0.0334314609728, 0.00057299962106, -0.0544527485117, -0.0620886504943, 0.0558266800436, 0.0484612040012, -0.0590604962215, -0.0492012494646, -0.0018423398567, 0.112878967186, -0.0254148403338, -0.0513968059415, 0.0431851548183, 0.109812854187, 0.0555517512835, 0.0545483840755, -0.0770272499928, 0.122151564099, -0.0398384249351, -0.0123642796749, -0.119392191379, 0.06309260019, 0.0525484674402, -0.0492047372428, -0.0497362783688, -0.0604791070369, -0.0313478318614, -0.115225611221, -0.0835702441572, 0.0918487991977, -0.0445176702182, -0.0414471412965, -0.0287207253105, 0.0287593613018, -0.0577803778441, -0.0684548768332, 0.0211730053363, -0.0700912306124, -0.0510037978181, 0.0550137933895, 0.0107336905794, 0.102311300098, 0.0418261371991, -0.0108004316244, 0.0388538461263, 0.0403296861948, 0.0764748329497, 0.0883740427787, -0.0136532585728, -0.0131859315104, 0.0640727706221, 0.0203079461343, 0.0422060924817, -0.0136960719682, -0.0176292223802, -0.0274612808514, -0.0543056985728, -0.0398988299152, 0.0102747587935, 0.0488746280193, -0.020928354419, 0.00763118802263, -0.0302944563026, -0.0707830493572, -0.0542498871804, -0.062607704508, 0.0591295423614, 0.0431533292911, 0.0122099202323, -0.0564075268702, 0.0495352376813, -0.0963241039162, 0.0203356462099, -0.00466934273606, -0.0635526500457, 0.0284751487454, 0.0186279228783, 0.142655282534, 0.0192709406753, 0.0879900671772, -0.0661903052094, -0.0478549683219, 0.0163997094995, -0.0332689491945, -0.0496378344988, -0.0754505827341, 0.0710948106161, -0.116042080441, 0.0328320695847, 0.00919694761317, -0.0473254890144, 0.0331399969497, -0.0409798651318, -0.0885806231954, -0.116545420748, 0.0147098983423, 0.000887674195243, 0.0356685473645, 0.0791749462014, 0.0843030888625, -0.0625216664476, 0.0259504338355, 0.125330423331, 0.0779709654567, 0.13505769405, -0.0163561764298, 0.057095433149, -0.0255758055102, -0.0405699877859, -0.038477659128, -0.0244504351935, -0.00248429867597, -0.058074963412, -0.0765194589571, 0.0886167453992, 0.0311522201451, 0.0414950209072, 0.00483834287031, 0.0938410576481, -0.148777887396, -0.0426070686123, -0.00198140104341, -0.111957336406, 0.0238338670649, -0.0478588723365, -0.101985408511, 0.045531157024, -0.0403250906985, 0.000805403316509, -0.0513739360736, 0.015147760426, -0.0366293538012, 0.0992106652188, 0.0309159213135, -0.0292573477797, 0.034123470366, -0.059844398376, 0.0212167985522, -0.000511706013136, -0.0500530444533, 0.0927516713407, 0.0171168420134, -0.039581923663, 0.0473476498465, 0.0853103089553, 0.0308063380425, -0.0835324762839, 0.0726871278585, 0.0713685805634, -0.0561353736029, 0.0516663149124, -0.0950988086273, -0.110899406894, -0.00349664774257, 0.00852081953103, 0.0640408906736, -0.0595923723758, -0.0114085160234, 0.0422818595587, -0.0932479718424, -0.0975611853467, -0.0217660503378, -0.0458340141898, -0.0995574626014, -0.0221013528899, 0.0461189849316, 0.0688123343209, -0.152438972518, -0.0238765467451, 0.107168792592, 0.114463576953, -0.0692963357845, 0.105618213638, 0.0203448864065, -0.0704351176696, -0.00341495503378, 0.0106897576387, 0.0584337675535, -0.0501944343662, -0.0532108924239, -0.117919496198, 0.0272054827717, 0.0203650851841, 0.0490508097259, 0.031157444416, 0.0382707830349, -0.104161597872, 0.017612916076, 0.0279898368836, -0.0967501365106, 0.000460007563646, -0.0381489230021, -0.0196557972461, 0.021023187224, -0.0153534274576, 0.0145027818732, -0.0396772639334, -0.0479038010423, -0.0886482915156, -0.0235167128899, -0.00175693568237, -0.103790310424, 0.000454440189361, 0.0882582328898, 0.0162160236189, -0.0389818991888, -0.0572724870807, -0.0344022222512, 0.0980351397594, 0.0493827357718, 0.0370259107829, -0.0164641807361, 0.0308181746159, 0.000664148406387, 0.0931329798474, 0.00933956399496, -0.0888901205946, -0.071706121142, 0.0926794553407, 0.00459033121845, 0.0328408925096, -0.0592387301145, -0.0335483043874, -0.0312464199345, -0.061467899456, 0.0877950299372, -0.0349819022012, 0.0270711240915, 0.00940692008122, -0.0443253930834, -0.00521625952424, -0.0701975717764, 0.0510694212798, -0.0701502235622, 0.025169979882, 0.0196413995348, -0.0489633436196, -0.010654626233, 0.0632340622658, 0.0445258431651, 0.0692322586416, -0.0168792474061, 0.146660878127, 0.0501540280355, 0.0320856949889, 0.0394162761745, 0.115804845276, 0.0101120051426, -0.0669958275432, 0.105067418162, -0.00604953107409, -0.0228414414228, 0.0105565070851, -0.0215482267998, 0.0393337329675, 0.00820452938752, -0.0608469332655, 0.0395556320222, 0.122077484902, -0.0489250253836, 0.143187820501, -0.116180258574, 0.100999722569, 0.0283724079777, -0.0102485819897, 0.0858598366069, -0.0231309048454, -0.0251811793786, -0.0415675422087, -0.0593513508328, -0.0701635379391, -0.0115714278184, -0.0143143993363, 0.0780976837192, -0.0210441108902, 0.0286586334342, 0.0782156418524, 0.0105452011672, 0.0785078914579, 0.103183292497, -0.0734424666993, -0.00755351378904, -0.0300059202979, -0.0152419085895, 0.0417676888186, 0.123917036097, 0.0349654446932, 0.0293088181726, -0.0184087229626, 0.0406596336641, 0.0700479434758, -0.0643377684856, 0.082876506314, -0.139774194442, 0.0344626923603, 0.103433541015, 0.0388059231932, -0.090059733437, -0.0130045154479, 0.054048139839, -0.0695847373671, -0.0976299019213, -0.0662766413344, -0.169723655988, -0.0399746280599, -0.0219157655195, -0.0497945358513, -0.0550397911595, -0.000800964955006, 0.0776489793735, -0.0458220098073, 0.0644413731577, 0.0628313048979, 0.0931905034235, -0.023049000484, -0.0567459009382, 0.0806022444154, -0.100985571258, 0.00492555899848, 0.0695944558129, 0.019390738971, -0.0825930535485, 0.0951656729632, 0.0959980308824, 0.0278309186506, -0.0773911093261, 0.0568826134277, -0.0664634817735, -0.0247898534645, -0.0454232079145, 0.132009190238, 0.0356936979419, 0.0255426658447, 0.0137745932513, 0.00309658106569, -0.0632926293322, 0.0772576718884, -0.0322546984406, 0.0619171023599, 0.00636503803566, -0.00385592713271, 0.00391581260651, 0.0478059085087, -0.0376924902822, 0.0104249055182, -0.0229293253009, -0.0483940410829, 0.00958712499327, -0.0578331806423, -0.0652663594697, -0.073611329209, 0.0513499651614, 0.0125809718707, 0.0191478056798, -0.0396375821659, 0.0685944173638, 0.153957129253, -0.0997810135837, -0.125822739706, -0.0721586072338, 0.0329901200018, 0.00434164772437, 0.021592967348, -0.104674331682, -0.0223011068895, 0.066976282209, -0.152145177745, -0.0420684917565, 0.00609518612339, -0.0285575291887, -0.088278507109, -0.134573423242, 0.0723631557631, 0.0395227306425, 0.0792697020392, -0.0779865907661, 0.137043737486, 0.0619146585291, 0.084606348705, -0.0983600086505, 0.0844021109841, -0.0145997815514, 0.0611925357968, -0.00611337740812, 0.0285342860458, 0.0637441588668, 0.0732077818343, -0.0977037710244, -0.0966939608609, 0.0854226167943, 0.036436920365, 0.114197109826, -0.129483290571, 0.0480361180474, -0.0452108494758, 0.0159962136258, 0.0800003110201, 0.0718825700956, -0.0366877675682, -0.0378298396118, -0.0807451848005, 0.0811232608563, 0.0542650337171, -0.028688256973, 0.0462295429967, 0.0134425510976, 0.036886015711, -0.0896847862373, 0.027580620689, 0.0607908683175, 0.0887301554278},
{-0.0937465329282, -0.028426429427, 0.0644295736503, -0.0841000065435, 0.0595662418394, -0.1471149617, -0.102135764578, 0.0104938844636, -0.0673167108816, 0.11632604114, 0.0446070520675, -0.104397699489, -0.0640214750276, -0.0889584264435, 0.0751385675743, -0.0214218814457, -0.0730012831242, 0.0429482861044, 0.0715976600198, 0.140610788362, 0.0435380484337, -0.143714043541, -0.0380374689468, -0.0110326721874, 0.0645033132805, 0.0827796936036, -0.0603182807699, 0.115331564499, -0.102448743622, -0.00741320628836, -0.0629850174933, -0.0259252151037, 0.147728933529, -0.0859350801555, 0.0034794475361, -0.0954187905022, -0.0384101990853, -0.0323299355085, 0.17936909694, -0.0107133089981, -0.0695392711656, 0.0320899171463, 0.00704673979381, 0.0910382888169, -0.0254797155504, 0.134912534985, 0.0812848258806, -0.0301108321633, -0.0600581419754, 0.133257645386, -0.0334263171144, -0.0723543454457, 0.102183975379, -0.128526041003, -0.00701599745734, -0.0405125621222, -0.0574124774884, 0.102962142741, -0.0802286711117, -0.0129745096876, -0.0248080148558, -0.0485760201412, 0.0493060812674, 0.0112548073816, -0.00485864235573, -0.00460389994999, -0.0767922279952, -0.0366747018559, -0.0727899328586, -0.0787175541194, 0.0630726016787, -0.0533486599632, 0.0267879801047, 0.0741592988371, -0.0737711977981, -0.0779035924556, 0.128749009451, -0.00609913753649, -0.0490871055939, -0.0614741117741, -0.0333472459157, 0.082513196124, -0.0488754837664, 0.0469638199205, 0.00783965928174, 0.00840427273056, 0.0804979312398, -0.0155147691223, -0.0154528533686, 0.00904725206087, 0.0702026108542, -0.0471391540345, 0.129650712871, 0.00312742793024, -0.0367481981381, -0.155978396735, -0.048451575826, 0.0940555903522, 0.0982410347698, -0.0478710217148, -0.112813314224, -0.0294011022725, -0.076229301006, 0.0650409819603, -0.00231908606139, -0.107378909056, 0.0526184607287, 0.0242553244078, 0.0409505864023, -0.0160456637385, -0.036741603725, -0.00806354148479, 0.0784747490877, -0.0285645163219, 0.0798428424552, 0.100182249672, -0.0926780731385, 0.0330028985398, -0.0427899367607, -0.00267068623832, 0.18465108001, 0.0846733332614, 0.102044106362, -0.00457799656329, 0.157809717572, 0.0250638052232, 0.0434719330631, -0.0780013947115, -0.0616662645418, 0.0104184425547, -0.0700370918252, 0.147686644203, -0.0894752755692, 0.0550462110658, 0.0960094050676, 0.103316096534, 0.0824490838646, -0.0482000353884, 0.0267635002843, 0.0290036957432, -0.101685296477, 0.00857518412281, -0.0380303427953, 0.0120794682559, 0.0627696560653, -0.0388495550876, 0.00375706193478, 0.0826373146079, 0.0316023647656, -0.0341195253502, -0.018593042836, -0.206935035908, -0.0210333481466, -0.0312488045495, -0.124033471848, -0.0517126257492, -0.0608313740987, -0.107146888158, -0.0927832184419, -0.00729245460983, -0.0179694057372, -0.0947960252814, 0.0600647121237, -0.0835752987193, 0.0364678872879, -0.128690401429, -0.0644955145969, -0.0436498461835, -0.0493890641668, -0.109377096225, -0.0493380923095, 0.0547611164774, 0.0582099618825, 0.029155375002, -0.046228504547, -0.0599202285774, 0.057052651925, 0.0288220807857, -0.027415213953, -0.029879862066, 0.0279068359542, -0.0628935420688, -0.0725130314076, -0.0711554915584, -0.016914952856, 0.0619823701819, -0.0746135061745, -0.0561971459581, 0.012858426376, 0.112897540366, 0.153973758829, -0.128707482663, 0.0514809749373, 0.0622282000516, -0.0527623357823, 0.131298589828, 0.0122356355363, -0.123832211281, -0.0024571076652, 0.00474601124246, 0.0343516376824, -0.0304395326702, -0.0595128044497, -0.0410077865069, -0.028891509603, 0.071362197337, -0.139240142515, -0.0117367606538, -0.222794968409, 0.155725621672, -0.0906372753398, -0.0686523705883, 0.025085768824, 0.0358449745202, 0.0522732180364, 0.0797576500959, 0.0871294533358, -0.0406429609898, -0.0575209707472, 0.200423838724, -0.0596970654596, -0.108599235939, -0.0543091626164, 0.108989717152, -0.0122920922092, -0.0522119213547, 0.0938876717438, 0.103001788559, -0.023884479772, -0.0724269632972, -0.0145514315272, 0.0138745905485, 0.0393061350013, 0.144506067726, 0.0936282266363, -0.0235163491253, -0.0121789188447, -0.00521447695894, -0.101957843511, 0.0128445977846, 0.180551026922, -0.0667819435169, -0.0254782928076, 0.0161012976548, 0.133266751543, 0.0260441562704, -0.0655976016572, -0.125504267874, -0.0664414166762, -0.0931683253581, 0.00803927949607, 0.0254967640834, 0.00161025965964, -0.0776727380246, 0.0398890906031, 0.188663392018, -0.161853822225, 0.107010431031, 0.0375363002688, -0.0598336303395, -0.0235606899951, 0.0992569231753, 0.0333530366272, -0.0909617038752, 0.0246417274774, 0.164075316283, 0.0544220572926, 0.0363699807407, -0.128116828249, -0.0555290684561, 0.0239010705527, -0.0433394644601, -0.0997074794042, 0.037707195847, -0.0472875120726, -0.0768966597926, 0.0330241872116, -0.145434884855, -0.0531563103767, -0.204178731655, 0.088481425267, -0.0179679759006, -0.00382262462249, -0.07428402886, 0.109772354632, -0.0562141015857, -0.0557210812116, -0.0615817148234, -0.0456553967606, -0.040827262764, -0.114163284533, -0.0555593982633, -0.107979411429, -0.0107815411835, -0.0722576591365, -0.0729008666954, 0.0542944763232, 0.0240536682516, 0.0615905794726, 0.131096704941, -0.123971050515, -0.00644930557057, -0.0511455912721, 0.0390071871017, 0.0718057829197, 0.00313759639263, 0.00335435110677, 0.0519856257952, 0.0468614730543, 0.100580494384, 0.00507111858798, 0.0951321914169, 0.00464444942086, -0.0481584544988, -0.0831132059205, 0.0144106364762, -0.111053717615, 0.0181335294677, -0.045763776966, -0.0902287564239, 0.00182143280174, 0.0258479716149, 0.0804023740425, -0.130509314023, -0.0398944153574, 0.0216956501821, -0.0214016995469, 0.0370578056718, 0.029179720821, 0.0377667852848, 0.0510569081365, -0.0510697405883, 0.0795393378079, 0.0687768810716, 0.0410323645769, -0.0663530764637, -0.0350391781625, -0.0589718911629, -0.0179912250817, -0.0779637008163, 0.0341197803162, 0.149105373793, -0.0461645920377, -0.144381876112, 0.227586872867, 0.0411378145149, -0.00878047391772, -0.00234372263768, 0.13599326616, -0.0220716221737, -0.0396446629509, 0.0526615635162, 0.0117318976716, -0.0278660745365, 0.08244967509, -0.0875376411775, 0.223510837161, -0.0595414949263, 0.0706659743382, 0.0460854189584, -0.0304723961302, 0.0851574024684, -0.00214681132959, 0.010900496796, -0.0361539042025, 0.0498586889624, 0.113842947019, 0.11187464242, 0.0452642838145, -0.0551281762382, -0.0817283660038, 0.00358738202358, -0.0893393957975, 0.0296778679045, -0.0498481116999, 0.053373620736, -0.0618602391567, -0.0439719115134, 0.0806018431747, -0.0285406517733, 0.013175087247, -0.0607587944412, -0.0902320261094, 0.00275821632585, -0.0282951737162, 0.0113967517016, 0.00259988235076, 0.0473884586894, -0.0849049365251, -0.0543879631588, 0.0505129591811, -0.0024638601476, -0.112750363567, 0.004245145212, 0.0176108501668, -0.00481761999, -0.125556990328, -0.0152590535467, 0.0636529374854, -0.0500662289331, 0.150960734437, 0.0468848567445, -0.0641931069249, 0.125954180925, -0.0014056740668, 0.0931706746666, -0.100199956954, -0.0653696700533, 0.121563862251, -0.0390040722019, -0.167453295893, -0.052891629647, -0.0706080621202, 0.021785797318, -0.119702545968, 0.106280618582, 0.0147829367118, 0.198346512107, 0.0655058001068, 0.095530868409, -0.0234423539669, 0.0246509248145, -0.0448379188936, 0.0340226940118, -0.0392860146237, -0.0259317480737, 0.0368344800237, -0.0391991360196, 0.0933150215025, 0.0584966148365, -0.0459035375774, 0.0837012241017, 0.131642392321, -0.0659365325822, -0.0583794503003, 0.0269715331521, -0.0378267430917, 0.0480873941733, 0.105355460388, 0.0279147458201, 0.0152201262031, 0.0542250176473, 0.0704394662837, 0.0995628355131, -0.0731364390881, -0.0154769892139, -0.00197912207908, -0.0230068063575, -0.0306480510185, -0.0587871317655, -0.121903319801, -0.0985121209226, -0.0781782413585, 0.0929731095129, 0.0891432174975, -0.0362603230617, 0.0237069317964, 0.0331853816622, 0.135284208861, -0.0192035281611, -0.0504171934057, 0.0791856470974, 0.00952244302442, -0.0558721095599, -0.1245083554, -0.0735395717848, -0.023009012574, 0.0717054488481, -0.16883187482, 0.0537320462753, 0.024538806751, -0.0226928364636, 0.00902866747823, 0.034871656771, -0.0220821663562, 0.0471292847927, 0.0426586692711, -0.0985328058282, 0.0541807764862, -0.0425998699549, 0.0760229880159, -0.0213304591625, 0.0842415800612, -0.0713995073731, -0.0604520617233, 0.175123856613, 0.0222396343768, 0.0847691789327, -0.00421912666106, -0.167815340244, 0.00771698238771, -0.0289242879882, -0.0904443297913, -0.0330024899525, 0.0423552842347, -0.0157708526235, 0.0919827987817, -0.0147730031216, -0.0939834199051, 0.0658751596708},
{0.0760655096353, -0.0348198734239, -0.0351673161239, 0.103023046948, 0.0616216350773, 0.113561612446, 0.0731167316314, -0.0193865778441, -0.099281541916, -0.0273199642491, -0.00524173385013, 0.0267982803875, 0.0460824929219, -0.00149592657263, 0.00294907021292, -0.106659607362, 0.0234977648758, -0.0403085132948, -0.00176109398722, -0.0549836097306, -0.0880089078115, -0.0248764214027, -0.0113590806082, -0.0106273004561, 0.0449038771643, 0.106064498995, -0.23646869927, -0.102775911745, 0.0123552601765, 0.101507785582, 0.0945223736847, 0.0268713346151, 0.0165295437501, 0.0620072071613, 0.131508514464, -0.0481977613248, 0.0189412431252, 0.0547910437746, -0.0716605442687, -0.0269715119104, -0.076444724242, 0.13894329438, -0.0379508608341, -0.0458674624148, -0.0253386965389, 0.0594821810785, 0.0490793648361, -0.0724993024527, -0.0872686964702, -0.051708739488, 0.0518281342698, -0.128507666734, -0.0507232453685, 0.072283275825, -0.0818986985112, -0.0766154527834, 0.0392173074835, 0.083257446432, -0.062251465235, 0.0607930250503, -0.00863312683953, -0.0733182706133, 0.0509477247136, -0.0965852471699, 0.0039185677477, -0.0854086766209, -0.0302291128284, -0.00733386131298, 0.045962216253, 0.119473144737, 0.0640004234316, -0.054654602312, 0.0585148521301, -9.73072749297e-05, -0.0629887345625, 0.0879072226308, -0.0191473199104, -0.070960191189, -0.10281917151, -0.0780634770856, -0.160717620743, 0.0332010232292, -0.0866583584522, -0.125905563022, -0.030472125884, -0.0831236024858, -0.0573876541015, -0.0186848658033, 0.00751738237477, 0.0478789539349, -0.0465400375682, -0.00989460903177, 0.0184107786125, -0.0183788997456, -0.0529890222044, 0.128144503735, -0.00897653714958, 0.0134174624269, 0.0956997686369, 0.0604716774799, 0.0203709936978, -0.0353492035383, -0.0498822285122, -0.0631154587069, 0.0410446816914, -0.120896039747, -0.0910195594444, -0.034709929336, 0.0378205972926, 0.0113456106212, 0.0106219417743, 0.0600756478022, 0.0593171581998, 0.0449539082602, -0.0732583796598, 0.0014946226895, 0.00127872794811, -0.0366055479211, -0.0267574557229, 0.0516686538704, 0.0419697802978, -0.0297692185792, 0.0693403930479, 0.0942513700475, 0.0512889513602, -0.0832272442444, -0.0289640449621, 0.0486500129968, 0.005783575356, -0.0250506849257, 0.0238234934921, 0.0192340111558, -0.053130612134, 0.0308425333009, 0.0263903925451, -0.129792041318, -0.00475210403851, -0.0694835167986, -0.0677170387825, -0.0482025736541, -0.0381975452638, -0.0351455965804, -0.0208041524846, 0.200734085907, -0.00711065251539, -0.0840625487328, 0.0172211029812, 0.00582647523006, 0.0191166147989, 0.0773215652458, 0.076016886213, -0.0201927964968, 0.050750116038, 0.0989088133247, -0.24196724428, 0.0715155754605, 0.0103755259241, 0.0240287670922, 0.0036654425574, -0.0693442990296, 0.0856566568799, -0.0746916937684, -0.000585086574446, 0.0574226130399, -0.022969092151, -0.0503872116703, -0.050837173382, 0.023641904987, -0.0474971227268, 0.0597567160903, 0.0226010666253, -0.0311872771365, -0.0348490239341, -0.14571949368, 0.119650434136, 0.0211358442222, -0.0784101266879, 0.00433129607045, -0.00221465966034, -0.0116867868432, -0.031535178013, 0.0581999295837, 0.0391399261294, -0.136144005508, 0.113982266835, 0.0633254537324, 0.111542406495, 0.0488361225991, 0.039354691718, -0.0133010206263, 0.0214077166152, -0.0108984374515, 0.112204155075, -0.0602553343552, 0.0432955956456, 0.0261658660059, -0.016532067899, 0.0186965652527, -0.105071041486, -0.060657085844, -0.0296032514707, -0.0615845119481, 0.0707723752484, -0.0974378029866, -0.017819376705, 0.0244586366717, 0.0541250006572, 0.029109717896, -0.12137423779, 0.0774050402161, 0.0753612550695, 0.0301010652831, -0.0186416962903, 0.0593449535023, -0.0327531644239, 0.0579603594265, 0.025141876178, -0.132117980901, 0.00918571118706, 0.0941659625821, 0.0352185809117, 0.0645911403761, 0.0864190234457, -0.0940516551767, 0.00469736183478, -0.0684520821413, -0.135808701675, -0.0222356413936, 0.016445284306, 0.045275347289, 0.0674803477793, -0.0612524780937, -0.017045092756, 0.0491848649116, 0.00184544338983, -0.0354274151699, -0.0605391743727, -0.0659453653276, -0.0585839523144, -0.0729841281599, 0.103171078763, -0.0414676101156, -0.111230811079, 0.0741276926439, 0.0403431892907, -0.0469852930193, -0.0350560522293, -0.0644887600082, -0.109653061885, 0.0516166528229, -0.0619617257779, 0.0531832087719, -0.114949131378, 0.0555593282843, 0.0517775738938, -0.0791433828402, -0.149533072464, 0.0911069334821, 0.0741784426727, 0.0834069137959, -0.0336742718137, -0.00602111534998, -0.0299468494695, -0.145367836977, -0.0595401069226, 0.0717855025873, -0.0673556411541, -0.0512651198432, -0.0831693180948, -0.138818061439, 0.167766108404, 0.0294877035591, 0.0834088109722, 0.0315701192638, -0.0260735089015, -0.0408295010061, -0.0399985853905, 0.0114816436868, -0.174738261299, -0.0258186035141, 0.0539882140615, -0.164908276746, 0.121049067537, 0.0550613099095, 0.00313150132122, -0.0599445833661, -0.11628310069, -0.0500792237931, -0.0848785431344, 0.0949324511482, -0.149590146464, 0.0313615062091, -0.0245726349897, -0.0756549636604, -0.0786956806502, -0.0627362300661, -0.0523354726691, 0.073599120419, 0.0660037758351, 0.0286950664088, 0.105448992284, -0.0536240049386, 0.0550965118705, 0.000369221874743, 0.101720674761, 0.117267907412, 0.0463881098734, -0.0600251293035, 0.0255956759671, 0.0441157803256, 0.0633563120619, -0.0419594210191, 0.0364239661899, -0.0436053502149, -0.00488711444998, 0.0314055735238, 0.0848957903363, 0.00614509486878, -0.0593486203747, 0.00333801867212, -0.00375550855735, 0.121966427078, 0.240838067186, 0.0782773542228, 0.169303791739, -0.110714247219, -0.00296484060167, -0.165032767922, 0.00425875861224, -0.0593168966153, -0.0168498508204, -0.05570072725, 0.192416558343, 0.0806909760491, -0.129212491348, -0.113531662237, 0.0908147220737, 0.0718419080679, -0.190477629588, -0.0556501991856, 0.0108492483685, 0.00211605632273, -0.0700749448078, 0.0398192406989, -0.0459382971386, -0.00914759764234, 0.00296485439852, 0.000523205088423, 0.0931645304663, -0.120813579069, -0.0647609468908, 0.0289576680987, -0.0668927750371, -0.0624567635576, 0.17632167836, 0.0252562093002, 0.0971888238222, -0.00149060382573, 0.00454038505489, 0.115180994037, 0.0192117315024, 0.0443221044162, 0.00665149931831, 0.151733998733, 0.136979376458, -0.010704251377, -0.0761181818602, 0.0530998527948, -0.0274619459802, -0.0372689375716, 0.00517181702689, -0.0324939848093, 0.0052133431006, -0.0591108694322, 0.0158921173487, -0.177810938219, -0.21825513276, -0.00821290578396, 0.0906398587745, -0.00329046540458, 0.0866482152768, -0.026973847603, -0.055949909253, 0.0348130948657, -0.028371987988, -0.112517968912, -0.163377667387, 0.0158910887268, -0.0189663199479, 0.132709081268, 0.0263312163023, 0.0559532774744, -0.0422755039981, -0.0121216777878, -0.0740860209285, -0.0275291537581, -0.040976986377, 0.158469773582, 0.0142988319318, -0.0248746204383, -0.0613126372893, -0.0126259161631, 0.112042842523, -0.00443774464082, 0.0382560786489, 0.0653771364215, 0.127344334007, 0.127180715231, 0.110036418305, -0.0713426339524, 0.0285657223888, -0.0910907871028, -0.0237646769595, -0.0206448499293, -0.0256980479044, 0.0113420559642, -0.0646155212833, 0.0289632435181, -0.0211336760255, -0.178038091576, -0.105899899621, -0.0379827264413, -0.00943399342333, -0.147894260214, 0.0478193901051, 0.0990096741899, -0.0158158562374, -0.0965222257862, 0.0226120257013, 0.0508631784806, 0.0628027848302, -0.0247620613174, -0.0407171630659, 0.118899875019, -0.107513259972, 0.0913764626155, 0.0837289527128, -0.0879846000604, 0.0634418178261, -0.0556226357505, -0.012239038141, 0.0821282802961, 0.046761855672, -0.0143024367576, -0.028420729011, 0.176038568298, -0.0205193236867, -0.062963763848, -0.0968106944505, -0.00573751965129, -0.0679772786517, -0.0791607630583, -0.0930403942002, -0.0267131054209, -0.00207402150123, -0.0151531585844, -0.0366959144972, -0.124241330559, -0.0506370996435, -0.0817289275091, -0.133668254276, -0.0999227331428, 0.0310177152648, -0.100563385869, -0.0660203774984, -0.0829970753047, -0.0626050060709, 0.0848536652076, -0.185109088448, -0.0537231788497, 0.0305219195293, -0.0552091536102, 0.0210249870582, -0.00261655998475, 0.0181759026106, 0.018594700849, -0.0163496009777, 0.0709621510843, 0.00415268241161, -0.0211635018893, 0.00925548256319, 0.108243304234, -0.0634378472488, -0.00431821362856, 0.146978872907, -0.0266004097297, 0.0731178332754, -0.0526631075291, 0.0421340429811, 0.0856128683055, -0.0882316317972, -0.158700509589, 0.0618773787065, 0.026152799014, -0.0859174958023, -0.0271602198131, -0.0450739611371, 0.0538699631394, -0.01581663616, 0.127748506045},
{0.0173055667987, -0.00274509433497, -0.0328805275786, 0.0265449079409, -0.0188901105858, -0.12390342453, -0.106969324279, -0.0672668248595, 0.0213228544674, 0.0562567253952, 0.0028826006301, 0.0184058867361, 0.00803230078471, -0.0620452569413, -0.0908479729062, -0.0986528342468, 0.000758692222778, 0.02073265157, 0.0976773408879, -0.000458622843419, 0.0882947555612, -0.0845610261278, 0.0837127008283, 0.033846977804, -0.0347912642683, -0.0201945633502, 0.0407151251224, -0.0459423382682, 0.0258611259808, 0.0490105286854, -0.0517520607801, -0.169507632143, -0.125990453867, 0.0208902958741, -0.0535237895612, 0.114651073188, 0.202386680144, -0.128803103242, -0.0186247547726, -0.050712400661, 0.0155462937161, 0.00219639633554, 0.027960178046, 0.0323317491898, 0.103111285433, -0.040667769405, 0.0558687636702, -0.0248152510963, -0.0390797537271, 0.0442133218383, -0.0845429554866, -0.127082493777, -0.0667691315674, 0.0433419088689, 0.0418338556681, -0.0267193426605, -0.0261781474342, -0.0655659654317, -0.00502060432781, 0.0278823133934, -0.0453815537991, 0.00998238702387, -0.0717729268748, -0.059534747947, 0.057043846591, 0.0119922491371, -0.0103459772546, 0.159273739224, -0.064571364954, 0.0235317088525, 0.141575391082, 0.0341101623954, 0.0167023426825, 0.0158384999308, 0.0667603083716, 0.0267378031225, 0.049930508338, -0.0192443652702, 0.0625312027144, 0.0260995842548, 0.0565565934606, -0.128705202688, -0.00172579337319, 0.00952529111859, -0.00455822426482, 0.101883613722, -0.0978581263588, -0.09765220603, -0.0370224009649, -0.0333243533007, -0.0750366254459, -0.0693105985332, -0.083360281398, -0.015219850998, -0.0423730316017, -0.0923505672704, 0.0125320948871, 0.164750595869, -0.198281017336, 0.015563440778, -0.0597327946415, -0.0177419896526, 0.090660059742, 0.0595724569862, 0.0585458343727, 0.0542900093601, -0.0180167339686, -0.0531484459406, 0.00121549135136, -0.0775541909949, 0.0332769744885, -0.0100784753711, -0.0758543028058, -0.0299017043969, -0.0649403212082, -0.1403237045, -0.0234094747815, 0.070889352953, 0.0418808582153, -0.0352540287922, -0.0165928915479, -0.0352245939751, -0.149653888934, -0.0483291897297, 0.0222698596024, -0.0031366901424, 0.021153670539, -0.160959229871, 0.0334599303157, -0.0215158799695, -0.124377662321, 0.0492780108497, 0.0409379561077, 0.0668225334558, 0.142720576435, 0.0350744246676, 0.0376759620771, -0.0417669403068, -0.00239101019439, -0.042340290404, 0.0391166227525, -0.00581331189215, -0.0142424525305, 0.0344422365899, 0.107564664349, 0.10476206498, -0.0479006476307, -0.00348194613764, 0.0445096521224, -0.119978489826, 0.00573552690646, 0.046817267041, -0.0965089448408, -0.0690062792333, 0.0145923235407, -0.0144653782654, 0.0252095320699, 0.0141806593272, -0.0187024535956, 0.123220999028, -0.117426739383, -0.0537754259253, -0.00114345112437, -0.0299527149504, 0.133403900705, 0.0307797838675, -0.141398298693, -0.112035984928, -0.0762240470642, 0.0253956507376, -0.0472667091649, -0.0291196216257, 0.00771202281134, 0.0975471312392, 0.111523231479, 0.0471269802165, -0.0047025752115, 0.0105320061717, 0.0555709207006, -0.00244436476304, 0.0397127973903, -0.0521373740392, 0.0207107675533, -0.103040504694, 0.0138824293452, -0.0344637816682, -0.0172751619897, -0.0471556507083, -0.0919693417748, 0.063265069727, -0.114508983448, 0.0593270646269, 0.0083684468514, -0.0784992330567, -0.132228698919, -0.0437508853414, 0.0260038597185, 0.101703880495, -0.0545734130037, 0.00195273256958, 0.0488468186661, -0.0343622717148, -0.0474649768591, 0.101380862544, 0.00104463520991, -0.0583624581916, 0.0331057122834, 0.00689056752805, -0.174174715796, -0.107101633618, -0.0314866598463, -0.00412483919789, -0.0764205241102, 0.127948761415, -0.150167317389, 0.0683913990857, 0.0538074036991, -0.11917364394, 0.0266519316926, 0.0709482992773, 0.0559521719828, 0.0515874712747, -0.0755352578793, 0.170677124857, 0.0556747495302, -0.0475360108791, -0.00977854314448, 0.00890286106982, -0.0939636020751, -0.00999120399823, -0.0766068327023, 0.00871446276775, 0.101506813599, 0.10824080771, 0.0422399067095, 0.0781164617564, 0.0211146154592, 0.0854205431743, -0.0752143309838, -0.0409566659861, -0.0672793155084, 0.0751770198408, 0.049299240589, 0.032923226778, -0.080541946735, 0.0419870083982, 0.0368253302272, 0.0448635518298, 0.0553763194149, -0.105982608415, -0.0202401337677, 0.0608445190626, -0.00296073120934, -0.0789222810317, -0.0695749871931, -0.0149604013594, -0.104686285558, -0.109591018632, -0.0665528997944, 0.00634016599415, -0.106691926359, 0.0982768599184, -0.0620681575587, -0.0146834057396, -0.0204919627913, -0.0316841386685, 0.0551439176131, 0.00494270840696, 0.0227155114482, 0.0640990790659, 0.00728338982473, -0.0272154578877, -0.0971758421013, 0.0972214248997, -0.0736410753622, 0.0345348882528, 0.0922729725563, -0.0356545763448, 0.102716139325, 0.0793771977955, -0.0500948067961, 0.0199155116401, 0.00829744784491, -0.0156028527513, 0.167861727502, -0.174063765231, 0.0990394621844, 0.0828697285274, 0.0197796599222, 0.0429550046021, -0.0754298822692, 0.0976184539635, 0.0657565591167, -0.0870459001209, 0.0269496390742, 0.00769894968496, 0.0121876705668, 0.0541514757332, 0.012622199595, -0.0522612375289, 0.0549887870555, -0.10589330499, 0.0133052379155, -0.127148290238, 0.0259377723903, -0.0465218107622, -0.0454795329381, 0.171351595933, -0.0332138459137, 0.080333022374, -0.0201754553979, 0.0176307165403, -0.0103465997017, 0.0568196795959, 0.010830239199, 0.0851759678826, -0.178700483608, -0.0315069598242, -0.0153823345996, 0.111466704074, 0.011126716172, 0.0445781501935, -0.054598162378, 0.0579959119716, -0.0713468510313, -0.0130058621659, 0.0331823223443, 0.094030641435, 0.102880331334, -0.0511305747454, 0.00600947120718, 0.0977566700585, -0.138011653793, -0.0207050093525, 0.105737057254, 0.105213506883, 0.0465199575561, 0.0736994360508, 0.0984349526774, 0.0308991968238, 0.0605783044788, 0.0326730472758, -0.00472553786029, 0.0624686774271, -0.0919151546895, -0.0130856678148, -0.0387906306317, 0.0428857187498, -0.0631950441625, -0.0243019775783, -0.120365786896, -0.0322658341186, -0.0390927196981, 0.0280585493121, -0.0690076641712, 0.0217216677022, 0.0296903604034, 0.0459891119978, 0.047825917881, -0.0915063077066, -0.0139174635923, -0.0436575680558, -0.000440974840788, -0.0737206305626, 0.035434181779, 0.0974398735252, -0.0388457858118, 0.087518684968, -0.0164330902615, 0.158603572, -0.0164739135203, -0.0746171262479, 0.0805925823204, -0.0303528593496, 0.0207474955402, 0.177987975209, 0.10866004446, 0.0110111396056, -0.0752922405431, 0.00845520079032, -0.112042358988, -0.0152718694827, -0.0867972423202, 0.0556081100865, 0.00735107464863, 0.00957444956251, 0.0332445534442, -0.0369190451308, 0.062203159479, -0.0999147754471, -0.0396336911883, -0.105260390452, 0.00234025792377, 0.0212662466831, 0.026366694369, 0.109404905922, 0.0423774115639, -0.0556044253361, -0.0151388767798, -0.081416456375, -0.0290555267083, -0.0229556163404, -0.0461869398528, 0.0110003977052, 0.0719330284244, -0.0260649416877, -0.108227047221, -0.0198318236442, -0.0481336756813, -0.00560105989178, -0.195069284709, 0.051543276346, 0.0544010434005, 0.0683006679462, -0.11344941561, 0.0201322539115, 0.0445563894981, -0.0518625706434, 0.0259761314246, 0.10439648924, 0.0716947730405, 0.12797003147, 0.0870990446555, -0.0432772743235, -0.165236123709, 0.0834087472435, -0.0413444668929, 0.0137421196304, -0.150983549157, -0.0670381040604, -0.037406350064, -0.016262234311, -0.00789441173057, 0.0708743199705, 0.0162054098491, 0.00862711132416, 0.0156156126751, -0.0788330507842, -0.0872299601118, -0.0700678061357, -0.0881328037564, 0.154892790889, -0.039781739029, -0.0210558136546, -0.0294978273583, -0.0520258916082, -0.0481175575464, 0.00524588751528, 0.039739145886, 0.0392807167212, 0.0570966235935, -0.0743216898436, -0.0594580370504, 0.0296572349938, 0.0940868502848, -0.068771781416, 0.0250323070856, 0.0291265978026, 0.0128981875217, 0.0371712123349, 0.00811694639505, 0.0353378117958, 0.00532909002853, -0.0362314750157, -0.136629835028, 0.120732337899, 0.0350574302374, 0.124505857359, -0.0646436557563, -0.0293027160928, -0.0905648110512, -0.0988824190316, -0.0532671639047, -0.00760716158644, -0.00931263469449, -0.0682938540306, -0.187478624707, -0.174489131099, 0.125263807817, 0.00235020309164, -0.139834912962, -0.0147444307967, 0.0036601903877, -0.0770070645563, 0.0515096784666, -0.0336783256139, 0.00329583607765, -0.0268834966706, 0.0376315849138, -0.0191869160999, -0.0917470167029, 0.118254780562, 0.120916398184, -0.00745187249314, -0.0477631041334, 0.0146414844269, -0.00475068482006, -0.0374843201101, 0.0632175235344, 0.0185058508684},
{0.0128950873675, -0.0281973230179, 0.0354512717396, 0.0967629165089, 0.0528250703619, 0.0543034825654, 0.0515166783896, -0.00272028143069, 0.0252448890704, 0.0666226438717, -0.0382742514153, -0.0214372669055, -0.0261849493082, -0.00906352421887, 0.0735265315101, 0.024563977455, -0.0236470991618, 0.00870483766686, -0.0377091247298, -0.0880251839326, 0.0336344201241, -0.0887257816279, 0.129294345249, 0.128807749888, 0.0597724182453, -0.0453874671742, -0.152909154935, -0.0540849176473, -0.129410447086, -0.0447355610518, 0.0987653524494, -0.143938309188, 0.0020821994847, 0.107317924231, -0.0471335233513, -0.05793206037, 0.00821754582503, 0.0737688107412, 0.0198357808315, -0.00473197962485, -0.0389372598291, 0.083376792517, 0.00918161903119, 0.0588184039571, 0.0793189831551, 0.0649935807098, -0.050333339334, 0.00608290740392, 0.0258503912565, -0.0862052647374, 0.112139180286, -0.108500828417, 0.00454290739037, 0.0996170117488, -0.0641951291629, 0.0479845176498, -0.014654318214, 0.0991601121981, -0.0545984536616, -0.0807927785101, 0.0834527373168, 0.0525684121193, 0.093897337182, -0.0289877911357, -0.0337669677274, -0.0469278346374, 0.0860201364529, 0.101489511613, -0.0627939749981, 0.0143171773459, 0.0360248059202, 0.129426318836, -0.0260531876541, 0.0294957373062, -0.109874091787, 0.0189481161169, -0.0559215760181, 0.0842940533268, 0.00371352004771, -0.00845040268327, -0.0914144571127, -0.065798359864, 0.00142794802401, -0.069973267743, 0.0301619483276, 0.00908955094566, -0.0386425074865, 0.0365835682838, -0.128871331446, 0.0729460309027, -0.00920169899804, -0.0278884566631, -0.0453565394254, 0.0212205991132, -0.0469523636587, -0.0966992189083, 0.0764077740823, 0.0672138753825, 0.0907139754242, 0.0327419742716, 0.0854982041231, -0.0437697053421, 0.00135817963543, -0.148422054377, 0.0316660649659, 0.104778542679, -0.0451867327044, -0.0792331973293, 0.0264962888597, -0.104814873984, 0.0596118036952, 0.0431238182308, 0.0962873446506, 0.045005345357, 0.00104867912868, -0.1444833752, 0.063426422631, -0.00717582806908, 0.00637681472545, 0.099424434321, -0.0217582145251, -0.0635762397876, 0.14151508937, 0.0451920911763, 0.102791480071, -0.0983089510149, 0.0835907406624, -0.0172024366929, 0.00773089779796, 0.0741845312071, 0.104390793367, -0.0228381942456, -0.0290690090023, 0.0749226873321, -0.0107923432371, -0.0521162551233, 0.0127428105985, 0.0680196823809, 0.0343055915284, 0.0787201910044, 0.0289622133009, 0.0174109144583, -0.0458040670859, 0.0643150240006, 0.0370181962391, -0.0206194083665, 0.0647772468497, -0.010799689115, 0.0236929053776, -0.0308783825107, -0.0420549360929, 0.0249216019207, -0.0639526887481, 0.00128579673722, -0.102207363976, -0.0723986027985, 0.0346107019523, -0.0116621382046, -0.116540771448, 0.0754360803302, 0.0173741466879, -0.00156043840589, -0.0453968091583, 0.082880601841, 0.116242419012, 0.0416491254584, 0.0620541561504, 0.130266686878, -0.032330513073, -0.0690944650796, 0.0261097353064, 0.14513863321, 0.0157341367353, 0.10796029724, -0.0362650967534, 0.0543799957095, 0.0750273144882, 0.0595688479057, -0.0759175497288, -0.1696117352, -0.0225929035488, 0.06141441606, -0.0789492500125, -0.0622195315515, 0.0830961138314, -0.0379947823094, -0.00990070738131, -0.028337529226, 0.117407677809, -0.0506332837161, 0.0887628797969, 0.0437757224276, -0.0929099934316, -0.050535635466, 0.124586940748, 0.0360824194367, 0.0882732854791, -0.0488526990354, 0.0818588473505, -0.0782159269593, 0.0173196234211, 0.143355540256, -0.0152231361086, -0.0245666292888, -0.0772490383283, 0.0999176412019, 0.00139241420595, 0.0449051915998, -0.0230170521284, 0.0150213156646, 0.0645963176441, -0.0107548578468, 0.0351444009079, 0.00172144362552, 0.0596638150145, -0.106514070356, 0.00575935246759, -0.0131470862161, -0.0183138725909, 0.0370736400407, 0.0176652674291, -0.0472673445615, 0.0731442287939, -0.00641082305282, -0.0433489151355, 0.00173052903722, -0.026182469749, -0.00887219849296, 0.0343026044619, -0.026570017158, 0.0617099418843, -0.0569444985083, 0.100522942542, 0.0320980044504, -0.0915542660263, -0.0456536836064, 0.06940195757, -0.135112007496, 0.0681048023795, 0.0985227471177, -0.033705591796, 0.00669888216159, -0.0939980711036, -0.146725525225, 0.0346441697921, -0.0813399901159, -0.080779194997, 0.0365125458544, -0.021160304051, 0.00763641351381, 0.135809992587, -0.0807870512514, -0.0147125151112, -0.288756034451, -0.0871442329379, -0.0908087493275, -0.0490759455917, 0.111285249793, -0.0292356493514, -0.0170662992292, -0.00668996548099, -0.0396531882954, 0.0104208151865, -0.0225978628954, 0.00678250911838, -0.0403202727242, -0.0190603005089, 0.0451062807024, -0.0741949139907, -0.0675787055629, -0.152569760598, 0.00990762266114, 0.0697415787314, 0.0851820944222, -0.0118753704361, 0.0408838979083, -0.0645226645301, -0.159544162979, -0.147464737074, 0.0914178625688, -0.0840130587657, -0.071605903501, 0.0541036393882, 0.0100927306823, 0.0461419201625, -0.0585801034628, -0.0801757016133, 0.0526443588547, 0.04801635052, -0.0431785514822, -0.0256658042417, 0.0100980857378, 0.0773372841731, -0.0276934404036, -0.0563904359384, 0.0718226002708, 0.0387491514459, -0.0774939756249, 0.0273422162917, -0.0870320436973, -0.0375612171063, 0.0801490175129, 0.0344668574237, 0.0091539635148, -0.0904672223737, -0.00695127173689, 0.0776420925915, -0.051101756153, -0.010181890427, -0.0810887986784, -0.137632886498, -0.0310995596498, 0.119144175908, 0.00695729894255, 0.0502685199027, 0.011822966285, -0.03489887765, -0.0319133386512, 0.128886997676, 0.12056928518, 0.0279774695242, 0.0012125611662, -0.00605565924753, 0.0490201232255, 0.0930367433788, 0.00524151319544, -0.0814156043344, -0.164301062099, -0.0368573591458, -0.000830734786289, -0.0179504217426, -0.00190676335974, -0.12440654181, -0.0979277681545, 0.0439815557089, -0.0249239748733, 0.0141833112397, 0.0643234176438, 0.18329417709, -0.0389547911216, -0.138509753256, 0.0403381523306, 0.00828061886643, 0.0480845317634, 0.0535393066154, -0.119496739952, 0.0125462205724, 0.0668666091464, -0.0560152698597, -0.133121822594, 0.0356094455356, -0.0482573336634, -0.0149915235786, 0.018095336289, 0.000889081690786, 0.0174914493777, 0.0961346221227, 0.0351830390721, 0.0383815666513, 0.0883187217002, 0.00328878781165, -0.0250349965857, 0.0325864917294, -0.0434390556305, 0.0957213855013, 0.0386768477654, -0.0694414179642, -0.0431655672619, -0.0227373741562, 0.141289636276, -0.0494185974032, -0.120465330339, -0.0588687080215, -0.0115892232817, -0.0109926358121, -0.120641829973, -0.140783269155, 0.0305138376783, -0.191547718114, 0.0163923475084, -0.0202759075363, 0.1051910475, -0.103253900236, -0.039463122537, 0.0331038205748, -0.0595939879337, -0.176646030572, -0.0535155210147, -0.073846661216, -0.014670279938, 0.00620288974413, -0.0295032792178, -0.0437354251925, -0.0144772044794, -0.0567239086218, -0.000494577812488, 0.0516044332106, 0.0704029933554, 0.10237226012, -0.0757299717906, -0.0274403814896, -0.016820884902, 0.062878784798, 0.0544707511257, -0.119364814744, -0.0913055777428, 0.0290679320232, -0.116313104973, 0.0236186158511, -0.106957993391, -0.160964340211, -0.0564517487317, 0.0147914654204, -0.0814016265721, -0.0121614642978, -0.0148714157655, -0.0503485081911, -0.0461160936584, 0.0133002873846, -0.0326114931201, 0.0119931418326, 0.0789785304777, 0.0516457988978, 0.00508366851445, 0.0419806914073, 0.0152414229875, -0.0227166111808, -0.192070103821, -0.0402164336222, -0.135812440795, 0.0442633746342, 0.0320487107546, 0.0598260525434, 0.0789720294739, -0.0135394685055, -0.0467643239217, 0.0411100724886, 0.0931138083098, 0.0807253226136, -0.1558763761, 0.0720026486933, -0.0694263689497, 0.0698200143246, -0.0451826378764, 0.0704069768913, -0.0814485073959, -0.133351284747, -0.0531392323671, 0.0786602615166, 0.0830209524657, -0.149422206432, -0.0402350152051, -0.0330524010087, -0.0717981237621, -0.136061092171, -0.0269662982791, -0.00215130382054, 0.00606276726376, -0.10588707885, 0.0144851109915, -0.0943930264767, 0.0674696905013, 0.0578490776657, 0.00348434261708, 0.0793299072588, 0.0510936680629, 0.037418774498, 0.0421474126895, -0.0918261283832, -0.00489975386878, -0.0335634964059, -0.0501303746599, -0.0940038463823, 0.091422303504, 0.0575247919699, 0.100088932639, 0.113361829851, -0.0339704184839, -0.0267327245046, -0.0486355657801, -0.0278401226279, 0.151037535635, 0.000548134363466, -0.0296608600506, 0.0193047482357, -0.147898966542, 0.0318732755122, 0.010117915618, -0.130162729046, 0.0684426227165, 0.0587166535428, 0.0679358206274, 0.184245934568, -0.0979866608557, -0.0114011600272, -0.0467047162624, -0.0181192618192, -0.0387219193907, 0.0556958139746, 0.122430108537},
{-0.0990614574338, -0.0176838177036, -0.0124666581888, -0.0982491905361, 0.118629685106, -0.0472773991278, -0.0324116320638, 0.00913871096596, 0.0933198104103, -0.0805543145735, 0.0729488925984, -0.0249948942054, 0.0331135417952, -0.0871053155304, 0.0557907649565, 0.0778893395254, -0.0233847670169, 0.0457919323011, 0.0847694791753, -0.017188428602, -0.047284025812, -0.00873030344471, -0.0430031611941, 0.0253279862228, 0.0178098372074, 0.0118803891697, -0.0825116317255, 0.0546221195425, 0.083406249716, -0.0475039389393, -0.0341603218431, -0.0797044379618, 0.0158503330307, -0.00858088229186, 0.00578999511039, -0.0831881062864, -0.0580084967444, -0.041537463942, -0.110637265102, 0.0560950907356, 0.0477276578901, -0.0301073414664, 0.0369070505975, 0.0241049622304, -0.006393799726, -0.125763019222, 0.0422506596881, 0.117016649805, -0.015064253811, 0.128317991817, -0.0659399802064, -0.101090917088, 0.197086545133, -0.0737907727494, 0.0299444654746, 0.00690098801177, 0.112048308328, 0.017283351281, -0.02989928985, 0.00459654321691, -0.0271972246598, 0.0455982791512, 0.0552840381285, -0.0173293487328, -0.0899846796918, -0.047164052968, 0.187873469598, -0.0471233653762, 0.00666166007726, -0.0787529924807, 0.081908102737, -0.0604501804904, -0.0584448314032, 0.0750824962761, -0.0471506313018, -0.0569799115482, -0.0735183926238, -0.0402995884728, 0.0652159543904, 0.0144901326571, -0.102501225606, 0.0887178512626, 0.0733667888691, 0.0900643379769, -0.0260818316289, 0.0657726177259, 0.0128374930885, 0.00238780421485, -0.00415639632486, 0.116696466274, 0.0363563273517, 0.039954996102, -0.00445779634698, -0.076668757613, 0.0106030079987, -0.0678589382838, 0.0118265673105, 0.000759731193013, -0.0896685157374, 0.0926688278733, 0.0277885793813, 0.0476069976323, 0.0122115032213, 0.0776723892753, -0.0713090579643, 0.0335099580649, 0.0933193673465, -0.0579415604331, 0.0540719172836, -0.0511189090604, -0.0873178524186, -0.0222461820292, -0.107786193041, -0.0247434025781, 0.0124820206522, 0.11042733983, 0.0892972828596, -0.101938901697, 0.0444698557366, 0.130081288119, -0.0531934630048, -0.0528027611122, -0.0149924518447, 0.0967911490183, 0.146972833619, -0.0535845286172, 0.0487984390475, 0.00764671310268, 0.0444782601838, -0.0211434489503, -0.132726230359, 0.0813213522777, -0.0446213409083, -0.0112308829198, 0.0160464271547, -0.0423343246711, -0.0504118093734, 0.0687498452381, -0.036237770159, 0.0815252626816, -0.00610579812689, 0.0270597741715, -0.0643559646679, -0.0748355947845, -0.00829135450707, -0.0185571088227, -0.0323092552486, 0.0653051867415, -0.0437386396572, 0.0477653085184, -0.0477140504726, 0.0516422141497, -0.0820954194561, 0.0773694180556, -0.00788235079102, 0.0486630520799, 0.0205756915549, 0.0190260186166, -0.0316812604139, 0.108350637204, -0.0484142298454, 0.0139680137974, -0.00252008206242, 0.0972551972249, 0.167338018486, -0.0646951474056, -0.0596698019029, 0.0804773563086, -0.0196275327734, -0.0567219176499, 0.0483010595831, 0.0170773629894, -0.0903927475836, 0.00935538744025, 0.159246818246, 0.111548587505, 0.111822606148, 0.0376236153511, 0.107301181206, -0.11812660902, 0.037847458804, -0.0216231232184, -0.0468473861876, -0.106485756567, -0.0416869571298, 0.103833679765, -0.0584743343766, 0.12430107918, 0.031621044488, -0.101134002201, 0.0765798796565, -0.0539969371857, 0.0298994354086, -0.0255687730484, -0.0246858249337, -0.0204528673193, 0.0133993830511, 0.050586915651, 0.0687473437505, 0.0305304441653, -0.0330733470291, 0.0166634583999, 0.0792266406457, -0.00076065566059, 0.019558606118, -0.0304715139967, 0.0800124156667, -0.0222247975676, -0.161920169368, -0.042461271237, -0.0430819429684, -0.107768013598, -0.113480865342, 0.0527848027557, -0.114231883237, -0.052497082685, -0.0440387442638, 0.0625688158142, -0.14791442112, -0.0156844709055, -0.0381954396214, 0.00281193033455, -0.0479123317096, 0.0299677043691, -0.0548075180026, -0.176980040646, 0.0184320741519, 0.0245535779998, 0.0855834114628, 0.060749608, -0.0273541908524, 0.00189701876265, 0.0909301536856, 0.125463813525, 0.0610528913716, -0.0211603572999, 0.0364876489181, -0.0240242348719, 0.116629558019, 0.0267228133566, 0.118338061343, -0.10065200859, -0.108149239985, -0.121632990327, -0.05476814843, -0.0317467015027, 0.0909723778719, -0.0458563564011, 0.0508389152787, -0.123021994926, 0.109941117536, 0.10473936298, -0.0717316877516, -0.0967115821187, 0.0374933648666, 0.0134930401898, -0.0528027516433, 0.0212523230059, 0.00734162703869, 0.0299792367544, -0.0890727773705, -0.0848044085853, 0.000199824779131, -0.0390568971972, -0.0155799102276, -0.0710843281391, 0.0310815382116, 0.0734453664344, -0.0672171140716, -0.0249536629803, 0.00619878920698, -0.185102687472, 0.120563749633, 0.016847114416, -0.0935792930243, -0.0933456422717, 0.0224253694167, -0.128099384431, -0.0833372239251, -0.0438106774744, -0.0376203126728, -0.0552983855053, -0.0504844720544, -0.00314646598046, -0.0593273340022, -0.0127866503429, -0.0510117288587, -0.0478604925093, 0.0338511514515, -0.0303178793744, 0.0335388937369, 0.149592099112, 0.00513605590257, -0.0611399733899, -0.0138327208291, 0.0112208651899, -0.0361260034334, -0.0454539683611, -0.0234666920864, 0.113025034845, -0.126737211938, 0.00564183836644, 0.0122022924819, -0.0822247526447, -0.0544216083139, 0.0782874084972, 0.06512920953, -0.0194138873072, -0.0306243661002, 0.00293237511981, -0.195883642512, -0.0368934145062, 0.0474121602691, -0.0132843283412, -0.0524790076843, 0.0446048778456, 0.0709229168896, 0.0172477543026, 0.0876489224607, -0.0318016989348, -0.0608819881189, 0.0117450322951, -0.0831697483812, -0.0701529868592, -0.00848593794623, 0.0426911190082, -0.125998899117, -0.119192692946, -0.0521742495892, -0.0076358197239, -0.0204353116442, 0.0234586666699, -0.0915331829414, -0.0503098188148, 0.115358632763, -0.09588887914, -0.0362319833985, 0.0242854994732, 0.0190208972301, -0.0537373402256, 0.00943255471353, -0.007051351185, -0.0574737706738, -0.0292238868759, 0.0290888794919, 0.0116735907238, 0.0469937544933, -0.0595034481349, -0.175334687536, 0.0468263800429, 0.0518327853402, 0.0504808521114, -0.0704889812872, -0.00557087022751, -0.0772874962842, 0.0528062556037, 0.00438888335281, 0.0172401009813, -0.0972277541612, -0.0436270574924, -0.049402724012, 0.0175382651366, -0.0716014987129, 0.0282301772108, -0.0969566699663, -0.0551100673863, 0.00247689992656, -0.0165987438656, -0.0314811729866, -0.0809832982369, -0.0105760543025, -0.0621290665092, 0.0397765857288, 0.0517514865782, 0.0489040781417, 0.0158799764154, -0.0564779045427, 0.0598458432867, 0.0322771159263, -0.0628549101123, -0.0894532953939, -0.0123379919024, -0.127759833607, -0.100950195044, 0.0052203750528, 0.0500090044716, -0.0898730566527, 0.0390035464142, 0.104117667589, 0.0233736617924, -0.0613027474537, -0.0665826838045, -0.117559983041, 0.0154259011245, -0.0109323322521, -0.0807492054642, -0.0254219085877, -0.0222735058262, -0.0294582155136, -0.0844767783276, -0.0552033457208, -0.0070833660929, -0.07500930219, -0.073600136458, -0.0290306116847, -0.0676758059359, 0.0165815790421, -0.011605031019, -0.104290220119, -0.0459350198434, -0.0774282865587, 0.00179093790398, -0.0294154561286, -0.0676968642607, -0.076625705556, -0.00532913707653, -0.0688144894698, 0.0714725009461, 0.12106416693, -0.0871666218327, -0.104504789627, 0.022328900606, -0.00979398126077, -0.0604353129835, -0.0516998063512, 0.121094816917, -0.0402181118338, -0.00735768064588, 0.0921002936594, 0.00294298465561, 0.0941294390307, -0.061334757528, 0.00718547913645, -0.0431259902572, 0.00592924135107, -0.0285645256928, -0.0506867972367, 0.0924287221373, 0.100271069224, -0.139741402087, -0.0596681023365, 0.0900512273177, -0.0512288236169, 0.00405171085579, -0.0140053173224, -0.0420146669008, -0.0874904784839, 0.00113552025558, -0.0376318617986, -0.0484549152983, 0.0457272207366, 0.0250353324451, -0.0370639518619, -0.0202218016171, -0.045993461225, 0.0663190521346, 0.0458340547519, 0.00706964995649, 0.0220212900573, 0.00400113341325, -0.0390481735787, 0.0981648055519, 0.104167587627, -0.02700202242, 0.0825977622033, 0.0163377175898, -0.0230732791022, -0.0569888977845, -0.0283994241082, 0.0376496996645, 0.0385679157908, -0.0565225824274, -0.0860308333451, 0.149225204151, 0.0368730218281, 0.0215214520868, -0.0665121322627, -0.0455560773218, 0.0286297919408, -0.0175124750132, 0.0490695791067, 0.123120530184, 0.0196723211253, -0.0041239421308, 0.0140993162206, -0.117581689442, -0.0292968131316, -0.0742921100959, 0.0844700191913, -0.0252429986851, -0.0511833300919, 0.013708031401, 0.21967025721, -0.0825811192634, 0.046753298137, 0.0429118155323, -0.110117509824, 0.0328875579921, 0.103036560462, 0.0053772234727},
{0.0297665589375, 0.0384335492681, -0.00973637621385, -0.1230972765, -0.0111101345794, 0.0405922332041, 0.0196592255752, -0.0135603595138, 0.0442329496091, -0.00841460913805, 0.0929224387256, 0.078763145787, 0.0708999429325, -0.128985640517, -0.000415341045846, -0.0326767768449, -0.0140101233825, -0.0274773947232, -0.0938083905284, 0.0646087295393, -0.0548092679915, -0.0401607719138, 0.0589106318655, 0.188143457644, -0.0975710575117, -0.063183262343, 0.0180883620845, 0.00423977857159, 0.0592968128858, 0.0602614574322, 0.0122798532543, -0.0142382029194, 0.00991908265138, -0.0569917535923, -0.0353817759468, -0.00095064322901, 0.115317138632, -0.0648278802987, 0.0254917050244, -0.0938458026393, -0.0502710064589, 0.082658706237, 0.0742093391223, -0.033042286434, -0.0547820817495, 0.0472286771634, -0.071081421018, -0.0322553505623, 0.013408633187, -0.0760013856111, -0.0902266877063, -0.232268182355, -0.0844956231052, 0.0346242120192, -0.0609785424218, 0.0904922254471, -0.0731694213354, 0.128508285989, 0.0285828719734, 0.111243558011, 0.11346386739, -0.130901472524, -0.0820618646436, -0.0882081994706, 0.100442047073, 0.0254088746654, 0.112181973471, -0.0195477817193, 0.0534101921252, 0.102479221879, -0.04800536078, -0.0691369336463, 0.0492701056064, -0.0164675367659, 0.0984134095326, 0.057445983117, 0.0459160147153, 0.0547097236051, 0.0941905863503, -0.0615875296528, 0.0572398942937, -0.0377111196362, 0.0225241179848, -0.0606344090004, -0.111508532897, -0.112554131969, 0.00632332732605, 0.0131346128529, 0.0711941153938, -0.0417967476007, 0.104393538401, 0.0373785843165, 0.0902873329524, 0.0134094387629, 0.0398631444844, -0.0404998466193, 0.023614471874, 0.064937542698, 0.161519283227, 0.0593811449693, -0.0772728622677, 0.0535179126809, -0.0635749714739, 0.100879506166, 0.0573969924108, -0.0490328000577, -0.029645064996, -0.0251162219931, 0.00611744636783, -0.0992444270588, 0.058644067264, -0.0852311825256, -0.0742724386926, 0.0354116956586, 0.0355941090615, -0.0352689519824, -0.0267793710981, -0.0462150623266, -0.178586091871, -0.0423344810578, -0.0987294851792, 0.0836931339217, 0.0466639086004, -0.138805453885, 0.125081357088, -0.00240804645896, -0.0946160924808, -0.0748040436688, -0.0502224742397, 0.137072267723, -0.0620167535015, -0.097756068964, 0.0278186912132, 0.0735265708846, -0.0612983517638, 0.0588025344694, 0.0049310061657, 0.00676352204864, 0.00728066993516, -0.00337310463162, 0.0439994565524, -0.00372061826665, 0.0584324476015, 0.0916837280247, 0.162724142848, -0.0607211218759, -0.0671894104473, -0.0144030887136, 0.047012284821, -0.0590198188202, 0.072267946424, 0.0452963615354, 0.0280251532119, -0.0806099756547, -0.0252989123417, -0.0861286993008, 0.0695831313398, -0.0270735834584, -0.19975596901, 0.141756791052, 0.0418229363788, -0.0532242444684, 0.0161750001023, -0.0658854925738, -0.00364733247111, -0.0292204338637, 0.0838944580786, 0.0943985747168, 0.0407617592468, -0.0019101876481, -0.096583158543, -0.0271511658968, 0.0511717866086, 0.0395851951583, 0.100500999649, -0.038647971519, -0.0779538062608, -0.0420094981885, 0.0431179317421, 0.0134920253218, -0.00641980546754, -0.088739358135, -0.101255539692, -0.0162459966999, -0.0182381996896, 0.0552505947605, 0.0690372219304, -0.0420705960185, -0.0285773673087, 0.00845428992649, 0.149889806459, -0.0134101121816, 0.0367541857645, 0.0839020605753, 0.133030151992, 0.0524613421953, 0.0189250867185, 0.0537694429241, -0.0201976931037, -0.00209053471268, -0.0140586376903, 0.0774231443566, -0.000396515535289, -0.0792510219344, 0.0756237227282, 0.0149342828158, 0.0469755748787, 0.0242562608533, -0.0301965745831, -0.044162953682, -0.0843175567303, -0.0908917741519, -0.0256534486622, -0.0964705030973, 0.0298546582946, -0.0367147354294, 0.0199769040064, -0.0562862966984, -0.0618301691458, -0.0119377249767, 0.0232256824449, 0.0876163085313, -0.122538976176, -0.125009379986, -0.0210636614595, -0.0240322680808, 0.059934616782, -0.0389533155462, -0.0762479319072, 0.149657109615, -0.0278897177588, -0.0564551931062, -0.0183687477009, 0.00696687947568, -0.0192781019621, -0.0157182113466, 0.0367125962537, -0.000483337231652, -0.0980855049605, 0.0416915675815, -0.132518905324, -0.0135940015629, -0.0545266237036, 0.0969625115292, -0.0680188166489, 0.0868140662699, -0.00628172746207, 0.0909553698286, -0.0762346706042, -0.153016754979, -0.0217201225247, 0.0437939439788, -0.0608701975673, 0.0659533144051, 0.00780816589144, -0.0952024309458, -0.239079563129, 0.111179775195, 0.0149150075452, 0.0894894153068, -0.0772737134845, 0.133118304647, 0.020423931261, -0.0637053191695, -0.0238438996462, 0.0472382731522, 0.0723750113775, -0.0290259385087, -0.0707171839132, -0.103665042887, 0.00489413205653, -0.0385184280801, -0.0552737661659, -0.0222615574829, -0.00582142059896, -0.226867101343, -0.0905163083545, 0.0568023044083, -0.0439547876637, 0.0802520828927, -0.0189025298768, -0.0183846968523, -0.000657728251124, -0.0165194943743, 0.0178693089387, -0.0581302893626, -0.147266525877, -0.0430642112032, 0.0729778670045, -0.0208557566755, -0.184763585356, -0.0272034008233, 0.00881546958596, 0.115987910305, 0.0118243011719, 0.074824700874, 0.00490963604149, -0.0218237315814, -0.0738553467274, -0.00559087293739, -0.0653682592684, 0.0618397251245, -0.0587407671395, -0.00337005392392, 0.00341780480093, -0.0279746974185, -0.0417662627315, -0.120087277697, -0.0169761615808, 0.099466191376, 0.0191104290272, -0.0347757967741, 0.157662308852, 0.00922498516846, -0.0529845557748, 0.122193964996, 0.0478501663235, 0.207488846332, -0.00215321549982, -0.046720024631, 0.0266316043058, 0.00812402105639, 0.196503130096, 0.0682469087129, 0.0339906624163, 0.139041965347, -0.0823786177986, -0.0195434350511, -0.00218590774589, 0.0764562731394, 0.0528335178193, 0.0116263683891, 0.0477811863271, 0.0028354600935, -0.0112354407147, -0.0168198577545, -0.0315535650086, 0.0228080826282, -0.00189840042475, 0.0889329872757, 0.0563512957294, -0.0276333139684, -0.124914112057, 0.116801843171, 0.050174493879, 0.00447806425869, -0.00396906193248, -0.0465774687817, 0.0394108940844, 0.0811866635587, -0.0863570487404, 0.155859551134, -0.0526850794862, -0.13972156882, 0.10403067787, -0.0984745164621, 0.00317992127817, 0.0632415777422, 0.0627724686227, 0.0451013212574, -0.0508493358721, -0.0282928515318, -0.0317973210685, 0.102899214553, 0.0651617211279, -0.0710370029326, -0.0130204168647, 0.000132805638961, 0.0275952169197, 0.0413092519678, 0.0776667696143, -0.113449381448, 0.0270613803084, -0.0117178990966, 0.0253730509138, -0.0411087104676, 0.021276599219, 0.0155836889601, 0.0270534907706, 0.0833317638798, 0.0180099624886, 0.12669993607, -0.0641883230027, 0.120483048304, 0.0404205170505, 0.0875179378038, -0.00101829659021, 0.0288949511754, 0.106617857226, -0.0535641027939, -0.0723811758236, 0.00709921418698, 0.0414116799302, 0.0922551854144, 0.0162524532555, -0.0799187854918, 0.0903416688096, 0.0154217675739, 0.0459303758282, -0.100118177954, -0.0665561458729, -0.0471861767992, -0.0681938086959, -0.0153606317959, -0.0125362212705, 0.078415594699, -0.0995491548005, 0.0111744694024, 0.134590356819, 0.111175876543, -0.138824217815, 0.0995636947667, 0.139462438941, 0.00405739289432, -0.0929317178076, 0.113148188574, 0.0353954194751, 0.0393259027368, -0.104671834972, 0.083929233414, -0.0398874140055, 0.0305061379924, -0.0131235624181, -0.0124640434369, -0.111234508088, -0.0236942945488, -0.055406986892, -0.025648396083, 0.0302172431767, 0.0719001246883, -0.0262311199432, 0.035020723634, -0.0950627206312, 0.122073907671, 0.0450087367209, -0.0615435651467, -0.0644140903102, -0.0706251431715, 0.086166006051, -0.0261536689254, 0.0465086848435, -0.0473388762844, -0.0122335733481, 0.0665357719803, 0.0820071751001, 0.0066023665469, -0.0372782368838, -0.121171012675, 0.157703977004, 0.159481506597, -0.00689251391471, -0.000723159150727, -0.0817207947185, -0.0386808762894, 0.110650325115, -0.0617901120096, -0.0262799932156, -0.0334754595882, 0.058426970644, 0.0847372394087, -0.116376583857, -0.083988372457, -0.108266151043, 0.0557710005297, -0.165460773879, 0.0653376141967, 0.00937056941464, -0.055443181638, -0.0627701173464, 0.183981605944, -0.00609783281421, 0.0262424964322, -0.103078297317, 0.0744820079213, -0.0604943137108, -0.0129497361054, 0.0137779465934, -0.0150940768571, 0.0608352008193, -0.0568048169264, 0.0499836202848, -0.126430020327, 0.0338940843516, -0.00188886281997, 0.0534918725894, 0.0599342053504, 0.0465906889289, 0.0231076856762, -0.0190773873034, -0.0887298026076, 0.0887759549768, 0.0827252413693, 0.0384962049763, 0.0566254216943, 0.0504078466026, -0.0150859553638, -0.213958841901, -0.0186841554865, -0.0183073534503, 0.0204203241967},
{0.0496441297599, 0.093164167888, 0.0474575413482, -0.00972547574204, 0.0527608217384, -0.0698513373053, 0.0863838687693, 0.0954527680706, -0.0321988238748, 0.00382253297624, -0.00876615950999, -0.0849220948466, -0.0207579131411, -0.0694129374237, 0.112449263179, 0.0637497944737, -0.0468406140228, 0.0311623537553, 0.116400721933, 0.170887370012, 0.177219585219, -0.0703322817119, -0.0101837770489, -0.120418609405, -0.0913520831091, -0.0856628253085, -0.128867171076, -0.0511316785672, 0.110812856247, 0.134070739171, -0.0653433164753, -0.0303391782569, -0.121125738559, -0.039803639292, -0.0287863153778, -0.230947156397, 0.0218081375483, 0.0326936927401, 0.00794872876933, 0.0339666757269, -0.12514700496, 0.0339254491127, -0.0311433559398, 0.0716323775605, -0.0813524914146, 0.0672756812418, 0.0876680159517, -0.0148799552928, -0.114270227954, 0.100773042674, -0.164653282347, 0.0135028437186, 0.0266725782523, -0.0706271683973, 0.0700878833564, -0.0126507723193, -0.100594270791, 0.124934228691, -0.0509472337391, -0.0977296039092, -0.0478753515669, -0.109043295875, 0.0931810156866, -0.108859704753, -0.0592155412408, -0.101796848805, 0.1104314905, 0.0221217718502, -0.020843352866, 0.115033309713, -0.0450415371499, 0.115541448466, 0.150070321695, 0.017019759163, -0.00941255537166, -0.00661027438033, -0.0801282299767, -0.00170931735798, 0.150017230403, 0.035153244736, -0.196406738883, -0.016945117831, 0.0776423216164, -0.0824330039158, 0.103818212377, -0.0818212303522, 0.0480855698029, 0.0834947043797, 0.0919938447495, 0.11052793963, 0.0558527837748, -0.00668180652796, 0.0468793554498, 0.0281768640761, -0.0517846474195, 0.0479806054508, -0.160460564831, -0.0227122976303, 0.0361020511277, 0.0326692718112, -0.0314766362222, -0.0525201180911, -0.0105971247195, 0.0721484111673, 0.148303491919, 0.142049566803, -0.0757736934008, -0.0136961790191, 0.00958222359266, 0.0428923374805, 0.0687736706912, 0.046082211264, -0.0682308667607, -0.050970311088, 0.15662931074, 0.0328468402943, 0.0045567241982, -0.0246639505232, 0.0112216668783, 0.0763891409792, 0.00453162353531, -0.0673796899418, -0.00718390071112, 0.104710312063, 0.0612632060256, 0.0387664774146, -0.0992199153422, 0.0804755185846, 0.0540453083755, 0.141764929999, -0.16053342828, -0.066233250724, 0.0162984433102, 0.0325692662754, 0.0296894286811, -0.112763834045, 0.0444765883056, 0.0367807845693, -0.0189827275286, 0.0477394580427, 0.0580053085527, 0.109927289591, -0.0294477417558, -0.191879003535, 0.137631330724, 0.0321857101707, 0.031913781623, 0.0739752880021, -0.0486300960107, -0.0520228676352, 0.0130207123914, -0.0627644800438, 0.0525509798062, 0.0397261316664, -0.0220531261421, 0.0196369506926, 0.00470880206569, 0.0978086128056, -0.00941595096987, -0.115149994171, 0.0871332041346, -0.0363893797341, -0.124018635897, 0.0702382469882, 0.0585247010107, 0.0645732214573, -0.100830302823, -0.157078360115, -0.0154954338847, -0.0874250760998, 0.00883946603543, 0.0281334433274, 0.0155189017649, -0.0750988142043, 0.0128125843822, -0.0821680737504, -0.0206026846806, -0.0884031521184, -0.00323894230056, 0.0579667017107, 0.0173560898174, -0.0183832091195, -0.0367948367359, 0.0158503529809, 0.0600439317619, -0.0218936004157, -0.00871053461833, 0.144888847273, -0.103222478335, -0.0252050249992, -0.0359888400906, -0.148789615335, -0.125769981606, -0.101516118572, -0.0649745584352, -0.0111042050021, 0.0500368135754, -0.0179976821039, -0.104603896365, -0.0886802543436, 0.0454345714808, -0.0793710874141, 0.06906959481, -0.00515167799754, -0.019602901631, -0.094061533416, -0.044343285756, -0.0926332480421, -0.133481292201, 0.0937480751354, 0.0996253723191, -0.126754499004, -0.0250957146372, -0.140019554475, 0.011830384761, 0.0669574812847, 0.0806468877413, -0.074296153974, 0.0141628336734, -0.08722497459, -0.112926173142, -0.144702676792, -0.0680568461789, -0.00954301824791, -0.0133612406158, -0.179021105312, -0.071941271211, 0.0546338677114, 0.113361456554, 0.0206039084382, 0.027484783673, -0.0238864720177, 0.0349404464985, 0.0370132871669, 0.0900405352951, -0.0553677014142, 0.0078053197785, 0.0745905693884, 0.0469260668705, 0.104123079828, -0.0317878259161, 0.0615358326626, 0.0173355408351, -0.151304137969, -0.0586108864446, -0.0566322479921, 0.0325411108617, -0.150848485657, -0.00652786426442, -0.0148622072741, 0.019786818159, 0.0599555346149, -0.0738271761432, 0.00951253898529, -0.061729850434, -0.0313829220943, -0.0816110379341, -0.0423785517792, -0.0985155056955, -0.0479217434645, 0.0125124974423, 0.0271011914829, 0.06417479742, -0.13807294268, 0.0566858454134, 0.0192727042777, 0.033617517443, 0.0303631024959, -0.0409504569967, -0.0229556324124, 0.0712208794281, -0.0957774951066, 0.0398606214881, 0.0806703476909, -0.102681111138, 0.0514286339972, -0.065887914812, -0.174861442748, -0.0860374759236, 0.0131388211074, -0.009403298169, -0.221682835698, -0.0252278124849, -0.0571473195271, 0.0622869808399, -0.047573418129, -0.117997548422, -0.0119260770199, 0.119711136126, -0.117044919978, -0.0214839795615, -0.00846190509927, 0.0142915080183, -0.030762682244, 0.0442397516496, 0.00800362262779, -0.012040138602, -0.142283412128, -0.0691589526639, -0.061452015815, 0.0495412898681, 0.0127599638503, -0.0199814661452, 0.0324496479984, 0.0307535958745, 0.00654811246266, 0.102245689592, -0.151792209849, 0.00977576439543, 0.175693951286, 0.0386534884595, 0.0386976423375, -0.106413130641, 0.0344069179655, 0.0778163547727, -0.0327580094841, 0.043889005752, -0.0618289480066, 0.00507269505073, 0.0897400774568, -0.0431215814867, -0.00561728999772, -0.121418473246, -0.102641757896, 0.0305840841085, 0.0991532950898, 0.0554572923058, -0.0993553791647, 0.0465727244933, -0.11127168518, 0.164201274076, -0.101096916012, 0.0795614723307, -0.0836918433845, 0.137244815891, -0.0127594025887, -0.0259934301623, 0.0361026601413, 0.00346293051787, 0.0913446992131, -0.0343905457559, 0.232250547627, -0.0431245674854, 0.0941420984632, 0.160615493485, 0.0485281562075, -0.0930430647928, 0.0142575813217, 0.0767502944646, -0.0485474937806, -0.075355697769, -0.00922535960577, 0.050031537263, 0.0480071996126, -0.0117125347834, 0.0188927808388, 0.0824845620921, 0.041227991081, -0.0537336575714, 0.109089275142, 0.059119276425, 0.00189762511167, -0.0389021163373, -0.10107464298, -0.0854433503045, -0.036617345102, 0.0237623512051, -0.0850004998745, 0.00273546811282, 0.0341467516873, -0.117800440761, -0.0251787669189, 0.00541600491409, 0.0498854818278, -0.0922473265854, 0.119123280407, 0.0193381601415, 0.114122562111, -0.0334266452181, -0.0586332973412, -0.0712877820398, -0.0381822456751, -0.05455377157, -0.0684865024577, 0.0206997231012, -0.0792916350559, -0.0556041825533, -0.0257885713965, 0.123401211088, -0.0511165537259, -0.0772296779229, 0.0261626794831, -0.076681947085, 0.031249365742, 0.0259055200893, 0.0296695299368, 0.0159648962257, -0.0239230796969, -0.120476967644, -0.0448587309029, 0.0305927558753, 0.00244890109328, -0.024115873815, 0.0412936390567, -0.0368033962124, -0.0532671149314, -0.0589203502752, -0.0730184778228, 0.134336480474, -0.13414393892, -0.0126336807563, 0.0717465298493, -0.0229167992222, -0.0672781418117, -0.17537623818, -0.127328715042, -0.091202934532, 0.00315516080732, 0.0915225184667, -0.00637476342094, -0.184633763913, 0.100820729959, 0.136687858282, -0.059517669704, 0.126461093159, 0.0757277884505, -0.0200384233689, -0.0438562675745, -0.022836185461, 0.103404433079, 0.0728620169528, -0.0913228153919, 0.0232985374968, 0.0649115281303, -0.0303871438999, 0.0275248704014, 0.00445823675639, -0.0685512428135, 0.0319766990083, 0.0996773092755, 0.136493364786, 0.121404697452, 0.100345352391, -0.133117018693, 0.0397227906123, 0.00644836884211, -0.0995689117809, -0.0540820381994, -0.0117603626669, -0.031476846159, -0.00775806494221, -0.0187810160203, 0.0567421591722, 0.0553421059041, 0.0593506641546, -0.0498850385005, -0.0137802341206, 0.00808518473531, 0.0343051258909, -0.113505588102, -0.158464064122, -0.0617177706267, -0.196855207232, -0.0585318339914, 0.0902917738471, -0.0508969889464, -0.127303779582, -0.0357358155972, -0.0839399582212, -0.0468033507575, 7.42110269292e-05, 0.0175129402448, -0.0740555313412, -0.0362962051905, -0.0466340087278, -0.0126471690229, -0.139161340717, 2.77147715174e-05, -0.00589739587775, 0.0298735226091, 0.100344124228, 0.139676516524, -0.0922902622222, -0.0566074609028, -0.0193594816417, -0.0786188471567, -0.0226577789451, 0.105314847943, -0.0767268516793, 0.0629836628382, -0.0852753818316, -0.0172997598261, -0.069249338174, 0.0618874598782, 0.170340748323, 0.00723535413672, 0.0241115222293, -0.0369580181006, -0.0583263648722, 0.128144671937}
};

my_float outputBias[9] = {0.0041006092331, -0.106676615808, -0.0215531714992, -0.0328613153809, 
	0.000526757746345, -0.0359940994756, -0.082204036154, -0.07921029708, 0.214797408428};
my_float hidOut[500];
my_float tmp_arr[9];


int inf_kernel(my_float inf_input[500]) {
	int i, j;
	my_float tmp;
	for (i = 0; i < 500; ++i) {
		tmp = inf_input[i];
		if (tmp > 0) {
			hidOut[i] = tmp;
		} else {
			hidOut[i] = 0;
		}
	}

	my_float maxProb = 0.f;
	int res = 9;

	for (i = 0;i < 9;i++) {
		my_float sum = outputBias[i];
		for (j = 0;j < 500;j++) {
			tmp_arr[j] = outputWeights[i][j]*hidOut[j];
		}
		for (j = 0;j < 500;j++) {
			sum += tmp_arr[j];
		}
		if (sum > maxProb) {
			maxProb = sum;
			res = i;
		}

	}

	return res;
}
my_float input[500] = 
	{-3.19801, -2.2576, -0.88197, -2.57784, -0.42507, -4.97964, -3.43636, -3.43984, -4.23791, -3.6939, 2.39157, 5.19775, -7.37177, -1.71723, 1.6998, -3.27689, -1.31164, 0.29176, 6.14754, -0.23295, 0.42336, 1.63678, -2.4091, -1.81035, -4.58863, -4.38705, 6.48764, -0.04048, 0.30608, -0.74606, -8.20893, -0.93704, -0.22285, -0.74197, 0.71542, -10.19452, 8.23238, -4.07218, -0.08295, -1.11828, 2.90347, 0.40915, -0.36094, 2.38679, 4.75711, -3.28448, -3.30026, -4.93527, -1.42888, -1.44085, -5.63223, -2.0213, -1.06971, -9.9133, 1.91758, 0.5254, 1.28501, -1.34493, 0.33236, -3.0618, -3.01964, -0.38979, -6.25565, -6.81747, 2.50295, -3.81065, 3.10956, 4.9261, -7.32822, -0.32332, 4.91166, -2.82144, -5.77067, 2.21422, -1.50591, -3.96112, 5.093, -3.16232, 1.40335, 0.22253, -5.43024, 3.80126, -1.43428, -4.6908, -0.5827, 7.574, -2.08757, -1.40979, -1.82385, 2.14754, 1.27667, -0.05398, 3.19999, 1.35861, -2.00329, -7.08362, 1.02203, 0.8081, 3.45119, -2.73488, -0.20166, -3.71355, 4.25058, 3.62816, -2.55713, -1.02168, 0.3327, 0.4714, -1.61849, -2.86869, 0.33484, 0.40682, 1.8763, -2.7247, -1.82732, -0.65524, -0.56853, -0.60778, 0.87171, -3.21678, 2.62828, -4.84448, -5.03649, -5.23112, -6.72358, 0.81227, -4.07531, -2.61642, -0.05261, 7.13598, -5.84755, 6.12212, 1.3596, -0.91785, 2.43251, 4.20438, -0.37318, -5.38376, -1.05159, -3.83751, 1.32005, 0.7779, 1.07382, -8.23454, 5.5464, -2.01622, -2.10623, 0.28675, -3.5714, 1.18934, -1.10851, 2.466, 0.5511, -2.62852, 4.45959, -3.72259, -5.75261, 1.54714, 3.00739, 1.85397, -4.95604, -2.80597, -2.31845, -0.71933, 6.64556, 0.31845, -1.3134, -7.51014, -1.9753, -7.20591, 3.65826, -0.87473, -2.97809, 2.52475, -0.82653, -0.34193, 1.03337, 0.61234, 1.7036, -0.1765, 1.65845, 0.97958, -1.16134, 1.32797, -0.48398, 0.19169, -2.59811, -0.80353, -7.63875, -4.43822, 1.87768, 3.62073, -2.39373, -0.64386, -14.44173, 1.56705, -0.13098, 3.03891, -5.8758, 1.38521, 1.81378, -5.31442, -1.8982, 4.00729, -1.09616, 0.76291, -2.59179, -4.73564, -3.86617, -0.3549, -1.47188, -2.24271, -2.45196, 5.8856, -5.21648, -1.3676, -4.83457, -4.97392, 4.94178, 2.12787, -2.07121, 2.54066, 1.44382, 9.46238, -0.24552, -0.72522, 3.20037, -0.24692, -3.92395, -1.40437, -4.71043, -0.56551, -0.81959, 2.92657, -1.58241, -2.62735, -2.63352, -0.74447, 2.52843, -6.02787, 5.5981, -2.22305, 2.95115, -3.47025, -1.46821, -0.30163, -1.53516, -5.94772, 2.81371, -6.00671, 3.80167, -0.75966, 1.08157, -0.18269, -2.44083, -3.40274, 5.68784, -0.25115, -3.76548, 4.79377, 3.36421, 1.07501, 1.69684, 2.14486, -4.36907, -3.26475, -1.03788, 3.72265, 0.00821, 0.60054, -8.03328, -3.59618, -1.9, 2.80843, 0.49819, -6.19087, 1.02786, -5.87969, 1.01782, -5.54483, -3.55968, -6.80065, -6.76215, -6.34052, -3.28093, -0.5194, 8.84003, 4.85606, 0.20471, -7.02078, 4.8712, 1.63476, -1.74092, -5.55692, 0.94307, -0.64798, -0.87371, -6.784, -6.77385, -3.01887, 2.05712, -0.1448, -1.46315, -1.34593, 0.21476, 2.06837, 2.50747, 8.16893, -4.35457, 2.87278, -4.18051, 1.79311, -2.55011, -2.37774, -2.43391, 0.88985, -4.38396, -5.4573, 0.67083, 0.4299, -1.18879, -2.67767, -7.26346, -1.65498, -3.25972, -1.92863, -0.00933, 1.9093, 1.03443, -4.91751, -1.93023, -6.25538, 1.08131, -6.61565, -1.10263, -8.99382, -1.01807, -0.71775, -1.83462, 0.02073, 0.95944, -4.79574, 1.7335, -2.35839, -0.76529, 0.72765, 1.13956, -0.67776, -3.72029, -4.66613, -7.14876, -3.46736, 1.64933, -2.49163, 0.2405, -0.57045, -3.91628, -1.1977, -5.54195, -5.11204, 0.44766, -6.81749, -5.17629, 1.92915, -6.12932, 2.54489, 0.42741, -0.35089, 0.9153, -3.0385, -3.173, 4.92734, 3.24048, 0.3826, -0.57851, 4.80146, 1.0147, 0.77183, 3.03596, -2.46354, -3.52734, 2.2927, -0.79453, -2.66203, 0.11391, 0.82821, 4.09432, -1.12328, 2.6452, -4.11197, -2.17506, 2.53593, -5.54543, -1.65962, -3.09827, -1.82845, 4.94777, -4.02661, -2.06314, 1.11202, 3.30776, 1.45667, -12.76564, -0.13229, -5.5355, 1.41598, -9.70126, -2.95645, -1.97451, -3.05047, -4.82433, 3.70355, -0.46303, 0.31599, 3.45181, -4.77103, 1.85196, 0.35944, -3.62078, 3.46566, 8.50716, 1.38712, 2.76216, 2.31519, -9.42149, 3.29175, -1.29923, 1.00272, 5.13876, 3.98802, 1.18387, -3.45079, 6.14268, 2.69302, -2.70668, -1.92195, 0.39498, 1.93146, 0.13291, -0.01525, -1.32142, -1.56249, -3.10436, 2.03947, -1.30823, -0.59879, 2.92963, -1.06325, 0.93798, 0.34062, 1.28741, -1.24785, -3.56101, -0.64413, -0.23967, 4.48862, -4.02428, 3.02856, -3.57658, 5.77698, 0.34211, 2.87275, -2.44107, -3.85412, -1.77984, 1.20362, -2.32819, 4.22031, 1.23267, -2.26623, -1.18021, -2.97864, 1.98662, 6.5693, -1.62801, -1.50291, -15.35446, -2.81354, 2.58016, 3.48587, 0.61748, 7.4734, 1.6399, 0.81924, -0.92243, 3.22744, 1.67419, -4.06824, 0.47866, -2.98893, -1.4562, 5.30821, 4.71247, -4.56082, -9.2583, 1.38891, 4.03871, -4.72067, 2.01285, 1.86249};

int main() {
	
	int res = inf_kernel(input);
	printf("%d\n", res);
	
}